<?xml version="1.0"?>
<MethodSetup Method="MLP::MLPBFGS">
  <GeneralInfo>
    <Info name="TMVA Release" value="4.1.2 [262402]"/>
    <Info name="ROOT Release" value="5.32/04 [335876]"/>
    <Info name="Creator" value="lpernie"/>
    <Info name="Date" value="Fri Jul  1 14:04:27 2016"/>
    <Info name="Host" value="Linux login01.brazos.tamu.edu 2.6.32-431.23.3.el6.x86_64 #1 SMP Thu Jul 31 17:20:51 UTC 2014 x86_64 x86_64 x86_64 GNU/Linux"/>
    <Info name="Dir" value="/home/lpernie/Hhh/delphes/diHiggs/MVAs"/>
    <Info name="Training events" value="225041"/>
    <Info name="TrainingTime" value="1.09159182e+04"/>
    <Info name="AnalysisType" value="Classification"/>
  </GeneralInfo>
  <Options>
    <Option name="NCycles" modified="Yes">600</Option>
    <Option name="HiddenLayers" modified="Yes">N+5</Option>
    <Option name="NeuronType" modified="Yes">tanh</Option>
    <Option name="RandomSeed" modified="No">1</Option>
    <Option name="EstimatorType" modified="No">MSE</Option>
    <Option name="NeuronInputType" modified="No">sum</Option>
    <Option name="V" modified="Yes">False</Option>
    <Option name="VerbosityLevel" modified="No">Default</Option>
    <Option name="VarTransform" modified="Yes">N</Option>
    <Option name="H" modified="Yes">True</Option>
    <Option name="CreateMVAPdfs" modified="No">False</Option>
    <Option name="IgnoreNegWeightsInTraining" modified="No">False</Option>
    <Option name="TrainingMethod" modified="Yes">BFGS</Option>
    <Option name="LearningRate" modified="No">2.000000e-02</Option>
    <Option name="DecayRate" modified="No">1.000000e-02</Option>
    <Option name="TestRate" modified="Yes">5</Option>
    <Option name="EpochMonitoring" modified="No">False</Option>
    <Option name="Sampling" modified="No">1.000000e+00</Option>
    <Option name="SamplingEpoch" modified="No">1.000000e+00</Option>
    <Option name="SamplingImportance" modified="No">1.000000e+00</Option>
    <Option name="SamplingTraining" modified="No">True</Option>
    <Option name="SamplingTesting" modified="No">False</Option>
    <Option name="ResetStep" modified="No">50</Option>
    <Option name="Tau" modified="No">3.000000e+00</Option>
    <Option name="BPMode" modified="No">sequential</Option>
    <Option name="BatchSize" modified="No">-1</Option>
    <Option name="ConvergenceImprove" modified="No">1.000000e-30</Option>
    <Option name="ConvergenceTests" modified="No">-1</Option>
    <Option name="UseRegulator" modified="Yes">False</Option>
    <Option name="UpdateLimit" modified="No">10000</Option>
    <Option name="CalculateErrors" modified="No">False</Option>
    <Option name="WeightRange" modified="No">1.000000e+00</Option>
  </Options>
  <Variables NVar="11">
    <Variable VarIndex="0" Expression="dR_l1l2" Label="dR_l1l2" Title="dR_l1l2" Unit="" Internal="dR_l1l2" Type="F" Min="7.04614148e-02" Max="3.29992628e+00"/>
    <Variable VarIndex="1" Expression="dR_b1b2" Label="dR_b1b2" Title="dR_b1b2" Unit="" Internal="dR_b1b2" Type="F" Min="3.76956880e-01" Max="4.99822092e+00"/>
    <Variable VarIndex="2" Expression="dR_bl" Label="dR_bl" Title="dR_bl" Unit="" Internal="dR_bl" Type="F" Min="4.00014162e-01" Max="4.98875952e+00"/>
    <Variable VarIndex="3" Expression="dR_l1l2b1b2" Label="dR_l1l2b1b2" Title="dR_l1l2b1b2" Unit="" Internal="dR_l1l2b1b2" Type="F" Min="7.60744186e-03" Max="5.99096441e+00"/>
    <Variable VarIndex="4" Expression="MINdR_bl" Label="MINdR_bl" Title="MINdR_bl" Unit="" Internal="MINdR_bl" Type="F" Min="4.00001377e-01" Max="3.19991016e+00"/>
    <Variable VarIndex="5" Expression="dphi_l1l2b1b2" Label="dphi_l1l2b1b2" Title="dphi_l1l2b1b2" Unit="" Internal="dphi_l1l2b1b2" Type="F" Min="1.38563655e-05" Max="3.14158869e+00"/>
    <Variable VarIndex="6" Expression="mass_l1l2" Label="mass_l1l2" Title="mass_l1l2" Unit="" Internal="mass_l1l2" Type="F" Min="5.00042486e+00" Max="9.99996948e+01"/>
    <Variable VarIndex="7" Expression="mass_b1b2" Label="mass_b1b2" Title="mass_b1b2" Unit="" Internal="mass_b1b2" Type="F" Min="2.20005798e+01" Max="6.99396729e+02"/>
    <Variable VarIndex="8" Expression="mass_trans" Label="mass_trans" Title="mass_trans" Unit="" Internal="mass_trans" Type="F" Min="0.00000000e+00" Max="2.49994110e+02"/>
    <Variable VarIndex="9" Expression="MT2" Label="MT2" Title="MT2" Unit="" Internal="MT2" Type="F" Min="2.46344547e+01" Max="3.99945435e+02"/>
    <Variable VarIndex="10" Expression="pt_b1b2" Label="pt_b1b2" Title="pt_b1b2" Unit="" Internal="pt_b1b2" Type="F" Min="1.50757179e-01" Max="2.99987793e+02"/>
  </Variables>
  <Spectators NSpec="0"/>
  <Classes NClass="2">
    <Class Name="Signal" Index="0"/>
    <Class Name="Background" Index="1"/>
  </Classes>
  <Transformations NTransformations="1">
    <Transform Name="Normalize">
      <Selection>
        <Input NInputs="11">
          <Input Type="Variable" Label="dR_l1l2" Expression="dR_l1l2"/>
          <Input Type="Variable" Label="dR_b1b2" Expression="dR_b1b2"/>
          <Input Type="Variable" Label="dR_bl" Expression="dR_bl"/>
          <Input Type="Variable" Label="dR_l1l2b1b2" Expression="dR_l1l2b1b2"/>
          <Input Type="Variable" Label="MINdR_bl" Expression="MINdR_bl"/>
          <Input Type="Variable" Label="dphi_l1l2b1b2" Expression="dphi_l1l2b1b2"/>
          <Input Type="Variable" Label="mass_l1l2" Expression="mass_l1l2"/>
          <Input Type="Variable" Label="mass_b1b2" Expression="mass_b1b2"/>
          <Input Type="Variable" Label="mass_trans" Expression="mass_trans"/>
          <Input Type="Variable" Label="MT2" Expression="MT2"/>
          <Input Type="Variable" Label="pt_b1b2" Expression="pt_b1b2"/>
        </Input>
        <Output NOutputs="11">
          <Output Type="Variable" Label="dR_l1l2" Expression="dR_l1l2"/>
          <Output Type="Variable" Label="dR_b1b2" Expression="dR_b1b2"/>
          <Output Type="Variable" Label="dR_bl" Expression="dR_bl"/>
          <Output Type="Variable" Label="dR_l1l2b1b2" Expression="dR_l1l2b1b2"/>
          <Output Type="Variable" Label="MINdR_bl" Expression="MINdR_bl"/>
          <Output Type="Variable" Label="dphi_l1l2b1b2" Expression="dphi_l1l2b1b2"/>
          <Output Type="Variable" Label="mass_l1l2" Expression="mass_l1l2"/>
          <Output Type="Variable" Label="mass_b1b2" Expression="mass_b1b2"/>
          <Output Type="Variable" Label="mass_trans" Expression="mass_trans"/>
          <Output Type="Variable" Label="MT2" Expression="MT2"/>
          <Output Type="Variable" Label="pt_b1b2" Expression="pt_b1b2"/>
        </Output>
      </Selection>
      <Class ClassIndex="0">
        <Ranges>
          <Range Index="0" Min="7.0461414754390717e-02" Max="3.1871154308319092e+00"/>
          <Range Index="1" Min="3.7695688009262085e-01" Max="4.9982209205627441e+00"/>
          <Range Index="2" Min="5.3106850385665894e-01" Max="4.9800205230712891e+00"/>
          <Range Index="3" Min="8.5649704933166504e-01" Max="5.9899597167968750e+00"/>
          <Range Index="4" Min="4.0061199665069580e-01" Max="3.1998121738433838e+00"/>
          <Range Index="5" Min="3.5262817982584238e-03" Max="3.1415274143218994e+00"/>
          <Range Index="6" Min="5.0832605361938477e+00" Max="9.4873603820800781e+01"/>
          <Range Index="7" Min="2.2205059051513672e+01" Max="6.9584313964843750e+02"/>
          <Range Index="8" Min="0.0000000000000000e+00" Max="2.4880146789550781e+02"/>
          <Range Index="9" Min="4.4817237854003906e+01" Max="3.9994543457031250e+02"/>
          <Range Index="10" Min="3.6232767105102539e+00" Max="2.9998779296875000e+02"/>
        </Ranges>
      </Class>
      <Class ClassIndex="1">
        <Ranges>
          <Range Index="0" Min="7.0645935833454132e-02" Max="3.2999262809753418e+00"/>
          <Range Index="1" Min="3.8039448857307434e-01" Max="4.9973225593566895e+00"/>
          <Range Index="2" Min="4.0001416206359863e-01" Max="4.9887595176696777e+00"/>
          <Range Index="3" Min="7.6074418611824512e-03" Max="5.9909644126892090e+00"/>
          <Range Index="4" Min="4.0000137686729431e-01" Max="3.1999101638793945e+00"/>
          <Range Index="5" Min="1.3856365512765478e-05" Max="3.1415886878967285e+00"/>
          <Range Index="6" Min="5.0004248619079590e+00" Max="9.9999694824218750e+01"/>
          <Range Index="7" Min="2.2000579833984375e+01" Max="6.9939672851562500e+02"/>
          <Range Index="8" Min="0.0000000000000000e+00" Max="2.4999411010742188e+02"/>
          <Range Index="9" Min="2.4634454727172852e+01" Max="3.9981878662109375e+02"/>
          <Range Index="10" Min="1.5075717866420746e-01" Max="2.9996340942382812e+02"/>
        </Ranges>
      </Class>
      <Class ClassIndex="2">
        <Ranges>
          <Range Index="0" Min="7.0461414754390717e-02" Max="3.2999262809753418e+00"/>
          <Range Index="1" Min="3.7695688009262085e-01" Max="4.9982209205627441e+00"/>
          <Range Index="2" Min="4.0001416206359863e-01" Max="4.9887595176696777e+00"/>
          <Range Index="3" Min="7.6074418611824512e-03" Max="5.9909644126892090e+00"/>
          <Range Index="4" Min="4.0000137686729431e-01" Max="3.1999101638793945e+00"/>
          <Range Index="5" Min="1.3856365512765478e-05" Max="3.1415886878967285e+00"/>
          <Range Index="6" Min="5.0004248619079590e+00" Max="9.9999694824218750e+01"/>
          <Range Index="7" Min="2.2000579833984375e+01" Max="6.9939672851562500e+02"/>
          <Range Index="8" Min="0.0000000000000000e+00" Max="2.4999411010742188e+02"/>
          <Range Index="9" Min="2.4634454727172852e+01" Max="3.9994543457031250e+02"/>
          <Range Index="10" Min="1.5075717866420746e-01" Max="2.9998779296875000e+02"/>
        </Ranges>
      </Class>
    </Transform>
  </Transformations>
  <MVAPdfs/>
  <Weights>
    <Layout NLayers="3">
      <Layer Index="0" NNeurons="12">
        <Neuron NSynapses="16">
          -1.1708300193093098e-01 -1.4223715581627192e-01 1.3585365412342614e+00 1.6606866750058844e+00 -1.3653081628173251e+00 -1.3594442639028981e+00 2.1740022932015450e+00 1.6647809884995353e+00 -1.4382747830085798e+00 -1.2019966222875753e+00 -1.5678382138046845e+00 -8.2821036377128787e-01 -1.3515034266636607e+00 -3.0409160352984577e-01 -2.7925875639189995e-01 8.5840309931369330e-01 
        </Neuron>
        <Neuron NSynapses="16">
          -3.9868258540665003e-01 1.2412223402817186e+00 -2.9451706343164973e-02 1.4099971065547718e+00 -5.2353669915666334e-01 -6.5570377830840532e-01 -2.5021818199327246e+00 -1.0699095465947872e-01 -1.3419282786230338e+00 -6.1294518352691163e-01 1.4883271892114327e+00 -1.5108187292754200e+00 -1.8868648608688614e+00 2.8568585683144843e-01 4.2724005962496381e-01 1.4105489444987429e+00 
        </Neuron>
        <Neuron NSynapses="16">
          -1.5987177814605905e-01 1.7940974564734780e+00 1.9298611778959116e-01 -3.4009470014520937e-01 -1.3667150282023930e+00 2.0304243515693341e+00 4.2739800323743277e-02 8.6009506285816273e-01 1.1050416697857302e+00 9.3247761447546984e-01 1.8184446728122985e+00 5.3967791496459216e-01 -1.1115838126233274e-01 -1.4283440564194203e+00 7.8996227713638534e-01 5.2121137734447265e-02 
        </Neuron>
        <Neuron NSynapses="16">
          1.4599433364019849e+00 1.2725102832745367e+00 1.6002717077544990e+00 1.3648345434439599e+00 -1.4963542907874807e+00 1.3439913989304839e+00 8.7041387648263635e-01 -9.9210362170371247e-01 -1.3387348055271411e+00 -1.7430245745296056e+00 1.4241943114635669e+00 6.5077930130976724e-01 -1.2951036079626712e+00 2.3301130031976816e-01 4.7556322300034903e-01 5.4378639977206511e-01 
        </Neuron>
        <Neuron NSynapses="16">
          1.9448731791984020e+00 -1.2679284530569044e+00 -9.1017000998391023e-02 -1.1789821090284331e+00 8.4778840728646498e-01 -7.7390438058757249e-01 -7.3869548046370503e-01 -1.4602533158611390e+00 7.3820172081633462e-01 1.4637405687611020e+00 1.3580852178803193e+00 -4.0573419361878593e-01 -1.0232650708292339e+00 -1.8288664929769010e+00 -3.8681985066760288e-01 2.1380050345391460e-01 
        </Neuron>
        <Neuron NSynapses="16">
          1.7890029954755788e+00 -4.8267988138394036e-01 1.2096433331874334e+00 -7.7141602333612058e-01 -7.4667483547656865e-01 -2.5713146402702736e-01 -7.9438327833582045e-01 -1.1602509244615860e+00 -1.4856476005614045e+00 -1.3546117371306916e+00 -4.8106992850078434e-01 -7.0107468522635705e-02 2.0051156252870919e+00 -1.8404641072111161e+00 4.3403900616123342e-02 1.4017235246239570e+00 
        </Neuron>
        <Neuron NSynapses="16">
          -8.1149054555504063e-01 3.9751150709802097e-01 -9.2678216280770076e-01 3.4240167160263957e-02 -1.6859641716054670e+00 -1.7676322640428805e+00 3.6210100058225214e-01 1.7524260342963853e+00 -1.3525853964736199e+00 1.5814458959021993e+00 -9.1623048390188688e-01 -8.7884816304448543e-01 -2.5710133112489225e-01 3.0160692066555927e-01 -1.1797212051966250e+00 6.2261656221969575e-01 
        </Neuron>
        <Neuron NSynapses="16">
          3.0503983102648780e-01 -1.9996899846461647e+00 -1.5307658521964109e+00 1.8102779682111616e+00 3.8642780358749562e-01 -7.3768496773486891e-01 8.8782116654854235e+00 -1.2126574844731535e+00 -1.6413972250490445e+00 -8.8235864310994477e-02 -2.8239177770272134e-01 1.2982603212197399e+00 8.7500938040181075e-01 -1.2661629905246605e-01 -2.1091302423486220e+00 -1.0679397683242489e-01 
        </Neuron>
        <Neuron NSynapses="16">
          -1.6832652280841949e+00 -2.3712549870374072e-01 4.3839525592868250e-01 -1.8513857524090476e+00 4.5306428270310245e-01 -1.2224353477820815e+00 8.6054156045215391e-01 1.0179814570854515e+00 1.6202441838152681e+00 -1.4938512606654610e+00 4.8265283691752570e-01 1.0574850152097595e+00 1.8465387710242529e+00 4.2006496750567823e-01 -1.2327774712532640e+00 -7.6571846808613897e-02 
        </Neuron>
        <Neuron NSynapses="16">
          -1.5068374729257030e+00 3.7559148258541923e+00 7.5692958367224050e-01 -4.6424424811554721e-01 -1.3057496258518699e+00 1.8233144210318319e-01 -4.4627170989285112e+00 7.3586942347719586e-01 1.6993670873296414e+00 -1.1612965817629106e+00 -5.9247631835485082e-01 3.0502218413997451e-01 9.6292901195272895e-01 4.2325152970234692e-01 4.8870763180512586e+00 -1.5917228579995772e+00 
        </Neuron>
        <Neuron NSynapses="16">
          1.4557951709020427e+00 3.9113432394424852e-01 7.8049471413690341e-01 5.6601756240171008e-01 6.8318853656769973e-01 -5.1275577573430242e-01 -2.0717707131580689e+00 1.2262652696412475e+00 -7.8366467058103506e-01 -7.7233491624384842e-01 1.6449382561755976e+00 8.9622579439462224e-01 -3.2647714477409268e-01 1.2531420591057261e+00 3.2288589780882970e-01 -2.0252094102860672e+00 
        </Neuron>
        <Neuron NSynapses="16">
          5.5539050970928916e-01 -3.2673430079091430e+00 2.2580908292900764e-01 -1.6580287244794651e+00 -2.0695270023684618e+00 9.0870018395048691e-01 8.3070541076993738e+00 -1.5831985875407404e+00 -9.2237212165347873e-02 -3.4443057382380282e-01 1.0992714728625981e-01 1.9699616741162271e+00 -6.1243584166265108e-01 -3.3697591890923850e-01 -2.1795266666914657e+00 1.1937818844913461e+00 
        </Neuron>
      </Layer>
      <Layer Index="1" NNeurons="17">
        <Neuron NSynapses="1">
          -7.8294809229688704e-05 
        </Neuron>
        <Neuron NSynapses="1">
          -1.9318565243601132e-01 
        </Neuron>
        <Neuron NSynapses="1">
          -6.1933289198750074e-03 
        </Neuron>
        <Neuron NSynapses="1">
          6.1762945945058323e-05 
        </Neuron>
        <Neuron NSynapses="1">
          -7.0965503260959403e-03 
        </Neuron>
        <Neuron NSynapses="1">
          1.5288232932007522e-03 
        </Neuron>
        <Neuron NSynapses="1">
          -3.3914616318105356e-01 
        </Neuron>
        <Neuron NSynapses="1">
          -1.0371473358635605e-03 
        </Neuron>
        <Neuron NSynapses="1">
          1.0622327151702706e-03 
        </Neuron>
        <Neuron NSynapses="1">
          -2.8436646291446497e-03 
        </Neuron>
        <Neuron NSynapses="1">
          -2.6378607396163444e-03 
        </Neuron>
        <Neuron NSynapses="1">
          3.3953801087762564e-04 
        </Neuron>
        <Neuron NSynapses="1">
          -1.3699530679781098e-03 
        </Neuron>
        <Neuron NSynapses="1">
          -2.5218386677158628e-03 
        </Neuron>
        <Neuron NSynapses="1">
          1.6012037572140397e-01 
        </Neuron>
        <Neuron NSynapses="1">
          -7.2833818615434132e-03 
        </Neuron>
        <Neuron NSynapses="1">
          3.0538877469760123e-01 
        </Neuron>
      </Layer>
      <Layer Index="2" NNeurons="1">
        <Neuron NSynapses="0"/>
      </Layer>
    </Layout>
  </Weights>
</MethodSetup>
