<?xml version="1.0"?>
<MethodSetup Method="MLP::MLP">
  <GeneralInfo>
    <Info name="TMVA Release" value="4.1.2 [262402]"/>
    <Info name="ROOT Release" value="5.32/04 [335876]"/>
    <Info name="Creator" value="lpernie"/>
    <Info name="Date" value="Fri Jul  1 11:02:28 2016"/>
    <Info name="Host" value="Linux login01.brazos.tamu.edu 2.6.32-431.23.3.el6.x86_64 #1 SMP Thu Jul 31 17:20:51 UTC 2014 x86_64 x86_64 x86_64 GNU/Linux"/>
    <Info name="Dir" value="/home/lpernie/Hhh/delphes/diHiggs/MVAs"/>
    <Info name="Training events" value="225041"/>
    <Info name="TrainingTime" value="2.70391376e+03"/>
    <Info name="AnalysisType" value="Classification"/>
  </GeneralInfo>
  <Options>
    <Option name="NCycles" modified="Yes">600</Option>
    <Option name="HiddenLayers" modified="Yes">N+5</Option>
    <Option name="NeuronType" modified="Yes">tanh</Option>
    <Option name="RandomSeed" modified="No">1</Option>
    <Option name="EstimatorType" modified="No">MSE</Option>
    <Option name="NeuronInputType" modified="No">sum</Option>
    <Option name="V" modified="Yes">False</Option>
    <Option name="VerbosityLevel" modified="No">Default</Option>
    <Option name="VarTransform" modified="Yes">N</Option>
    <Option name="H" modified="Yes">True</Option>
    <Option name="CreateMVAPdfs" modified="No">False</Option>
    <Option name="IgnoreNegWeightsInTraining" modified="No">False</Option>
    <Option name="TrainingMethod" modified="No">BP</Option>
    <Option name="LearningRate" modified="No">2.000000e-02</Option>
    <Option name="DecayRate" modified="No">1.000000e-02</Option>
    <Option name="TestRate" modified="Yes">5</Option>
    <Option name="EpochMonitoring" modified="No">False</Option>
    <Option name="Sampling" modified="No">1.000000e+00</Option>
    <Option name="SamplingEpoch" modified="No">1.000000e+00</Option>
    <Option name="SamplingImportance" modified="No">1.000000e+00</Option>
    <Option name="SamplingTraining" modified="No">True</Option>
    <Option name="SamplingTesting" modified="No">False</Option>
    <Option name="ResetStep" modified="No">50</Option>
    <Option name="Tau" modified="No">3.000000e+00</Option>
    <Option name="BPMode" modified="No">sequential</Option>
    <Option name="BatchSize" modified="No">-1</Option>
    <Option name="ConvergenceImprove" modified="No">1.000000e-30</Option>
    <Option name="ConvergenceTests" modified="No">-1</Option>
    <Option name="UseRegulator" modified="Yes">False</Option>
    <Option name="UpdateLimit" modified="No">10000</Option>
    <Option name="CalculateErrors" modified="No">False</Option>
    <Option name="WeightRange" modified="No">1.000000e+00</Option>
  </Options>
  <Variables NVar="11">
    <Variable VarIndex="0" Expression="dR_l1l2" Label="dR_l1l2" Title="dR_l1l2" Unit="" Internal="dR_l1l2" Type="F" Min="7.04614148e-02" Max="3.29992628e+00"/>
    <Variable VarIndex="1" Expression="dR_b1b2" Label="dR_b1b2" Title="dR_b1b2" Unit="" Internal="dR_b1b2" Type="F" Min="3.76956880e-01" Max="4.99822092e+00"/>
    <Variable VarIndex="2" Expression="dR_bl" Label="dR_bl" Title="dR_bl" Unit="" Internal="dR_bl" Type="F" Min="4.00014162e-01" Max="4.98875952e+00"/>
    <Variable VarIndex="3" Expression="dR_l1l2b1b2" Label="dR_l1l2b1b2" Title="dR_l1l2b1b2" Unit="" Internal="dR_l1l2b1b2" Type="F" Min="7.60744186e-03" Max="5.99096441e+00"/>
    <Variable VarIndex="4" Expression="MINdR_bl" Label="MINdR_bl" Title="MINdR_bl" Unit="" Internal="MINdR_bl" Type="F" Min="4.00001377e-01" Max="3.19991016e+00"/>
    <Variable VarIndex="5" Expression="dphi_l1l2b1b2" Label="dphi_l1l2b1b2" Title="dphi_l1l2b1b2" Unit="" Internal="dphi_l1l2b1b2" Type="F" Min="1.38563655e-05" Max="3.14158869e+00"/>
    <Variable VarIndex="6" Expression="mass_l1l2" Label="mass_l1l2" Title="mass_l1l2" Unit="" Internal="mass_l1l2" Type="F" Min="5.00042486e+00" Max="9.99996948e+01"/>
    <Variable VarIndex="7" Expression="mass_b1b2" Label="mass_b1b2" Title="mass_b1b2" Unit="" Internal="mass_b1b2" Type="F" Min="2.20005798e+01" Max="6.99396729e+02"/>
    <Variable VarIndex="8" Expression="mass_trans" Label="mass_trans" Title="mass_trans" Unit="" Internal="mass_trans" Type="F" Min="0.00000000e+00" Max="2.49994110e+02"/>
    <Variable VarIndex="9" Expression="MT2" Label="MT2" Title="MT2" Unit="" Internal="MT2" Type="F" Min="2.46344547e+01" Max="3.99945435e+02"/>
    <Variable VarIndex="10" Expression="pt_b1b2" Label="pt_b1b2" Title="pt_b1b2" Unit="" Internal="pt_b1b2" Type="F" Min="1.50757179e-01" Max="2.99987793e+02"/>
  </Variables>
  <Spectators NSpec="0"/>
  <Classes NClass="2">
    <Class Name="Signal" Index="0"/>
    <Class Name="Background" Index="1"/>
  </Classes>
  <Transformations NTransformations="1">
    <Transform Name="Normalize">
      <Selection>
        <Input NInputs="11">
          <Input Type="Variable" Label="dR_l1l2" Expression="dR_l1l2"/>
          <Input Type="Variable" Label="dR_b1b2" Expression="dR_b1b2"/>
          <Input Type="Variable" Label="dR_bl" Expression="dR_bl"/>
          <Input Type="Variable" Label="dR_l1l2b1b2" Expression="dR_l1l2b1b2"/>
          <Input Type="Variable" Label="MINdR_bl" Expression="MINdR_bl"/>
          <Input Type="Variable" Label="dphi_l1l2b1b2" Expression="dphi_l1l2b1b2"/>
          <Input Type="Variable" Label="mass_l1l2" Expression="mass_l1l2"/>
          <Input Type="Variable" Label="mass_b1b2" Expression="mass_b1b2"/>
          <Input Type="Variable" Label="mass_trans" Expression="mass_trans"/>
          <Input Type="Variable" Label="MT2" Expression="MT2"/>
          <Input Type="Variable" Label="pt_b1b2" Expression="pt_b1b2"/>
        </Input>
        <Output NOutputs="11">
          <Output Type="Variable" Label="dR_l1l2" Expression="dR_l1l2"/>
          <Output Type="Variable" Label="dR_b1b2" Expression="dR_b1b2"/>
          <Output Type="Variable" Label="dR_bl" Expression="dR_bl"/>
          <Output Type="Variable" Label="dR_l1l2b1b2" Expression="dR_l1l2b1b2"/>
          <Output Type="Variable" Label="MINdR_bl" Expression="MINdR_bl"/>
          <Output Type="Variable" Label="dphi_l1l2b1b2" Expression="dphi_l1l2b1b2"/>
          <Output Type="Variable" Label="mass_l1l2" Expression="mass_l1l2"/>
          <Output Type="Variable" Label="mass_b1b2" Expression="mass_b1b2"/>
          <Output Type="Variable" Label="mass_trans" Expression="mass_trans"/>
          <Output Type="Variable" Label="MT2" Expression="MT2"/>
          <Output Type="Variable" Label="pt_b1b2" Expression="pt_b1b2"/>
        </Output>
      </Selection>
      <Class ClassIndex="0">
        <Ranges>
          <Range Index="0" Min="7.0461414754390717e-02" Max="3.1871154308319092e+00"/>
          <Range Index="1" Min="3.7695688009262085e-01" Max="4.9982209205627441e+00"/>
          <Range Index="2" Min="5.3106850385665894e-01" Max="4.9800205230712891e+00"/>
          <Range Index="3" Min="8.5649704933166504e-01" Max="5.9899597167968750e+00"/>
          <Range Index="4" Min="4.0061199665069580e-01" Max="3.1998121738433838e+00"/>
          <Range Index="5" Min="3.5262817982584238e-03" Max="3.1415274143218994e+00"/>
          <Range Index="6" Min="5.0832605361938477e+00" Max="9.4873603820800781e+01"/>
          <Range Index="7" Min="2.2205059051513672e+01" Max="6.9584313964843750e+02"/>
          <Range Index="8" Min="0.0000000000000000e+00" Max="2.4880146789550781e+02"/>
          <Range Index="9" Min="4.4817237854003906e+01" Max="3.9994543457031250e+02"/>
          <Range Index="10" Min="3.6232767105102539e+00" Max="2.9998779296875000e+02"/>
        </Ranges>
      </Class>
      <Class ClassIndex="1">
        <Ranges>
          <Range Index="0" Min="7.0645935833454132e-02" Max="3.2999262809753418e+00"/>
          <Range Index="1" Min="3.8039448857307434e-01" Max="4.9973225593566895e+00"/>
          <Range Index="2" Min="4.0001416206359863e-01" Max="4.9887595176696777e+00"/>
          <Range Index="3" Min="7.6074418611824512e-03" Max="5.9909644126892090e+00"/>
          <Range Index="4" Min="4.0000137686729431e-01" Max="3.1999101638793945e+00"/>
          <Range Index="5" Min="1.3856365512765478e-05" Max="3.1415886878967285e+00"/>
          <Range Index="6" Min="5.0004248619079590e+00" Max="9.9999694824218750e+01"/>
          <Range Index="7" Min="2.2000579833984375e+01" Max="6.9939672851562500e+02"/>
          <Range Index="8" Min="0.0000000000000000e+00" Max="2.4999411010742188e+02"/>
          <Range Index="9" Min="2.4634454727172852e+01" Max="3.9981878662109375e+02"/>
          <Range Index="10" Min="1.5075717866420746e-01" Max="2.9996340942382812e+02"/>
        </Ranges>
      </Class>
      <Class ClassIndex="2">
        <Ranges>
          <Range Index="0" Min="7.0461414754390717e-02" Max="3.2999262809753418e+00"/>
          <Range Index="1" Min="3.7695688009262085e-01" Max="4.9982209205627441e+00"/>
          <Range Index="2" Min="4.0001416206359863e-01" Max="4.9887595176696777e+00"/>
          <Range Index="3" Min="7.6074418611824512e-03" Max="5.9909644126892090e+00"/>
          <Range Index="4" Min="4.0000137686729431e-01" Max="3.1999101638793945e+00"/>
          <Range Index="5" Min="1.3856365512765478e-05" Max="3.1415886878967285e+00"/>
          <Range Index="6" Min="5.0004248619079590e+00" Max="9.9999694824218750e+01"/>
          <Range Index="7" Min="2.2000579833984375e+01" Max="6.9939672851562500e+02"/>
          <Range Index="8" Min="0.0000000000000000e+00" Max="2.4999411010742188e+02"/>
          <Range Index="9" Min="2.4634454727172852e+01" Max="3.9994543457031250e+02"/>
          <Range Index="10" Min="1.5075717866420746e-01" Max="2.9998779296875000e+02"/>
        </Ranges>
      </Class>
    </Transform>
  </Transformations>
  <MVAPdfs/>
  <Weights>
    <Layout NLayers="3">
      <Layer Index="0" NNeurons="12">
        <Neuron NSynapses="16">
          -5.6714281529294530e-01 -6.4797377720962251e-02 -5.7658847615150677e-01 1.2435591980775207e+00 -1.5483495496097175e+00 -6.1252931773647912e-01 2.2216757387860282e+00 9.4115963800884905e-01 -7.8297539914716874e-01 -1.0936323287923158e+00 -1.0287908289255707e+00 1.9444367155909711e-01 -6.2782532656185253e-01 -5.1959297913793800e-01 3.4390465574964219e-01 1.0428141149135717e-01 
        </Neuron>
        <Neuron NSynapses="16">
          -1.2515493271033036e+00 1.2951788129878012e+00 5.4347368136272001e-01 1.4118915569539459e+00 -4.2266286387812108e-01 -3.6772974922864121e-01 -4.3337182403204927e-01 -1.1983372505504424e-01 -6.7726951925487089e-01 -1.4466583774229116e-01 1.1017834683502881e+00 -6.3269199916992513e-01 -1.4607215956500672e+00 2.0082986246072639e-02 -4.0587363802025722e-01 1.3556850639828588e+00 
        </Neuron>
        <Neuron NSynapses="16">
          -5.7696969081431027e-01 5.6709664899735945e-01 8.6679127653887633e-01 -3.6405677777674797e-02 -1.0006218645652305e+00 1.3110499597168266e+00 -1.4136614258576452e-02 7.9430973481193490e-01 1.3778173683736967e+00 7.1770300182753088e-01 1.7356926499875756e+00 2.6252779257763059e-01 -1.2703931879279795e-01 -1.3470285077271800e+00 -1.4865914100171357e-03 -8.1855250131572366e-01 
        </Neuron>
        <Neuron NSynapses="16">
          9.0725325562929637e-01 6.3441848578842153e-01 6.9512677135080247e-01 1.5237164452110343e+00 -1.2688146026198823e+00 1.3587275046028908e+00 -6.4585117476392317e-01 -1.0522465600761992e+00 -8.8327803321510978e-01 -1.8233352648828600e+00 1.5043251463677947e+00 5.2654147805032847e-01 -1.3707007758217382e+00 3.1775451488225015e-01 1.3027491265821531e-01 -1.1871320252835832e-02 
        </Neuron>
        <Neuron NSynapses="16">
          1.4855605256892268e+00 -1.5954226963032889e-01 -1.1867002586130744e-01 -9.7843271578857460e-01 9.0341839938563406e-01 -2.0591375618526919e-02 -5.1223047065274296e-01 -1.6422436539402625e+00 9.2498045458635092e-01 3.1226981723393771e-01 1.1329244577517532e+00 -5.0280384576294379e-01 -1.1837961821301901e+00 -1.6282528663365508e+00 6.4754512567091982e-01 -6.2530548647502737e-01 
        </Neuron>
        <Neuron NSynapses="16">
          -1.9556868074412548e-01 -2.9342537429302280e-02 -2.4418379627327130e-01 -5.0400740017268475e-01 -3.6219002858766941e-01 -5.1564909507022538e-01 -7.1164782319932438e-02 3.1543443736257470e-01 -1.5229277220796804e+00 -9.7921927009882637e-01 -8.3076646416082434e-01 -4.2339300983490724e-01 1.3827903831771637e+00 -5.3331049513028406e-01 1.4746367053113807e-01 6.7916130332787006e-01 
        </Neuron>
        <Neuron NSynapses="16">
          -8.2245313686558941e-01 9.9254817526353872e-02 -7.9369762245866371e-01 -2.3044480167344003e-01 -1.1671510257934508e+00 -1.7980573142375369e+00 8.8726103274861051e-02 9.0120035643839602e-01 -7.7522974332456818e-01 1.4680375582989089e+00 -4.1399267916081356e-01 8.0039014159297830e-02 -2.0113987653977097e-01 4.5240440196576326e-01 -7.8193669124539100e-01 -1.8138671653064423e-01 
        </Neuron>
        <Neuron NSynapses="16">
          6.6806792040573304e-01 -1.4661631341473238e+00 -2.0094221546181177e+00 1.7886180326735954e+00 4.9712506312576094e-01 1.6400059423366056e-01 4.5174325677282559e+00 -2.6922256314130357e+00 -4.9576424469942754e-01 -4.0712701167897869e-01 -3.7247071539978213e-03 1.4707100011188758e+00 1.2751925591612856e+00 -1.1512001356614598e+00 1.1332441010252697e-01 4.4160532105985972e-02 
        </Neuron>
        <Neuron NSynapses="16">
          -5.9799285117104362e-01 -4.2575504336785730e-01 -1.0405743500517248e+00 -1.7264026648810171e+00 6.3024975072960843e-01 -3.6371944500210512e-01 6.0575352247772563e-01 3.2944702676592047e-01 1.3322661103438505e+00 -1.2148440154307405e+00 3.0745277589255082e-01 4.2592841406114035e-01 1.1791940785410222e+00 -4.6160133964000073e-02 -4.3677898245905972e-01 1.3360349155286880e-01 
        </Neuron>
        <Neuron NSynapses="16">
          -7.4869786683008321e-01 2.2695118251746389e+00 3.5850775830449217e+00 -3.1522118016608386e-01 -1.4644548475216371e-01 6.8117366579794258e-01 -2.8789140527404258e+00 -4.5100047525239517e-01 2.1304819479131538e+00 -9.6227620565532279e-01 -3.3763960279691102e-01 -1.2973914920994167e-01 1.1919668882170817e+00 -3.5799135753776912e-01 1.2691575907737644e+00 -1.9800296704616704e+00 
        </Neuron>
        <Neuron NSynapses="16">
          1.1482668566688059e+00 8.5768205198627578e-01 8.0913239119729619e-01 5.8908902256133089e-01 1.1535980462271966e+00 8.2490075416757047e-01 -1.3050901889819657e+00 -9.4350751130189398e-02 -2.3432319240631785e-01 -1.0226004433259990e+00 1.9816109086686293e+00 1.5456427323825092e-01 -1.3691587630813801e-01 3.0489355746490876e-01 1.0652211242556389e+00 -1.2134756453954036e+00 
        </Neuron>
        <Neuron NSynapses="16">
          -3.0209764858219668e+00 -2.2026912179384874e+00 -1.9590425882728284e+00 -1.6183517008130708e+00 -2.0265196383109960e+00 -2.2032168182259766e+00 5.5130768948723619e+00 1.4218221785640521e+00 -1.6434913295516760e+00 8.4046269655869332e-01 -1.0812951761827712e+00 1.7411297271984063e+00 -8.6056463593033761e-01 1.3798602880952686e+00 -2.3177920066165916e+00 2.2849326693452388e+00 
        </Neuron>
      </Layer>
      <Layer Index="1" NNeurons="17">
        <Neuron NSynapses="1">
          -2.9587361245126220e-01 
        </Neuron>
        <Neuron NSynapses="1">
          -3.2638150258004001e-01 
        </Neuron>
        <Neuron NSynapses="1">
          2.2165658997246138e-01 
        </Neuron>
        <Neuron NSynapses="1">
          1.3553451292746081e-03 
        </Neuron>
        <Neuron NSynapses="1">
          -7.3915965716195992e-04 
        </Neuron>
        <Neuron NSynapses="1">
          -1.5377552183820425e-01 
        </Neuron>
        <Neuron NSynapses="1">
          -3.9799363917723357e-01 
        </Neuron>
        <Neuron NSynapses="1">
          -2.5176154245627701e-02 
        </Neuron>
        <Neuron NSynapses="1">
          -6.1520301452377421e-03 
        </Neuron>
        <Neuron NSynapses="1">
          -8.0502961658213937e-04 
        </Neuron>
        <Neuron NSynapses="1">
          2.6534195976923591e-02 
        </Neuron>
        <Neuron NSynapses="1">
          1.2768028937036365e-03 
        </Neuron>
        <Neuron NSynapses="1">
          -1.1302911513528171e-03 
        </Neuron>
        <Neuron NSynapses="1">
          1.7461259159218982e-02 
        </Neuron>
        <Neuron NSynapses="1">
          6.6312512400361601e-01 
        </Neuron>
        <Neuron NSynapses="1">
          2.2267746852436768e-01 
        </Neuron>
        <Neuron NSynapses="1">
          3.1322096368969871e-01 
        </Neuron>
      </Layer>
      <Layer Index="2" NNeurons="1">
        <Neuron NSynapses="0"/>
      </Layer>
    </Layout>
  </Weights>
</MethodSetup>
