<?xml version="1.0"?>
<MethodSetup Method="MLP::MLP">
  <GeneralInfo>
    <Info name="TMVA Release" value="4.1.2 [262402]"/>
    <Info name="ROOT Release" value="5.32/04 [335876]"/>
    <Info name="Creator" value="lpernie"/>
    <Info name="Date" value="Fri May 13 11:49:17 2016"/>
    <Info name="Host" value="Linux login01.brazos.tamu.edu 2.6.32-431.23.3.el6.x86_64 #1 SMP Thu Jul 31 17:20:51 UTC 2014 x86_64 x86_64 x86_64 GNU/Linux"/>
    <Info name="Dir" value="/home/lpernie/Hhh/delphes/diHiggs/MVAs"/>
    <Info name="Training events" value="16525"/>
    <Info name="TrainingTime" value="2.02303394e+02"/>
    <Info name="AnalysisType" value="Classification"/>
  </GeneralInfo>
  <Options>
    <Option name="NCycles" modified="Yes">600</Option>
    <Option name="HiddenLayers" modified="Yes">N+5</Option>
    <Option name="NeuronType" modified="Yes">tanh</Option>
    <Option name="RandomSeed" modified="No">1</Option>
    <Option name="EstimatorType" modified="No">MSE</Option>
    <Option name="NeuronInputType" modified="No">sum</Option>
    <Option name="V" modified="Yes">False</Option>
    <Option name="VerbosityLevel" modified="No">Default</Option>
    <Option name="VarTransform" modified="Yes">N</Option>
    <Option name="H" modified="Yes">True</Option>
    <Option name="CreateMVAPdfs" modified="No">False</Option>
    <Option name="IgnoreNegWeightsInTraining" modified="No">False</Option>
    <Option name="TrainingMethod" modified="No">BP</Option>
    <Option name="LearningRate" modified="No">2.000000e-02</Option>
    <Option name="DecayRate" modified="No">1.000000e-02</Option>
    <Option name="TestRate" modified="Yes">5</Option>
    <Option name="EpochMonitoring" modified="No">False</Option>
    <Option name="Sampling" modified="No">1.000000e+00</Option>
    <Option name="SamplingEpoch" modified="No">1.000000e+00</Option>
    <Option name="SamplingImportance" modified="No">1.000000e+00</Option>
    <Option name="SamplingTraining" modified="No">True</Option>
    <Option name="SamplingTesting" modified="No">False</Option>
    <Option name="ResetStep" modified="No">50</Option>
    <Option name="Tau" modified="No">3.000000e+00</Option>
    <Option name="BPMode" modified="No">sequential</Option>
    <Option name="BatchSize" modified="No">-1</Option>
    <Option name="ConvergenceImprove" modified="No">1.000000e-30</Option>
    <Option name="ConvergenceTests" modified="No">-1</Option>
    <Option name="UseRegulator" modified="Yes">False</Option>
    <Option name="UpdateLimit" modified="No">10000</Option>
    <Option name="CalculateErrors" modified="No">False</Option>
    <Option name="WeightRange" modified="No">1.000000e+00</Option>
  </Options>
  <Variables NVar="11">
    <Variable VarIndex="0" Expression="dR_l1l2" Label="dR_l1l2" Title="dR_l1l2" Unit="" Internal="dR_l1l2" Type="F" Min="7.10144714e-02" Max="3.29943013e+00"/>
    <Variable VarIndex="1" Expression="dR_b1b2" Label="dR_b1b2" Title="dR_b1b2" Unit="" Internal="dR_b1b2" Type="F" Min="3.80652487e-01" Max="4.97898674e+00"/>
    <Variable VarIndex="2" Expression="dR_bl" Label="dR_bl" Title="dR_bl" Unit="" Internal="dR_bl" Type="F" Min="4.01567370e-01" Max="4.91523266e+00"/>
    <Variable VarIndex="3" Expression="dR_l1l2b1b2" Label="dR_l1l2b1b2" Title="dR_l1l2b1b2" Unit="" Internal="dR_l1l2b1b2" Type="F" Min="1.63523909e-02" Max="5.91814280e+00"/>
    <Variable VarIndex="4" Expression="MINdR_bl" Label="MINdR_bl" Title="MINdR_bl" Unit="" Internal="MINdR_bl" Type="F" Min="4.00563419e-01" Max="3.18510365e+00"/>
    <Variable VarIndex="5" Expression="dphi_l1l2b1b2" Label="dphi_l1l2b1b2" Title="dphi_l1l2b1b2" Unit="" Internal="dphi_l1l2b1b2" Type="F" Min="3.76255048e-04" Max="3.14149976e+00"/>
    <Variable VarIndex="6" Expression="mass_l1l2" Label="mass_l1l2" Title="mass_l1l2" Unit="" Internal="mass_l1l2" Type="F" Min="5.00658274e+00" Max="9.99996490e+01"/>
    <Variable VarIndex="7" Expression="mass_b1b2" Label="mass_b1b2" Title="mass_b1b2" Unit="" Internal="mass_b1b2" Type="F" Min="2.21685295e+01" Max="6.94112366e+02"/>
    <Variable VarIndex="8" Expression="mass_trans" Label="mass_trans" Title="mass_trans" Unit="" Internal="mass_trans" Type="F" Min="1.27812997e-02" Max="2.49781052e+02"/>
    <Variable VarIndex="9" Expression="MT2" Label="MT2" Title="MT2" Unit="" Internal="MT2" Type="F" Min="2.50663490e+01" Max="3.92591949e+02"/>
    <Variable VarIndex="10" Expression="pt_b1b2" Label="pt_b1b2" Title="pt_b1b2" Unit="" Internal="pt_b1b2" Type="F" Min="6.60549879e-01" Max="2.98342682e+02"/>
  </Variables>
  <Spectators NSpec="0"/>
  <Classes NClass="2">
    <Class Name="Signal" Index="0"/>
    <Class Name="Background" Index="1"/>
  </Classes>
  <Transformations NTransformations="1">
    <Transform Name="Normalize">
      <Selection>
        <Input NInputs="11">
          <Input Type="Variable" Label="dR_l1l2" Expression="dR_l1l2"/>
          <Input Type="Variable" Label="dR_b1b2" Expression="dR_b1b2"/>
          <Input Type="Variable" Label="dR_bl" Expression="dR_bl"/>
          <Input Type="Variable" Label="dR_l1l2b1b2" Expression="dR_l1l2b1b2"/>
          <Input Type="Variable" Label="MINdR_bl" Expression="MINdR_bl"/>
          <Input Type="Variable" Label="dphi_l1l2b1b2" Expression="dphi_l1l2b1b2"/>
          <Input Type="Variable" Label="mass_l1l2" Expression="mass_l1l2"/>
          <Input Type="Variable" Label="mass_b1b2" Expression="mass_b1b2"/>
          <Input Type="Variable" Label="mass_trans" Expression="mass_trans"/>
          <Input Type="Variable" Label="MT2" Expression="MT2"/>
          <Input Type="Variable" Label="pt_b1b2" Expression="pt_b1b2"/>
        </Input>
        <Output NOutputs="11">
          <Output Type="Variable" Label="dR_l1l2" Expression="dR_l1l2"/>
          <Output Type="Variable" Label="dR_b1b2" Expression="dR_b1b2"/>
          <Output Type="Variable" Label="dR_bl" Expression="dR_bl"/>
          <Output Type="Variable" Label="dR_l1l2b1b2" Expression="dR_l1l2b1b2"/>
          <Output Type="Variable" Label="MINdR_bl" Expression="MINdR_bl"/>
          <Output Type="Variable" Label="dphi_l1l2b1b2" Expression="dphi_l1l2b1b2"/>
          <Output Type="Variable" Label="mass_l1l2" Expression="mass_l1l2"/>
          <Output Type="Variable" Label="mass_b1b2" Expression="mass_b1b2"/>
          <Output Type="Variable" Label="mass_trans" Expression="mass_trans"/>
          <Output Type="Variable" Label="MT2" Expression="MT2"/>
          <Output Type="Variable" Label="pt_b1b2" Expression="pt_b1b2"/>
        </Output>
      </Selection>
      <Class ClassIndex="0">
        <Ranges>
          <Range Index="0" Min="8.8339641690254211e-02" Max="3.2744896411895752e+00"/>
          <Range Index="1" Min="3.8474029302597046e-01" Max="4.9785656929016113e+00"/>
          <Range Index="2" Min="4.2588865756988525e-01" Max="4.5863165855407715e+00"/>
          <Range Index="3" Min="2.0580179989337921e-01" Max="5.6461782455444336e+00"/>
          <Range Index="4" Min="4.0562251210212708e-01" Max="3.1851036548614502e+00"/>
          <Range Index="5" Min="9.8062213510274887e-03" Max="3.1410224437713623e+00"/>
          <Range Index="6" Min="5.1002573966979980e+00" Max="8.7980239868164062e+01"/>
          <Range Index="7" Min="2.2188550949096680e+01" Max="6.2711621093750000e+02"/>
          <Range Index="8" Min="1.0285738855600357e-01" Max="2.4899935913085938e+02"/>
          <Range Index="9" Min="4.9399078369140625e+01" Max="3.9259194946289062e+02"/>
          <Range Index="10" Min="2.3259863853454590e+00" Max="2.7849746704101562e+02"/>
        </Ranges>
      </Class>
      <Class ClassIndex="1">
        <Ranges>
          <Range Index="0" Min="7.1014471352100372e-02" Max="3.2994301319122314e+00"/>
          <Range Index="1" Min="3.8065248727798462e-01" Max="4.9789867401123047e+00"/>
          <Range Index="2" Min="4.0156736969947815e-01" Max="4.9152326583862305e+00"/>
          <Range Index="3" Min="1.6352390870451927e-02" Max="5.9181427955627441e+00"/>
          <Range Index="4" Min="4.0056341886520386e-01" Max="3.1416535377502441e+00"/>
          <Range Index="5" Min="3.7625504774041474e-04" Max="3.1414997577667236e+00"/>
          <Range Index="6" Min="5.0065827369689941e+00" Max="9.9999649047851562e+01"/>
          <Range Index="7" Min="2.2168529510498047e+01" Max="6.9411236572265625e+02"/>
          <Range Index="8" Min="1.2781299650669098e-02" Max="2.4978105163574219e+02"/>
          <Range Index="9" Min="2.5066349029541016e+01" Max="3.9131411743164062e+02"/>
          <Range Index="10" Min="6.6054987907409668e-01" Max="2.9834268188476562e+02"/>
        </Ranges>
      </Class>
      <Class ClassIndex="2">
        <Ranges>
          <Range Index="0" Min="7.1014471352100372e-02" Max="3.2994301319122314e+00"/>
          <Range Index="1" Min="3.8065248727798462e-01" Max="4.9789867401123047e+00"/>
          <Range Index="2" Min="4.0156736969947815e-01" Max="4.9152326583862305e+00"/>
          <Range Index="3" Min="1.6352390870451927e-02" Max="5.9181427955627441e+00"/>
          <Range Index="4" Min="4.0056341886520386e-01" Max="3.1851036548614502e+00"/>
          <Range Index="5" Min="3.7625504774041474e-04" Max="3.1414997577667236e+00"/>
          <Range Index="6" Min="5.0065827369689941e+00" Max="9.9999649047851562e+01"/>
          <Range Index="7" Min="2.2168529510498047e+01" Max="6.9411236572265625e+02"/>
          <Range Index="8" Min="1.2781299650669098e-02" Max="2.4978105163574219e+02"/>
          <Range Index="9" Min="2.5066349029541016e+01" Max="3.9259194946289062e+02"/>
          <Range Index="10" Min="6.6054987907409668e-01" Max="2.9834268188476562e+02"/>
        </Ranges>
      </Class>
    </Transform>
  </Transformations>
  <MVAPdfs/>
  <Weights>
    <Layout NLayers="3">
      <Layer Index="0" NNeurons="12">
        <Neuron NSynapses="16">
          3.8827030976599383e-02 1.5865971498559865e+00 -3.0119275675713120e-01 9.6089975316510101e-01 -1.3157444538001761e+00 -7.8331207941822412e-01 2.4847417345002026e-01 1.0367501588403296e+00 -5.5818897845980708e-01 -8.6872930787565972e-01 -1.6630648783491735e+00 1.3629809315587046e-01 -1.2017640673749233e+00 -5.5247306142797314e-01 1.3601773830958952e-01 4.5051030463421005e-01 
        </Neuron>
        <Neuron NSynapses="16">
          1.3725124369500852e-01 2.0397772512645056e+00 -3.0802181446991539e+00 1.1121024147063596e+00 2.1395239800218205e-01 -4.0149970864242317e-02 3.8003233238810008e+00 3.3809802328943200e-01 -1.2157349845845924e+00 -8.1658600512997670e-02 4.0713738949847794e-01 -8.7527836800360914e-01 -1.4275119564358563e+00 5.1488550002651221e-02 7.6685471569709662e-01 1.5729364143565381e+00 
        </Neuron>
        <Neuron NSynapses="16">
          2.8304621299733823e-02 -1.0497772415722650e+00 5.0803020313157765e-01 -3.1237120357361725e-01 -5.9463068388284557e-01 2.1731593152148716e+00 -5.9154018815315090e-01 8.2806460761346989e-01 1.3132662324986097e+00 -5.7514388781542858e-02 1.7705194427405599e+00 4.9807697622560310e-01 -4.1507530187169495e-01 -1.1659428905922413e+00 2.4281477737692816e-02 -9.5731322502633209e-01 
        </Neuron>
        <Neuron NSynapses="16">
          1.5000340102149325e+00 3.7479571045958404e-01 8.9098783880814858e-01 1.2889276877531346e+00 -1.2268079341566327e+00 1.3016049462581110e+00 -8.6373625883565763e-01 -1.0223143151913967e+00 -9.7328732831937859e-01 -4.6669908102180857e-01 1.6501720871879209e+00 6.9072562890120659e-01 -1.0643230318857968e+00 5.5005564632508508e-01 3.6983222404401056e-01 5.3203072129946660e-01 
        </Neuron>
        <Neuron NSynapses="16">
          1.6276393415122941e+00 -6.5253644965053992e-01 1.6032285704807245e-01 -9.2959772622086889e-01 2.4405370796629508e-01 -7.9709773761810807e-02 -1.8519498459946968e-01 -1.8423907253736884e+00 3.5561130744088926e-01 5.6194710270487580e-01 4.0666358390389290e-01 -7.2485218910871660e-02 -1.2823979395981875e+00 -1.3913346683118419e+00 4.6873151937926355e-01 2.4382937521117809e-02 
        </Neuron>
        <Neuron NSynapses="16">
          -1.4248027388510189e-02 -2.5042449591032812e-01 -5.3269416100021738e-01 -1.5982094334243216e-01 5.0245056761382245e-01 -8.7689782309004916e-01 8.0313177386790269e-01 1.4746939588819205e-01 -1.2339511736268480e+00 7.8864938260434364e-03 -2.2739363506855531e-01 -3.2355062915445570e-01 1.0261007884081603e+00 -7.6440386230292046e-01 1.5741298978470217e-01 7.6424030729558612e-01 
        </Neuron>
        <Neuron NSynapses="16">
          -8.1300394457376646e-01 -2.6001644705421734e-01 6.8944229425902642e-02 -1.2880627324496649e-01 -1.3462766212755120e+00 -1.1547857944637152e+00 -6.5902106133796379e-01 7.8487951637124354e-01 -8.3716210718703299e-01 1.5176471044329398e+00 -5.2038570680217588e-01 -5.2082859797228783e-03 -1.3368566538404822e+00 2.0447045705294098e-01 -1.6640195848569321e+00 2.5388797373096528e-01 
        </Neuron>
        <Neuron NSynapses="16">
          3.3951869922479100e-01 1.6852712336702735e-01 -4.9487309857229134e+00 1.4859942511011319e+00 7.3207264973925601e-01 3.9105680669669657e-01 4.1357771535262229e+00 -2.2839692424014317e+00 -1.5341701106163361e+00 2.1878217859639393e-01 -7.1075331912127115e-01 1.2473235929902975e+00 1.1724884875545356e+00 -5.7707177997455861e-01 -1.1211484983452618e+00 7.2698816082421824e-01 
        </Neuron>
        <Neuron NSynapses="16">
          -2.0834690986719462e+00 9.2643191003247383e-01 -6.6318820333666295e-01 -2.5418545532280596e+00 2.7129951245168255e-01 -8.6266475153186251e-01 4.6929939104607243e-01 7.0249336261906192e-01 1.3347134075427078e+00 -3.0828692246302434e+00 3.2641591655374089e-03 6.7780431494009030e-01 1.1047751715055689e+00 -1.6175651558889646e-02 -1.8470533446807713e+00 -6.2448883462929017e-01 
        </Neuron>
        <Neuron NSynapses="16">
          -1.1409421786389589e+00 7.2326703665959136e-01 1.8663945958815469e+00 -5.6130105063732594e-01 -1.0295545032612976e+00 9.7214292581736772e-01 -2.1271296231680661e+00 -4.8885021332276074e-01 1.8092714826678289e+00 -6.2711002626961487e-01 -7.9498230185718111e-01 9.1195714603877875e-02 1.1203017268699464e+00 9.2064102742884776e-02 5.1110573963741113e-01 -1.5522084509465750e+00 
        </Neuron>
        <Neuron NSynapses="16">
          1.6551012497016446e+00 3.4432980717250683e-01 -6.1332380201439285e-01 4.1605572823125231e-01 5.1385686940910635e-01 5.5553975566974412e-01 1.0322200990781341e+00 1.2336153399341949e-03 -6.2976462919874743e-01 -4.0124886527575154e-01 1.5987660696643071e+00 4.3101937273814378e-01 2.9023740784360531e-02 9.7341702759260362e-01 7.5158101628816987e-01 -1.4276151967125839e+00 
        </Neuron>
        <Neuron NSynapses="16">
          -6.3984373991083332e-01 4.1908975175754071e-01 -3.6949876598186715e+00 -1.2021936066051897e+00 -1.7554162127969428e+00 -1.3498482533151523e-01 3.7101116836703976e+00 7.4076559262181729e-01 -3.3224819086407265e-01 1.1202954536677495e-01 -7.1814695462966627e-01 1.6282473974795044e+00 -7.0344640216676446e-01 3.4600057562789710e-01 -7.2786613575770243e-01 4.8404356721374059e-01 
        </Neuron>
      </Layer>
      <Layer Index="1" NNeurons="17">
        <Neuron NSynapses="1">
          -1.2841248671756311e-01 
        </Neuron>
        <Neuron NSynapses="1">
          7.7710583636456207e-02 
        </Neuron>
        <Neuron NSynapses="1">
          6.1086974728344912e-01 
        </Neuron>
        <Neuron NSynapses="1">
          -5.2958380558498767e-02 
        </Neuron>
        <Neuron NSynapses="1">
          -1.1249606351024928e-01 
        </Neuron>
        <Neuron NSynapses="1">
          -9.7401712699547394e-02 
        </Neuron>
        <Neuron NSynapses="1">
          5.7466055237805336e-01 
        </Neuron>
        <Neuron NSynapses="1">
          -1.5653505750349322e-01 
        </Neuron>
        <Neuron NSynapses="1">
          3.7925600809333715e-02 
        </Neuron>
        <Neuron NSynapses="1">
          1.0365857144818641e-01 
        </Neuron>
        <Neuron NSynapses="1">
          1.0753977380304980e-01 
        </Neuron>
        <Neuron NSynapses="1">
          8.6032439765023144e-02 
        </Neuron>
        <Neuron NSynapses="1">
          7.0951137753187690e-02 
        </Neuron>
        <Neuron NSynapses="1">
          3.2034409168901546e-03 
        </Neuron>
        <Neuron NSynapses="1">
          2.0487417606751648e-01 
        </Neuron>
        <Neuron NSynapses="1">
          6.6616984449272582e-02 
        </Neuron>
        <Neuron NSynapses="1">
          1.7201144054557239e-02 
        </Neuron>
      </Layer>
      <Layer Index="2" NNeurons="1">
        <Neuron NSynapses="0"/>
      </Layer>
    </Layout>
  </Weights>
</MethodSetup>
