<?xml version="1.0"?>
<MethodSetup Method="MLP::MLP">
  <GeneralInfo>
    <Info name="TMVA Release" value="4.1.2 [262402]"/>
    <Info name="ROOT Release" value="5.32/04 [335876]"/>
    <Info name="Creator" value="lpernie"/>
    <Info name="Date" value="Fri Jul  1 11:02:35 2016"/>
    <Info name="Host" value="Linux login01.brazos.tamu.edu 2.6.32-431.23.3.el6.x86_64 #1 SMP Thu Jul 31 17:20:51 UTC 2014 x86_64 x86_64 x86_64 GNU/Linux"/>
    <Info name="Dir" value="/home/lpernie/Hhh/delphes/diHiggs/MVAs"/>
    <Info name="Training events" value="224806"/>
    <Info name="TrainingTime" value="2.69824870e+03"/>
    <Info name="AnalysisType" value="Classification"/>
  </GeneralInfo>
  <Options>
    <Option name="NCycles" modified="Yes">600</Option>
    <Option name="HiddenLayers" modified="Yes">N+5</Option>
    <Option name="NeuronType" modified="Yes">tanh</Option>
    <Option name="RandomSeed" modified="No">1</Option>
    <Option name="EstimatorType" modified="No">MSE</Option>
    <Option name="NeuronInputType" modified="No">sum</Option>
    <Option name="V" modified="Yes">False</Option>
    <Option name="VerbosityLevel" modified="No">Default</Option>
    <Option name="VarTransform" modified="Yes">N</Option>
    <Option name="H" modified="Yes">True</Option>
    <Option name="CreateMVAPdfs" modified="No">False</Option>
    <Option name="IgnoreNegWeightsInTraining" modified="No">False</Option>
    <Option name="TrainingMethod" modified="No">BP</Option>
    <Option name="LearningRate" modified="No">2.000000e-02</Option>
    <Option name="DecayRate" modified="No">1.000000e-02</Option>
    <Option name="TestRate" modified="Yes">5</Option>
    <Option name="EpochMonitoring" modified="No">False</Option>
    <Option name="Sampling" modified="No">1.000000e+00</Option>
    <Option name="SamplingEpoch" modified="No">1.000000e+00</Option>
    <Option name="SamplingImportance" modified="No">1.000000e+00</Option>
    <Option name="SamplingTraining" modified="No">True</Option>
    <Option name="SamplingTesting" modified="No">False</Option>
    <Option name="ResetStep" modified="No">50</Option>
    <Option name="Tau" modified="No">3.000000e+00</Option>
    <Option name="BPMode" modified="No">sequential</Option>
    <Option name="BatchSize" modified="No">-1</Option>
    <Option name="ConvergenceImprove" modified="No">1.000000e-30</Option>
    <Option name="ConvergenceTests" modified="No">-1</Option>
    <Option name="UseRegulator" modified="Yes">False</Option>
    <Option name="UpdateLimit" modified="No">10000</Option>
    <Option name="CalculateErrors" modified="No">False</Option>
    <Option name="WeightRange" modified="No">1.000000e+00</Option>
  </Options>
  <Variables NVar="11">
    <Variable VarIndex="0" Expression="dR_l1l2" Label="dR_l1l2" Title="dR_l1l2" Unit="" Internal="dR_l1l2" Type="F" Min="7.10297823e-02" Max="3.29981375e+00"/>
    <Variable VarIndex="1" Expression="dR_b1b2" Label="dR_b1b2" Title="dR_b1b2" Unit="" Internal="dR_b1b2" Type="F" Min="3.73879045e-01" Max="4.99732256e+00"/>
    <Variable VarIndex="2" Expression="dR_bl" Label="dR_bl" Title="dR_bl" Unit="" Internal="dR_bl" Type="F" Min="4.00089145e-01" Max="4.99432611e+00"/>
    <Variable VarIndex="3" Expression="dR_l1l2b1b2" Label="dR_l1l2b1b2" Title="dR_l1l2b1b2" Unit="" Internal="dR_l1l2b1b2" Type="F" Min="5.75727969e-03" Max="5.99961948e+00"/>
    <Variable VarIndex="4" Expression="MINdR_bl" Label="MINdR_bl" Title="MINdR_bl" Unit="" Internal="MINdR_bl" Type="F" Min="4.00001377e-01" Max="3.19991016e+00"/>
    <Variable VarIndex="5" Expression="dphi_l1l2b1b2" Label="dphi_l1l2b1b2" Title="dphi_l1l2b1b2" Unit="" Internal="dphi_l1l2b1b2" Type="F" Min="1.76370463e-06" Max="3.14159226e+00"/>
    <Variable VarIndex="6" Expression="mass_l1l2" Label="mass_l1l2" Title="mass_l1l2" Unit="" Internal="mass_l1l2" Type="F" Min="5.00631237e+00" Max="9.99998550e+01"/>
    <Variable VarIndex="7" Expression="mass_b1b2" Label="mass_b1b2" Title="mass_b1b2" Unit="" Internal="mass_b1b2" Type="F" Min="2.20002632e+01" Max="6.99751221e+02"/>
    <Variable VarIndex="8" Expression="mass_trans" Label="mass_trans" Title="mass_trans" Unit="" Internal="mass_trans" Type="F" Min="0.00000000e+00" Max="2.49991043e+02"/>
    <Variable VarIndex="9" Expression="MT2" Label="MT2" Title="MT2" Unit="" Internal="MT2" Type="F" Min="2.23099918e+01" Max="3.99925476e+02"/>
    <Variable VarIndex="10" Expression="pt_b1b2" Label="pt_b1b2" Title="pt_b1b2" Unit="" Internal="pt_b1b2" Type="F" Min="1.50757179e-01" Max="2.99963409e+02"/>
  </Variables>
  <Spectators NSpec="0"/>
  <Classes NClass="2">
    <Class Name="Signal" Index="0"/>
    <Class Name="Background" Index="1"/>
  </Classes>
  <Transformations NTransformations="1">
    <Transform Name="Normalize">
      <Selection>
        <Input NInputs="11">
          <Input Type="Variable" Label="dR_l1l2" Expression="dR_l1l2"/>
          <Input Type="Variable" Label="dR_b1b2" Expression="dR_b1b2"/>
          <Input Type="Variable" Label="dR_bl" Expression="dR_bl"/>
          <Input Type="Variable" Label="dR_l1l2b1b2" Expression="dR_l1l2b1b2"/>
          <Input Type="Variable" Label="MINdR_bl" Expression="MINdR_bl"/>
          <Input Type="Variable" Label="dphi_l1l2b1b2" Expression="dphi_l1l2b1b2"/>
          <Input Type="Variable" Label="mass_l1l2" Expression="mass_l1l2"/>
          <Input Type="Variable" Label="mass_b1b2" Expression="mass_b1b2"/>
          <Input Type="Variable" Label="mass_trans" Expression="mass_trans"/>
          <Input Type="Variable" Label="MT2" Expression="MT2"/>
          <Input Type="Variable" Label="pt_b1b2" Expression="pt_b1b2"/>
        </Input>
        <Output NOutputs="11">
          <Output Type="Variable" Label="dR_l1l2" Expression="dR_l1l2"/>
          <Output Type="Variable" Label="dR_b1b2" Expression="dR_b1b2"/>
          <Output Type="Variable" Label="dR_bl" Expression="dR_bl"/>
          <Output Type="Variable" Label="dR_l1l2b1b2" Expression="dR_l1l2b1b2"/>
          <Output Type="Variable" Label="MINdR_bl" Expression="MINdR_bl"/>
          <Output Type="Variable" Label="dphi_l1l2b1b2" Expression="dphi_l1l2b1b2"/>
          <Output Type="Variable" Label="mass_l1l2" Expression="mass_l1l2"/>
          <Output Type="Variable" Label="mass_b1b2" Expression="mass_b1b2"/>
          <Output Type="Variable" Label="mass_trans" Expression="mass_trans"/>
          <Output Type="Variable" Label="MT2" Expression="MT2"/>
          <Output Type="Variable" Label="pt_b1b2" Expression="pt_b1b2"/>
        </Output>
      </Selection>
      <Class ClassIndex="0">
        <Ranges>
          <Range Index="0" Min="7.1029782295227051e-02" Max="3.2480924129486084e+00"/>
          <Range Index="1" Min="3.9439776539802551e-01" Max="4.8675541877746582e+00"/>
          <Range Index="2" Min="4.2826882004737854e-01" Max="4.5548105239868164e+00"/>
          <Range Index="3" Min="4.8230913281440735e-01" Max="5.5431914329528809e+00"/>
          <Range Index="4" Min="4.0323784947395325e-01" Max="3.1862764358520508e+00"/>
          <Range Index="5" Min="5.0385412760078907e-03" Max="3.1415281295776367e+00"/>
          <Range Index="6" Min="5.0063123703002930e+00" Max="9.2883369445800781e+01"/>
          <Range Index="7" Min="2.2549150466918945e+01" Max="6.5601672363281250e+02"/>
          <Range Index="8" Min="1.9958814606070518e-02" Max="2.4925128173828125e+02"/>
          <Range Index="9" Min="4.9734783172607422e+01" Max="3.9592901611328125e+02"/>
          <Range Index="10" Min="2.8482723236083984e+00" Max="2.9527539062500000e+02"/>
        </Ranges>
      </Class>
      <Class ClassIndex="1">
        <Ranges>
          <Range Index="0" Min="7.4289560317993164e-02" Max="3.2998137474060059e+00"/>
          <Range Index="1" Min="3.7387904524803162e-01" Max="4.9973225593566895e+00"/>
          <Range Index="2" Min="4.0008914470672607e-01" Max="4.9943261146545410e+00"/>
          <Range Index="3" Min="5.7572796940803528e-03" Max="5.9996194839477539e+00"/>
          <Range Index="4" Min="4.0000137686729431e-01" Max="3.1999101638793945e+00"/>
          <Range Index="5" Min="1.7637046312302118e-06" Max="3.1415922641754150e+00"/>
          <Range Index="6" Min="5.0086078643798828e+00" Max="9.9999855041503906e+01"/>
          <Range Index="7" Min="2.2000263214111328e+01" Max="6.9975122070312500e+02"/>
          <Range Index="8" Min="0.0000000000000000e+00" Max="2.4999104309082031e+02"/>
          <Range Index="9" Min="2.2309991836547852e+01" Max="3.9992547607421875e+02"/>
          <Range Index="10" Min="1.5075717866420746e-01" Max="2.9996340942382812e+02"/>
        </Ranges>
      </Class>
      <Class ClassIndex="2">
        <Ranges>
          <Range Index="0" Min="7.1029782295227051e-02" Max="3.2998137474060059e+00"/>
          <Range Index="1" Min="3.7387904524803162e-01" Max="4.9973225593566895e+00"/>
          <Range Index="2" Min="4.0008914470672607e-01" Max="4.9943261146545410e+00"/>
          <Range Index="3" Min="5.7572796940803528e-03" Max="5.9996194839477539e+00"/>
          <Range Index="4" Min="4.0000137686729431e-01" Max="3.1999101638793945e+00"/>
          <Range Index="5" Min="1.7637046312302118e-06" Max="3.1415922641754150e+00"/>
          <Range Index="6" Min="5.0063123703002930e+00" Max="9.9999855041503906e+01"/>
          <Range Index="7" Min="2.2000263214111328e+01" Max="6.9975122070312500e+02"/>
          <Range Index="8" Min="0.0000000000000000e+00" Max="2.4999104309082031e+02"/>
          <Range Index="9" Min="2.2309991836547852e+01" Max="3.9992547607421875e+02"/>
          <Range Index="10" Min="1.5075717866420746e-01" Max="2.9996340942382812e+02"/>
        </Ranges>
      </Class>
    </Transform>
  </Transformations>
  <MVAPdfs/>
  <Weights>
    <Layout NLayers="3">
      <Layer Index="0" NNeurons="12">
        <Neuron NSynapses="16">
          -4.3415304723971759e-01 -3.8581760028317963e-01 -5.3101741551705806e-01 6.2196779295508264e-01 -1.3480739495676288e+00 -1.0982476450226257e+00 1.1705764438091051e+00 7.2620309882997613e-01 -8.6522296002265187e-01 -1.0044523990815020e+00 -1.0034568164064162e+00 5.2413217210459564e-02 -1.2144835912901750e+00 -3.5103081435726113e-01 -1.1689202924545026e+00 8.2104533691283588e-01 
        </Neuron>
        <Neuron NSynapses="16">
          -7.5382480768897295e-02 1.6951465267004684e+00 1.2995061358717055e+00 4.1723382307304840e-01 -1.8789773840934437e-01 2.9538924666192118e-01 -4.4888692063209179e-01 8.0754977982641613e-02 -8.5738013748223063e-01 5.4537219073673954e-02 9.9241682529643072e-01 -9.4210661183547417e-01 -9.8909742425476033e-01 3.6391309125878424e-01 6.5108448997996768e-02 4.3522833436862225e+00 
        </Neuron>
        <Neuron NSynapses="16">
          -1.8414257524038308e-01 4.9089855255631470e-01 4.4099625053990016e-01 -6.4107414906180304e-01 -1.0389705131710902e+00 1.7219436991520110e+00 2.4985061403760139e-01 3.6544062436532698e-01 1.3460626398382340e+00 6.4858274854926301e-01 1.5271222207513551e+00 4.5829522512622145e-01 -1.1153154951138754e-01 -1.1178647984811101e+00 -2.7493384549630195e-01 -1.4530684742119571e-01 
        </Neuron>
        <Neuron NSynapses="16">
          1.6195864676281500e+00 1.4053229359151163e+00 1.2132123941255279e+00 8.3871582646451115e-01 -1.2983946068363743e+00 1.2914647508025463e+00 4.8671632550969435e-01 -1.1250300914042601e+00 -7.1795106074647408e-01 -1.5649233182830540e+00 1.5678477552406640e+00 7.0363455013766818e-01 -9.4471547094902208e-01 5.4542564515254333e-01 -5.9477728731775326e-01 -4.0096449675772894e-01 
        </Neuron>
        <Neuron NSynapses="16">
          1.3115039944812616e+00 -3.6153476378685545e-01 -2.7998201542721424e-01 -1.0905210767020270e+00 8.2520802400804616e-01 -3.8531935549916470e-02 2.3822881533662196e-01 -1.1230412100960130e+00 1.2660050516554011e+00 2.7202035971218390e-02 1.1457011194927238e+00 1.4794890174391004e-01 1.3789000447966573e-01 -9.1569883797775986e-01 -2.8547501086773321e-02 -2.4872747253082361e-01 
        </Neuron>
        <Neuron NSynapses="16">
          3.7734581437379128e-01 -2.9200869164227339e-01 -1.3107727098266006e-01 6.5888640642923846e-01 -2.8823398759272517e-01 -2.1442781443565595e-01 -1.2995838177037711e+00 -7.3013045487552677e-02 -1.0340243878041009e+00 -1.0006492887699694e+00 -8.5522756200870043e-01 -5.7054365494080628e-01 1.5423952982005611e+00 -6.3070557046360898e-01 1.2827273426998016e+00 -3.4093224589684640e-01 
        </Neuron>
        <Neuron NSynapses="16">
          -2.5115708986896990e-01 -1.4857083595430637e-01 -3.8247499856500311e-01 7.5083468071445325e-01 -9.8871864231178364e-01 -1.4459761783322007e+00 -1.0601085800401462e+00 6.0661343308918092e-01 -3.0620887945566982e-01 1.3781663011332737e+00 -9.5272035492362600e-02 -3.0738125149235646e-01 -1.2311110368633499e-01 3.7634383983056841e-01 1.2668324759197067e-01 2.4453316432211242e-01 
        </Neuron>
        <Neuron NSynapses="16">
          9.7634291920177019e-01 -2.6714490553626682e+00 -2.6815499859868104e+00 4.9702004501879685e-02 3.9927097780092158e-01 4.7458837251283986e-01 4.0028141919613658e+00 -2.6525287469800172e+00 -6.9724669359905900e-01 -1.1973526208176327e-01 -9.3820533197970721e-02 1.4197741535131392e+00 4.7787428480941319e-01 -7.2692169703056897e-01 -3.2003456099117455e+00 1.3106820585756349e+00 
        </Neuron>
        <Neuron NSynapses="16">
          -1.3924445012446984e+00 -5.5768114932360813e-01 -7.3519906617925002e-01 -1.5822903930095913e+00 6.0397016992763553e-01 -4.7728769437572338e-01 6.8749993130514020e-01 1.9038643266726943e-01 3.9775578458432015e-01 -7.0751328063598851e-01 3.0531002825632120e-01 1.5055356777840784e-01 5.1082450386311935e-02 7.7942173951105795e-02 -4.6353335810623042e-01 3.1558479341451501e-01 
        </Neuron>
        <Neuron NSynapses="16">
          -1.5660107106244345e+00 4.8467287449572289e+00 4.9158382459279313e+00 -1.7197909701345508e+00 -3.6997987678805050e-01 1.2926166610812473e+00 -3.1623621095536216e+00 -5.5288184976292809e-01 1.9455176353633696e+00 -6.1574122598236725e-01 -3.2974751300364141e-01 -1.8997664132366088e-01 1.5342127785111030e+00 -1.2221634648251029e-01 2.3754101752943138e+00 -1.9556291597469246e+00 
        </Neuron>
        <Neuron NSynapses="16">
          8.8558263628432665e-01 1.9012672004528377e+00 1.7277405373750552e+00 -8.5795818718935668e-01 8.3523858887763225e-01 9.6711128538605629e-01 -1.0503521282345623e+00 -4.9527042256794540e-01 -3.6085808942017661e-01 -8.5268960823365503e-01 1.6309808636944774e+00 6.9511172894437007e-02 1.8443715097473593e-01 4.5645667373136006e-01 9.6952063768209562e-01 -8.9027478548953953e-01 
        </Neuron>
        <Neuron NSynapses="16">
          -2.3966091391718387e+00 -1.0137894164022649e+00 -9.6037140129978349e-01 1.3272512235298133e+00 -1.5907731388890765e+00 -1.5386617277034214e+00 5.1484184681020189e+00 1.5968764743820560e+00 -1.3078197821171946e+00 3.2043857022668032e-01 -3.2886754275378216e-01 7.6543290901867056e-01 -1.2962702050534771e+00 8.4347901777202861e-01 -4.3138050276008357e+00 5.6250168120108590e+00 
        </Neuron>
      </Layer>
      <Layer Index="1" NNeurons="17">
        <Neuron NSynapses="1">
          -6.4083920973567451e-02 
        </Neuron>
        <Neuron NSynapses="1">
          -5.7491024421267489e-01 
        </Neuron>
        <Neuron NSynapses="1">
          6.0241160034428531e-01 
        </Neuron>
        <Neuron NSynapses="1">
          6.3064370495119537e-02 
        </Neuron>
        <Neuron NSynapses="1">
          2.3248493394758488e-03 
        </Neuron>
        <Neuron NSynapses="1">
          -6.6317169852271277e-02 
        </Neuron>
        <Neuron NSynapses="1">
          4.6465380431414294e-01 
        </Neuron>
        <Neuron NSynapses="1">
          -1.0475690619690529e-01 
        </Neuron>
        <Neuron NSynapses="1">
          2.6153498492705908e-02 
        </Neuron>
        <Neuron NSynapses="1">
          -1.0007973243133350e-02 
        </Neuron>
        <Neuron NSynapses="1">
          1.4158144277632427e-02 
        </Neuron>
        <Neuron NSynapses="1">
          6.2105021323994487e-03 
        </Neuron>
        <Neuron NSynapses="1">
          -5.9676400677067080e-02 
        </Neuron>
        <Neuron NSynapses="1">
          -4.2319940868168768e-03 
        </Neuron>
        <Neuron NSynapses="1">
          8.1594302218553261e-01 
        </Neuron>
        <Neuron NSynapses="1">
          3.5170124330961616e-01 
        </Neuron>
        <Neuron NSynapses="1">
          -6.2068000617945061e-02 
        </Neuron>
      </Layer>
      <Layer Index="2" NNeurons="1">
        <Neuron NSynapses="0"/>
      </Layer>
    </Layout>
  </Weights>
</MethodSetup>
