<?xml version="1.0"?>
<MethodSetup Method="MLP::MLPBFGS">
  <GeneralInfo>
    <Info name="TMVA Release" value="4.1.2 [262402]"/>
    <Info name="ROOT Release" value="5.32/04 [335876]"/>
    <Info name="Creator" value="lpernie"/>
    <Info name="Date" value="Fri Jul  1 14:06:16 2016"/>
    <Info name="Host" value="Linux login01.brazos.tamu.edu 2.6.32-431.23.3.el6.x86_64 #1 SMP Thu Jul 31 17:20:51 UTC 2014 x86_64 x86_64 x86_64 GNU/Linux"/>
    <Info name="Dir" value="/home/lpernie/Hhh/delphes/diHiggs/MVAs"/>
    <Info name="Training events" value="224806"/>
    <Info name="TrainingTime" value="1.10183936e+04"/>
    <Info name="AnalysisType" value="Classification"/>
  </GeneralInfo>
  <Options>
    <Option name="NCycles" modified="Yes">600</Option>
    <Option name="HiddenLayers" modified="Yes">N+5</Option>
    <Option name="NeuronType" modified="Yes">tanh</Option>
    <Option name="RandomSeed" modified="No">1</Option>
    <Option name="EstimatorType" modified="No">MSE</Option>
    <Option name="NeuronInputType" modified="No">sum</Option>
    <Option name="V" modified="Yes">False</Option>
    <Option name="VerbosityLevel" modified="No">Default</Option>
    <Option name="VarTransform" modified="Yes">N</Option>
    <Option name="H" modified="Yes">True</Option>
    <Option name="CreateMVAPdfs" modified="No">False</Option>
    <Option name="IgnoreNegWeightsInTraining" modified="No">False</Option>
    <Option name="TrainingMethod" modified="Yes">BFGS</Option>
    <Option name="LearningRate" modified="No">2.000000e-02</Option>
    <Option name="DecayRate" modified="No">1.000000e-02</Option>
    <Option name="TestRate" modified="Yes">5</Option>
    <Option name="EpochMonitoring" modified="No">False</Option>
    <Option name="Sampling" modified="No">1.000000e+00</Option>
    <Option name="SamplingEpoch" modified="No">1.000000e+00</Option>
    <Option name="SamplingImportance" modified="No">1.000000e+00</Option>
    <Option name="SamplingTraining" modified="No">True</Option>
    <Option name="SamplingTesting" modified="No">False</Option>
    <Option name="ResetStep" modified="No">50</Option>
    <Option name="Tau" modified="No">3.000000e+00</Option>
    <Option name="BPMode" modified="No">sequential</Option>
    <Option name="BatchSize" modified="No">-1</Option>
    <Option name="ConvergenceImprove" modified="No">1.000000e-30</Option>
    <Option name="ConvergenceTests" modified="No">-1</Option>
    <Option name="UseRegulator" modified="Yes">False</Option>
    <Option name="UpdateLimit" modified="No">10000</Option>
    <Option name="CalculateErrors" modified="No">False</Option>
    <Option name="WeightRange" modified="No">1.000000e+00</Option>
  </Options>
  <Variables NVar="11">
    <Variable VarIndex="0" Expression="dR_l1l2" Label="dR_l1l2" Title="dR_l1l2" Unit="" Internal="dR_l1l2" Type="F" Min="7.10297823e-02" Max="3.29981375e+00"/>
    <Variable VarIndex="1" Expression="dR_b1b2" Label="dR_b1b2" Title="dR_b1b2" Unit="" Internal="dR_b1b2" Type="F" Min="3.73879045e-01" Max="4.99732256e+00"/>
    <Variable VarIndex="2" Expression="dR_bl" Label="dR_bl" Title="dR_bl" Unit="" Internal="dR_bl" Type="F" Min="4.00089145e-01" Max="4.99432611e+00"/>
    <Variable VarIndex="3" Expression="dR_l1l2b1b2" Label="dR_l1l2b1b2" Title="dR_l1l2b1b2" Unit="" Internal="dR_l1l2b1b2" Type="F" Min="5.75727969e-03" Max="5.99961948e+00"/>
    <Variable VarIndex="4" Expression="MINdR_bl" Label="MINdR_bl" Title="MINdR_bl" Unit="" Internal="MINdR_bl" Type="F" Min="4.00001377e-01" Max="3.19991016e+00"/>
    <Variable VarIndex="5" Expression="dphi_l1l2b1b2" Label="dphi_l1l2b1b2" Title="dphi_l1l2b1b2" Unit="" Internal="dphi_l1l2b1b2" Type="F" Min="1.76370463e-06" Max="3.14159226e+00"/>
    <Variable VarIndex="6" Expression="mass_l1l2" Label="mass_l1l2" Title="mass_l1l2" Unit="" Internal="mass_l1l2" Type="F" Min="5.00631237e+00" Max="9.99998550e+01"/>
    <Variable VarIndex="7" Expression="mass_b1b2" Label="mass_b1b2" Title="mass_b1b2" Unit="" Internal="mass_b1b2" Type="F" Min="2.20002632e+01" Max="6.99751221e+02"/>
    <Variable VarIndex="8" Expression="mass_trans" Label="mass_trans" Title="mass_trans" Unit="" Internal="mass_trans" Type="F" Min="0.00000000e+00" Max="2.49991043e+02"/>
    <Variable VarIndex="9" Expression="MT2" Label="MT2" Title="MT2" Unit="" Internal="MT2" Type="F" Min="2.23099918e+01" Max="3.99925476e+02"/>
    <Variable VarIndex="10" Expression="pt_b1b2" Label="pt_b1b2" Title="pt_b1b2" Unit="" Internal="pt_b1b2" Type="F" Min="1.50757179e-01" Max="2.99963409e+02"/>
  </Variables>
  <Spectators NSpec="0"/>
  <Classes NClass="2">
    <Class Name="Signal" Index="0"/>
    <Class Name="Background" Index="1"/>
  </Classes>
  <Transformations NTransformations="1">
    <Transform Name="Normalize">
      <Selection>
        <Input NInputs="11">
          <Input Type="Variable" Label="dR_l1l2" Expression="dR_l1l2"/>
          <Input Type="Variable" Label="dR_b1b2" Expression="dR_b1b2"/>
          <Input Type="Variable" Label="dR_bl" Expression="dR_bl"/>
          <Input Type="Variable" Label="dR_l1l2b1b2" Expression="dR_l1l2b1b2"/>
          <Input Type="Variable" Label="MINdR_bl" Expression="MINdR_bl"/>
          <Input Type="Variable" Label="dphi_l1l2b1b2" Expression="dphi_l1l2b1b2"/>
          <Input Type="Variable" Label="mass_l1l2" Expression="mass_l1l2"/>
          <Input Type="Variable" Label="mass_b1b2" Expression="mass_b1b2"/>
          <Input Type="Variable" Label="mass_trans" Expression="mass_trans"/>
          <Input Type="Variable" Label="MT2" Expression="MT2"/>
          <Input Type="Variable" Label="pt_b1b2" Expression="pt_b1b2"/>
        </Input>
        <Output NOutputs="11">
          <Output Type="Variable" Label="dR_l1l2" Expression="dR_l1l2"/>
          <Output Type="Variable" Label="dR_b1b2" Expression="dR_b1b2"/>
          <Output Type="Variable" Label="dR_bl" Expression="dR_bl"/>
          <Output Type="Variable" Label="dR_l1l2b1b2" Expression="dR_l1l2b1b2"/>
          <Output Type="Variable" Label="MINdR_bl" Expression="MINdR_bl"/>
          <Output Type="Variable" Label="dphi_l1l2b1b2" Expression="dphi_l1l2b1b2"/>
          <Output Type="Variable" Label="mass_l1l2" Expression="mass_l1l2"/>
          <Output Type="Variable" Label="mass_b1b2" Expression="mass_b1b2"/>
          <Output Type="Variable" Label="mass_trans" Expression="mass_trans"/>
          <Output Type="Variable" Label="MT2" Expression="MT2"/>
          <Output Type="Variable" Label="pt_b1b2" Expression="pt_b1b2"/>
        </Output>
      </Selection>
      <Class ClassIndex="0">
        <Ranges>
          <Range Index="0" Min="7.1029782295227051e-02" Max="3.2480924129486084e+00"/>
          <Range Index="1" Min="3.9439776539802551e-01" Max="4.8675541877746582e+00"/>
          <Range Index="2" Min="4.2826882004737854e-01" Max="4.5548105239868164e+00"/>
          <Range Index="3" Min="4.8230913281440735e-01" Max="5.5431914329528809e+00"/>
          <Range Index="4" Min="4.0323784947395325e-01" Max="3.1862764358520508e+00"/>
          <Range Index="5" Min="5.0385412760078907e-03" Max="3.1415281295776367e+00"/>
          <Range Index="6" Min="5.0063123703002930e+00" Max="9.2883369445800781e+01"/>
          <Range Index="7" Min="2.2549150466918945e+01" Max="6.5601672363281250e+02"/>
          <Range Index="8" Min="1.9958814606070518e-02" Max="2.4925128173828125e+02"/>
          <Range Index="9" Min="4.9734783172607422e+01" Max="3.9592901611328125e+02"/>
          <Range Index="10" Min="2.8482723236083984e+00" Max="2.9527539062500000e+02"/>
        </Ranges>
      </Class>
      <Class ClassIndex="1">
        <Ranges>
          <Range Index="0" Min="7.4289560317993164e-02" Max="3.2998137474060059e+00"/>
          <Range Index="1" Min="3.7387904524803162e-01" Max="4.9973225593566895e+00"/>
          <Range Index="2" Min="4.0008914470672607e-01" Max="4.9943261146545410e+00"/>
          <Range Index="3" Min="5.7572796940803528e-03" Max="5.9996194839477539e+00"/>
          <Range Index="4" Min="4.0000137686729431e-01" Max="3.1999101638793945e+00"/>
          <Range Index="5" Min="1.7637046312302118e-06" Max="3.1415922641754150e+00"/>
          <Range Index="6" Min="5.0086078643798828e+00" Max="9.9999855041503906e+01"/>
          <Range Index="7" Min="2.2000263214111328e+01" Max="6.9975122070312500e+02"/>
          <Range Index="8" Min="0.0000000000000000e+00" Max="2.4999104309082031e+02"/>
          <Range Index="9" Min="2.2309991836547852e+01" Max="3.9992547607421875e+02"/>
          <Range Index="10" Min="1.5075717866420746e-01" Max="2.9996340942382812e+02"/>
        </Ranges>
      </Class>
      <Class ClassIndex="2">
        <Ranges>
          <Range Index="0" Min="7.1029782295227051e-02" Max="3.2998137474060059e+00"/>
          <Range Index="1" Min="3.7387904524803162e-01" Max="4.9973225593566895e+00"/>
          <Range Index="2" Min="4.0008914470672607e-01" Max="4.9943261146545410e+00"/>
          <Range Index="3" Min="5.7572796940803528e-03" Max="5.9996194839477539e+00"/>
          <Range Index="4" Min="4.0000137686729431e-01" Max="3.1999101638793945e+00"/>
          <Range Index="5" Min="1.7637046312302118e-06" Max="3.1415922641754150e+00"/>
          <Range Index="6" Min="5.0063123703002930e+00" Max="9.9999855041503906e+01"/>
          <Range Index="7" Min="2.2000263214111328e+01" Max="6.9975122070312500e+02"/>
          <Range Index="8" Min="0.0000000000000000e+00" Max="2.4999104309082031e+02"/>
          <Range Index="9" Min="2.2309991836547852e+01" Max="3.9992547607421875e+02"/>
          <Range Index="10" Min="1.5075717866420746e-01" Max="2.9996340942382812e+02"/>
        </Ranges>
      </Class>
    </Transform>
  </Transformations>
  <MVAPdfs/>
  <Weights>
    <Layout NLayers="3">
      <Layer Index="0" NNeurons="12">
        <Neuron NSynapses="16">
          2.5296617099880597e-01 1.7061436543144197e+00 1.1488283710336034e+00 1.7571885332104407e+00 -6.4996199151062162e-01 -1.2670345506520684e+00 4.6456211947877168e-01 1.8671002069558955e+00 2.5067342459264352e-01 -1.6017254628907113e-01 -1.7929003125610496e+00 -3.2919298282798204e-01 -2.1332648441807045e+00 -4.0046532408088842e-01 -5.2431041294986214e-01 5.1946447804686713e-01 
        </Neuron>
        <Neuron NSynapses="16">
          -1.0034604063928194e+00 -1.4965097542151107e+00 1.0042009309444913e-01 1.3899762760875072e+00 3.0265251980326635e-01 -1.0013758592682933e+00 -2.4195238198983229e+00 2.7014170080686556e-01 -2.2366942351231058e+00 -1.7824994941497507e-01 1.2447190823757901e+00 -2.6017916078441763e+00 -1.6704567854422370e+00 3.3777435765174962e-01 2.0901165146002891e+00 8.5133928067762064e+00 
        </Neuron>
        <Neuron NSynapses="16">
          -3.1081342985531202e-01 1.1826800450339072e+00 -2.2382174327459126e-01 -2.9527804066926394e-01 2.0267893860207165e-02 1.9352976406611124e+00 -1.7899936593258567e-01 1.1139547830643157e+00 4.7969902720931018e-01 1.0357338404691523e+00 1.6970829494483721e+00 8.8359719038688944e-02 1.4239696880508557e-01 -1.3155260828907309e+00 8.5365018329496653e-02 1.9645193865033117e-01 
        </Neuron>
        <Neuron NSynapses="16">
          1.7185754558618669e+00 1.4455225083441594e+00 2.5186987751007678e-01 1.3991417385898106e+00 -7.0240798519768899e-01 1.4029419258061604e+00 6.4409514040832838e-01 -7.2739768312143083e-01 -1.8279084872376794e+00 -1.8022185483411599e+00 1.3490256528562037e+00 1.1085768843265207e+00 -1.5885050417240441e+00 3.2505232220457897e-01 -6.2221496145207467e-01 -1.0344250882733470e+00 
        </Neuron>
        <Neuron NSynapses="16">
          1.0747354106718749e+00 -1.1442092909220233e-01 3.0519210983127953e-01 -1.1465127908303536e+00 9.2458151612411194e-02 -6.2786720392754303e-01 1.7200749841790205e-01 -1.4090988106447526e+00 -1.8469664118029465e-02 1.0132762083907407e+00 1.4027608708665960e+00 7.9585697660267596e-01 3.5040259894108089e-01 -1.7282852396267911e+00 -1.4646365928824950e-01 -1.0913850530032840e-01 
        </Neuron>
        <Neuron NSynapses="16">
          8.3377088321050263e-01 -1.2252575440666087e+00 1.1233998285135642e+00 -7.3716309531917013e-01 -5.3025549220986304e-02 -3.1985666944283986e-01 -8.1919839473719847e-01 -1.1411876299551604e+00 -1.7310058635760761e+00 -1.2410750955091592e+00 -3.6684902468304775e-01 -3.7598895947124877e-01 1.6123087300403585e+00 -1.6012934339809854e+00 8.7272232151834739e-01 -6.2140469852303859e-01 
        </Neuron>
        <Neuron NSynapses="16">
          -3.9519765033199672e-01 5.8074771164814409e-01 -1.6933001442907760e+00 8.7394453391109142e-02 -1.9270159192039260e+00 -1.6539524621318804e+00 3.4600856519090839e-02 1.5917311313417417e+00 -6.4860834741326390e-01 2.6126599444979841e+00 -1.1512637264393200e+00 -1.7643244989150564e+00 2.9727532021228287e-01 4.1713005446560009e-01 -1.3320966915316373e-01 4.4315262985017845e-01 
        </Neuron>
        <Neuron NSynapses="16">
          8.8430427885128005e-01 -1.4555743106816008e+00 -2.6008356381756492e+00 1.7564252713568427e+00 -4.6384649668116895e-02 -9.2166282596971172e-01 6.0165825605000620e+00 -9.3789435246015052e-01 -1.9596332661500850e+00 6.7245163647321493e-01 -3.6734341452347019e-01 1.6964102718388219e+00 -3.2183374220547817e-01 -1.8846371099765083e-01 -5.6331023949330223e+00 3.2905482221150972e+00 
        </Neuron>
        <Neuron NSynapses="16">
          -3.0635507979029915e+00 8.9781769949184231e-01 -1.0386090154161147e+00 -1.8626707539661198e+00 3.7766690517310835e+00 -1.3670874064082428e+00 5.7034025129092281e-01 1.0001834576871627e+00 2.0067729337188878e+00 -1.7597863853970015e+00 2.5800656208842604e-01 5.6843811498390817e-01 -3.2118211122807466e-01 6.9737405627027793e-01 -5.8520999586683697e-01 6.7334495210521428e-01 
        </Neuron>
        <Neuron NSynapses="16">
          -1.3467750704415276e+00 2.6578360111589374e+00 1.0272172534291006e+00 -4.7917376125175720e-01 -3.2932020513824167e-01 3.0610928788933195e-01 -4.3493418918754401e+00 6.4350287942388584e-01 1.5169313081994364e+00 -6.3960703210210679e-01 -6.3635579390640373e-01 1.0191705726285931e+00 2.2594006638997928e+00 5.3233999343947913e-01 4.0552059954883735e+00 -4.1569819272311426e+00 
        </Neuron>
        <Neuron NSynapses="16">
          1.0219137856679041e+00 1.8867598649336761e+00 1.8279853913614685e+00 5.2697367398802830e-01 6.3604547771625364e-01 -1.8078481455403517e-01 -1.9921616873210439e+00 9.4907300623736934e-01 -2.2838835271859262e-01 -5.1519202281721088e-01 1.6640718907045551e+00 1.2636926495993366e+00 8.0332019154547984e-01 1.4027167663193225e+00 1.8093379513673984e+00 -1.6086048842845067e+00 
        </Neuron>
        <Neuron NSynapses="16">
          -3.1238375195582874e-01 -4.2091665258376540e+00 -6.0346851788428857e-01 -1.6303027914601467e+00 -1.8383461407827160e+00 1.1583780657276845e+00 4.2841742529638491e+00 -1.9928774823732054e+00 4.1474804922044256e-01 -1.1958898986865196e+00 2.7502972529436948e-01 8.9081000319078218e-01 -1.5459745606331656e+00 -2.1236120659542046e-01 -4.0838686563569571e+00 1.0341368832097125e+01 
        </Neuron>
      </Layer>
      <Layer Index="1" NNeurons="17">
        <Neuron NSynapses="1">
          1.9226557873474884e-02 
        </Neuron>
        <Neuron NSynapses="1">
          8.9189493303256095e-02 
        </Neuron>
        <Neuron NSynapses="1">
          -2.1894150985174839e-02 
        </Neuron>
        <Neuron NSynapses="1">
          3.3831120565731808e-03 
        </Neuron>
        <Neuron NSynapses="1">
          -1.4824870578939846e-02 
        </Neuron>
        <Neuron NSynapses="1">
          -2.0130845176021782e-03 
        </Neuron>
        <Neuron NSynapses="1">
          2.6662363500654420e+00 
        </Neuron>
        <Neuron NSynapses="1">
          1.2003251463089061e-03 
        </Neuron>
        <Neuron NSynapses="1">
          1.3445360470328618e-02 
        </Neuron>
        <Neuron NSynapses="1">
          -7.6997167076204099e-03 
        </Neuron>
        <Neuron NSynapses="1">
          2.6116498434300894e-03 
        </Neuron>
        <Neuron NSynapses="1">
          2.4754815642647345e-02 
        </Neuron>
        <Neuron NSynapses="1">
          -3.9315505834267614e-02 
        </Neuron>
        <Neuron NSynapses="1">
          -5.5543105260580450e-03 
        </Neuron>
        <Neuron NSynapses="1">
          2.8209266040158654e+00 
        </Neuron>
        <Neuron NSynapses="1">
          1.7992284925131252e-01 
        </Neuron>
        <Neuron NSynapses="1">
          3.3858049094302518e-02 
        </Neuron>
      </Layer>
      <Layer Index="2" NNeurons="1">
        <Neuron NSynapses="0"/>
      </Layer>
    </Layout>
  </Weights>
</MethodSetup>
