<?xml version="1.0"?>
<MethodSetup Method="MLP::MLP">
  <GeneralInfo>
    <Info name="TMVA Release" value="4.1.2 [262402]"/>
    <Info name="ROOT Release" value="5.32/04 [335876]"/>
    <Info name="Creator" value="lpernie"/>
    <Info name="Date" value="Fri Jul 15 14:16:59 2016"/>
    <Info name="Host" value="Linux login01.brazos.tamu.edu 2.6.32-431.23.3.el6.x86_64 #1 SMP Thu Jul 31 17:20:51 UTC 2014 x86_64 x86_64 x86_64 GNU/Linux"/>
    <Info name="Dir" value="/home/lpernie/Hhh/delphes/diHiggs/MVAs"/>
    <Info name="Training events" value="191395"/>
    <Info name="TrainingTime" value="2.31631847e+03"/>
    <Info name="AnalysisType" value="Classification"/>
  </GeneralInfo>
  <Options>
    <Option name="NCycles" modified="Yes">600</Option>
    <Option name="HiddenLayers" modified="Yes">N+5</Option>
    <Option name="NeuronType" modified="Yes">tanh</Option>
    <Option name="RandomSeed" modified="No">1</Option>
    <Option name="EstimatorType" modified="No">MSE</Option>
    <Option name="NeuronInputType" modified="No">sum</Option>
    <Option name="V" modified="Yes">False</Option>
    <Option name="VerbosityLevel" modified="No">Default</Option>
    <Option name="VarTransform" modified="Yes">N</Option>
    <Option name="H" modified="Yes">True</Option>
    <Option name="CreateMVAPdfs" modified="No">False</Option>
    <Option name="IgnoreNegWeightsInTraining" modified="No">False</Option>
    <Option name="TrainingMethod" modified="No">BP</Option>
    <Option name="LearningRate" modified="No">2.000000e-02</Option>
    <Option name="DecayRate" modified="No">1.000000e-02</Option>
    <Option name="TestRate" modified="Yes">5</Option>
    <Option name="EpochMonitoring" modified="No">False</Option>
    <Option name="Sampling" modified="No">1.000000e+00</Option>
    <Option name="SamplingEpoch" modified="No">1.000000e+00</Option>
    <Option name="SamplingImportance" modified="No">1.000000e+00</Option>
    <Option name="SamplingTraining" modified="No">True</Option>
    <Option name="SamplingTesting" modified="No">False</Option>
    <Option name="ResetStep" modified="No">50</Option>
    <Option name="Tau" modified="No">3.000000e+00</Option>
    <Option name="BPMode" modified="No">sequential</Option>
    <Option name="BatchSize" modified="No">-1</Option>
    <Option name="ConvergenceImprove" modified="No">1.000000e-30</Option>
    <Option name="ConvergenceTests" modified="No">-1</Option>
    <Option name="UseRegulator" modified="Yes">False</Option>
    <Option name="UpdateLimit" modified="No">10000</Option>
    <Option name="CalculateErrors" modified="No">False</Option>
    <Option name="WeightRange" modified="No">1.000000e+00</Option>
  </Options>
  <Variables NVar="11">
    <Variable VarIndex="0" Expression="dR_l1l2" Label="dR_l1l2" Title="dR_l1l2" Unit="" Internal="dR_l1l2" Type="F" Min="7.35708028e-02" Max="3.29995322e+00"/>
    <Variable VarIndex="1" Expression="dR_b1b2" Label="dR_b1b2" Title="dR_b1b2" Unit="" Internal="dR_b1b2" Type="F" Min="3.89288872e-01" Max="4.99817085e+00"/>
    <Variable VarIndex="2" Expression="dR_bl" Label="dR_bl" Title="dR_bl" Unit="" Internal="dR_bl" Type="F" Min="4.00014162e-01" Max="4.99972916e+00"/>
    <Variable VarIndex="3" Expression="dR_l1l2b1b2" Label="dR_l1l2b1b2" Title="dR_l1l2b1b2" Unit="" Internal="dR_l1l2b1b2" Type="F" Min="4.42243833e-03" Max="5.99961948e+00"/>
    <Variable VarIndex="4" Expression="MINdR_bl" Label="MINdR_bl" Title="MINdR_bl" Unit="" Internal="MINdR_bl" Type="F" Min="4.00007665e-01" Max="3.19892526e+00"/>
    <Variable VarIndex="5" Expression="dphi_l1l2b1b2" Label="dphi_l1l2b1b2" Title="dphi_l1l2b1b2" Unit="" Internal="dphi_l1l2b1b2" Type="F" Min="6.74796684e-05" Max="3.14159226e+00"/>
    <Variable VarIndex="6" Expression="mass_l1l2" Label="mass_l1l2" Title="mass_l1l2" Unit="" Internal="mass_l1l2" Type="F" Min="5.00372505e+00" Max="9.99998550e+01"/>
    <Variable VarIndex="7" Expression="mass_b1b2" Label="mass_b1b2" Title="mass_b1b2" Unit="" Internal="mass_b1b2" Type="F" Min="2.22057133e+01" Max="6.99396729e+02"/>
    <Variable VarIndex="8" Expression="mass_trans" Label="mass_trans" Title="mass_trans" Unit="" Internal="mass_trans" Type="F" Min="0.00000000e+00" Max="2.49991043e+02"/>
    <Variable VarIndex="9" Expression="MT2" Label="MT2" Title="MT2" Unit="" Internal="MT2" Type="F" Min="2.23099918e+01" Max="3.99925476e+02"/>
    <Variable VarIndex="10" Expression="pt_b1b2" Label="pt_b1b2" Title="pt_b1b2" Unit="" Internal="pt_b1b2" Type="F" Min="1.50757179e-01" Max="2.99963409e+02"/>
  </Variables>
  <Spectators NSpec="0"/>
  <Classes NClass="2">
    <Class Name="Signal" Index="0"/>
    <Class Name="Background" Index="1"/>
  </Classes>
  <Transformations NTransformations="1">
    <Transform Name="Normalize">
      <Selection>
        <Input NInputs="11">
          <Input Type="Variable" Label="dR_l1l2" Expression="dR_l1l2"/>
          <Input Type="Variable" Label="dR_b1b2" Expression="dR_b1b2"/>
          <Input Type="Variable" Label="dR_bl" Expression="dR_bl"/>
          <Input Type="Variable" Label="dR_l1l2b1b2" Expression="dR_l1l2b1b2"/>
          <Input Type="Variable" Label="MINdR_bl" Expression="MINdR_bl"/>
          <Input Type="Variable" Label="dphi_l1l2b1b2" Expression="dphi_l1l2b1b2"/>
          <Input Type="Variable" Label="mass_l1l2" Expression="mass_l1l2"/>
          <Input Type="Variable" Label="mass_b1b2" Expression="mass_b1b2"/>
          <Input Type="Variable" Label="mass_trans" Expression="mass_trans"/>
          <Input Type="Variable" Label="MT2" Expression="MT2"/>
          <Input Type="Variable" Label="pt_b1b2" Expression="pt_b1b2"/>
        </Input>
        <Output NOutputs="11">
          <Output Type="Variable" Label="dR_l1l2" Expression="dR_l1l2"/>
          <Output Type="Variable" Label="dR_b1b2" Expression="dR_b1b2"/>
          <Output Type="Variable" Label="dR_bl" Expression="dR_bl"/>
          <Output Type="Variable" Label="dR_l1l2b1b2" Expression="dR_l1l2b1b2"/>
          <Output Type="Variable" Label="MINdR_bl" Expression="MINdR_bl"/>
          <Output Type="Variable" Label="dphi_l1l2b1b2" Expression="dphi_l1l2b1b2"/>
          <Output Type="Variable" Label="mass_l1l2" Expression="mass_l1l2"/>
          <Output Type="Variable" Label="mass_b1b2" Expression="mass_b1b2"/>
          <Output Type="Variable" Label="mass_trans" Expression="mass_trans"/>
          <Output Type="Variable" Label="MT2" Expression="MT2"/>
          <Output Type="Variable" Label="pt_b1b2" Expression="pt_b1b2"/>
        </Output>
      </Selection>
      <Class ClassIndex="0">
        <Ranges>
          <Range Index="0" Min="9.8217926919460297e-02" Max="3.2668581008911133e+00"/>
          <Range Index="1" Min="3.9624330401420593e-01" Max="4.9881949424743652e+00"/>
          <Range Index="2" Min="4.0639847517013550e-01" Max="4.5266938209533691e+00"/>
          <Range Index="3" Min="1.9937148690223694e-01" Max="5.6461782455444336e+00"/>
          <Range Index="4" Min="4.0562251210212708e-01" Max="3.0966775417327881e+00"/>
          <Range Index="5" Min="9.8062213510274887e-03" Max="3.1410322189331055e+00"/>
          <Range Index="6" Min="5.0823063850402832e+00" Max="8.9459236145019531e+01"/>
          <Range Index="7" Min="2.4136386871337891e+01" Max="6.9712091064453125e+02"/>
          <Range Index="8" Min="1.0290610790252686e-01" Max="2.2411717224121094e+02"/>
          <Range Index="9" Min="3.7790966033935547e+01" Max="3.7682971191406250e+02"/>
          <Range Index="10" Min="1.8165872097015381e+00" Max="2.8107382202148438e+02"/>
        </Ranges>
      </Class>
      <Class ClassIndex="1">
        <Ranges>
          <Range Index="0" Min="7.3570802807807922e-02" Max="3.2999532222747803e+00"/>
          <Range Index="1" Min="3.8928887248039246e-01" Max="4.9981708526611328e+00"/>
          <Range Index="2" Min="4.0001416206359863e-01" Max="4.9997291564941406e+00"/>
          <Range Index="3" Min="4.4224383309483528e-03" Max="5.9996194839477539e+00"/>
          <Range Index="4" Min="4.0000766515731812e-01" Max="3.1989252567291260e+00"/>
          <Range Index="5" Min="6.7479668359737843e-05" Max="3.1415922641754150e+00"/>
          <Range Index="6" Min="5.0037250518798828e+00" Max="9.9999855041503906e+01"/>
          <Range Index="7" Min="2.2205713272094727e+01" Max="6.9939672851562500e+02"/>
          <Range Index="8" Min="0.0000000000000000e+00" Max="2.4999104309082031e+02"/>
          <Range Index="9" Min="2.2309991836547852e+01" Max="3.9992547607421875e+02"/>
          <Range Index="10" Min="1.5075717866420746e-01" Max="2.9996340942382812e+02"/>
        </Ranges>
      </Class>
      <Class ClassIndex="2">
        <Ranges>
          <Range Index="0" Min="7.3570802807807922e-02" Max="3.2999532222747803e+00"/>
          <Range Index="1" Min="3.8928887248039246e-01" Max="4.9981708526611328e+00"/>
          <Range Index="2" Min="4.0001416206359863e-01" Max="4.9997291564941406e+00"/>
          <Range Index="3" Min="4.4224383309483528e-03" Max="5.9996194839477539e+00"/>
          <Range Index="4" Min="4.0000766515731812e-01" Max="3.1989252567291260e+00"/>
          <Range Index="5" Min="6.7479668359737843e-05" Max="3.1415922641754150e+00"/>
          <Range Index="6" Min="5.0037250518798828e+00" Max="9.9999855041503906e+01"/>
          <Range Index="7" Min="2.2205713272094727e+01" Max="6.9939672851562500e+02"/>
          <Range Index="8" Min="0.0000000000000000e+00" Max="2.4999104309082031e+02"/>
          <Range Index="9" Min="2.2309991836547852e+01" Max="3.9992547607421875e+02"/>
          <Range Index="10" Min="1.5075717866420746e-01" Max="2.9996340942382812e+02"/>
        </Ranges>
      </Class>
    </Transform>
  </Transformations>
  <MVAPdfs/>
  <Weights>
    <Layout NLayers="3">
      <Layer Index="0" NNeurons="12">
        <Neuron NSynapses="16">
          2.2455196271391106e-01 1.1056258159765537e+00 -1.4980848988051972e-02 9.7721229707558377e-01 -1.4291969531908337e+00 -8.3735623324757325e-01 -7.3298794599843023e-02 1.1358242729543857e+00 -5.6765427602643914e-01 -1.1939120360536590e+00 -9.3145626541663040e-01 7.3231436089967045e-02 -3.0035404462612952e-01 -5.8484526437190998e-01 -1.2401120445051272e-01 8.2586908201180897e-01 
        </Neuron>
        <Neuron NSynapses="16">
          2.2314229015828774e-02 6.1343365623545776e-01 -2.0914772562060024e+00 1.0944210795210214e+00 -1.9559146963649321e-01 -8.6064395677495875e-01 2.6765900311661510e+00 3.7106746287491360e-01 -8.7593497042134516e-01 -2.3981893086108219e-01 1.5310762135623925e+00 -7.5196516879634601e-01 -1.3037662033086361e+00 -6.4709972495418404e-03 7.8161767467416776e-01 1.4572529480851228e+00 
        </Neuron>
        <Neuron NSynapses="16">
          -2.2739409396589286e-01 -3.0703905215684629e-01 5.9609915399737945e-01 -5.3143496458519490e-01 -1.0725379136149260e+00 1.6727672471222896e+00 -6.7337005645514103e-01 6.4792180912263042e-01 1.2622222557406915e+00 6.8240353635172013e-01 1.4585821568871602e+00 2.2145569008810570e-01 -3.3855231765700172e-01 -8.3341524986869997e-01 7.7259423097459012e-01 -2.4727811608047875e-01 
        </Neuron>
        <Neuron NSynapses="16">
          1.4806911942560133e+00 8.5735085743952888e-01 9.9837129475374597e-01 1.1182597881263237e+00 -1.3746092272444133e+00 1.3578927245240990e+00 -1.0133172179966974e+00 -1.0531204343939640e+00 -1.0603806151183213e+00 -1.2993143518373715e+00 1.2644689441911454e+00 5.1408171702449168e-01 -1.2925210678768566e+00 7.4478972976417535e-01 -1.6218692840570029e-01 4.0397436557000904e-01 
        </Neuron>
        <Neuron NSynapses="16">
          1.5240885671722608e+00 -2.3700557252684221e-01 1.1381674553048854e-01 -1.1528929552588170e+00 6.5930553563307137e-01 -2.1279251734087973e-01 -1.2667258213690691e-01 -1.7875687417095667e+00 6.0512850637344151e-01 6.9471288266085185e-01 6.5446594366420452e-01 -3.6645077396817111e-01 -1.0787351085927055e+00 -8.6498430372215773e-01 6.7754411569376294e-01 1.3195646660072749e-01 
        </Neuron>
        <Neuron NSynapses="16">
          6.6015752167557906e-01 4.2772975624953130e-01 -4.5219457370715271e-01 1.7110843980577281e-01 -3.6833057443780071e-01 -7.0843897849786275e-01 5.9131514697503029e-01 -3.2599613868964444e-01 -1.1767749659093973e+00 -4.7830771491465324e-01 -9.1152497529552012e-01 6.3608623664130215e-01 1.3122893437355942e+00 -3.5826981440119765e-01 -5.9812460245099575e-01 6.4377840940085707e-01 
        </Neuron>
        <Neuron NSynapses="16">
          -6.0963765189981745e-01 -1.4663555449899288e+00 -4.8213858498900719e-01 -2.0652574977998467e-01 -1.0959698533781399e+00 -9.4452395544863932e-01 2.3406992309819577e-01 9.0338557493963945e-01 -3.4118613027364142e-01 1.4339304197120644e+00 -4.9431693631635415e-01 1.8066728793912051e-01 -2.5359720716151846e-01 2.5566389703462222e-01 -1.2819667308959204e+00 3.3893354946389020e-01 
        </Neuron>
        <Neuron NSynapses="16">
          1.1060992006760428e+00 -5.1093382047352809e-01 -2.9403278902033891e+00 6.2660969714354120e-01 4.7509721663782450e-01 1.4020752023311527e-02 2.1868198175238391e+00 -2.2833716765562388e+00 -1.1354716937836695e+00 2.8920729477362800e-01 -2.6252040397446652e-01 6.1949970440561131e-01 1.0012461546575220e+00 -5.0065707464457410e-01 -5.1051473886342724e-01 5.0746274674241076e-01 
        </Neuron>
        <Neuron NSynapses="16">
          -1.2307678585820261e+00 1.1530953704577036e+00 -4.7254783629276559e-01 -2.0132421782716512e+00 5.9455422665763591e-01 -7.2450850832660008e-01 3.4955881494042579e-01 3.6664434458199108e-01 1.5188257093742212e+00 -1.3592665084786302e+00 3.3943697864040889e-01 1.0554121900655253e-02 7.2596539303165464e-01 1.3913797609243819e-01 -1.3230195290739188e+00 -1.3239320749410566e-01 
        </Neuron>
        <Neuron NSynapses="16">
          -9.2682409944420419e-01 9.6111802506190125e-01 1.3571734477991304e+00 -1.1972840541254337e+00 -3.4077106171715926e-01 6.9361311560611605e-01 -1.4694833819223552e+00 -3.7545469715314073e-01 1.8274786161865031e+00 -7.2903792554367430e-01 -6.3087535941155071e-01 -5.1249649740397685e-01 8.4976783110297627e-01 2.8904617541307442e-01 7.8021967928408165e-01 -1.2410084057658179e+00 
        </Neuron>
        <Neuron NSynapses="16">
          1.8937945631301030e+00 7.6966270353569322e-01 1.6586235085328560e-01 -2.3523331852492832e-01 9.3847440555971218e-01 3.4236909776847219e-01 1.1691690272087742e-01 -2.5311497796592436e-01 -7.7870901260142122e-01 -5.6609484801833299e-01 1.6161663468833554e+00 -1.2716520430544939e-01 -5.5923088036608437e-01 1.0724669651353005e+00 1.6219732588913387e+00 -1.3096585204184035e+00 
        </Neuron>
        <Neuron NSynapses="16">
          -8.4527085633277899e-01 7.6903696573561509e-01 -2.1980051689647890e+00 2.1144364230199297e-01 -1.6126164734853337e+00 -7.8053466647963121e-01 2.0225428290685308e+00 6.6249182920069127e-01 -7.2807132087724935e-01 -1.3988504614952574e-01 -7.9357531826709224e-02 3.3503069323173458e+00 -6.7874607146081567e-01 2.9954925599788262e-01 -1.0060294707176998e+00 3.4770988056340119e-01 
        </Neuron>
      </Layer>
      <Layer Index="1" NNeurons="17">
        <Neuron NSynapses="1">
          -8.6735519724391828e-03 
        </Neuron>
        <Neuron NSynapses="1">
          2.8291681452468923e-02 
        </Neuron>
        <Neuron NSynapses="1">
          1.9752118811619412e-01 
        </Neuron>
        <Neuron NSynapses="1">
          -8.3705421211664516e-04 
        </Neuron>
        <Neuron NSynapses="1">
          -8.8505902658349428e-03 
        </Neuron>
        <Neuron NSynapses="1">
          1.7263776381833656e-02 
        </Neuron>
        <Neuron NSynapses="1">
          2.0019779279493691e-01 
        </Neuron>
        <Neuron NSynapses="1">
          -2.3503035242159576e-02 
        </Neuron>
        <Neuron NSynapses="1">
          -1.0334169303112411e-02 
        </Neuron>
        <Neuron NSynapses="1">
          2.6417717705726190e-02 
        </Neuron>
        <Neuron NSynapses="1">
          -1.1115769169996721e-02 
        </Neuron>
        <Neuron NSynapses="1">
          -8.8381752955397808e-01 
        </Neuron>
        <Neuron NSynapses="1">
          4.7688113823632930e-04 
        </Neuron>
        <Neuron NSynapses="1">
          6.1045545933635726e-03 
        </Neuron>
        <Neuron NSynapses="1">
          -1.6971664426240179e-02 
        </Neuron>
        <Neuron NSynapses="1">
          -1.3181150856579509e-03 
        </Neuron>
        <Neuron NSynapses="1">
          8.6241201309029580e-01 
        </Neuron>
      </Layer>
      <Layer Index="2" NNeurons="1">
        <Neuron NSynapses="0"/>
      </Layer>
    </Layout>
  </Weights>
</MethodSetup>
