<?xml version="1.0"?>
<MethodSetup Method="MLP::MLP">
  <GeneralInfo>
    <Info name="TMVA Release" value="4.1.2 [262402]"/>
    <Info name="ROOT Release" value="5.32/04 [335876]"/>
    <Info name="Creator" value="lpernie"/>
    <Info name="Date" value="Fri May  6 11:26:58 2016"/>
    <Info name="Host" value="Linux login01.brazos.tamu.edu 2.6.32-431.23.3.el6.x86_64 #1 SMP Thu Jul 31 17:20:51 UTC 2014 x86_64 x86_64 x86_64 GNU/Linux"/>
    <Info name="Dir" value="/home/lpernie/Hhh/delphes/diHiggs/MVAs"/>
    <Info name="Training events" value="16694"/>
    <Info name="TrainingTime" value="2.01012647e+02"/>
    <Info name="AnalysisType" value="Classification"/>
  </GeneralInfo>
  <Options>
    <Option name="NCycles" modified="Yes">600</Option>
    <Option name="HiddenLayers" modified="Yes">N+5</Option>
    <Option name="NeuronType" modified="Yes">tanh</Option>
    <Option name="RandomSeed" modified="No">1</Option>
    <Option name="EstimatorType" modified="No">MSE</Option>
    <Option name="NeuronInputType" modified="No">sum</Option>
    <Option name="V" modified="Yes">False</Option>
    <Option name="VerbosityLevel" modified="No">Default</Option>
    <Option name="VarTransform" modified="Yes">N</Option>
    <Option name="H" modified="Yes">True</Option>
    <Option name="CreateMVAPdfs" modified="No">False</Option>
    <Option name="IgnoreNegWeightsInTraining" modified="No">False</Option>
    <Option name="TrainingMethod" modified="No">BP</Option>
    <Option name="LearningRate" modified="No">2.000000e-02</Option>
    <Option name="DecayRate" modified="No">1.000000e-02</Option>
    <Option name="TestRate" modified="Yes">5</Option>
    <Option name="EpochMonitoring" modified="No">False</Option>
    <Option name="Sampling" modified="No">1.000000e+00</Option>
    <Option name="SamplingEpoch" modified="No">1.000000e+00</Option>
    <Option name="SamplingImportance" modified="No">1.000000e+00</Option>
    <Option name="SamplingTraining" modified="No">True</Option>
    <Option name="SamplingTesting" modified="No">False</Option>
    <Option name="ResetStep" modified="No">50</Option>
    <Option name="Tau" modified="No">3.000000e+00</Option>
    <Option name="BPMode" modified="No">sequential</Option>
    <Option name="BatchSize" modified="No">-1</Option>
    <Option name="ConvergenceImprove" modified="No">1.000000e-30</Option>
    <Option name="ConvergenceTests" modified="No">-1</Option>
    <Option name="UseRegulator" modified="Yes">False</Option>
    <Option name="UpdateLimit" modified="No">10000</Option>
    <Option name="CalculateErrors" modified="No">False</Option>
    <Option name="WeightRange" modified="No">1.000000e+00</Option>
  </Options>
  <Variables NVar="11">
    <Variable VarIndex="0" Expression="dR_l1l2" Label="dR_l1l2" Title="dR_l1l2" Unit="" Internal="dR_l1l2" Type="F" Min="8.29277635e-02" Max="3.29991746e+00"/>
    <Variable VarIndex="1" Expression="dR_b1b2" Label="dR_b1b2" Title="dR_b1b2" Unit="" Internal="dR_b1b2" Type="F" Min="3.83386046e-01" Max="4.89946365e+00"/>
    <Variable VarIndex="2" Expression="dR_bl" Label="dR_bl" Title="dR_bl" Unit="" Internal="dR_bl" Type="F" Min="4.00819451e-01" Max="4.91523266e+00"/>
    <Variable VarIndex="3" Expression="dR_l1l2b1b2" Label="dR_l1l2b1b2" Title="dR_l1l2b1b2" Unit="" Internal="dR_l1l2b1b2" Type="F" Min="1.63523909e-02" Max="5.83634090e+00"/>
    <Variable VarIndex="4" Expression="MINdR_bl" Label="MINdR_bl" Title="MINdR_bl" Unit="" Internal="MINdR_bl" Type="F" Min="4.00819451e-01" Max="3.18153501e+00"/>
    <Variable VarIndex="5" Expression="dphi_l1l2b1b2" Label="dphi_l1l2b1b2" Title="dphi_l1l2b1b2" Unit="" Internal="dphi_l1l2b1b2" Type="F" Min="6.59405778e-04" Max="3.14149976e+00"/>
    <Variable VarIndex="6" Expression="mass_l1l2" Label="mass_l1l2" Title="mass_l1l2" Unit="" Internal="mass_l1l2" Type="F" Min="5.01698303e+00" Max="9.99996490e+01"/>
    <Variable VarIndex="7" Expression="mass_b1b2" Label="mass_b1b2" Title="mass_b1b2" Unit="" Internal="mass_b1b2" Type="F" Min="2.20024567e+01" Max="6.94895569e+02"/>
    <Variable VarIndex="8" Expression="mass_trans" Label="mass_trans" Title="mass_trans" Unit="" Internal="mass_trans" Type="F" Min="3.50274704e-02" Max="2.49843353e+02"/>
    <Variable VarIndex="9" Expression="MT2" Label="MT2" Title="MT2" Unit="" Internal="MT2" Type="F" Min="2.50663490e+01" Max="3.91314117e+02"/>
    <Variable VarIndex="10" Expression="pt_b1b2" Label="pt_b1b2" Title="pt_b1b2" Unit="" Internal="pt_b1b2" Type="F" Min="9.54420507e-01" Max="2.98936981e+02"/>
  </Variables>
  <Spectators NSpec="0"/>
  <Classes NClass="2">
    <Class Name="Signal" Index="0"/>
    <Class Name="Background" Index="1"/>
  </Classes>
  <Transformations NTransformations="1">
    <Transform Name="Normalize">
      <Selection>
        <Input NInputs="11">
          <Input Type="Variable" Label="dR_l1l2" Expression="dR_l1l2"/>
          <Input Type="Variable" Label="dR_b1b2" Expression="dR_b1b2"/>
          <Input Type="Variable" Label="dR_bl" Expression="dR_bl"/>
          <Input Type="Variable" Label="dR_l1l2b1b2" Expression="dR_l1l2b1b2"/>
          <Input Type="Variable" Label="MINdR_bl" Expression="MINdR_bl"/>
          <Input Type="Variable" Label="dphi_l1l2b1b2" Expression="dphi_l1l2b1b2"/>
          <Input Type="Variable" Label="mass_l1l2" Expression="mass_l1l2"/>
          <Input Type="Variable" Label="mass_b1b2" Expression="mass_b1b2"/>
          <Input Type="Variable" Label="mass_trans" Expression="mass_trans"/>
          <Input Type="Variable" Label="MT2" Expression="MT2"/>
          <Input Type="Variable" Label="pt_b1b2" Expression="pt_b1b2"/>
        </Input>
        <Output NOutputs="11">
          <Output Type="Variable" Label="dR_l1l2" Expression="dR_l1l2"/>
          <Output Type="Variable" Label="dR_b1b2" Expression="dR_b1b2"/>
          <Output Type="Variable" Label="dR_bl" Expression="dR_bl"/>
          <Output Type="Variable" Label="dR_l1l2b1b2" Expression="dR_l1l2b1b2"/>
          <Output Type="Variable" Label="MINdR_bl" Expression="MINdR_bl"/>
          <Output Type="Variable" Label="dphi_l1l2b1b2" Expression="dphi_l1l2b1b2"/>
          <Output Type="Variable" Label="mass_l1l2" Expression="mass_l1l2"/>
          <Output Type="Variable" Label="mass_b1b2" Expression="mass_b1b2"/>
          <Output Type="Variable" Label="mass_trans" Expression="mass_trans"/>
          <Output Type="Variable" Label="MT2" Expression="MT2"/>
          <Output Type="Variable" Label="pt_b1b2" Expression="pt_b1b2"/>
        </Output>
      </Selection>
      <Class ClassIndex="0">
        <Ranges>
          <Range Index="0" Min="8.6649775505065918e-02" Max="3.2939980030059814e+00"/>
          <Range Index="1" Min="3.9692309498786926e-01" Max="4.6556153297424316e+00"/>
          <Range Index="2" Min="4.4004163146018982e-01" Max="4.8551154136657715e+00"/>
          <Range Index="3" Min="7.0188030600547791e-02" Max="5.7813091278076172e+00"/>
          <Range Index="4" Min="4.0093678236007690e-01" Max="3.1305119991302490e+00"/>
          <Range Index="5" Min="1.5478842891752720e-02" Max="3.1411099433898926e+00"/>
          <Range Index="6" Min="5.1114249229431152e+00" Max="9.2866714477539062e+01"/>
          <Range Index="7" Min="2.2170310974121094e+01" Max="6.9489556884765625e+02"/>
          <Range Index="8" Min="3.5027470439672470e-02" Max="2.3966381835937500e+02"/>
          <Range Index="9" Min="3.7294670104980469e+01" Max="3.8228250122070312e+02"/>
          <Range Index="10" Min="2.7992348670959473e+00" Max="2.6911056518554688e+02"/>
        </Ranges>
      </Class>
      <Class ClassIndex="1">
        <Ranges>
          <Range Index="0" Min="8.2927763462066650e-02" Max="3.2999174594879150e+00"/>
          <Range Index="1" Min="3.8338604569435120e-01" Max="4.8994636535644531e+00"/>
          <Range Index="2" Min="4.0081945061683655e-01" Max="4.9152326583862305e+00"/>
          <Range Index="3" Min="1.6352390870451927e-02" Max="5.8363409042358398e+00"/>
          <Range Index="4" Min="4.0081945061683655e-01" Max="3.1815350055694580e+00"/>
          <Range Index="5" Min="6.5940577769652009e-04" Max="3.1414997577667236e+00"/>
          <Range Index="6" Min="5.0169830322265625e+00" Max="9.9999649047851562e+01"/>
          <Range Index="7" Min="2.2002456665039062e+01" Max="6.7656732177734375e+02"/>
          <Range Index="8" Min="3.7136141210794449e-02" Max="2.4984335327148438e+02"/>
          <Range Index="9" Min="2.5066349029541016e+01" Max="3.9131411743164062e+02"/>
          <Range Index="10" Min="9.5442050695419312e-01" Max="2.9893698120117188e+02"/>
        </Ranges>
      </Class>
      <Class ClassIndex="2">
        <Ranges>
          <Range Index="0" Min="8.2927763462066650e-02" Max="3.2999174594879150e+00"/>
          <Range Index="1" Min="3.8338604569435120e-01" Max="4.8994636535644531e+00"/>
          <Range Index="2" Min="4.0081945061683655e-01" Max="4.9152326583862305e+00"/>
          <Range Index="3" Min="1.6352390870451927e-02" Max="5.8363409042358398e+00"/>
          <Range Index="4" Min="4.0081945061683655e-01" Max="3.1815350055694580e+00"/>
          <Range Index="5" Min="6.5940577769652009e-04" Max="3.1414997577667236e+00"/>
          <Range Index="6" Min="5.0169830322265625e+00" Max="9.9999649047851562e+01"/>
          <Range Index="7" Min="2.2002456665039062e+01" Max="6.9489556884765625e+02"/>
          <Range Index="8" Min="3.5027470439672470e-02" Max="2.4984335327148438e+02"/>
          <Range Index="9" Min="2.5066349029541016e+01" Max="3.9131411743164062e+02"/>
          <Range Index="10" Min="9.5442050695419312e-01" Max="2.9893698120117188e+02"/>
        </Ranges>
      </Class>
    </Transform>
  </Transformations>
  <MVAPdfs/>
  <Weights>
    <Layout NLayers="3">
      <Layer Index="0" NNeurons="12">
        <Neuron NSynapses="16">
          2.0883432535466664e-01 2.0805639396029103e+00 -3.4241256207088144e-01 1.1403695704525849e+00 -2.5381243302504863e-01 -7.2842716920982797e-01 2.8184133479450590e-01 1.3490633032075681e+00 -7.2472015018184266e-01 -1.0689244692365858e+00 -1.4119301789511969e+00 -3.9547518802567583e-01 -8.3423272267079440e-01 -4.5729926837700202e-01 3.2865581662363624e-01 7.1700024024470821e-01 
        </Neuron>
        <Neuron NSynapses="16">
          3.5757584194179887e-01 1.9075228463984415e+00 -3.1931758912647279e+00 1.0818434024212920e+00 -2.1129790630461451e-01 -3.2462004654294618e-01 4.3074548069324674e+00 1.0087377519624734e+00 -1.2604750595019161e+00 3.8850657320722640e-02 1.3801342501786984e+00 -3.7946462317681329e-01 -1.5124187304344607e+00 -3.0038766566573741e-02 8.4156312546895329e-01 1.7776327022980571e+00 
        </Neuron>
        <Neuron NSynapses="16">
          -5.9388735634855125e-02 -7.4265079271119727e-01 2.1711264091612892e-01 -3.1948871421374786e-01 -6.4374622585028171e-02 1.9824487352009219e+00 -2.7657020579389496e-01 6.8343527562153328e-01 1.0235023329070727e+00 -4.8520349875620962e-02 1.3764274144312980e+00 4.6383631618989618e-02 -2.2353607505274438e-02 -1.1937015477297690e+00 2.9905363581734168e-01 -8.8185870908454711e-01 
        </Neuron>
        <Neuron NSynapses="16">
          1.2747548516715450e+00 4.9146240680476955e-01 1.1800237085365104e+00 1.2947905559383901e+00 -9.1456407247531935e-01 1.4298379218191641e+00 -1.0189090297330330e+00 -1.4051229400165688e+00 -1.0545952560912730e+00 -1.0398602036582907e+00 1.4493548758830321e+00 5.5393482738823685e-01 -9.2638342806773211e-01 3.4999405677763673e-01 -2.3613894856744264e-01 4.3907290819273670e-01 
        </Neuron>
        <Neuron NSynapses="16">
          1.1511408674691832e+00 -6.1274140947137490e-01 6.0309989781264645e-02 -1.2215695974312752e+00 6.3189811653312422e-01 -3.3506425932040534e-01 -1.1134414998667788e-01 -1.6074648663616669e+00 4.4840627164499819e-01 4.1171994574931242e-01 9.5964400334403199e-01 -2.9083185464037009e-01 -8.9746004434511895e-01 -1.4685735694590492e+00 6.7728430277067131e-01 1.8890798837847761e-01 
        </Neuron>
        <Neuron NSynapses="16">
          -1.2591649497663110e-01 -1.1990619009347284e-01 -5.5096629950848675e-01 5.1093578678686018e-02 5.8502479880169100e-01 -7.3860911142198338e-01 8.5331868339596151e-01 -1.6315593111722754e-01 -1.3671040379840891e+00 -3.6428477771184342e-01 -6.1279718458451959e-01 -5.1941880549255726e-01 1.7333432056796085e+00 -9.9072716948512840e-01 3.8869883213239576e-01 9.9516132366966226e-01 
        </Neuron>
        <Neuron NSynapses="16">
          -4.5423847967606257e-01 -8.6477800174423092e-01 -2.8108324451227434e-01 -3.0565013731274189e-02 -1.6129498032101730e+00 -9.9784887415350254e-01 -4.3181334977734087e-01 7.0707623005684395e-01 -6.4458973486305182e-01 1.8412646878899177e+00 -7.3306835006159932e-01 6.5392692122426643e-01 -1.2709721126922442e+00 1.5338805652271462e-01 -2.0021945091138074e+00 1.1531762188582645e-01 
        </Neuron>
        <Neuron NSynapses="16">
          7.9846907846165105e-01 2.1408709436306442e-01 -5.6097803770550358e+00 1.0356890384753887e+00 6.1729115684350222e-01 2.9481140432799124e-01 3.3396825568125568e+00 -1.8676151688212803e+00 -1.5348237805964164e+00 -1.4982244745810389e-01 -4.3941148801517582e-01 7.6248969407687395e-01 1.1824367874048696e+00 -5.7600916570273952e-01 -1.3742580733652219e+00 5.7493360039976737e-01 
        </Neuron>
        <Neuron NSynapses="16">
          -2.2495150382524067e+00 1.1451231405604752e+00 -7.8784951528625180e-01 -2.5077890956009354e+00 2.6198532695932858e-01 -9.3645005181144880e-01 5.0484205539524019e-01 7.9008122107508394e-01 1.2567711875165761e+00 -2.4504297542895479e+00 8.3937047764088890e-02 8.2513149484984993e-01 5.4765064761975912e-01 -3.1069433878828361e-02 -2.0015015174350799e+00 1.2435255623730551e-01 
        </Neuron>
        <Neuron NSynapses="16">
          -6.4772112539243043e-01 7.3995963950389154e-01 2.1067302830980781e+00 -8.9472395590407472e-01 -1.4427917099553147e+00 1.0012530906925126e+00 -2.1943210349743549e+00 -3.0629318896123825e-01 1.7455123670919830e+00 -5.6226322048751431e-01 -6.9912321925981991e-01 3.8457866669346152e-01 1.0856920530403569e+00 8.0108553704296148e-02 2.1696034154987295e-01 -1.3870055669957853e+00 
        </Neuron>
        <Neuron NSynapses="16">
          1.5241472700664642e+00 2.3461213266484163e-01 -5.2707484238261959e-01 1.8802437637612895e-01 2.5721198655379324e-01 3.3393421731799794e-01 1.3954030838337170e+00 2.5177932901748651e-01 -5.3019604654331443e-01 -7.7186418383445876e-01 1.3304616070464832e+00 9.2105952106154343e-01 6.2959333997555866e-01 1.0215738913902557e+00 5.8235701993559941e-01 -1.0094926821013337e+00 
        </Neuron>
        <Neuron NSynapses="16">
          -3.8588347260821398e-01 3.4891772697345419e-01 -4.2671740440096286e+00 -5.6301180973952636e-01 -2.0775791255072482e+00 -5.5784274725928995e-01 3.6662292215888623e+00 1.4517170322405610e+00 -4.1416732435543546e-01 1.5210686879861346e-01 -3.1459168119838303e-03 2.2883076524690225e+00 -9.1512821638580466e-01 3.4812261452267701e-01 -1.2566405819887023e+00 4.6609274988838534e-01 
        </Neuron>
      </Layer>
      <Layer Index="1" NNeurons="17">
        <Neuron NSynapses="1">
          -1.2443260327547699e-01 
        </Neuron>
        <Neuron NSynapses="1">
          4.0296082846824059e-02 
        </Neuron>
        <Neuron NSynapses="1">
          5.0874603166677590e-01 
        </Neuron>
        <Neuron NSynapses="1">
          6.6638070326246000e-03 
        </Neuron>
        <Neuron NSynapses="1">
          -2.9505909317788592e-01 
        </Neuron>
        <Neuron NSynapses="1">
          -4.2910387894456059e-02 
        </Neuron>
        <Neuron NSynapses="1">
          4.8481681369479379e-01 
        </Neuron>
        <Neuron NSynapses="1">
          -2.2201822349447553e-01 
        </Neuron>
        <Neuron NSynapses="1">
          1.3862787017930023e-02 
        </Neuron>
        <Neuron NSynapses="1">
          9.9608942787364749e-02 
        </Neuron>
        <Neuron NSynapses="1">
          4.8390772134380353e-02 
        </Neuron>
        <Neuron NSynapses="1">
          2.0942756820713468e-01 
        </Neuron>
        <Neuron NSynapses="1">
          1.0894294745664568e-01 
        </Neuron>
        <Neuron NSynapses="1">
          -1.2022924956371573e-02 
        </Neuron>
        <Neuron NSynapses="1">
          2.2491776332660546e-01 
        </Neuron>
        <Neuron NSynapses="1">
          3.9291135839028185e-02 
        </Neuron>
        <Neuron NSynapses="1">
          -1.2629739106857429e-01 
        </Neuron>
      </Layer>
      <Layer Index="2" NNeurons="1">
        <Neuron NSynapses="0"/>
      </Layer>
    </Layout>
  </Weights>
</MethodSetup>
