<?xml version="1.0"?>
<MethodSetup Method="MLP::MLP">
  <GeneralInfo>
    <Info name="TMVA Release" value="4.1.2 [262402]"/>
    <Info name="ROOT Release" value="5.32/04 [335876]"/>
    <Info name="Creator" value="lpernie"/>
    <Info name="Date" value="Fri May  6 11:46:16 2016"/>
    <Info name="Host" value="Linux login01.brazos.tamu.edu 2.6.32-431.23.3.el6.x86_64 #1 SMP Thu Jul 31 17:20:51 UTC 2014 x86_64 x86_64 x86_64 GNU/Linux"/>
    <Info name="Dir" value="/home/lpernie/Hhh/delphes/diHiggs/MVAs"/>
    <Info name="Training events" value="17420"/>
    <Info name="TrainingTime" value="2.10989673e+02"/>
    <Info name="AnalysisType" value="Classification"/>
  </GeneralInfo>
  <Options>
    <Option name="NCycles" modified="Yes">600</Option>
    <Option name="HiddenLayers" modified="Yes">N+5</Option>
    <Option name="NeuronType" modified="Yes">tanh</Option>
    <Option name="RandomSeed" modified="No">1</Option>
    <Option name="EstimatorType" modified="No">MSE</Option>
    <Option name="NeuronInputType" modified="No">sum</Option>
    <Option name="V" modified="Yes">False</Option>
    <Option name="VerbosityLevel" modified="No">Default</Option>
    <Option name="VarTransform" modified="Yes">N</Option>
    <Option name="H" modified="Yes">True</Option>
    <Option name="CreateMVAPdfs" modified="No">False</Option>
    <Option name="IgnoreNegWeightsInTraining" modified="No">False</Option>
    <Option name="TrainingMethod" modified="No">BP</Option>
    <Option name="LearningRate" modified="No">2.000000e-02</Option>
    <Option name="DecayRate" modified="No">1.000000e-02</Option>
    <Option name="TestRate" modified="Yes">5</Option>
    <Option name="EpochMonitoring" modified="No">False</Option>
    <Option name="Sampling" modified="No">1.000000e+00</Option>
    <Option name="SamplingEpoch" modified="No">1.000000e+00</Option>
    <Option name="SamplingImportance" modified="No">1.000000e+00</Option>
    <Option name="SamplingTraining" modified="No">True</Option>
    <Option name="SamplingTesting" modified="No">False</Option>
    <Option name="ResetStep" modified="No">50</Option>
    <Option name="Tau" modified="No">3.000000e+00</Option>
    <Option name="BPMode" modified="No">sequential</Option>
    <Option name="BatchSize" modified="No">-1</Option>
    <Option name="ConvergenceImprove" modified="No">1.000000e-30</Option>
    <Option name="ConvergenceTests" modified="No">-1</Option>
    <Option name="UseRegulator" modified="Yes">False</Option>
    <Option name="UpdateLimit" modified="No">10000</Option>
    <Option name="CalculateErrors" modified="No">False</Option>
    <Option name="WeightRange" modified="No">1.000000e+00</Option>
  </Options>
  <Variables NVar="11">
    <Variable VarIndex="0" Expression="dR_l1l2" Label="dR_l1l2" Title="dR_l1l2" Unit="" Internal="dR_l1l2" Type="F" Min="7.17559531e-02" Max="3.29683256e+00"/>
    <Variable VarIndex="1" Expression="dR_b1b2" Label="dR_b1b2" Title="dR_b1b2" Unit="" Internal="dR_b1b2" Type="F" Min="3.80652487e-01" Max="4.91932344e+00"/>
    <Variable VarIndex="2" Expression="dR_bl" Label="dR_bl" Title="dR_bl" Unit="" Internal="dR_bl" Type="F" Min="4.00819451e-01" Max="4.92102718e+00"/>
    <Variable VarIndex="3" Expression="dR_l1l2b1b2" Label="dR_l1l2b1b2" Title="dR_l1l2b1b2" Unit="" Internal="dR_l1l2b1b2" Type="F" Min="2.85045840e-02" Max="5.87358904e+00"/>
    <Variable VarIndex="4" Expression="MINdR_bl" Label="MINdR_bl" Title="MINdR_bl" Unit="" Internal="MINdR_bl" Type="F" Min="4.00563419e-01" Max="3.17235708e+00"/>
    <Variable VarIndex="5" Expression="dphi_l1l2b1b2" Label="dphi_l1l2b1b2" Title="dphi_l1l2b1b2" Unit="" Internal="dphi_l1l2b1b2" Type="F" Min="5.25824726e-04" Max="3.14151001e+00"/>
    <Variable VarIndex="6" Expression="mass_l1l2" Label="mass_l1l2" Title="mass_l1l2" Unit="" Internal="mass_l1l2" Type="F" Min="5.00658274e+00" Max="9.99897766e+01"/>
    <Variable VarIndex="7" Expression="mass_b1b2" Label="mass_b1b2" Title="mass_b1b2" Unit="" Internal="mass_b1b2" Type="F" Min="2.20064583e+01" Max="6.94112366e+02"/>
    <Variable VarIndex="8" Expression="mass_trans" Label="mass_trans" Title="mass_trans" Unit="" Internal="mass_trans" Type="F" Min="3.34702507e-02" Max="2.49843353e+02"/>
    <Variable VarIndex="9" Expression="MT2" Label="MT2" Title="MT2" Unit="" Internal="MT2" Type="F" Min="2.50663490e+01" Max="3.91314117e+02"/>
    <Variable VarIndex="10" Expression="pt_b1b2" Label="pt_b1b2" Title="pt_b1b2" Unit="" Internal="pt_b1b2" Type="F" Min="9.54420507e-01" Max="2.99664215e+02"/>
  </Variables>
  <Spectators NSpec="0"/>
  <Classes NClass="2">
    <Class Name="Signal" Index="0"/>
    <Class Name="Background" Index="1"/>
  </Classes>
  <Transformations NTransformations="1">
    <Transform Name="Normalize">
      <Selection>
        <Input NInputs="11">
          <Input Type="Variable" Label="dR_l1l2" Expression="dR_l1l2"/>
          <Input Type="Variable" Label="dR_b1b2" Expression="dR_b1b2"/>
          <Input Type="Variable" Label="dR_bl" Expression="dR_bl"/>
          <Input Type="Variable" Label="dR_l1l2b1b2" Expression="dR_l1l2b1b2"/>
          <Input Type="Variable" Label="MINdR_bl" Expression="MINdR_bl"/>
          <Input Type="Variable" Label="dphi_l1l2b1b2" Expression="dphi_l1l2b1b2"/>
          <Input Type="Variable" Label="mass_l1l2" Expression="mass_l1l2"/>
          <Input Type="Variable" Label="mass_b1b2" Expression="mass_b1b2"/>
          <Input Type="Variable" Label="mass_trans" Expression="mass_trans"/>
          <Input Type="Variable" Label="MT2" Expression="MT2"/>
          <Input Type="Variable" Label="pt_b1b2" Expression="pt_b1b2"/>
        </Input>
        <Output NOutputs="11">
          <Output Type="Variable" Label="dR_l1l2" Expression="dR_l1l2"/>
          <Output Type="Variable" Label="dR_b1b2" Expression="dR_b1b2"/>
          <Output Type="Variable" Label="dR_bl" Expression="dR_bl"/>
          <Output Type="Variable" Label="dR_l1l2b1b2" Expression="dR_l1l2b1b2"/>
          <Output Type="Variable" Label="MINdR_bl" Expression="MINdR_bl"/>
          <Output Type="Variable" Label="dphi_l1l2b1b2" Expression="dphi_l1l2b1b2"/>
          <Output Type="Variable" Label="mass_l1l2" Expression="mass_l1l2"/>
          <Output Type="Variable" Label="mass_b1b2" Expression="mass_b1b2"/>
          <Output Type="Variable" Label="mass_trans" Expression="mass_trans"/>
          <Output Type="Variable" Label="MT2" Expression="MT2"/>
          <Output Type="Variable" Label="pt_b1b2" Expression="pt_b1b2"/>
        </Output>
      </Selection>
      <Class ClassIndex="0">
        <Ranges>
          <Range Index="0" Min="7.1755953133106232e-02" Max="3.2587964534759521e+00"/>
          <Range Index="1" Min="3.9584842324256897e-01" Max="4.9001898765563965e+00"/>
          <Range Index="2" Min="4.2405718564987183e-01" Max="4.9210271835327148e+00"/>
          <Range Index="3" Min="2.5943207740783691e-01" Max="5.7538762092590332e+00"/>
          <Range Index="4" Min="4.0407690405845642e-01" Max="3.1550784111022949e+00"/>
          <Range Index="5" Min="1.0903537040576339e-03" Max="3.1415100097656250e+00"/>
          <Range Index="6" Min="5.0924382209777832e+00" Max="9.1641319274902344e+01"/>
          <Range Index="7" Min="2.2006458282470703e+01" Max="6.9156414794921875e+02"/>
          <Range Index="8" Min="8.4033176302909851e-02" Max="2.4851266479492188e+02"/>
          <Range Index="9" Min="5.3644802093505859e+01" Max="3.8546936035156250e+02"/>
          <Range Index="10" Min="4.0255560874938965e+00" Max="2.9966421508789062e+02"/>
        </Ranges>
      </Class>
      <Class ClassIndex="1">
        <Ranges>
          <Range Index="0" Min="7.4400834739208221e-02" Max="3.2968325614929199e+00"/>
          <Range Index="1" Min="3.8065248727798462e-01" Max="4.9193234443664551e+00"/>
          <Range Index="2" Min="4.0081945061683655e-01" Max="4.7858648300170898e+00"/>
          <Range Index="3" Min="2.8504583984613419e-02" Max="5.8735890388488770e+00"/>
          <Range Index="4" Min="4.0056341886520386e-01" Max="3.1723570823669434e+00"/>
          <Range Index="5" Min="5.2582472562789917e-04" Max="3.1413893699645996e+00"/>
          <Range Index="6" Min="5.0065827369689941e+00" Max="9.9989776611328125e+01"/>
          <Range Index="7" Min="2.2101655960083008e+01" Max="6.9411236572265625e+02"/>
          <Range Index="8" Min="3.3470250666141510e-02" Max="2.4984335327148438e+02"/>
          <Range Index="9" Min="2.5066349029541016e+01" Max="3.9131411743164062e+02"/>
          <Range Index="10" Min="9.5442050695419312e-01" Max="2.9834268188476562e+02"/>
        </Ranges>
      </Class>
      <Class ClassIndex="2">
        <Ranges>
          <Range Index="0" Min="7.1755953133106232e-02" Max="3.2968325614929199e+00"/>
          <Range Index="1" Min="3.8065248727798462e-01" Max="4.9193234443664551e+00"/>
          <Range Index="2" Min="4.0081945061683655e-01" Max="4.9210271835327148e+00"/>
          <Range Index="3" Min="2.8504583984613419e-02" Max="5.8735890388488770e+00"/>
          <Range Index="4" Min="4.0056341886520386e-01" Max="3.1723570823669434e+00"/>
          <Range Index="5" Min="5.2582472562789917e-04" Max="3.1415100097656250e+00"/>
          <Range Index="6" Min="5.0065827369689941e+00" Max="9.9989776611328125e+01"/>
          <Range Index="7" Min="2.2006458282470703e+01" Max="6.9411236572265625e+02"/>
          <Range Index="8" Min="3.3470250666141510e-02" Max="2.4984335327148438e+02"/>
          <Range Index="9" Min="2.5066349029541016e+01" Max="3.9131411743164062e+02"/>
          <Range Index="10" Min="9.5442050695419312e-01" Max="2.9966421508789062e+02"/>
        </Ranges>
      </Class>
    </Transform>
  </Transformations>
  <MVAPdfs/>
  <Weights>
    <Layout NLayers="3">
      <Layer Index="0" NNeurons="12">
        <Neuron NSynapses="16">
          -4.0011745070510479e-01 -9.5921416692731784e-02 -3.8932457904428019e-01 2.2346466181054074e+00 -5.3204443150202695e-02 -9.6536367204363893e-01 1.1622605929937528e-01 1.0504120573761437e+00 -2.4955964601489583e-01 -9.4838971645370440e-01 -2.0685477849390939e+00 -1.0078736899181964e+00 -4.8659379400666036e-01 -2.8548383300759939e-01 2.7506129694170456e-01 8.4102449191184869e-01 
        </Neuron>
        <Neuron NSynapses="16">
          1.8334122466521083e-01 1.0764759660840082e+00 5.8630372533778286e-01 9.6444135710067747e-01 -5.5354197174876307e-01 -2.7045308913012645e-01 4.2167226801810909e+00 -2.6466690620932198e-01 -1.4216320392820945e+00 3.2473832430631275e-02 1.2510745861604546e+00 -1.3713408913964837e+00 -1.4558917518263850e+00 -8.4611046533156639e-02 2.6122150853050813e-01 1.9398313939688341e+00 
        </Neuron>
        <Neuron NSynapses="16">
          -2.8373440198258643e-01 6.0263710968983353e-01 1.4182871500565444e-01 -5.8353855977598612e-01 2.9019853425722852e-01 1.6299812582547482e+00 -5.0114632099715783e-01 4.7049669482530226e-01 1.5685917276262169e+00 6.4347669284579023e-01 1.3245897648282707e+00 1.9512182220649113e-01 -8.2335741528504403e-01 -1.2124707367227610e+00 2.1166789530058353e-01 -3.7508885877797871e-01 
        </Neuron>
        <Neuron NSynapses="16">
          1.6241463186161700e+00 4.4891048171933634e-01 9.3832872200765627e-01 1.2060815300634784e+00 -3.5399187886046551e-01 1.7125098227036866e+00 -1.2753003338921030e+00 -1.1142785361433716e+00 -7.4971146284799797e-02 -1.6940709481346563e+00 1.1867253356503011e+00 9.5881626146887289e-01 -1.2997884216787898e+00 3.3970178817105900e-01 1.1362551486513333e+00 2.2843402789459916e-01 
        </Neuron>
        <Neuron NSynapses="16">
          7.7605451996831343e-01 -1.8174516118095801e-01 -1.7275601488694031e-01 -1.1896655144433836e+00 5.5009205928309013e-01 -8.7777336618587595e-02 -1.8186869998810076e-01 -1.2599339946879120e+00 7.2856583144208553e-01 7.2005757856790642e-01 8.4918246447175338e-01 3.3065829830173260e-01 -1.3913523250214235e+00 -1.6953107546080894e+00 4.2022367362116342e-01 3.0588323444103296e-02 
        </Neuron>
        <Neuron NSynapses="16">
          1.6786886631668368e-01 -1.1233019195422984e-01 4.1076838352234679e-01 -2.5751751075780560e-01 -8.6500900646894766e-02 -2.6880782128207820e-01 4.0654320494540513e-01 -9.5741487472655498e-02 -1.0722631331689272e+00 -1.2360765142123806e+00 -4.1363477246655322e-01 -4.7071354592745633e-02 1.4759894163823770e+00 -8.9723365755747053e-01 -1.1610858413907223e-01 4.7036709748217592e-01 
        </Neuron>
        <Neuron NSynapses="16">
          -8.5166168437069389e-01 3.2234712304425783e-01 -6.0708535069337166e-01 -2.2832706273482631e-01 -1.7657215722560593e+00 -2.0686149733507575e+00 3.5368269206949987e-01 2.0208519819310715e+00 -9.0283480126498294e-01 1.4827561389516717e+00 -2.1163516068111873e-01 -1.3236386279568879e-01 -7.0672991204702340e-01 1.4762703778426947e-01 -2.1434591614979515e+00 5.0136977142304406e-01 
        </Neuron>
        <Neuron NSynapses="16">
          4.3091712517853309e-01 -2.1984887434165428e+00 -4.1333827927872182e+00 5.0219949675846776e-01 -1.6550998471158851e-01 4.6116978016966609e-01 1.6352553106878849e+00 -2.3582974025726231e+00 -1.5533803587420409e+00 -1.2615863088695545e-01 -1.6660398295161119e-01 1.6143631080604797e+00 9.4329010666786872e-01 -7.8779270786084077e-01 -6.8142576396036558e-01 5.8646920311699557e-01 
        </Neuron>
        <Neuron NSynapses="16">
          -2.0100218651052129e+00 -3.3387856678369821e-01 -7.1928817316540117e-01 -1.4945964491652290e+00 1.6246749499547912e+00 -1.0129864327644653e-01 2.3407438789495891e-01 1.2795317054185449e+00 5.9062359539722009e-01 -1.6594285723019317e+00 1.9374571936314314e-01 -2.0925658172550604e-01 1.4521500326858385e+00 -1.1590260894123293e-01 -1.9217669601816156e+00 4.1690334729491872e-02 
        </Neuron>
        <Neuron NSynapses="16">
          -2.2424769774551008e+00 3.3503334898812160e+00 3.9915609838919899e+00 -1.3498419989855863e+00 -9.5066874838890336e-01 9.6264469346305370e-01 -1.8842502602016415e+00 8.2241630205641014e-02 2.1977545029508976e+00 -5.7497992964000311e-01 -1.3206058981149515e-01 7.4431385112597814e-01 1.3154453974791398e+00 -2.6074077346878621e-01 8.1061311737691355e-01 -1.2793000004023587e+00 
        </Neuron>
        <Neuron NSynapses="16">
          1.1161160602968840e+00 1.2600110176007595e+00 1.3134908608129408e+00 -2.0996732582207553e-01 5.5482540021949234e-01 7.9124990401960127e-01 5.6820416890453451e-01 -4.7090293685277569e-02 -6.6698282075519921e-01 -6.1958333482867778e-01 1.2821876986153438e+00 4.6158597002622322e-02 -2.9503704032125766e-01 7.3173162106962975e-01 7.5536735353255358e-01 -1.4795059680888105e+00 
        </Neuron>
        <Neuron NSynapses="16">
          -2.0184553428938692e+00 -1.2488425585961838e+00 -1.9956608262981572e+00 -7.7819227943997260e-02 -1.7656796562996893e+00 -9.2123831928336997e-01 3.9084163913566647e+00 7.3490117294399915e-02 -4.9535585443956393e-01 2.5532726350776047e-01 -3.1101504388850965e-01 -5.4317601679790517e-01 3.9216325839023305e-02 5.4677503764723168e-01 -8.2393607465762742e-01 8.0094407840959636e-01 
        </Neuron>
      </Layer>
      <Layer Index="1" NNeurons="17">
        <Neuron NSynapses="1">
          -2.0511714802074912e-01 
        </Neuron>
        <Neuron NSynapses="1">
          -5.2989634955133136e-01 
        </Neuron>
        <Neuron NSynapses="1">
          4.8312145260399808e-01 
        </Neuron>
        <Neuron NSynapses="1">
          4.7471500952405349e-02 
        </Neuron>
        <Neuron NSynapses="1">
          -1.2699540350912994e-01 
        </Neuron>
        <Neuron NSynapses="1">
          -1.8239259106369579e-01 
        </Neuron>
        <Neuron NSynapses="1">
          2.8375639925724755e-01 
        </Neuron>
        <Neuron NSynapses="1">
          7.7448905648852123e-02 
        </Neuron>
        <Neuron NSynapses="1">
          7.2136842698203182e-02 
        </Neuron>
        <Neuron NSynapses="1">
          2.0858282918936811e-02 
        </Neuron>
        <Neuron NSynapses="1">
          1.1780832375810556e-01 
        </Neuron>
        <Neuron NSynapses="1">
          4.1038043055107098e-01 
        </Neuron>
        <Neuron NSynapses="1">
          2.4094150434358926e-02 
        </Neuron>
        <Neuron NSynapses="1">
          -9.7969611360962123e-03 
        </Neuron>
        <Neuron NSynapses="1">
          2.4212602694204968e-01 
        </Neuron>
        <Neuron NSynapses="1">
          -3.8636672435104498e-02 
        </Neuron>
        <Neuron NSynapses="1">
          -9.0158166598128184e-02 
        </Neuron>
      </Layer>
      <Layer Index="2" NNeurons="1">
        <Neuron NSynapses="0"/>
      </Layer>
    </Layout>
  </Weights>
</MethodSetup>
