<?xml version="1.0"?>
<MethodSetup Method="MLP::MLP">
  <GeneralInfo>
    <Info name="TMVA Release" value="4.1.2 [262402]"/>
    <Info name="ROOT Release" value="5.32/04 [335876]"/>
    <Info name="Creator" value="lpernie"/>
    <Info name="Date" value="Fri Jul  1 11:03:06 2016"/>
    <Info name="Host" value="Linux login01.brazos.tamu.edu 2.6.32-431.23.3.el6.x86_64 #1 SMP Thu Jul 31 17:20:51 UTC 2014 x86_64 x86_64 x86_64 GNU/Linux"/>
    <Info name="Dir" value="/home/lpernie/Hhh/delphes/diHiggs/MVAs"/>
    <Info name="Training events" value="224300"/>
    <Info name="TrainingTime" value="2.75604250e+03"/>
    <Info name="AnalysisType" value="Classification"/>
  </GeneralInfo>
  <Options>
    <Option name="NCycles" modified="Yes">600</Option>
    <Option name="HiddenLayers" modified="Yes">N+5</Option>
    <Option name="NeuronType" modified="Yes">tanh</Option>
    <Option name="RandomSeed" modified="No">1</Option>
    <Option name="EstimatorType" modified="No">MSE</Option>
    <Option name="NeuronInputType" modified="No">sum</Option>
    <Option name="V" modified="Yes">False</Option>
    <Option name="VerbosityLevel" modified="No">Default</Option>
    <Option name="VarTransform" modified="Yes">N</Option>
    <Option name="H" modified="Yes">True</Option>
    <Option name="CreateMVAPdfs" modified="No">False</Option>
    <Option name="IgnoreNegWeightsInTraining" modified="No">False</Option>
    <Option name="TrainingMethod" modified="No">BP</Option>
    <Option name="LearningRate" modified="No">2.000000e-02</Option>
    <Option name="DecayRate" modified="No">1.000000e-02</Option>
    <Option name="TestRate" modified="Yes">5</Option>
    <Option name="EpochMonitoring" modified="No">False</Option>
    <Option name="Sampling" modified="No">1.000000e+00</Option>
    <Option name="SamplingEpoch" modified="No">1.000000e+00</Option>
    <Option name="SamplingImportance" modified="No">1.000000e+00</Option>
    <Option name="SamplingTraining" modified="No">True</Option>
    <Option name="SamplingTesting" modified="No">False</Option>
    <Option name="ResetStep" modified="No">50</Option>
    <Option name="Tau" modified="No">3.000000e+00</Option>
    <Option name="BPMode" modified="No">sequential</Option>
    <Option name="BatchSize" modified="No">-1</Option>
    <Option name="ConvergenceImprove" modified="No">1.000000e-30</Option>
    <Option name="ConvergenceTests" modified="No">-1</Option>
    <Option name="UseRegulator" modified="Yes">False</Option>
    <Option name="UpdateLimit" modified="No">10000</Option>
    <Option name="CalculateErrors" modified="No">False</Option>
    <Option name="WeightRange" modified="No">1.000000e+00</Option>
  </Options>
  <Variables NVar="11">
    <Variable VarIndex="0" Expression="dR_l1l2" Label="dR_l1l2" Title="dR_l1l2" Unit="" Internal="dR_l1l2" Type="F" Min="7.17559531e-02" Max="3.29995322e+00"/>
    <Variable VarIndex="1" Expression="dR_b1b2" Label="dR_b1b2" Title="dR_b1b2" Unit="" Internal="dR_b1b2" Type="F" Min="3.73879045e-01" Max="4.99817085e+00"/>
    <Variable VarIndex="2" Expression="dR_bl" Label="dR_bl" Title="dR_bl" Unit="" Internal="dR_bl" Type="F" Min="4.00081575e-01" Max="4.99972916e+00"/>
    <Variable VarIndex="3" Expression="dR_l1l2b1b2" Label="dR_l1l2b1b2" Title="dR_l1l2b1b2" Unit="" Internal="dR_l1l2b1b2" Type="F" Min="4.42243833e-03" Max="5.99961948e+00"/>
    <Variable VarIndex="4" Expression="MINdR_bl" Label="MINdR_bl" Title="MINdR_bl" Unit="" Internal="MINdR_bl" Type="F" Min="4.00042474e-01" Max="3.19991016e+00"/>
    <Variable VarIndex="5" Expression="dphi_l1l2b1b2" Label="dphi_l1l2b1b2" Title="dphi_l1l2b1b2" Unit="" Internal="dphi_l1l2b1b2" Type="F" Min="1.66005921e-05" Max="3.14159226e+00"/>
    <Variable VarIndex="6" Expression="mass_l1l2" Label="mass_l1l2" Title="mass_l1l2" Unit="" Internal="mass_l1l2" Type="F" Min="5.00042486e+00" Max="9.99998016e+01"/>
    <Variable VarIndex="7" Expression="mass_b1b2" Label="mass_b1b2" Title="mass_b1b2" Unit="" Internal="mass_b1b2" Type="F" Min="2.20002632e+01" Max="6.99751221e+02"/>
    <Variable VarIndex="8" Expression="mass_trans" Label="mass_trans" Title="mass_trans" Unit="" Internal="mass_trans" Type="F" Min="0.00000000e+00" Max="2.49991043e+02"/>
    <Variable VarIndex="9" Expression="MT2" Label="MT2" Title="MT2" Unit="" Internal="MT2" Type="F" Min="2.23099918e+01" Max="3.99925476e+02"/>
    <Variable VarIndex="10" Expression="pt_b1b2" Label="pt_b1b2" Title="pt_b1b2" Unit="" Internal="pt_b1b2" Type="F" Min="3.26862246e-01" Max="2.99963409e+02"/>
  </Variables>
  <Spectators NSpec="0"/>
  <Classes NClass="2">
    <Class Name="Signal" Index="0"/>
    <Class Name="Background" Index="1"/>
  </Classes>
  <Transformations NTransformations="1">
    <Transform Name="Normalize">
      <Selection>
        <Input NInputs="11">
          <Input Type="Variable" Label="dR_l1l2" Expression="dR_l1l2"/>
          <Input Type="Variable" Label="dR_b1b2" Expression="dR_b1b2"/>
          <Input Type="Variable" Label="dR_bl" Expression="dR_bl"/>
          <Input Type="Variable" Label="dR_l1l2b1b2" Expression="dR_l1l2b1b2"/>
          <Input Type="Variable" Label="MINdR_bl" Expression="MINdR_bl"/>
          <Input Type="Variable" Label="dphi_l1l2b1b2" Expression="dphi_l1l2b1b2"/>
          <Input Type="Variable" Label="mass_l1l2" Expression="mass_l1l2"/>
          <Input Type="Variable" Label="mass_b1b2" Expression="mass_b1b2"/>
          <Input Type="Variable" Label="mass_trans" Expression="mass_trans"/>
          <Input Type="Variable" Label="MT2" Expression="MT2"/>
          <Input Type="Variable" Label="pt_b1b2" Expression="pt_b1b2"/>
        </Input>
        <Output NOutputs="11">
          <Output Type="Variable" Label="dR_l1l2" Expression="dR_l1l2"/>
          <Output Type="Variable" Label="dR_b1b2" Expression="dR_b1b2"/>
          <Output Type="Variable" Label="dR_bl" Expression="dR_bl"/>
          <Output Type="Variable" Label="dR_l1l2b1b2" Expression="dR_l1l2b1b2"/>
          <Output Type="Variable" Label="MINdR_bl" Expression="MINdR_bl"/>
          <Output Type="Variable" Label="dphi_l1l2b1b2" Expression="dphi_l1l2b1b2"/>
          <Output Type="Variable" Label="mass_l1l2" Expression="mass_l1l2"/>
          <Output Type="Variable" Label="mass_b1b2" Expression="mass_b1b2"/>
          <Output Type="Variable" Label="mass_trans" Expression="mass_trans"/>
          <Output Type="Variable" Label="MT2" Expression="MT2"/>
          <Output Type="Variable" Label="pt_b1b2" Expression="pt_b1b2"/>
        </Output>
      </Selection>
      <Class ClassIndex="0">
        <Ranges>
          <Range Index="0" Min="7.1755953133106232e-02" Max="3.2587964534759521e+00"/>
          <Range Index="1" Min="3.9584842324256897e-01" Max="4.9001898765563965e+00"/>
          <Range Index="2" Min="4.2405718564987183e-01" Max="4.9210271835327148e+00"/>
          <Range Index="3" Min="2.5943207740783691e-01" Max="5.7538762092590332e+00"/>
          <Range Index="4" Min="4.0407690405845642e-01" Max="3.1550784111022949e+00"/>
          <Range Index="5" Min="1.0903537040576339e-03" Max="3.1415100097656250e+00"/>
          <Range Index="6" Min="5.0924382209777832e+00" Max="9.1641319274902344e+01"/>
          <Range Index="7" Min="2.2006458282470703e+01" Max="6.9156414794921875e+02"/>
          <Range Index="8" Min="8.4033176302909851e-02" Max="2.4851266479492188e+02"/>
          <Range Index="9" Min="5.3644802093505859e+01" Max="3.8546936035156250e+02"/>
          <Range Index="10" Min="4.0255560874938965e+00" Max="2.9966421508789062e+02"/>
        </Ranges>
      </Class>
      <Class ClassIndex="1">
        <Ranges>
          <Range Index="0" Min="7.3570802807807922e-02" Max="3.2999532222747803e+00"/>
          <Range Index="1" Min="3.7387904524803162e-01" Max="4.9981708526611328e+00"/>
          <Range Index="2" Min="4.0008157491683960e-01" Max="4.9997291564941406e+00"/>
          <Range Index="3" Min="4.4224383309483528e-03" Max="5.9996194839477539e+00"/>
          <Range Index="4" Min="4.0004247426986694e-01" Max="3.1999101638793945e+00"/>
          <Range Index="5" Min="1.6600592061877251e-05" Max="3.1415922641754150e+00"/>
          <Range Index="6" Min="5.0004248619079590e+00" Max="9.9999801635742188e+01"/>
          <Range Index="7" Min="2.2000263214111328e+01" Max="6.9975122070312500e+02"/>
          <Range Index="8" Min="0.0000000000000000e+00" Max="2.4999104309082031e+02"/>
          <Range Index="9" Min="2.2309991836547852e+01" Max="3.9992547607421875e+02"/>
          <Range Index="10" Min="3.2686224579811096e-01" Max="2.9996340942382812e+02"/>
        </Ranges>
      </Class>
      <Class ClassIndex="2">
        <Ranges>
          <Range Index="0" Min="7.1755953133106232e-02" Max="3.2999532222747803e+00"/>
          <Range Index="1" Min="3.7387904524803162e-01" Max="4.9981708526611328e+00"/>
          <Range Index="2" Min="4.0008157491683960e-01" Max="4.9997291564941406e+00"/>
          <Range Index="3" Min="4.4224383309483528e-03" Max="5.9996194839477539e+00"/>
          <Range Index="4" Min="4.0004247426986694e-01" Max="3.1999101638793945e+00"/>
          <Range Index="5" Min="1.6600592061877251e-05" Max="3.1415922641754150e+00"/>
          <Range Index="6" Min="5.0004248619079590e+00" Max="9.9999801635742188e+01"/>
          <Range Index="7" Min="2.2000263214111328e+01" Max="6.9975122070312500e+02"/>
          <Range Index="8" Min="0.0000000000000000e+00" Max="2.4999104309082031e+02"/>
          <Range Index="9" Min="2.2309991836547852e+01" Max="3.9992547607421875e+02"/>
          <Range Index="10" Min="3.2686224579811096e-01" Max="2.9996340942382812e+02"/>
        </Ranges>
      </Class>
    </Transform>
  </Transformations>
  <MVAPdfs/>
  <Weights>
    <Layout NLayers="3">
      <Layer Index="0" NNeurons="12">
        <Neuron NSynapses="16">
          -7.6809220806019085e-01 -5.4971853769962664e-01 -7.0594448316863068e-01 6.4051940667820706e-01 -1.3136995040266635e+00 -3.4207537482680950e-01 5.4623423163672347e-01 7.6860905946800462e-01 -5.4314876946014279e-01 -1.0297975324815780e+00 -8.1764017212276996e-01 1.8824005254186177e-01 -5.5408587178099633e-01 -5.2655091384973662e-01 -9.9928573572103274e-01 9.9455556416983038e-01 
        </Neuron>
        <Neuron NSynapses="16">
          -7.4157549451782201e-01 1.7483164354060785e+00 8.5286519809029193e-01 8.9007391802117486e-01 -1.9257563321766866e-01 -7.6116347183145161e-01 -9.8434377262444894e-01 -2.2009772398797661e-01 -7.6064666935697667e-01 -1.1246042598223149e-02 1.1486470309763930e+00 -9.6350036054280142e-01 -1.3048144707920206e+00 6.7172037468896537e-02 -1.0105047319362024e+00 3.2018005320784453e+00 
        </Neuron>
        <Neuron NSynapses="16">
          -8.5988512565939854e-02 -2.1552279778412970e-02 2.3426873116920011e-01 -7.5887454483142314e-01 -1.1579392360308276e+00 1.3934891797669213e+00 -4.2900275892968809e-01 4.8399434943317221e-01 1.2152802632089088e+00 6.6589971082258081e-01 1.6550601232035322e+00 4.2858442704392946e-01 -1.7807978465724447e-01 -1.0891281757737712e+00 -1.6840557695297020e-01 7.9781910884412721e-02 
        </Neuron>
        <Neuron NSynapses="16">
          1.4032134211680083e+00 1.2329602218390301e+00 9.3568264651052269e-01 7.7755639165334745e-01 -1.5191554902573148e+00 1.2182197055116184e+00 -9.1174115746669993e-01 -1.1827115369849222e+00 -1.0262623149838725e+00 -1.3348609504030489e+00 1.3975354641809543e+00 5.9113445562484779e-01 -9.7707701920466539e-01 5.6445871016878368e-01 -2.2701538395817600e-01 -3.4242269671667164e-01 
        </Neuron>
        <Neuron NSynapses="16">
          8.7282862692034446e-01 -5.5584994514775188e-01 -1.4991830408707368e-01 -1.1349100009761588e+00 5.5848765049493754e-01 -3.5725306770285070e-02 1.4622640673210419e-01 -1.3663777746075276e+00 6.5482832841165450e-01 2.8207320608100195e-01 6.6372323288629675e-01 -4.2001426271685828e-02 -2.7940582637868361e-01 -8.5055764731865580e-01 1.7207073441039564e-01 -4.8728040162226254e-02 
        </Neuron>
        <Neuron NSynapses="16">
          2.8996038747069186e-01 3.0973647310737218e-01 2.6401889873553602e-01 3.2357006639084451e-01 -3.5495642431342100e-01 -8.6339824156927136e-01 -1.1443338736689752e-01 2.9029961788687675e-01 -1.3491972046960192e+00 -7.8855029276148236e-01 -7.9566581728919816e-01 -3.6083590976142055e-01 1.7811428576230626e+00 -6.4832835503901953e-01 1.0647580983146361e+00 -7.6403682529630590e-01 
        </Neuron>
        <Neuron NSynapses="16">
          -6.2161107239366464e-01 -1.0901298678215587e+00 -3.9343393595786223e-02 1.0483162452878458e+00 -1.0539225097125293e+00 -1.0231626335681381e+00 -2.5800704341332859e-01 5.5621283883196326e-01 -3.5647973318066495e-01 1.3139151093349357e+00 -5.2683063995203638e-01 -3.7368842253253576e-01 -1.5652167440266523e-02 2.9713202091209484e-01 -5.1451199521542845e-01 4.8079701204659309e-01 
        </Neuron>
        <Neuron NSynapses="16">
          5.4992420693272093e-01 -1.2748340107345615e+00 -2.9381845742404029e+00 1.7530202809959874e-01 3.9106521513035974e-01 -3.2151071009025624e-02 2.9703619866558713e+00 -2.5321252228767555e+00 -1.0577353781691254e+00 1.1477338739299178e-03 -2.0445003734177558e-01 1.2357421364412500e+00 1.1680790805795294e+00 -7.0030644176632895e-01 -1.9131790022792197e+00 1.5302635626947081e+00 
        </Neuron>
        <Neuron NSynapses="16">
          -1.1888654626344011e+00 -3.1374666192450928e-01 -6.9159237949962193e-01 -1.5277044479257826e+00 6.5997778816343289e-01 -9.4966759607475970e-01 6.4207749821671101e-01 -1.6101987396426282e-02 7.0869497291831340e-01 -6.0508156629044596e-01 4.3220390552374366e-02 1.9129999934442310e-01 3.2129690033493302e-01 -6.2477539353453251e-02 -5.9488369499756544e-01 6.8884392003903228e-01 
        </Neuron>
        <Neuron NSynapses="16">
          -1.6099823256004913e+00 2.3578182605656695e+00 5.1536731176366963e+00 -1.3574866825567506e+00 -4.8816553261200268e-01 8.7703648567409198e-01 -5.3822554771889068e+00 -6.5716596296468832e-01 1.8081674922929523e+00 -6.3392407205200840e-01 -5.3535072353338942e-01 3.6560443000486269e-02 8.5989753942198677e-01 -1.1974324741400820e-01 1.8465100331888553e+00 -2.3349383830460435e+00 
        </Neuron>
        <Neuron NSynapses="16">
          7.0634930466025103e-01 1.6777916364102923e+00 1.5129218878424389e+00 -7.6345400225049820e-01 8.2225100744996282e-01 4.3488386124520473e-01 -1.5812846307182991e+00 -3.8665095122334231e-01 -5.8488250795414487e-01 -8.5025556779242728e-01 2.0736841189281390e+00 1.1553789903865627e-01 -3.2604482100596960e-01 6.8749897522152403e-01 8.0075832515568124e-01 -6.3866985272073584e-01 
        </Neuron>
        <Neuron NSynapses="16">
          -3.0607296603168423e+00 -1.6747924031798558e+00 -1.4656433259142625e+00 1.7689350654383205e+00 -1.3787380880206874e+00 -5.0485797420333378e-01 1.5337361760472659e+00 1.4415518518735835e+00 -6.7921303834975622e-01 2.1932999076265663e-01 -8.7048737963161849e-01 6.1887524765643487e-01 -9.2789237668004776e-01 4.6497816881156984e-01 -3.9755490607507467e+00 4.9770314821188197e+00 
        </Neuron>
      </Layer>
      <Layer Index="1" NNeurons="17">
        <Neuron NSynapses="1">
          -1.6493445250444252e-01 
        </Neuron>
        <Neuron NSynapses="1">
          -1.1267532463939239e-01 
        </Neuron>
        <Neuron NSynapses="1">
          6.6129823690968326e-01 
        </Neuron>
        <Neuron NSynapses="1">
          6.3184178782737785e-02 
        </Neuron>
        <Neuron NSynapses="1">
          -4.7851036940489754e-04 
        </Neuron>
        <Neuron NSynapses="1">
          3.0330146701470610e-02 
        </Neuron>
        <Neuron NSynapses="1">
          6.2465473154617102e-01 
        </Neuron>
        <Neuron NSynapses="1">
          -6.9765289627158958e-02 
        </Neuron>
        <Neuron NSynapses="1">
          7.8609333247800256e-04 
        </Neuron>
        <Neuron NSynapses="1">
          -1.0176980516032387e-02 
        </Neuron>
        <Neuron NSynapses="1">
          -2.0779637023442977e-02 
        </Neuron>
        <Neuron NSynapses="1">
          5.4664420893993241e-04 
        </Neuron>
        <Neuron NSynapses="1">
          -1.5283179360063801e-02 
        </Neuron>
        <Neuron NSynapses="1">
          -2.3470390850279517e-03 
        </Neuron>
        <Neuron NSynapses="1">
          6.3691774801031531e-01 
        </Neuron>
        <Neuron NSynapses="1">
          5.0147126463642600e-01 
        </Neuron>
        <Neuron NSynapses="1">
          -9.1173250605942238e-02 
        </Neuron>
      </Layer>
      <Layer Index="2" NNeurons="1">
        <Neuron NSynapses="0"/>
      </Layer>
    </Layout>
  </Weights>
</MethodSetup>
