<?xml version="1.0"?>
<MethodSetup Method="MLP::MLPBFGS">
  <GeneralInfo>
    <Info name="TMVA Release" value="4.1.2 [262402]"/>
    <Info name="ROOT Release" value="5.32/04 [335876]"/>
    <Info name="Creator" value="lpernie"/>
    <Info name="Date" value="Fri Jul  1 14:07:30 2016"/>
    <Info name="Host" value="Linux login01.brazos.tamu.edu 2.6.32-431.23.3.el6.x86_64 #1 SMP Thu Jul 31 17:20:51 UTC 2014 x86_64 x86_64 x86_64 GNU/Linux"/>
    <Info name="Dir" value="/home/lpernie/Hhh/delphes/diHiggs/MVAs"/>
    <Info name="Training events" value="224300"/>
    <Info name="TrainingTime" value="1.10616381e+04"/>
    <Info name="AnalysisType" value="Classification"/>
  </GeneralInfo>
  <Options>
    <Option name="NCycles" modified="Yes">600</Option>
    <Option name="HiddenLayers" modified="Yes">N+5</Option>
    <Option name="NeuronType" modified="Yes">tanh</Option>
    <Option name="RandomSeed" modified="No">1</Option>
    <Option name="EstimatorType" modified="No">MSE</Option>
    <Option name="NeuronInputType" modified="No">sum</Option>
    <Option name="V" modified="Yes">False</Option>
    <Option name="VerbosityLevel" modified="No">Default</Option>
    <Option name="VarTransform" modified="Yes">N</Option>
    <Option name="H" modified="Yes">True</Option>
    <Option name="CreateMVAPdfs" modified="No">False</Option>
    <Option name="IgnoreNegWeightsInTraining" modified="No">False</Option>
    <Option name="TrainingMethod" modified="Yes">BFGS</Option>
    <Option name="LearningRate" modified="No">2.000000e-02</Option>
    <Option name="DecayRate" modified="No">1.000000e-02</Option>
    <Option name="TestRate" modified="Yes">5</Option>
    <Option name="EpochMonitoring" modified="No">False</Option>
    <Option name="Sampling" modified="No">1.000000e+00</Option>
    <Option name="SamplingEpoch" modified="No">1.000000e+00</Option>
    <Option name="SamplingImportance" modified="No">1.000000e+00</Option>
    <Option name="SamplingTraining" modified="No">True</Option>
    <Option name="SamplingTesting" modified="No">False</Option>
    <Option name="ResetStep" modified="No">50</Option>
    <Option name="Tau" modified="No">3.000000e+00</Option>
    <Option name="BPMode" modified="No">sequential</Option>
    <Option name="BatchSize" modified="No">-1</Option>
    <Option name="ConvergenceImprove" modified="No">1.000000e-30</Option>
    <Option name="ConvergenceTests" modified="No">-1</Option>
    <Option name="UseRegulator" modified="Yes">False</Option>
    <Option name="UpdateLimit" modified="No">10000</Option>
    <Option name="CalculateErrors" modified="No">False</Option>
    <Option name="WeightRange" modified="No">1.000000e+00</Option>
  </Options>
  <Variables NVar="11">
    <Variable VarIndex="0" Expression="dR_l1l2" Label="dR_l1l2" Title="dR_l1l2" Unit="" Internal="dR_l1l2" Type="F" Min="7.17559531e-02" Max="3.29995322e+00"/>
    <Variable VarIndex="1" Expression="dR_b1b2" Label="dR_b1b2" Title="dR_b1b2" Unit="" Internal="dR_b1b2" Type="F" Min="3.73879045e-01" Max="4.99817085e+00"/>
    <Variable VarIndex="2" Expression="dR_bl" Label="dR_bl" Title="dR_bl" Unit="" Internal="dR_bl" Type="F" Min="4.00081575e-01" Max="4.99972916e+00"/>
    <Variable VarIndex="3" Expression="dR_l1l2b1b2" Label="dR_l1l2b1b2" Title="dR_l1l2b1b2" Unit="" Internal="dR_l1l2b1b2" Type="F" Min="4.42243833e-03" Max="5.99961948e+00"/>
    <Variable VarIndex="4" Expression="MINdR_bl" Label="MINdR_bl" Title="MINdR_bl" Unit="" Internal="MINdR_bl" Type="F" Min="4.00042474e-01" Max="3.19991016e+00"/>
    <Variable VarIndex="5" Expression="dphi_l1l2b1b2" Label="dphi_l1l2b1b2" Title="dphi_l1l2b1b2" Unit="" Internal="dphi_l1l2b1b2" Type="F" Min="1.66005921e-05" Max="3.14159226e+00"/>
    <Variable VarIndex="6" Expression="mass_l1l2" Label="mass_l1l2" Title="mass_l1l2" Unit="" Internal="mass_l1l2" Type="F" Min="5.00042486e+00" Max="9.99998016e+01"/>
    <Variable VarIndex="7" Expression="mass_b1b2" Label="mass_b1b2" Title="mass_b1b2" Unit="" Internal="mass_b1b2" Type="F" Min="2.20002632e+01" Max="6.99751221e+02"/>
    <Variable VarIndex="8" Expression="mass_trans" Label="mass_trans" Title="mass_trans" Unit="" Internal="mass_trans" Type="F" Min="0.00000000e+00" Max="2.49991043e+02"/>
    <Variable VarIndex="9" Expression="MT2" Label="MT2" Title="MT2" Unit="" Internal="MT2" Type="F" Min="2.23099918e+01" Max="3.99925476e+02"/>
    <Variable VarIndex="10" Expression="pt_b1b2" Label="pt_b1b2" Title="pt_b1b2" Unit="" Internal="pt_b1b2" Type="F" Min="3.26862246e-01" Max="2.99963409e+02"/>
  </Variables>
  <Spectators NSpec="0"/>
  <Classes NClass="2">
    <Class Name="Signal" Index="0"/>
    <Class Name="Background" Index="1"/>
  </Classes>
  <Transformations NTransformations="1">
    <Transform Name="Normalize">
      <Selection>
        <Input NInputs="11">
          <Input Type="Variable" Label="dR_l1l2" Expression="dR_l1l2"/>
          <Input Type="Variable" Label="dR_b1b2" Expression="dR_b1b2"/>
          <Input Type="Variable" Label="dR_bl" Expression="dR_bl"/>
          <Input Type="Variable" Label="dR_l1l2b1b2" Expression="dR_l1l2b1b2"/>
          <Input Type="Variable" Label="MINdR_bl" Expression="MINdR_bl"/>
          <Input Type="Variable" Label="dphi_l1l2b1b2" Expression="dphi_l1l2b1b2"/>
          <Input Type="Variable" Label="mass_l1l2" Expression="mass_l1l2"/>
          <Input Type="Variable" Label="mass_b1b2" Expression="mass_b1b2"/>
          <Input Type="Variable" Label="mass_trans" Expression="mass_trans"/>
          <Input Type="Variable" Label="MT2" Expression="MT2"/>
          <Input Type="Variable" Label="pt_b1b2" Expression="pt_b1b2"/>
        </Input>
        <Output NOutputs="11">
          <Output Type="Variable" Label="dR_l1l2" Expression="dR_l1l2"/>
          <Output Type="Variable" Label="dR_b1b2" Expression="dR_b1b2"/>
          <Output Type="Variable" Label="dR_bl" Expression="dR_bl"/>
          <Output Type="Variable" Label="dR_l1l2b1b2" Expression="dR_l1l2b1b2"/>
          <Output Type="Variable" Label="MINdR_bl" Expression="MINdR_bl"/>
          <Output Type="Variable" Label="dphi_l1l2b1b2" Expression="dphi_l1l2b1b2"/>
          <Output Type="Variable" Label="mass_l1l2" Expression="mass_l1l2"/>
          <Output Type="Variable" Label="mass_b1b2" Expression="mass_b1b2"/>
          <Output Type="Variable" Label="mass_trans" Expression="mass_trans"/>
          <Output Type="Variable" Label="MT2" Expression="MT2"/>
          <Output Type="Variable" Label="pt_b1b2" Expression="pt_b1b2"/>
        </Output>
      </Selection>
      <Class ClassIndex="0">
        <Ranges>
          <Range Index="0" Min="7.1755953133106232e-02" Max="3.2587964534759521e+00"/>
          <Range Index="1" Min="3.9584842324256897e-01" Max="4.9001898765563965e+00"/>
          <Range Index="2" Min="4.2405718564987183e-01" Max="4.9210271835327148e+00"/>
          <Range Index="3" Min="2.5943207740783691e-01" Max="5.7538762092590332e+00"/>
          <Range Index="4" Min="4.0407690405845642e-01" Max="3.1550784111022949e+00"/>
          <Range Index="5" Min="1.0903537040576339e-03" Max="3.1415100097656250e+00"/>
          <Range Index="6" Min="5.0924382209777832e+00" Max="9.1641319274902344e+01"/>
          <Range Index="7" Min="2.2006458282470703e+01" Max="6.9156414794921875e+02"/>
          <Range Index="8" Min="8.4033176302909851e-02" Max="2.4851266479492188e+02"/>
          <Range Index="9" Min="5.3644802093505859e+01" Max="3.8546936035156250e+02"/>
          <Range Index="10" Min="4.0255560874938965e+00" Max="2.9966421508789062e+02"/>
        </Ranges>
      </Class>
      <Class ClassIndex="1">
        <Ranges>
          <Range Index="0" Min="7.3570802807807922e-02" Max="3.2999532222747803e+00"/>
          <Range Index="1" Min="3.7387904524803162e-01" Max="4.9981708526611328e+00"/>
          <Range Index="2" Min="4.0008157491683960e-01" Max="4.9997291564941406e+00"/>
          <Range Index="3" Min="4.4224383309483528e-03" Max="5.9996194839477539e+00"/>
          <Range Index="4" Min="4.0004247426986694e-01" Max="3.1999101638793945e+00"/>
          <Range Index="5" Min="1.6600592061877251e-05" Max="3.1415922641754150e+00"/>
          <Range Index="6" Min="5.0004248619079590e+00" Max="9.9999801635742188e+01"/>
          <Range Index="7" Min="2.2000263214111328e+01" Max="6.9975122070312500e+02"/>
          <Range Index="8" Min="0.0000000000000000e+00" Max="2.4999104309082031e+02"/>
          <Range Index="9" Min="2.2309991836547852e+01" Max="3.9992547607421875e+02"/>
          <Range Index="10" Min="3.2686224579811096e-01" Max="2.9996340942382812e+02"/>
        </Ranges>
      </Class>
      <Class ClassIndex="2">
        <Ranges>
          <Range Index="0" Min="7.1755953133106232e-02" Max="3.2999532222747803e+00"/>
          <Range Index="1" Min="3.7387904524803162e-01" Max="4.9981708526611328e+00"/>
          <Range Index="2" Min="4.0008157491683960e-01" Max="4.9997291564941406e+00"/>
          <Range Index="3" Min="4.4224383309483528e-03" Max="5.9996194839477539e+00"/>
          <Range Index="4" Min="4.0004247426986694e-01" Max="3.1999101638793945e+00"/>
          <Range Index="5" Min="1.6600592061877251e-05" Max="3.1415922641754150e+00"/>
          <Range Index="6" Min="5.0004248619079590e+00" Max="9.9999801635742188e+01"/>
          <Range Index="7" Min="2.2000263214111328e+01" Max="6.9975122070312500e+02"/>
          <Range Index="8" Min="0.0000000000000000e+00" Max="2.4999104309082031e+02"/>
          <Range Index="9" Min="2.2309991836547852e+01" Max="3.9992547607421875e+02"/>
          <Range Index="10" Min="3.2686224579811096e-01" Max="2.9996340942382812e+02"/>
        </Ranges>
      </Class>
    </Transform>
  </Transformations>
  <MVAPdfs/>
  <Weights>
    <Layout NLayers="3">
      <Layer Index="0" NNeurons="12">
        <Neuron NSynapses="16">
          -2.4799683718271776e-01 -2.9150920893418031e-01 3.7938231065375461e-01 1.7027949661807755e+00 -1.3607141610409963e+00 -1.1515195235311575e+00 1.0535810842366748e+00 1.8036217091802840e+00 -1.0776627763168560e+00 -4.2622939769057948e-02 -1.7514233005473971e+00 -3.3354805012824651e-01 -1.2586654951175804e+00 -8.6079035667574755e-01 -1.0889009944071864e+00 1.2079635719763855e-01 
        </Neuron>
        <Neuron NSynapses="16">
          -5.6821222690130713e-01 3.7454020297426092e+00 -2.4404356177844444e+00 1.4733366573251279e+00 -4.6356819721573843e-02 -1.3627582429691054e+00 -3.1520356906486957e+00 6.1188791432696850e-02 -1.7599475935535855e+00 -2.0238339819886257e-02 6.0340041530836752e-01 -1.3986945827982842e+00 -1.8255455051424123e+00 -1.7629175572397581e-02 3.1053925945253003e+00 6.1608241481381603e+00 
        </Neuron>
        <Neuron NSynapses="16">
          -1.5817974028953000e-01 1.2572725620055893e+00 9.1888255937810848e-01 -4.3297363285689483e-01 -1.4335116049719483e+00 1.7071877659638026e+00 2.3338598618933764e-02 9.2405435286469106e-01 6.3072613463886529e-01 6.0248957455123464e-01 1.5887303336200185e+00 4.2520944427223978e-01 -2.6924899561099852e-01 -1.3551142674354153e+00 -6.5435304546942033e-02 -3.3588530676104056e-01 
        </Neuron>
        <Neuron NSynapses="16">
          1.4399263085214535e+00 2.0728451611949459e+00 2.6741880625227099e-01 1.4011650742293911e+00 -1.8340139677373173e+00 1.0381259404929966e+00 4.9587468459408196e-01 -9.0443548546819597e-01 -1.2998492099256271e+00 -8.1998927327401172e-01 1.2510989068827025e+00 1.6196927090220983e+00 -1.4881376406543165e+00 5.2416804084799311e-02 -4.7180592081834993e-01 -1.3637893312390288e+00 
        </Neuron>
        <Neuron NSynapses="16">
          2.0476069781771491e+00 -5.0198139773773609e-01 5.5251087850793901e-01 -1.3155135740063970e+00 2.0015718540707761e-01 -2.5078580881342682e-01 2.6024724585865139e-01 -1.4669956674218245e+00 3.7691053359053162e-01 8.4396722091133480e-01 1.5854715933062020e+00 -7.8760928233210503e-01 -1.6038112204893773e+00 -1.6710244548980475e+00 -2.5733152149710614e-01 -3.8877477206604116e-01 
        </Neuron>
        <Neuron NSynapses="16">
          1.8151219137312182e+00 4.8845998285280140e-01 -9.6086286047249309e-02 -7.7157539483885351e-01 -1.2322457978221975e+00 -4.2623499574994833e-01 -1.2873462375745202e+00 -1.2169603219710901e+00 -2.0633538327313135e+00 -7.1366830668032621e-02 3.9634881468441151e-02 -3.1431946725442417e-01 1.6856245211451963e+00 -1.5497395144534509e+00 1.3130101419180955e+00 2.2937804969045375e-01 
        </Neuron>
        <Neuron NSynapses="16">
          -8.1828296982642057e-01 -2.1052440736436755e+00 -1.9702490560873758e+00 -4.8955583033551901e-02 -1.3831052424945449e+00 -1.7214809207895567e+00 -1.3215478274971934e-01 1.5905804557946219e+00 -1.5731636793239194e+00 1.8929594892935877e+00 -9.7271172653610238e-01 -2.5986937229138753e+00 -4.6381262445190380e-01 3.7081210988452606e-01 9.5492076385156249e-02 1.1402233740807439e+00 
        </Neuron>
        <Neuron NSynapses="16">
          2.3779627032907369e-01 -1.7576002161529629e+00 -3.1150097227620503e+00 1.6858994453982943e+00 4.9878208051709982e-01 -1.4046675297144173e+00 8.1815808704989248e+00 -9.8613073452603617e-01 -1.6701757934838304e+00 3.7034263212681950e-01 -6.9504283319105420e-01 1.0058993445689175e+00 8.0105905499434604e-01 -4.5269900773894417e-01 -8.1040396315069945e+00 2.2534724259479977e+00 
        </Neuron>
        <Neuron NSynapses="16">
          -1.4791350157361167e+00 -1.3281555060835999e+00 -1.1905023822890242e+00 -1.8275188982710229e+00 1.3554024640166613e+00 -1.7387595525475492e+00 7.9068942400570053e-01 1.0363185765731804e+00 1.2475217116321400e+00 -4.1283460525965028e+00 5.9552796242632300e-01 1.2620405056584327e+00 1.7320096026948171e+00 1.0593858484838954e+00 -8.0297087899136799e-01 7.4734896729106925e-01 
        </Neuron>
        <Neuron NSynapses="16">
          -1.3497522988052491e+00 2.7165947782641400e+00 4.8285040483278552e+00 -6.1707579756723008e-01 -6.0921214433850501e-01 1.7607844712395343e-01 -6.4660993792986217e+00 6.7839167823871482e-01 1.8421889383966978e+00 -5.5518114039350275e-01 -6.4011933237833285e-01 4.9948778231848268e-01 1.0349233563618023e+00 5.0825060981557335e-01 6.3821115349625135e+00 -2.6502098775339893e+00 
        </Neuron>
        <Neuron NSynapses="16">
          1.6189235279058682e+00 3.0298814705748929e+00 1.4920176618190772e-01 1.9788679680767543e-01 6.9330916296616896e-01 -1.4171730923270742e-01 -2.5464243078142119e+00 1.1770360313011488e+00 -6.6367880395249002e-01 -4.0950759562318251e-01 1.9757395519326963e+00 4.5422910694187613e-01 -2.6594227248777391e-01 1.4643224948510731e+00 2.5176503893458571e+00 5.7880539563850442e-01 
        </Neuron>
        <Neuron NSynapses="16">
          5.0859244279950910e-01 -2.9694592182754254e+00 -2.8788481053152499e+00 -1.4401878060132705e+00 -1.7985819330194621e+00 1.0405172911180518e+00 5.2398925705676298e+00 -1.8752991433600730e+00 -1.9297445555015399e-01 1.1844414625826534e+00 -3.1064246218689348e-02 1.1884815745089274e+00 -4.4302689602814621e-01 -6.5050084588726687e-02 -5.2024152631662837e+00 6.2373057115731552e+00 
        </Neuron>
      </Layer>
      <Layer Index="1" NNeurons="17">
        <Neuron NSynapses="1">
          1.3572646581231690e-03 
        </Neuron>
        <Neuron NSynapses="1">
          -3.7554498331466325e-02 
        </Neuron>
        <Neuron NSynapses="1">
          8.2924142514296376e-02 
        </Neuron>
        <Neuron NSynapses="1">
          1.4562219022013986e-03 
        </Neuron>
        <Neuron NSynapses="1">
          -2.3918955187774622e-03 
        </Neuron>
        <Neuron NSynapses="1">
          -5.6387649587149721e-03 
        </Neuron>
        <Neuron NSynapses="1">
          4.9219027792091383e+00 
        </Neuron>
        <Neuron NSynapses="1">
          1.0346104207467983e-03 
        </Neuron>
        <Neuron NSynapses="1">
          4.7287209585884322e-03 
        </Neuron>
        <Neuron NSynapses="1">
          1.3847185453425314e-02 
        </Neuron>
        <Neuron NSynapses="1">
          -5.8756059196103192e-03 
        </Neuron>
        <Neuron NSynapses="1">
          1.1342494576274214e-02 
        </Neuron>
        <Neuron NSynapses="1">
          1.1131866782431153e-03 
        </Neuron>
        <Neuron NSynapses="1">
          -2.8670101492421448e-03 
        </Neuron>
        <Neuron NSynapses="1">
          4.9307746866126827e+00 
        </Neuron>
        <Neuron NSynapses="1">
          1.0089285249908471e-01 
        </Neuron>
        <Neuron NSynapses="1">
          -5.1662762052193729e-02 
        </Neuron>
      </Layer>
      <Layer Index="2" NNeurons="1">
        <Neuron NSynapses="0"/>
      </Layer>
    </Layout>
  </Weights>
</MethodSetup>
