<?xml version="1.0"?>
<MethodSetup Method="MLP::MLP">
  <GeneralInfo>
    <Info name="TMVA Release" value="4.1.2 [262402]"/>
    <Info name="ROOT Release" value="5.32/04 [335876]"/>
    <Info name="Creator" value="lpernie"/>
    <Info name="Date" value="Fri Jul 15 14:31:07 2016"/>
    <Info name="Host" value="Linux login01.brazos.tamu.edu 2.6.32-431.23.3.el6.x86_64 #1 SMP Thu Jul 31 17:20:51 UTC 2014 x86_64 x86_64 x86_64 GNU/Linux"/>
    <Info name="Dir" value="/home/lpernie/Hhh/delphes/diHiggs/MVAs"/>
    <Info name="Training events" value="193479"/>
    <Info name="TrainingTime" value="2.32226296e+03"/>
    <Info name="AnalysisType" value="Classification"/>
  </GeneralInfo>
  <Options>
    <Option name="NCycles" modified="Yes">600</Option>
    <Option name="HiddenLayers" modified="Yes">N+5</Option>
    <Option name="NeuronType" modified="Yes">tanh</Option>
    <Option name="RandomSeed" modified="No">1</Option>
    <Option name="EstimatorType" modified="No">MSE</Option>
    <Option name="NeuronInputType" modified="No">sum</Option>
    <Option name="V" modified="Yes">False</Option>
    <Option name="VerbosityLevel" modified="No">Default</Option>
    <Option name="VarTransform" modified="Yes">N</Option>
    <Option name="H" modified="Yes">True</Option>
    <Option name="CreateMVAPdfs" modified="No">False</Option>
    <Option name="IgnoreNegWeightsInTraining" modified="No">False</Option>
    <Option name="TrainingMethod" modified="No">BP</Option>
    <Option name="LearningRate" modified="No">2.000000e-02</Option>
    <Option name="DecayRate" modified="No">1.000000e-02</Option>
    <Option name="TestRate" modified="Yes">5</Option>
    <Option name="EpochMonitoring" modified="No">False</Option>
    <Option name="Sampling" modified="No">1.000000e+00</Option>
    <Option name="SamplingEpoch" modified="No">1.000000e+00</Option>
    <Option name="SamplingImportance" modified="No">1.000000e+00</Option>
    <Option name="SamplingTraining" modified="No">True</Option>
    <Option name="SamplingTesting" modified="No">False</Option>
    <Option name="ResetStep" modified="No">50</Option>
    <Option name="Tau" modified="No">3.000000e+00</Option>
    <Option name="BPMode" modified="No">sequential</Option>
    <Option name="BatchSize" modified="No">-1</Option>
    <Option name="ConvergenceImprove" modified="No">1.000000e-30</Option>
    <Option name="ConvergenceTests" modified="No">-1</Option>
    <Option name="UseRegulator" modified="Yes">False</Option>
    <Option name="UpdateLimit" modified="No">10000</Option>
    <Option name="CalculateErrors" modified="No">False</Option>
    <Option name="WeightRange" modified="No">1.000000e+00</Option>
  </Options>
  <Variables NVar="11">
    <Variable VarIndex="0" Expression="dR_l1l2" Label="dR_l1l2" Title="dR_l1l2" Unit="" Internal="dR_l1l2" Type="F" Min="7.02899098e-02" Max="3.29992628e+00"/>
    <Variable VarIndex="1" Expression="dR_b1b2" Label="dR_b1b2" Title="dR_b1b2" Unit="" Internal="dR_b1b2" Type="F" Min="3.91943723e-01" Max="4.99817085e+00"/>
    <Variable VarIndex="2" Expression="dR_bl" Label="dR_bl" Title="dR_bl" Unit="" Internal="dR_bl" Type="F" Min="4.00014162e-01" Max="4.99432611e+00"/>
    <Variable VarIndex="3" Expression="dR_l1l2b1b2" Label="dR_l1l2b1b2" Title="dR_l1l2b1b2" Unit="" Internal="dR_l1l2b1b2" Type="F" Min="4.42243833e-03" Max="5.99961948e+00"/>
    <Variable VarIndex="4" Expression="MINdR_bl" Label="MINdR_bl" Title="MINdR_bl" Unit="" Internal="MINdR_bl" Type="F" Min="4.00007665e-01" Max="3.19964170e+00"/>
    <Variable VarIndex="5" Expression="dphi_l1l2b1b2" Label="dphi_l1l2b1b2" Title="dphi_l1l2b1b2" Unit="" Internal="dphi_l1l2b1b2" Type="F" Min="6.74796684e-05" Max="3.14159226e+00"/>
    <Variable VarIndex="6" Expression="mass_l1l2" Label="mass_l1l2" Title="mass_l1l2" Unit="" Internal="mass_l1l2" Type="F" Min="5.00372505e+00" Max="9.99994965e+01"/>
    <Variable VarIndex="7" Expression="mass_b1b2" Label="mass_b1b2" Title="mass_b1b2" Unit="" Internal="mass_b1b2" Type="F" Min="2.22296066e+01" Max="6.99155945e+02"/>
    <Variable VarIndex="8" Expression="mass_trans" Label="mass_trans" Title="mass_trans" Unit="" Internal="mass_trans" Type="F" Min="0.00000000e+00" Max="2.49995087e+02"/>
    <Variable VarIndex="9" Expression="MT2" Label="MT2" Title="MT2" Unit="" Internal="MT2" Type="F" Min="2.23099918e+01" Max="3.99818787e+02"/>
    <Variable VarIndex="10" Expression="pt_b1b2" Label="pt_b1b2" Title="pt_b1b2" Unit="" Internal="pt_b1b2" Type="F" Min="3.26862246e-01" Max="2.99870026e+02"/>
  </Variables>
  <Spectators NSpec="0"/>
  <Classes NClass="2">
    <Class Name="Signal" Index="0"/>
    <Class Name="Background" Index="1"/>
  </Classes>
  <Transformations NTransformations="1">
    <Transform Name="Normalize">
      <Selection>
        <Input NInputs="11">
          <Input Type="Variable" Label="dR_l1l2" Expression="dR_l1l2"/>
          <Input Type="Variable" Label="dR_b1b2" Expression="dR_b1b2"/>
          <Input Type="Variable" Label="dR_bl" Expression="dR_bl"/>
          <Input Type="Variable" Label="dR_l1l2b1b2" Expression="dR_l1l2b1b2"/>
          <Input Type="Variable" Label="MINdR_bl" Expression="MINdR_bl"/>
          <Input Type="Variable" Label="dphi_l1l2b1b2" Expression="dphi_l1l2b1b2"/>
          <Input Type="Variable" Label="mass_l1l2" Expression="mass_l1l2"/>
          <Input Type="Variable" Label="mass_b1b2" Expression="mass_b1b2"/>
          <Input Type="Variable" Label="mass_trans" Expression="mass_trans"/>
          <Input Type="Variable" Label="MT2" Expression="MT2"/>
          <Input Type="Variable" Label="pt_b1b2" Expression="pt_b1b2"/>
        </Input>
        <Output NOutputs="11">
          <Output Type="Variable" Label="dR_l1l2" Expression="dR_l1l2"/>
          <Output Type="Variable" Label="dR_b1b2" Expression="dR_b1b2"/>
          <Output Type="Variable" Label="dR_bl" Expression="dR_bl"/>
          <Output Type="Variable" Label="dR_l1l2b1b2" Expression="dR_l1l2b1b2"/>
          <Output Type="Variable" Label="MINdR_bl" Expression="MINdR_bl"/>
          <Output Type="Variable" Label="dphi_l1l2b1b2" Expression="dphi_l1l2b1b2"/>
          <Output Type="Variable" Label="mass_l1l2" Expression="mass_l1l2"/>
          <Output Type="Variable" Label="mass_b1b2" Expression="mass_b1b2"/>
          <Output Type="Variable" Label="mass_trans" Expression="mass_trans"/>
          <Output Type="Variable" Label="MT2" Expression="MT2"/>
          <Output Type="Variable" Label="pt_b1b2" Expression="pt_b1b2"/>
        </Output>
      </Selection>
      <Class ClassIndex="0">
        <Ranges>
          <Range Index="0" Min="7.0289909839630127e-02" Max="3.2135665416717529e+00"/>
          <Range Index="1" Min="3.9785414934158325e-01" Max="4.6378378868103027e+00"/>
          <Range Index="2" Min="4.8694577813148499e-01" Max="4.7359142303466797e+00"/>
          <Range Index="3" Min="3.3065372705459595e-01" Max="5.6573796272277832e+00"/>
          <Range Index="4" Min="4.2992991209030151e-01" Max="3.1996417045593262e+00"/>
          <Range Index="5" Min="1.8846971914172173e-02" Max="3.1415617465972900e+00"/>
          <Range Index="6" Min="5.1319479942321777e+00" Max="9.6627227783203125e+01"/>
          <Range Index="7" Min="2.2696001052856445e+01" Max="6.8784008789062500e+02"/>
          <Range Index="8" Min="0.0000000000000000e+00" Max="2.4999508666992188e+02"/>
          <Range Index="9" Min="5.9343948364257812e+01" Max="3.9815777587890625e+02"/>
          <Range Index="10" Min="6.3880505561828613e+00" Max="2.9987002563476562e+02"/>
        </Ranges>
      </Class>
      <Class ClassIndex="1">
        <Ranges>
          <Range Index="0" Min="7.0645935833454132e-02" Max="3.2999262809753418e+00"/>
          <Range Index="1" Min="3.9194372296333313e-01" Max="4.9981708526611328e+00"/>
          <Range Index="2" Min="4.0001416206359863e-01" Max="4.9943261146545410e+00"/>
          <Range Index="3" Min="4.4224383309483528e-03" Max="5.9996194839477539e+00"/>
          <Range Index="4" Min="4.0000766515731812e-01" Max="3.1992781162261963e+00"/>
          <Range Index="5" Min="6.7479668359737843e-05" Max="3.1415922641754150e+00"/>
          <Range Index="6" Min="5.0037250518798828e+00" Max="9.9999496459960938e+01"/>
          <Range Index="7" Min="2.2229606628417969e+01" Max="6.9915594482421875e+02"/>
          <Range Index="8" Min="0.0000000000000000e+00" Max="2.4999411010742188e+02"/>
          <Range Index="9" Min="2.2309991836547852e+01" Max="3.9981878662109375e+02"/>
          <Range Index="10" Min="3.2686224579811096e-01" Max="2.9981753540039062e+02"/>
        </Ranges>
      </Class>
      <Class ClassIndex="2">
        <Ranges>
          <Range Index="0" Min="7.0289909839630127e-02" Max="3.2999262809753418e+00"/>
          <Range Index="1" Min="3.9194372296333313e-01" Max="4.9981708526611328e+00"/>
          <Range Index="2" Min="4.0001416206359863e-01" Max="4.9943261146545410e+00"/>
          <Range Index="3" Min="4.4224383309483528e-03" Max="5.9996194839477539e+00"/>
          <Range Index="4" Min="4.0000766515731812e-01" Max="3.1996417045593262e+00"/>
          <Range Index="5" Min="6.7479668359737843e-05" Max="3.1415922641754150e+00"/>
          <Range Index="6" Min="5.0037250518798828e+00" Max="9.9999496459960938e+01"/>
          <Range Index="7" Min="2.2229606628417969e+01" Max="6.9915594482421875e+02"/>
          <Range Index="8" Min="0.0000000000000000e+00" Max="2.4999508666992188e+02"/>
          <Range Index="9" Min="2.2309991836547852e+01" Max="3.9981878662109375e+02"/>
          <Range Index="10" Min="3.2686224579811096e-01" Max="2.9987002563476562e+02"/>
        </Ranges>
      </Class>
    </Transform>
  </Transformations>
  <MVAPdfs/>
  <Weights>
    <Layout NLayers="3">
      <Layer Index="0" NNeurons="12">
        <Neuron NSynapses="16">
          -1.1715624457366238e+00 -4.7566934601913341e-01 -7.6372150574472175e-01 1.3077596904630424e+00 -1.3002661263678632e+00 -1.0170002486143965e+00 7.2240600340109618e-01 9.9230998041581286e-01 -6.7936867793485844e-01 -1.1803587242490041e+00 -8.7148823931410635e-01 1.8405173229896508e+00 -6.3559807845153637e-01 -3.4703309990243786e-01 -9.9054890299072440e-01 6.4705744598009918e-01 
        </Neuron>
        <Neuron NSynapses="16">
          -1.9355826454801348e+00 7.8442669629675843e-01 8.2320063952640965e-01 1.4442080401494626e+00 -4.6734656033114125e-01 -5.6938440972379012e-01 -6.7493392393703200e-01 -2.5766355323351409e-01 -8.6256179925927290e-01 -2.6460937161750980e-01 1.0229771799464373e+00 5.7673559913557226e-01 -1.6178175217872228e+00 2.6036279249147765e-01 6.9678668304116376e-01 1.2971783830807571e+00 
        </Neuron>
        <Neuron NSynapses="16">
          -8.2052695282205235e-01 2.7398880383234664e-01 6.2910353623536153e-01 -6.9701075929952658e-02 -8.1769412325845936e-01 1.6234558825364167e+00 1.0929123979835006e-01 7.4855987293141812e-01 1.3641017863484313e+00 7.1154879884592936e-01 1.7824652103565943e+00 6.9368228006408350e-02 -2.9524085339027833e-01 -1.3848418206140691e+00 9.2768902622836391e-01 -2.7862681940333467e-01 
        </Neuron>
        <Neuron NSynapses="16">
          8.2802591231077016e-01 7.4318911958081257e-01 9.0865407120260200e-01 1.5206518136126324e+00 -1.0203416349876888e+00 1.1516410526682863e+00 -8.8587451183872901e-01 -1.1162957175706607e+00 -9.6417010424143079e-01 -1.7813637929648294e+00 1.6125032569757418e+00 8.6605704651707985e-02 -1.4718198243472924e+00 3.5392701142617539e-01 -3.4262137281808824e-02 3.2257745862120463e-01 
        </Neuron>
        <Neuron NSynapses="16">
          1.0675663446329815e+00 4.1928755899931877e-02 -5.3367349639371542e-03 -9.0789769455482761e-01 1.2914832305164152e+00 9.2085469608552337e-02 -1.5337673735508750e-01 -1.6744705902000385e+00 9.0600551900884940e-01 4.5191236627201109e-01 1.1107506163764145e+00 -7.5713798051551406e-01 -1.3813833724519746e+00 -1.5899502121291840e+00 8.3583180533288692e-01 -1.1605595330939114e-02 
        </Neuron>
        <Neuron NSynapses="16">
          -5.1866725178707732e-02 -8.2896224135591570e-02 -1.4503706039017120e-01 -4.9642430210707050e-01 5.6015417061569699e-02 -4.2659766373046715e-01 -1.1595801701829997e-01 1.4728831248097951e-01 -1.5624310621002020e+00 -1.0517941104615336e+00 -7.1280138910322066e-01 -1.8419339132035967e-01 1.3791912662225441e+00 -2.8625744950979048e-01 -4.8381094249204371e-01 1.2738458657881582e+00 
        </Neuron>
        <Neuron NSynapses="16">
          -2.8061394549500257e-01 4.8006027737806561e-01 -3.1561427246149987e-01 -2.0280435213490261e-01 -1.0615452305131230e+00 -1.2190834954290730e+00 7.7344192720631366e-01 9.8771156422079787e-01 -6.4270039204989382e-01 1.3456598446832297e+00 -2.8046577186703442e-01 -2.1438245584636695e-01 -5.2854573353705671e-02 3.6624669342389921e-01 -1.1048734588610074e+00 3.4956262952760492e-01 
        </Neuron>
        <Neuron NSynapses="16">
          8.4547577996116652e-01 -1.5501340666226158e+00 -2.5455619361360577e+00 1.8824652366303134e+00 6.3148859018645609e-01 1.6510744062572422e-01 6.3249211631593907e+00 -2.7039463045017147e+00 -5.8086014376576811e-01 -4.6230822192084325e-01 -3.4495076748769032e-02 -4.7020937393328582e-01 9.2466781606838344e-01 -1.0233220904723184e+00 -6.7882028991136367e-01 -1.3567137234845580e-01 
        </Neuron>
        <Neuron NSynapses="16">
          -4.9682925736626821e-01 -6.7094359586140795e-02 -6.0985685162452241e-01 -1.6484557183610460e+00 6.9315184130671004e-01 2.5541553674676167e-02 7.5654690719028572e-01 4.2981175821637707e-01 1.3675921601618977e+00 -1.2857620642180687e+00 1.5459659613012974e-01 1.8521354869713841e-01 1.1517429087056810e+00 -7.9571478638613802e-02 -1.5331070411696152e-01 -2.2128158203730175e-01 
        </Neuron>
        <Neuron NSynapses="16">
          -9.2520500418936197e-02 2.0648699101069585e+00 3.6725997599892484e+00 -2.5214524135087374e-01 -1.4502238684384791e-02 7.9571412820797327e-01 -3.3695762409468641e+00 -3.7155763819665477e-01 2.1174652876698365e+00 -1.0040171820762653e+00 -3.4923119400589298e-01 -9.5994168868565499e-01 9.6982969716070400e-01 -5.0624918296630783e-01 1.7368586893932565e+00 -1.6199844949989342e+00 
        </Neuron>
        <Neuron NSynapses="16">
          1.5044642350695683e-01 6.6880677269427147e-01 8.3460421898086801e-01 6.6036423478783235e-01 1.2041948557967168e+00 4.2582765286671331e-01 -1.3777249880735978e+00 2.1046729868608036e-02 -2.0379722955429769e-01 -1.0285518656284254e+00 2.2918078800901069e+00 -1.8691573171211237e-01 -3.4093449216654309e-01 2.4451964696333675e-01 1.2358125944279195e+00 -1.6226697093595710e+00 
        </Neuron>
        <Neuron NSynapses="16">
          -3.0573625755425922e+00 -2.2293170860936460e+00 -2.0201223765720346e+00 -1.6993882450005571e+00 -2.3146953025197803e+00 -2.1256908602811904e+00 5.6822375941097212e+00 9.7483555822645274e-01 -1.6029116626600211e+00 5.7561569688013636e-01 -9.2352172711248393e-01 2.8703388587536898e+00 -5.6325434265310681e-01 1.6569006186002708e+00 -1.9664325476507418e+00 1.5592183519007436e+00 
        </Neuron>
      </Layer>
      <Layer Index="1" NNeurons="17">
        <Neuron NSynapses="1">
          -4.1091392630558643e-01 
        </Neuron>
        <Neuron NSynapses="1">
          -4.6160023636417336e-01 
        </Neuron>
        <Neuron NSynapses="1">
          1.9211870756578669e-01 
        </Neuron>
        <Neuron NSynapses="1">
          -1.5512330229464236e-03 
        </Neuron>
        <Neuron NSynapses="1">
          -1.7388158033304769e-02 
        </Neuron>
        <Neuron NSynapses="1">
          -1.2607480730890508e-01 
        </Neuron>
        <Neuron NSynapses="1">
          -4.3289068733782432e-01 
        </Neuron>
        <Neuron NSynapses="1">
          -1.0473123187494457e-02 
        </Neuron>
        <Neuron NSynapses="1">
          -1.8353601948559888e-03 
        </Neuron>
        <Neuron NSynapses="1">
          -1.3349139249299884e-03 
        </Neuron>
        <Neuron NSynapses="1">
          5.3106664649521962e-02 
        </Neuron>
        <Neuron NSynapses="1">
          -7.6068127870493474e-01 
        </Neuron>
        <Neuron NSynapses="1">
          -1.3298517048868277e-03 
        </Neuron>
        <Neuron NSynapses="1">
          7.1727957474034973e-02 
        </Neuron>
        <Neuron NSynapses="1">
          -6.3456769043048991e-02 
        </Neuron>
        <Neuron NSynapses="1">
          -1.5118664956286383e-03 
        </Neuron>
        <Neuron NSynapses="1">
          3.0022455420881738e-01 
        </Neuron>
      </Layer>
      <Layer Index="2" NNeurons="1">
        <Neuron NSynapses="0"/>
      </Layer>
    </Layout>
  </Weights>
</MethodSetup>
