<?xml version="1.0"?>
<MethodSetup Method="MLP::MLP">
  <GeneralInfo>
    <Info name="TMVA Release" value="4.1.2 [262402]"/>
    <Info name="ROOT Release" value="5.32/04 [335876]"/>
    <Info name="Creator" value="lpernie"/>
    <Info name="Date" value="Fri May  6 13:09:49 2016"/>
    <Info name="Host" value="Linux login01.brazos.tamu.edu 2.6.32-431.23.3.el6.x86_64 #1 SMP Thu Jul 31 17:20:51 UTC 2014 x86_64 x86_64 x86_64 GNU/Linux"/>
    <Info name="Dir" value="/home/lpernie/Hhh/delphes/diHiggs/MVAs"/>
    <Info name="Training events" value="18681"/>
    <Info name="TrainingTime" value="2.24309763e+02"/>
    <Info name="AnalysisType" value="Classification"/>
  </GeneralInfo>
  <Options>
    <Option name="NCycles" modified="Yes">600</Option>
    <Option name="HiddenLayers" modified="Yes">N+5</Option>
    <Option name="NeuronType" modified="Yes">tanh</Option>
    <Option name="RandomSeed" modified="No">1</Option>
    <Option name="EstimatorType" modified="No">MSE</Option>
    <Option name="NeuronInputType" modified="No">sum</Option>
    <Option name="V" modified="Yes">False</Option>
    <Option name="VerbosityLevel" modified="No">Default</Option>
    <Option name="VarTransform" modified="Yes">N</Option>
    <Option name="H" modified="Yes">True</Option>
    <Option name="CreateMVAPdfs" modified="No">False</Option>
    <Option name="IgnoreNegWeightsInTraining" modified="No">False</Option>
    <Option name="TrainingMethod" modified="No">BP</Option>
    <Option name="LearningRate" modified="No">2.000000e-02</Option>
    <Option name="DecayRate" modified="No">1.000000e-02</Option>
    <Option name="TestRate" modified="Yes">5</Option>
    <Option name="EpochMonitoring" modified="No">False</Option>
    <Option name="Sampling" modified="No">1.000000e+00</Option>
    <Option name="SamplingEpoch" modified="No">1.000000e+00</Option>
    <Option name="SamplingImportance" modified="No">1.000000e+00</Option>
    <Option name="SamplingTraining" modified="No">True</Option>
    <Option name="SamplingTesting" modified="No">False</Option>
    <Option name="ResetStep" modified="No">50</Option>
    <Option name="Tau" modified="No">3.000000e+00</Option>
    <Option name="BPMode" modified="No">sequential</Option>
    <Option name="BatchSize" modified="No">-1</Option>
    <Option name="ConvergenceImprove" modified="No">1.000000e-30</Option>
    <Option name="ConvergenceTests" modified="No">-1</Option>
    <Option name="UseRegulator" modified="Yes">False</Option>
    <Option name="UpdateLimit" modified="No">10000</Option>
    <Option name="CalculateErrors" modified="No">False</Option>
    <Option name="WeightRange" modified="No">1.000000e+00</Option>
  </Options>
  <Variables NVar="11">
    <Variable VarIndex="0" Expression="dR_l1l2" Label="dR_l1l2" Title="dR_l1l2" Unit="" Internal="dR_l1l2" Type="F" Min="7.00867921e-02" Max="3.29943013e+00"/>
    <Variable VarIndex="1" Expression="dR_b1b2" Label="dR_b1b2" Title="dR_b1b2" Unit="" Internal="dR_b1b2" Type="F" Min="3.80652487e-01" Max="4.97898674e+00"/>
    <Variable VarIndex="2" Expression="dR_bl" Label="dR_bl" Title="dR_bl" Unit="" Internal="dR_bl" Type="F" Min="4.03012276e-01" Max="4.82458878e+00"/>
    <Variable VarIndex="3" Expression="dR_l1l2b1b2" Label="dR_l1l2b1b2" Title="dR_l1l2b1b2" Unit="" Internal="dR_l1l2b1b2" Type="F" Min="1.63523909e-02" Max="5.91814280e+00"/>
    <Variable VarIndex="4" Expression="MINdR_bl" Label="MINdR_bl" Title="MINdR_bl" Unit="" Internal="MINdR_bl" Type="F" Min="4.00697887e-01" Max="3.19974303e+00"/>
    <Variable VarIndex="5" Expression="dphi_l1l2b1b2" Label="dphi_l1l2b1b2" Title="dphi_l1l2b1b2" Unit="" Internal="dphi_l1l2b1b2" Type="F" Min="3.76255048e-04" Max="3.14153862e+00"/>
    <Variable VarIndex="6" Expression="mass_l1l2" Label="mass_l1l2" Title="mass_l1l2" Unit="" Internal="mass_l1l2" Type="F" Min="5.00658274e+00" Max="9.99996490e+01"/>
    <Variable VarIndex="7" Expression="mass_b1b2" Label="mass_b1b2" Title="mass_b1b2" Unit="" Internal="mass_b1b2" Type="F" Min="2.20024567e+01" Max="6.94112366e+02"/>
    <Variable VarIndex="8" Expression="mass_trans" Label="mass_trans" Title="mass_trans" Unit="" Internal="mass_trans" Type="F" Min="0.00000000e+00" Max="2.49843353e+02"/>
    <Variable VarIndex="9" Expression="MT2" Label="MT2" Title="MT2" Unit="" Internal="MT2" Type="F" Min="3.62006302e+01" Max="3.98157776e+02"/>
    <Variable VarIndex="10" Expression="pt_b1b2" Label="pt_b1b2" Title="pt_b1b2" Unit="" Internal="pt_b1b2" Type="F" Min="1.31985426e+00" Max="2.99852753e+02"/>
  </Variables>
  <Spectators NSpec="0"/>
  <Classes NClass="2">
    <Class Name="Signal" Index="0"/>
    <Class Name="Background" Index="1"/>
  </Classes>
  <Transformations NTransformations="1">
    <Transform Name="Normalize">
      <Selection>
        <Input NInputs="11">
          <Input Type="Variable" Label="dR_l1l2" Expression="dR_l1l2"/>
          <Input Type="Variable" Label="dR_b1b2" Expression="dR_b1b2"/>
          <Input Type="Variable" Label="dR_bl" Expression="dR_bl"/>
          <Input Type="Variable" Label="dR_l1l2b1b2" Expression="dR_l1l2b1b2"/>
          <Input Type="Variable" Label="MINdR_bl" Expression="MINdR_bl"/>
          <Input Type="Variable" Label="dphi_l1l2b1b2" Expression="dphi_l1l2b1b2"/>
          <Input Type="Variable" Label="mass_l1l2" Expression="mass_l1l2"/>
          <Input Type="Variable" Label="mass_b1b2" Expression="mass_b1b2"/>
          <Input Type="Variable" Label="mass_trans" Expression="mass_trans"/>
          <Input Type="Variable" Label="MT2" Expression="MT2"/>
          <Input Type="Variable" Label="pt_b1b2" Expression="pt_b1b2"/>
        </Input>
        <Output NOutputs="11">
          <Output Type="Variable" Label="dR_l1l2" Expression="dR_l1l2"/>
          <Output Type="Variable" Label="dR_b1b2" Expression="dR_b1b2"/>
          <Output Type="Variable" Label="dR_bl" Expression="dR_bl"/>
          <Output Type="Variable" Label="dR_l1l2b1b2" Expression="dR_l1l2b1b2"/>
          <Output Type="Variable" Label="MINdR_bl" Expression="MINdR_bl"/>
          <Output Type="Variable" Label="dphi_l1l2b1b2" Expression="dphi_l1l2b1b2"/>
          <Output Type="Variable" Label="mass_l1l2" Expression="mass_l1l2"/>
          <Output Type="Variable" Label="mass_b1b2" Expression="mass_b1b2"/>
          <Output Type="Variable" Label="mass_trans" Expression="mass_trans"/>
          <Output Type="Variable" Label="MT2" Expression="MT2"/>
          <Output Type="Variable" Label="pt_b1b2" Expression="pt_b1b2"/>
        </Output>
      </Selection>
      <Class ClassIndex="0">
        <Ranges>
          <Range Index="0" Min="7.0086792111396790e-02" Max="3.2189621925354004e+00"/>
          <Range Index="1" Min="3.9436981081962585e-01" Max="4.7353825569152832e+00"/>
          <Range Index="2" Min="5.0305378437042236e-01" Max="4.7359142303466797e+00"/>
          <Range Index="3" Min="2.1332146227359772e-01" Max="5.6573796272277832e+00"/>
          <Range Index="4" Min="4.2992991209030151e-01" Max="3.1997430324554443e+00"/>
          <Range Index="5" Min="4.9346555024385452e-03" Max="3.1415386199951172e+00"/>
          <Range Index="6" Min="5.1180887222290039e+00" Max="9.5885269165039062e+01"/>
          <Range Index="7" Min="2.2374887466430664e+01" Max="6.8784008789062500e+02"/>
          <Range Index="8" Min="0.0000000000000000e+00" Max="2.4935607910156250e+02"/>
          <Range Index="9" Min="5.9673721313476562e+01" Max="3.9815777587890625e+02"/>
          <Range Index="10" Min="6.3880505561828613e+00" Max="2.9985275268554688e+02"/>
        </Ranges>
      </Class>
      <Class ClassIndex="1">
        <Ranges>
          <Range Index="0" Min="7.4400834739208221e-02" Max="3.2994301319122314e+00"/>
          <Range Index="1" Min="3.8065248727798462e-01" Max="4.9789867401123047e+00"/>
          <Range Index="2" Min="4.0301227569580078e-01" Max="4.8245887756347656e+00"/>
          <Range Index="3" Min="1.6352390870451927e-02" Max="5.9181427955627441e+00"/>
          <Range Index="4" Min="4.0069788694381714e-01" Max="3.1416535377502441e+00"/>
          <Range Index="5" Min="3.7625504774041474e-04" Max="3.1414997577667236e+00"/>
          <Range Index="6" Min="5.0065827369689941e+00" Max="9.9999649047851562e+01"/>
          <Range Index="7" Min="2.2002456665039062e+01" Max="6.9411236572265625e+02"/>
          <Range Index="8" Min="1.2781299650669098e-02" Max="2.4984335327148438e+02"/>
          <Range Index="9" Min="3.6200630187988281e+01" Max="3.9509289550781250e+02"/>
          <Range Index="10" Min="1.3198542594909668e+00" Max="2.9834268188476562e+02"/>
        </Ranges>
      </Class>
      <Class ClassIndex="2">
        <Ranges>
          <Range Index="0" Min="7.0086792111396790e-02" Max="3.2994301319122314e+00"/>
          <Range Index="1" Min="3.8065248727798462e-01" Max="4.9789867401123047e+00"/>
          <Range Index="2" Min="4.0301227569580078e-01" Max="4.8245887756347656e+00"/>
          <Range Index="3" Min="1.6352390870451927e-02" Max="5.9181427955627441e+00"/>
          <Range Index="4" Min="4.0069788694381714e-01" Max="3.1997430324554443e+00"/>
          <Range Index="5" Min="3.7625504774041474e-04" Max="3.1415386199951172e+00"/>
          <Range Index="6" Min="5.0065827369689941e+00" Max="9.9999649047851562e+01"/>
          <Range Index="7" Min="2.2002456665039062e+01" Max="6.9411236572265625e+02"/>
          <Range Index="8" Min="0.0000000000000000e+00" Max="2.4984335327148438e+02"/>
          <Range Index="9" Min="3.6200630187988281e+01" Max="3.9815777587890625e+02"/>
          <Range Index="10" Min="1.3198542594909668e+00" Max="2.9985275268554688e+02"/>
        </Ranges>
      </Class>
    </Transform>
  </Transformations>
  <MVAPdfs/>
  <Weights>
    <Layout NLayers="3">
      <Layer Index="0" NNeurons="12">
        <Neuron NSynapses="16">
          -2.0620416138353564e-01 7.7635474556787032e-01 -7.8540791867913254e-02 1.8081393754268109e+00 -1.2879110352009293e+00 -1.5100858492749321e+00 5.1719950661204987e-02 1.7097208266172603e+00 -1.3306380291992215e+00 -1.1082222502038532e+00 -1.2310575565276192e+00 -3.3490408683837303e-01 -1.3593523517068857e+00 -4.5405102473075803e-01 -9.1435646061075271e-01 1.3857772625124176e+00 
        </Neuron>
        <Neuron NSynapses="16">
          -3.6960797966284481e-01 8.1916051266414158e-01 -3.9789408751344868e-01 1.2984941333932034e+00 -5.6431546648744280e-01 -6.0961475902600937e-01 9.0672723343591410e-01 -3.2277615482551210e-02 -1.0800915182385038e+00 -3.0288676459807790e-01 1.2435527923044056e+00 -1.1182196730711438e+00 -1.7882585649685943e+00 -4.5648351620300072e-02 1.1907967520055414e+00 1.4546053479878251e+00 
        </Neuron>
        <Neuron NSynapses="16">
          -2.1778314852833833e-01 4.1707868217974026e-01 4.7231161439306624e-01 -2.9470878848700049e-01 -7.0759420382835669e-01 2.0074580599107481e+00 -3.9913290820111536e-01 8.7937538515674896e-01 1.2398270123822834e+00 9.1864277272424844e-01 1.7811604110103190e+00 5.4094816402308499e-01 -2.0488492115976517e-01 -1.4942801146467304e+00 4.5948482744891045e-01 1.2712742573464611e-01 
        </Neuron>
        <Neuron NSynapses="16">
          1.4562322911539241e+00 1.4578288259809009e+00 1.4410244442737412e+00 1.2979967575488010e+00 -1.1504246966916598e+00 1.4822267182283926e+00 -1.9109691120275871e+00 -1.0417168919458406e+00 -1.2126465809726392e+00 -1.7081197722101658e+00 1.4553214826913399e+00 4.1623349308651514e-01 -1.2956141890334698e+00 3.0549160263374897e-01 5.8721775895938411e-01 4.9663623535673895e-01 
        </Neuron>
        <Neuron NSynapses="16">
          2.0857005622307323e+00 -6.3829331923536237e-01 2.2840591024969992e-01 -1.1512908879928745e+00 1.0459304804280543e+00 -3.0042783825185776e-01 -2.7005535030070010e-01 -1.7707548293909579e+00 7.1077358564538540e-01 8.5098550105496140e-01 1.3649183308480832e+00 -4.5308513077646001e-01 -1.2171368312711399e+00 -1.9283529031077160e+00 1.5310380346890891e-02 -1.7144685603622173e-01 
        </Neuron>
        <Neuron NSynapses="16">
          9.6564193371050877e-01 -5.2942760654990351e-01 -2.4651759227265121e-01 -6.5881322609921433e-01 -1.3415701823415074e-01 -5.0384653188373518e-01 1.5213668263849331e-01 -7.7886463364748093e-01 -1.4715047746006471e+00 -1.4540146371407670e+00 -6.0359975654924436e-01 -6.7146595346440574e-01 1.7389294578327328e+00 -1.2969883295027784e+00 -1.7017353000320667e-01 1.0928087733032292e+00 
        </Neuron>
        <Neuron NSynapses="16">
          -1.0488962863432629e+00 8.6344995265273206e-01 -1.1135836845183358e+00 -4.8315264403624207e-02 -2.0994490195105073e+00 -1.8566663556022576e+00 1.2292430123565730e+00 1.9589976296842608e+00 -1.0626597953775232e+00 1.3893637273573729e+00 -7.0026996014614207e-01 -7.3841979378069011e-01 -3.0671956559390284e-01 4.6420005117279151e-01 -7.2532668647580389e-01 8.5984032174584824e-01 
        </Neuron>
        <Neuron NSynapses="16">
          9.7916555367652147e-01 -5.9545971928930441e-01 -1.1466313535672847e+00 1.6384831282736838e+00 3.3977156498395811e-01 -7.7088347493267928e-02 2.1810846297790265e+00 -1.6734702002435891e+00 -1.3705418920410979e+00 -6.9329251117425772e-02 -1.8249680797566167e-01 1.2554274266293093e+00 8.2340877889041386e-01 -6.1905341604435382e-01 -2.6451338468687333e+00 2.0473336987370780e-01 
        </Neuron>
        <Neuron NSynapses="16">
          -1.1825231107264118e+00 1.7553934874092150e-01 2.6515527596120997e-02 -1.9014717723332879e+00 2.5285365034637314e-01 -9.3819632814653975e-01 5.4548516463019703e-01 8.8769239094913688e-01 1.6594351502640963e+00 -1.5231121212961998e+00 3.3671766706873568e-01 1.3744010138203993e+00 1.2477485141434683e+00 2.2065785684355604e-01 -1.0213739640566621e+00 1.2116432071761600e-02 
        </Neuron>
        <Neuron NSynapses="16">
          -9.3659097768147692e-01 2.4711406561167011e+00 2.0287138548796397e+00 -6.3266035743227100e-01 -7.1547549153605927e-01 7.9173691980889349e-01 -2.9241871017079446e+00 4.2098597283893907e-01 1.8598369059361390e+00 -8.1060931027775929e-01 -3.9766568318287027e-01 -2.7922394856955461e-02 1.2341028122211681e+00 1.4747540417721522e-01 5.0536019694006296e+00 -1.6512786936051602e+00 
        </Neuron>
        <Neuron NSynapses="16">
          2.0020534519866766e+00 6.9738921936489362e-01 7.4332025041783523e-01 5.6822524956543430e-01 1.0175503266364523e+00 1.6737228340048035e-01 -9.4375633958706473e-01 5.6850862498682653e-01 -7.3520792236010735e-01 -7.1273825432965177e-01 1.8630948748884095e+00 3.8177631274877116e-01 -3.0508068614700889e-01 1.0021387312231991e+00 8.5743286575440225e-01 -1.7018806738651886e+00 
        </Neuron>
        <Neuron NSynapses="16">
          -5.2359813788324405e-01 -1.6510527988469972e+00 -6.2578009640956678e-01 -1.4543466817066701e+00 -2.0182553414795996e+00 -1.9800400220705885e-01 1.9590278251820725e+00 -6.6908133167006834e-01 -4.1033682143752886e-01 -1.2808916925954933e-01 -1.6284217064601125e-01 1.7111753743168723e+00 -2.6947947564457048e-01 3.5667742696664106e-01 -7.6318447480629026e-01 8.7941320969222836e-01 
        </Neuron>
      </Layer>
      <Layer Index="1" NNeurons="17">
        <Neuron NSynapses="1">
          5.6823206744782044e-03 
        </Neuron>
        <Neuron NSynapses="1">
          -3.0648631164261564e-01 
        </Neuron>
        <Neuron NSynapses="1">
          -3.1407986403282828e-01 
        </Neuron>
        <Neuron NSynapses="1">
          1.5074627596125540e-02 
        </Neuron>
        <Neuron NSynapses="1">
          -4.3651461267604136e-02 
        </Neuron>
        <Neuron NSynapses="1">
          3.0405145625030994e-02 
        </Neuron>
        <Neuron NSynapses="1">
          -3.7440718409958773e-01 
        </Neuron>
        <Neuron NSynapses="1">
          -4.9068939340462473e-03 
        </Neuron>
        <Neuron NSynapses="1">
          2.7401931756402042e-05 
        </Neuron>
        <Neuron NSynapses="1">
          -1.6320822355358564e-02 
        </Neuron>
        <Neuron NSynapses="1">
          1.6587365588320215e-02 
        </Neuron>
        <Neuron NSynapses="1">
          1.8607108158554674e-02 
        </Neuron>
        <Neuron NSynapses="1">
          -1.2060923039371011e-02 
        </Neuron>
        <Neuron NSynapses="1">
          4.1973213199130877e-03 
        </Neuron>
        <Neuron NSynapses="1">
          3.7274177242434287e-01 
        </Neuron>
        <Neuron NSynapses="1">
          -4.4071144354782647e-02 
        </Neuron>
        <Neuron NSynapses="1">
          1.9777686798285407e-01 
        </Neuron>
      </Layer>
      <Layer Index="2" NNeurons="1">
        <Neuron NSynapses="0"/>
      </Layer>
    </Layout>
  </Weights>
</MethodSetup>
