<?xml version="1.0"?>
<MethodSetup Method="MLP::MLP">
  <GeneralInfo>
    <Info name="TMVA Release" value="4.1.2 [262402]"/>
    <Info name="ROOT Release" value="5.32/04 [335876]"/>
    <Info name="Creator" value="lpernie"/>
    <Info name="Date" value="Fri Jul  1 11:04:03 2016"/>
    <Info name="Host" value="Linux login01.brazos.tamu.edu 2.6.32-431.23.3.el6.x86_64 #1 SMP Thu Jul 31 17:20:51 UTC 2014 x86_64 x86_64 x86_64 GNU/Linux"/>
    <Info name="Dir" value="/home/lpernie/Hhh/delphes/diHiggs/MVAs"/>
    <Info name="Training events" value="223681"/>
    <Info name="TrainingTime" value="2.73108768e+03"/>
    <Info name="AnalysisType" value="Classification"/>
  </GeneralInfo>
  <Options>
    <Option name="NCycles" modified="Yes">600</Option>
    <Option name="HiddenLayers" modified="Yes">N+5</Option>
    <Option name="NeuronType" modified="Yes">tanh</Option>
    <Option name="RandomSeed" modified="No">1</Option>
    <Option name="EstimatorType" modified="No">MSE</Option>
    <Option name="NeuronInputType" modified="No">sum</Option>
    <Option name="V" modified="Yes">False</Option>
    <Option name="VerbosityLevel" modified="No">Default</Option>
    <Option name="VarTransform" modified="Yes">N</Option>
    <Option name="H" modified="Yes">True</Option>
    <Option name="CreateMVAPdfs" modified="No">False</Option>
    <Option name="IgnoreNegWeightsInTraining" modified="No">False</Option>
    <Option name="TrainingMethod" modified="No">BP</Option>
    <Option name="LearningRate" modified="No">2.000000e-02</Option>
    <Option name="DecayRate" modified="No">1.000000e-02</Option>
    <Option name="TestRate" modified="Yes">5</Option>
    <Option name="EpochMonitoring" modified="No">False</Option>
    <Option name="Sampling" modified="No">1.000000e+00</Option>
    <Option name="SamplingEpoch" modified="No">1.000000e+00</Option>
    <Option name="SamplingImportance" modified="No">1.000000e+00</Option>
    <Option name="SamplingTraining" modified="No">True</Option>
    <Option name="SamplingTesting" modified="No">False</Option>
    <Option name="ResetStep" modified="No">50</Option>
    <Option name="Tau" modified="No">3.000000e+00</Option>
    <Option name="BPMode" modified="No">sequential</Option>
    <Option name="BatchSize" modified="No">-1</Option>
    <Option name="ConvergenceImprove" modified="No">1.000000e-30</Option>
    <Option name="ConvergenceTests" modified="No">-1</Option>
    <Option name="UseRegulator" modified="Yes">False</Option>
    <Option name="UpdateLimit" modified="No">10000</Option>
    <Option name="CalculateErrors" modified="No">False</Option>
    <Option name="WeightRange" modified="No">1.000000e+00</Option>
  </Options>
  <Variables NVar="11">
    <Variable VarIndex="0" Expression="dR_l1l2" Label="dR_l1l2" Title="dR_l1l2" Unit="" Internal="dR_l1l2" Type="F" Min="7.04743788e-02" Max="3.29987288e+00"/>
    <Variable VarIndex="1" Expression="dR_b1b2" Label="dR_b1b2" Title="dR_b1b2" Unit="" Internal="dR_b1b2" Type="F" Min="3.75657469e-01" Max="4.99443388e+00"/>
    <Variable VarIndex="2" Expression="dR_bl" Label="dR_bl" Title="dR_bl" Unit="" Internal="dR_bl" Type="F" Min="4.00089145e-01" Max="4.99972916e+00"/>
    <Variable VarIndex="3" Expression="dR_l1l2b1b2" Label="dR_l1l2b1b2" Title="dR_l1l2b1b2" Unit="" Internal="dR_l1l2b1b2" Type="F" Min="7.62077887e-03" Max="5.97856474e+00"/>
    <Variable VarIndex="4" Expression="MINdR_bl" Label="MINdR_bl" Title="MINdR_bl" Unit="" Internal="MINdR_bl" Type="F" Min="4.00001377e-01" Max="3.19950509e+00"/>
    <Variable VarIndex="5" Expression="dphi_l1l2b1b2" Label="dphi_l1l2b1b2" Title="dphi_l1l2b1b2" Unit="" Internal="dphi_l1l2b1b2" Type="F" Min="1.76370463e-06" Max="3.14158106e+00"/>
    <Variable VarIndex="6" Expression="mass_l1l2" Label="mass_l1l2" Title="mass_l1l2" Unit="" Internal="mass_l1l2" Type="F" Min="5.00751638e+00" Max="9.99998016e+01"/>
    <Variable VarIndex="7" Expression="mass_b1b2" Label="mass_b1b2" Title="mass_b1b2" Unit="" Internal="mass_b1b2" Type="F" Min="2.20002632e+01" Max="6.99751221e+02"/>
    <Variable VarIndex="8" Expression="mass_trans" Label="mass_trans" Title="mass_trans" Unit="" Internal="mass_trans" Type="F" Min="0.00000000e+00" Max="2.49994110e+02"/>
    <Variable VarIndex="9" Expression="MT2" Label="MT2" Title="MT2" Unit="" Internal="MT2" Type="F" Min="2.45720634e+01" Max="3.99860321e+02"/>
    <Variable VarIndex="10" Expression="pt_b1b2" Label="pt_b1b2" Title="pt_b1b2" Unit="" Internal="pt_b1b2" Type="F" Min="3.82993191e-01" Max="2.99960724e+02"/>
  </Variables>
  <Spectators NSpec="0"/>
  <Classes NClass="2">
    <Class Name="Signal" Index="0"/>
    <Class Name="Background" Index="1"/>
  </Classes>
  <Transformations NTransformations="1">
    <Transform Name="Normalize">
      <Selection>
        <Input NInputs="11">
          <Input Type="Variable" Label="dR_l1l2" Expression="dR_l1l2"/>
          <Input Type="Variable" Label="dR_b1b2" Expression="dR_b1b2"/>
          <Input Type="Variable" Label="dR_bl" Expression="dR_bl"/>
          <Input Type="Variable" Label="dR_l1l2b1b2" Expression="dR_l1l2b1b2"/>
          <Input Type="Variable" Label="MINdR_bl" Expression="MINdR_bl"/>
          <Input Type="Variable" Label="dphi_l1l2b1b2" Expression="dphi_l1l2b1b2"/>
          <Input Type="Variable" Label="mass_l1l2" Expression="mass_l1l2"/>
          <Input Type="Variable" Label="mass_b1b2" Expression="mass_b1b2"/>
          <Input Type="Variable" Label="mass_trans" Expression="mass_trans"/>
          <Input Type="Variable" Label="MT2" Expression="MT2"/>
          <Input Type="Variable" Label="pt_b1b2" Expression="pt_b1b2"/>
        </Input>
        <Output NOutputs="11">
          <Output Type="Variable" Label="dR_l1l2" Expression="dR_l1l2"/>
          <Output Type="Variable" Label="dR_b1b2" Expression="dR_b1b2"/>
          <Output Type="Variable" Label="dR_bl" Expression="dR_bl"/>
          <Output Type="Variable" Label="dR_l1l2b1b2" Expression="dR_l1l2b1b2"/>
          <Output Type="Variable" Label="MINdR_bl" Expression="MINdR_bl"/>
          <Output Type="Variable" Label="dphi_l1l2b1b2" Expression="dphi_l1l2b1b2"/>
          <Output Type="Variable" Label="mass_l1l2" Expression="mass_l1l2"/>
          <Output Type="Variable" Label="mass_b1b2" Expression="mass_b1b2"/>
          <Output Type="Variable" Label="mass_trans" Expression="mass_trans"/>
          <Output Type="Variable" Label="MT2" Expression="MT2"/>
          <Output Type="Variable" Label="pt_b1b2" Expression="pt_b1b2"/>
        </Output>
      </Selection>
      <Class ClassIndex="0">
        <Ranges>
          <Range Index="0" Min="7.0474378764629364e-02" Max="3.2882008552551270e+00"/>
          <Range Index="1" Min="3.9137476682662964e-01" Max="4.7323188781738281e+00"/>
          <Range Index="2" Min="5.6185132265090942e-01" Max="4.7632784843444824e+00"/>
          <Range Index="3" Min="3.0573642253875732e-01" Max="5.5496301651000977e+00"/>
          <Range Index="4" Min="4.0565529465675354e-01" Max="3.1995050907135010e+00"/>
          <Range Index="5" Min="3.6792077589780092e-03" Max="3.1411793231964111e+00"/>
          <Range Index="6" Min="5.0354061126708984e+00" Max="9.6211151123046875e+01"/>
          <Range Index="7" Min="2.2849296569824219e+01" Max="6.9774261474609375e+02"/>
          <Range Index="8" Min="0.0000000000000000e+00" Max="2.4954870605468750e+02"/>
          <Range Index="9" Min="6.6793525695800781e+01" Max="3.9986032104492188e+02"/>
          <Range Index="10" Min="4.1516189575195312e+00" Max="2.9996072387695312e+02"/>
        </Ranges>
      </Class>
      <Class ClassIndex="1">
        <Ranges>
          <Range Index="0" Min="7.4289560317993164e-02" Max="3.2998728752136230e+00"/>
          <Range Index="1" Min="3.7565746903419495e-01" Max="4.9944338798522949e+00"/>
          <Range Index="2" Min="4.0008914470672607e-01" Max="4.9997291564941406e+00"/>
          <Range Index="3" Min="7.6207788661122322e-03" Max="5.9785647392272949e+00"/>
          <Range Index="4" Min="4.0000137686729431e-01" Max="3.1992781162261963e+00"/>
          <Range Index="5" Min="1.7637046312302118e-06" Max="3.1415810585021973e+00"/>
          <Range Index="6" Min="5.0075163841247559e+00" Max="9.9999801635742188e+01"/>
          <Range Index="7" Min="2.2000263214111328e+01" Max="6.9975122070312500e+02"/>
          <Range Index="8" Min="0.0000000000000000e+00" Max="2.4999411010742188e+02"/>
          <Range Index="9" Min="2.4572063446044922e+01" Max="3.9967861938476562e+02"/>
          <Range Index="10" Min="3.8299319148063660e-01" Max="2.9981753540039062e+02"/>
        </Ranges>
      </Class>
      <Class ClassIndex="2">
        <Ranges>
          <Range Index="0" Min="7.0474378764629364e-02" Max="3.2998728752136230e+00"/>
          <Range Index="1" Min="3.7565746903419495e-01" Max="4.9944338798522949e+00"/>
          <Range Index="2" Min="4.0008914470672607e-01" Max="4.9997291564941406e+00"/>
          <Range Index="3" Min="7.6207788661122322e-03" Max="5.9785647392272949e+00"/>
          <Range Index="4" Min="4.0000137686729431e-01" Max="3.1995050907135010e+00"/>
          <Range Index="5" Min="1.7637046312302118e-06" Max="3.1415810585021973e+00"/>
          <Range Index="6" Min="5.0075163841247559e+00" Max="9.9999801635742188e+01"/>
          <Range Index="7" Min="2.2000263214111328e+01" Max="6.9975122070312500e+02"/>
          <Range Index="8" Min="0.0000000000000000e+00" Max="2.4999411010742188e+02"/>
          <Range Index="9" Min="2.4572063446044922e+01" Max="3.9986032104492188e+02"/>
          <Range Index="10" Min="3.8299319148063660e-01" Max="2.9996072387695312e+02"/>
        </Ranges>
      </Class>
    </Transform>
  </Transformations>
  <MVAPdfs/>
  <Weights>
    <Layout NLayers="3">
      <Layer Index="0" NNeurons="12">
        <Neuron NSynapses="16">
          -5.7922130764896429e-01 -6.3304137375864503e-03 -5.2724246337279557e-01 1.0728143049597278e+00 -1.5661041913123150e+00 -8.7819879876495721e-01 1.7696288753442790e+00 1.0185996570375155e+00 -8.4722664936849401e-01 -1.0926455636932948e+00 -1.1333903330373540e+00 2.3293659084579954e-01 -7.2710953732095440e-01 -5.1918911060299411e-01 4.2506487315770985e-01 6.1320921173121279e-01 
        </Neuron>
        <Neuron NSynapses="16">
          -7.3138320741686824e-01 1.4281468095539678e+00 4.1491418778633327e-01 1.4276704002348672e+00 -4.6224669758103065e-01 -4.8675380092277964e-01 1.3099103877167190e-01 -3.4436880654631558e-01 -8.6400895888337859e-01 -1.8359410609487248e-01 1.2562455898534126e+00 -9.6242036772636907e-01 -1.5214048379443901e+00 -2.6974479230145877e-02 1.4922211869070648e-01 1.2095119783851582e+00 
        </Neuron>
        <Neuron NSynapses="16">
          -5.7038636287139055e-01 6.4486912895854365e-01 5.4069416385215752e-01 1.5217459434045434e-02 -1.1494349631199070e+00 1.5168470777321406e+00 1.5137928199588307e-01 6.4096259552373980e-01 1.3724634230465260e+00 7.4790926557859760e-01 1.6256853689538489e+00 2.6884193312327048e-01 -1.7481761976987897e-01 -1.2696168430121340e+00 1.4346887882583143e-01 -4.8804417139652406e-01 
        </Neuron>
        <Neuron NSynapses="16">
          1.1561275557158064e+00 6.4285839633634712e-01 8.1157214764317154e-01 1.5778412577843870e+00 -1.4401931155148964e+00 1.2642351201193043e+00 3.3048385681140729e-01 -1.1798470476978589e+00 -9.6239933534262423e-01 -1.7999850181442278e+00 1.4917143638063424e+00 5.3572003177809069e-01 -1.3833119626738526e+00 2.8423810275478445e-01 -1.9929868620715349e-01 2.1703912231934719e-01 
        </Neuron>
        <Neuron NSynapses="16">
          1.7489412921665253e+00 -1.0252626145361105e-01 -3.1058368424601131e-02 -8.2341207971357466e-01 7.7524681165628950e-01 -1.6599292914937277e-02 -4.3846856792977301e-01 -1.6905688989119769e+00 9.2644462992886822e-01 2.9781684015279170e-01 1.1915963201224868e+00 -5.8492827156719207e-01 -1.3184887964106420e+00 -1.6810459731680838e+00 7.6182693306230931e-01 -1.6557558428531136e-01 
        </Neuron>
        <Neuron NSynapses="16">
          -4.1797744402281922e-01 -2.1061502888249087e-01 -1.8075911159241753e-01 -5.0174183874648970e-01 -5.1614568804319827e-01 -7.2297583910804819e-01 -5.3091136778820969e-01 -2.3891813418648411e-01 -1.4759906786121080e+00 -1.0385346224909779e+00 -9.6449757300421279e-01 -4.7467133654119714e-01 1.4202178776644838e+00 -6.6468769554240037e-01 -2.0587785597886657e-01 1.0698907342543085e+00 
        </Neuron>
        <Neuron NSynapses="16">
          -1.0416932685555587e+00 -1.6763049577797789e-01 -1.0284771855883170e+00 -3.6947894790043279e-01 -1.3415680305225657e+00 -1.6936654691471347e+00 4.8284509642214818e-01 1.1902275265646853e+00 -8.3468835242367601e-01 1.6350055416644438e+00 -6.0333930848117401e-01 -2.9902126380636700e-02 -4.4993735053409983e-03 4.5545352978845144e-01 -1.3170255672954891e+00 2.3494659479961272e-01 
        </Neuron>
        <Neuron NSynapses="16">
          8.9853526960169050e-01 -1.0761151542655161e+00 -9.0311907104330691e-01 2.0229794898041997e+00 3.9360070623581495e-01 2.4782077234033237e-01 3.0215607861034601e+00 -2.6643442704447602e+00 -6.6360847208687002e-01 -4.2449141603177032e-01 1.0227993423484737e-01 1.4399104636293021e+00 1.1061377953846314e+00 -1.1412615048314578e+00 3.1303054575099520e-01 -2.4271606585964864e-01 
        </Neuron>
        <Neuron NSynapses="16">
          -8.1455758048351623e-01 -4.3693483125632698e-01 -9.9950149590064152e-01 -1.5329230930457172e+00 5.2515220778398242e-01 -3.6417260476275665e-01 8.1132343241016402e-01 7.8979349244588404e-01 1.4189800137536797e+00 -1.2078529381728169e+00 2.6235952251779926e-01 8.0295285599910282e-01 1.3105288571077016e+00 -2.4016284631839573e-02 -8.0097205128854343e-01 -2.2156098273026911e-01 
        </Neuron>
        <Neuron NSynapses="16">
          -1.0763062931736469e+00 1.8769664911301622e+00 2.7506798020302590e+00 -1.3205464344069209e-01 -2.3394626578649350e-01 6.2077541190421281e-01 -3.2262201779747977e+00 -3.4014751974283364e-01 2.1185081553601237e+00 -9.6528439542224409e-01 -3.6733624884896876e-01 -9.5645263734348104e-02 1.1989853982155958e+00 -3.3875599242642157e-01 1.1546854303480396e+00 -1.7466089242866896e+00 
        </Neuron>
        <Neuron NSynapses="16">
          1.1143752310632482e+00 1.0224147855250931e+00 6.7748354125279586e-01 7.2936863248717132e-01 1.1568367267474200e+00 5.6439796643043239e-01 -5.0999882224842652e-01 -1.3991446927945650e-01 -1.8424402852676408e-01 -1.0009311231852045e+00 1.8456419910339650e+00 2.2162632879828734e-01 -1.8776236766641122e-01 5.2025499596687175e-01 1.4403979880012643e+00 -1.6718346244277615e+00 
        </Neuron>
        <Neuron NSynapses="16">
          -2.7986150002046073e+00 -1.9650739141304661e+00 -1.4793942963637785e+00 -1.8918243907629666e+00 -1.7436525879660703e+00 -2.0552937980132211e+00 5.0597628927311700e+00 6.7589957110034615e-01 -1.3890153466940460e+00 6.5302369343503153e-01 -9.7733226757002256e-01 1.5865485963777843e+00 -7.1328548373754197e-01 1.1833524213388573e+00 -2.5108233494246526e+00 1.6365862188953899e+00 
        </Neuron>
      </Layer>
      <Layer Index="1" NNeurons="17">
        <Neuron NSynapses="1">
          -2.1528502362868657e-01 
        </Neuron>
        <Neuron NSynapses="1">
          -3.0638821508198250e-01 
        </Neuron>
        <Neuron NSynapses="1">
          1.9838501534355152e-01 
        </Neuron>
        <Neuron NSynapses="1">
          5.1606602648758696e-03 
        </Neuron>
        <Neuron NSynapses="1">
          3.4170828316557050e-04 
        </Neuron>
        <Neuron NSynapses="1">
          -1.0917869609922706e-01 
        </Neuron>
        <Neuron NSynapses="1">
          -3.9974560753292898e-01 
        </Neuron>
        <Neuron NSynapses="1">
          1.0872341611455307e-02 
        </Neuron>
        <Neuron NSynapses="1">
          -4.1783467159202782e-03 
        </Neuron>
        <Neuron NSynapses="1">
          8.5168872524558824e-05 
        </Neuron>
        <Neuron NSynapses="1">
          3.3593445629390081e-02 
        </Neuron>
        <Neuron NSynapses="1">
          1.6348192046658882e-03 
        </Neuron>
        <Neuron NSynapses="1">
          -8.8652301838249871e-04 
        </Neuron>
        <Neuron NSynapses="1">
          -5.3624371508314761e-03 
        </Neuron>
        <Neuron NSynapses="1">
          3.4647595164492206e-01 
        </Neuron>
        <Neuron NSynapses="1">
          1.2546322849317820e-02 
        </Neuron>
        <Neuron NSynapses="1">
          3.3004287273978877e-01 
        </Neuron>
      </Layer>
      <Layer Index="2" NNeurons="1">
        <Neuron NSynapses="0"/>
      </Layer>
    </Layout>
  </Weights>
</MethodSetup>
