<?xml version="1.0"?>
<MethodSetup Method="MLP::MLPBFGS">
  <GeneralInfo>
    <Info name="TMVA Release" value="4.1.2 [262402]"/>
    <Info name="ROOT Release" value="5.32/04 [335876]"/>
    <Info name="Creator" value="lpernie"/>
    <Info name="Date" value="Fri Jul  1 14:14:25 2016"/>
    <Info name="Host" value="Linux login01.brazos.tamu.edu 2.6.32-431.23.3.el6.x86_64 #1 SMP Thu Jul 31 17:20:51 UTC 2014 x86_64 x86_64 x86_64 GNU/Linux"/>
    <Info name="Dir" value="/home/lpernie/Hhh/delphes/diHiggs/MVAs"/>
    <Info name="Training events" value="223681"/>
    <Info name="TrainingTime" value="1.14202397e+04"/>
    <Info name="AnalysisType" value="Classification"/>
  </GeneralInfo>
  <Options>
    <Option name="NCycles" modified="Yes">600</Option>
    <Option name="HiddenLayers" modified="Yes">N+5</Option>
    <Option name="NeuronType" modified="Yes">tanh</Option>
    <Option name="RandomSeed" modified="No">1</Option>
    <Option name="EstimatorType" modified="No">MSE</Option>
    <Option name="NeuronInputType" modified="No">sum</Option>
    <Option name="V" modified="Yes">False</Option>
    <Option name="VerbosityLevel" modified="No">Default</Option>
    <Option name="VarTransform" modified="Yes">N</Option>
    <Option name="H" modified="Yes">True</Option>
    <Option name="CreateMVAPdfs" modified="No">False</Option>
    <Option name="IgnoreNegWeightsInTraining" modified="No">False</Option>
    <Option name="TrainingMethod" modified="Yes">BFGS</Option>
    <Option name="LearningRate" modified="No">2.000000e-02</Option>
    <Option name="DecayRate" modified="No">1.000000e-02</Option>
    <Option name="TestRate" modified="Yes">5</Option>
    <Option name="EpochMonitoring" modified="No">False</Option>
    <Option name="Sampling" modified="No">1.000000e+00</Option>
    <Option name="SamplingEpoch" modified="No">1.000000e+00</Option>
    <Option name="SamplingImportance" modified="No">1.000000e+00</Option>
    <Option name="SamplingTraining" modified="No">True</Option>
    <Option name="SamplingTesting" modified="No">False</Option>
    <Option name="ResetStep" modified="No">50</Option>
    <Option name="Tau" modified="No">3.000000e+00</Option>
    <Option name="BPMode" modified="No">sequential</Option>
    <Option name="BatchSize" modified="No">-1</Option>
    <Option name="ConvergenceImprove" modified="No">1.000000e-30</Option>
    <Option name="ConvergenceTests" modified="No">-1</Option>
    <Option name="UseRegulator" modified="Yes">False</Option>
    <Option name="UpdateLimit" modified="No">10000</Option>
    <Option name="CalculateErrors" modified="No">False</Option>
    <Option name="WeightRange" modified="No">1.000000e+00</Option>
  </Options>
  <Variables NVar="11">
    <Variable VarIndex="0" Expression="dR_l1l2" Label="dR_l1l2" Title="dR_l1l2" Unit="" Internal="dR_l1l2" Type="F" Min="7.04743788e-02" Max="3.29987288e+00"/>
    <Variable VarIndex="1" Expression="dR_b1b2" Label="dR_b1b2" Title="dR_b1b2" Unit="" Internal="dR_b1b2" Type="F" Min="3.75657469e-01" Max="4.99443388e+00"/>
    <Variable VarIndex="2" Expression="dR_bl" Label="dR_bl" Title="dR_bl" Unit="" Internal="dR_bl" Type="F" Min="4.00089145e-01" Max="4.99972916e+00"/>
    <Variable VarIndex="3" Expression="dR_l1l2b1b2" Label="dR_l1l2b1b2" Title="dR_l1l2b1b2" Unit="" Internal="dR_l1l2b1b2" Type="F" Min="7.62077887e-03" Max="5.97856474e+00"/>
    <Variable VarIndex="4" Expression="MINdR_bl" Label="MINdR_bl" Title="MINdR_bl" Unit="" Internal="MINdR_bl" Type="F" Min="4.00001377e-01" Max="3.19950509e+00"/>
    <Variable VarIndex="5" Expression="dphi_l1l2b1b2" Label="dphi_l1l2b1b2" Title="dphi_l1l2b1b2" Unit="" Internal="dphi_l1l2b1b2" Type="F" Min="1.76370463e-06" Max="3.14158106e+00"/>
    <Variable VarIndex="6" Expression="mass_l1l2" Label="mass_l1l2" Title="mass_l1l2" Unit="" Internal="mass_l1l2" Type="F" Min="5.00751638e+00" Max="9.99998016e+01"/>
    <Variable VarIndex="7" Expression="mass_b1b2" Label="mass_b1b2" Title="mass_b1b2" Unit="" Internal="mass_b1b2" Type="F" Min="2.20002632e+01" Max="6.99751221e+02"/>
    <Variable VarIndex="8" Expression="mass_trans" Label="mass_trans" Title="mass_trans" Unit="" Internal="mass_trans" Type="F" Min="0.00000000e+00" Max="2.49994110e+02"/>
    <Variable VarIndex="9" Expression="MT2" Label="MT2" Title="MT2" Unit="" Internal="MT2" Type="F" Min="2.45720634e+01" Max="3.99860321e+02"/>
    <Variable VarIndex="10" Expression="pt_b1b2" Label="pt_b1b2" Title="pt_b1b2" Unit="" Internal="pt_b1b2" Type="F" Min="3.82993191e-01" Max="2.99960724e+02"/>
  </Variables>
  <Spectators NSpec="0"/>
  <Classes NClass="2">
    <Class Name="Signal" Index="0"/>
    <Class Name="Background" Index="1"/>
  </Classes>
  <Transformations NTransformations="1">
    <Transform Name="Normalize">
      <Selection>
        <Input NInputs="11">
          <Input Type="Variable" Label="dR_l1l2" Expression="dR_l1l2"/>
          <Input Type="Variable" Label="dR_b1b2" Expression="dR_b1b2"/>
          <Input Type="Variable" Label="dR_bl" Expression="dR_bl"/>
          <Input Type="Variable" Label="dR_l1l2b1b2" Expression="dR_l1l2b1b2"/>
          <Input Type="Variable" Label="MINdR_bl" Expression="MINdR_bl"/>
          <Input Type="Variable" Label="dphi_l1l2b1b2" Expression="dphi_l1l2b1b2"/>
          <Input Type="Variable" Label="mass_l1l2" Expression="mass_l1l2"/>
          <Input Type="Variable" Label="mass_b1b2" Expression="mass_b1b2"/>
          <Input Type="Variable" Label="mass_trans" Expression="mass_trans"/>
          <Input Type="Variable" Label="MT2" Expression="MT2"/>
          <Input Type="Variable" Label="pt_b1b2" Expression="pt_b1b2"/>
        </Input>
        <Output NOutputs="11">
          <Output Type="Variable" Label="dR_l1l2" Expression="dR_l1l2"/>
          <Output Type="Variable" Label="dR_b1b2" Expression="dR_b1b2"/>
          <Output Type="Variable" Label="dR_bl" Expression="dR_bl"/>
          <Output Type="Variable" Label="dR_l1l2b1b2" Expression="dR_l1l2b1b2"/>
          <Output Type="Variable" Label="MINdR_bl" Expression="MINdR_bl"/>
          <Output Type="Variable" Label="dphi_l1l2b1b2" Expression="dphi_l1l2b1b2"/>
          <Output Type="Variable" Label="mass_l1l2" Expression="mass_l1l2"/>
          <Output Type="Variable" Label="mass_b1b2" Expression="mass_b1b2"/>
          <Output Type="Variable" Label="mass_trans" Expression="mass_trans"/>
          <Output Type="Variable" Label="MT2" Expression="MT2"/>
          <Output Type="Variable" Label="pt_b1b2" Expression="pt_b1b2"/>
        </Output>
      </Selection>
      <Class ClassIndex="0">
        <Ranges>
          <Range Index="0" Min="7.0474378764629364e-02" Max="3.2882008552551270e+00"/>
          <Range Index="1" Min="3.9137476682662964e-01" Max="4.7323188781738281e+00"/>
          <Range Index="2" Min="5.6185132265090942e-01" Max="4.7632784843444824e+00"/>
          <Range Index="3" Min="3.0573642253875732e-01" Max="5.5496301651000977e+00"/>
          <Range Index="4" Min="4.0565529465675354e-01" Max="3.1995050907135010e+00"/>
          <Range Index="5" Min="3.6792077589780092e-03" Max="3.1411793231964111e+00"/>
          <Range Index="6" Min="5.0354061126708984e+00" Max="9.6211151123046875e+01"/>
          <Range Index="7" Min="2.2849296569824219e+01" Max="6.9774261474609375e+02"/>
          <Range Index="8" Min="0.0000000000000000e+00" Max="2.4954870605468750e+02"/>
          <Range Index="9" Min="6.6793525695800781e+01" Max="3.9986032104492188e+02"/>
          <Range Index="10" Min="4.1516189575195312e+00" Max="2.9996072387695312e+02"/>
        </Ranges>
      </Class>
      <Class ClassIndex="1">
        <Ranges>
          <Range Index="0" Min="7.4289560317993164e-02" Max="3.2998728752136230e+00"/>
          <Range Index="1" Min="3.7565746903419495e-01" Max="4.9944338798522949e+00"/>
          <Range Index="2" Min="4.0008914470672607e-01" Max="4.9997291564941406e+00"/>
          <Range Index="3" Min="7.6207788661122322e-03" Max="5.9785647392272949e+00"/>
          <Range Index="4" Min="4.0000137686729431e-01" Max="3.1992781162261963e+00"/>
          <Range Index="5" Min="1.7637046312302118e-06" Max="3.1415810585021973e+00"/>
          <Range Index="6" Min="5.0075163841247559e+00" Max="9.9999801635742188e+01"/>
          <Range Index="7" Min="2.2000263214111328e+01" Max="6.9975122070312500e+02"/>
          <Range Index="8" Min="0.0000000000000000e+00" Max="2.4999411010742188e+02"/>
          <Range Index="9" Min="2.4572063446044922e+01" Max="3.9967861938476562e+02"/>
          <Range Index="10" Min="3.8299319148063660e-01" Max="2.9981753540039062e+02"/>
        </Ranges>
      </Class>
      <Class ClassIndex="2">
        <Ranges>
          <Range Index="0" Min="7.0474378764629364e-02" Max="3.2998728752136230e+00"/>
          <Range Index="1" Min="3.7565746903419495e-01" Max="4.9944338798522949e+00"/>
          <Range Index="2" Min="4.0008914470672607e-01" Max="4.9997291564941406e+00"/>
          <Range Index="3" Min="7.6207788661122322e-03" Max="5.9785647392272949e+00"/>
          <Range Index="4" Min="4.0000137686729431e-01" Max="3.1995050907135010e+00"/>
          <Range Index="5" Min="1.7637046312302118e-06" Max="3.1415810585021973e+00"/>
          <Range Index="6" Min="5.0075163841247559e+00" Max="9.9999801635742188e+01"/>
          <Range Index="7" Min="2.2000263214111328e+01" Max="6.9975122070312500e+02"/>
          <Range Index="8" Min="0.0000000000000000e+00" Max="2.4999411010742188e+02"/>
          <Range Index="9" Min="2.4572063446044922e+01" Max="3.9986032104492188e+02"/>
          <Range Index="10" Min="3.8299319148063660e-01" Max="2.9996072387695312e+02"/>
        </Ranges>
      </Class>
    </Transform>
  </Transformations>
  <MVAPdfs/>
  <Weights>
    <Layout NLayers="3">
      <Layer Index="0" NNeurons="12">
        <Neuron NSynapses="16">
          -1.9870222070729232e-01 5.3766886680893505e-03 1.5942151694474895e+00 1.6680784533549373e+00 -1.4318353117949623e+00 -1.3596490007459925e+00 1.7355130396834415e+00 1.7659299688199719e+00 -1.5037885848836996e+00 -2.3757017058444942e+00 -1.1659652088966379e+00 -7.3012351294504729e-01 -1.5806628837579872e+00 -7.0806596685788137e-01 -2.5947331276468943e-01 6.7764736712799289e-01 
        </Neuron>
        <Neuron NSynapses="16">
          -4.6879739347907368e-01 1.8739772174883846e+00 4.0574955169201576e-01 1.4217117202453526e+00 -8.6538753708578176e-01 -7.1866004614979759e-02 -1.5167109624646440e+00 5.5596123386011054e-02 -1.1581227368562956e+00 3.0628090707029565e-01 1.3593458993496101e+00 -1.7133328118824611e+00 -1.2388728072277424e+00 1.8977538290677795e-01 3.7411958828823838e-01 1.2909522837666290e+00 
        </Neuron>
        <Neuron NSynapses="16">
          -1.8510897778821803e-01 1.6358922429395877e+00 2.4581238779452430e-01 -3.5805839977783305e-01 -3.7483302579427258e-01 1.7772637046804727e+00 1.7121618280679474e-01 8.5621394616081159e-01 1.2405753974939699e+00 9.8000964339688035e-01 2.0694030025032957e+00 8.5250574962280234e-01 2.2662943783563100e-01 -1.3009167439837883e+00 5.7164570461123720e-01 3.1432525344040319e-01 
        </Neuron>
        <Neuron NSynapses="16">
          1.4192528618459459e+00 2.8458749048677667e-01 1.6198533722258246e+00 1.3484677033912169e+00 -6.5331348248737009e-01 1.2732829609518299e+00 1.1015208963630845e+00 -9.7321793859901384e-01 -1.2267864664318515e+00 -1.8783991160108591e+00 1.6595730521824101e+00 8.0148309262456074e-01 -1.1545023582527356e+00 2.1101388822684927e-01 -3.2984851740425020e-01 4.5867776510733232e-01 
        </Neuron>
        <Neuron NSynapses="16">
          1.9727245701934188e+00 -8.6553071078936683e-01 -5.7292620290084684e-01 -1.2055184438344313e+00 1.4740288454703783e+00 -1.0137084086762997e+00 -6.1863421936349705e-01 -1.6002206952567763e+00 8.0588606426491560e-01 8.5540007902904791e-01 1.4654331261986753e+00 -2.4149538314612382e-01 -9.6852283160362218e-01 -1.5165409750071308e+00 -1.9128025935681883e-01 2.9220826376234521e-01 
        </Neuron>
        <Neuron NSynapses="16">
          1.7711617755592322e+00 9.8497675402090534e-02 7.2728753304020888e-01 -7.8126175070401749e-01 2.7048544989034590e-01 -7.1069112697325942e-01 -6.8859687191203256e-01 -1.2362199543525167e+00 -1.5472423708073733e+00 -1.5921516197987171e+00 -5.1836605333353247e-01 -1.5246122612136390e-01 2.3374974614900186e+00 -1.8404610704222653e+00 5.9791585617013510e-01 1.2437386172003710e+00 
        </Neuron>
        <Neuron NSynapses="16">
          -9.5509819436790033e-01 3.4204811088000657e-02 -1.1561600862411443e+00 4.7309159317459562e-02 -9.8683707070846205e-01 -2.2726577464124680e+00 4.6370925770673072e-01 1.5881272485777072e+00 -1.2192742777180530e+00 4.9807385522847514e-01 -6.2533462477370028e-01 -5.9170313939799202e-01 -1.2935469722798804e-01 -6.9444707021886556e-02 -1.1945278625899616e+00 9.9496661548517384e-01 
        </Neuron>
        <Neuron NSynapses="16">
          2.3168888091934947e-01 -1.6400391254139839e+00 -1.3248233252234858e+00 1.7878773325827846e+00 2.1246588197947149e-02 -5.0131466845013695e-01 5.9482910668560134e+00 -1.1628697279580287e+00 -1.4626949557045672e+00 5.0918572609165536e-01 -2.4016600207494018e-01 8.7992437828340520e-01 1.3473532537135229e+00 -7.5512192214584176e-02 -1.1674260736962003e+00 -3.6882195979733423e-01 
        </Neuron>
        <Neuron NSynapses="16">
          -1.6235465587204703e+00 -3.9729120331065892e-01 3.4052598540788170e-01 -1.8742225135081796e+00 -9.1990739012430200e-01 -3.3731608667038493e-01 9.4511763299521545e-01 1.0914929898317203e+00 1.6759527956542895e+00 -9.1473075126279790e-01 -5.5548269288148544e-01 1.5189904956968101e+00 1.1067823157865231e+00 8.0731206661678390e-01 -1.0739887452762016e+00 4.4069606545043877e-01 
        </Neuron>
        <Neuron NSynapses="16">
          -1.5090777246558253e+00 3.0751029073549181e+00 3.9600902731435816e-01 -4.8320808461557246e-01 -1.1618498224803280e+00 -1.0905591503332028e-01 -3.1577945776917278e+00 6.0253570845381588e-01 1.7725325716284854e+00 -8.2411055311838777e-01 -4.7271636342634160e-01 5.9623707482803256e-01 1.2842406600387679e+00 5.3231732772942908e-01 3.9105604286790268e+00 -1.4417509394590620e+00 
        </Neuron>
        <Neuron NSynapses="16">
          1.4466794675220445e+00 6.0710995204894214e-01 1.3577624547596310e+00 5.3566859232992003e-01 4.3122361610300225e-01 -8.8169808154360174e-01 -1.1266820830210453e+00 1.0939583376064255e+00 -8.3590620023800211e-01 -9.5737864859461452e-01 1.7288300715516103e+00 7.9363124488418901e-01 -4.2702620487201937e-01 1.2559673849279185e+00 2.2941715223192355e-01 -2.1884311230368572e+00 
        </Neuron>
        <Neuron NSynapses="16">
          6.2513545869106291e-01 -3.1684439512198743e+00 4.3526273997317572e-01 -1.6287416835253641e+00 -4.7917385200806919e+00 5.0390213665678885e-01 6.4485194592140251e+00 -1.6362211479788116e+00 -4.8590585971639205e-01 -4.8630808950092058e-02 1.5791787297021959e-01 1.8605954039533654e+00 -3.2056512610643856e-01 -3.2540901873454164e-01 -2.2399560720172893e+00 1.3497854379062539e+00 
        </Neuron>
      </Layer>
      <Layer Index="1" NNeurons="17">
        <Neuron NSynapses="1">
          -2.2927993276574692e-04 
        </Neuron>
        <Neuron NSynapses="1">
          -1.8163225979129674e-01 
        </Neuron>
        <Neuron NSynapses="1">
          -1.1509059749868262e-02 
        </Neuron>
        <Neuron NSynapses="1">
          1.0858404017268885e-03 
        </Neuron>
        <Neuron NSynapses="1">
          -2.0897471853273727e-01 
        </Neuron>
        <Neuron NSynapses="1">
          5.4930368322083671e-03 
        </Neuron>
        <Neuron NSynapses="1">
          -3.7204709554599424e-01 
        </Neuron>
        <Neuron NSynapses="1">
          1.3711940979341931e-03 
        </Neuron>
        <Neuron NSynapses="1">
          -1.8570072489139827e-03 
        </Neuron>
        <Neuron NSynapses="1">
          -8.7710220732087705e-03 
        </Neuron>
        <Neuron NSynapses="1">
          4.6770379022662151e-03 
        </Neuron>
        <Neuron NSynapses="1">
          2.7234019679259975e-03 
        </Neuron>
        <Neuron NSynapses="1">
          -3.9914099055498248e-03 
        </Neuron>
        <Neuron NSynapses="1">
          -2.7987172626053711e-03 
        </Neuron>
        <Neuron NSynapses="1">
          1.6580001962035829e-01 
        </Neuron>
        <Neuron NSynapses="1">
          -4.7629262515164906e-03 
        </Neuron>
        <Neuron NSynapses="1">
          1.5456666646231526e-01 
        </Neuron>
      </Layer>
      <Layer Index="2" NNeurons="1">
        <Neuron NSynapses="0"/>
      </Layer>
    </Layout>
  </Weights>
</MethodSetup>
