<?xml version="1.0"?>
<MethodSetup Method="MLP::MLPBFGS">
  <GeneralInfo>
    <Info name="TMVA Release" value="4.1.2 [262402]"/>
    <Info name="ROOT Release" value="5.32/04 [335876]"/>
    <Info name="Creator" value="lpernie"/>
    <Info name="Date" value="Fri Jul  1 14:11:14 2016"/>
    <Info name="Host" value="Linux login01.brazos.tamu.edu 2.6.32-431.23.3.el6.x86_64 #1 SMP Thu Jul 31 17:20:51 UTC 2014 x86_64 x86_64 x86_64 GNU/Linux"/>
    <Info name="Dir" value="/home/lpernie/Hhh/delphes/diHiggs/MVAs"/>
    <Info name="Training events" value="222534"/>
    <Info name="TrainingTime" value="1.11841334e+04"/>
    <Info name="AnalysisType" value="Classification"/>
  </GeneralInfo>
  <Options>
    <Option name="NCycles" modified="Yes">600</Option>
    <Option name="HiddenLayers" modified="Yes">N+5</Option>
    <Option name="NeuronType" modified="Yes">tanh</Option>
    <Option name="RandomSeed" modified="No">1</Option>
    <Option name="EstimatorType" modified="No">MSE</Option>
    <Option name="NeuronInputType" modified="No">sum</Option>
    <Option name="V" modified="Yes">False</Option>
    <Option name="VerbosityLevel" modified="No">Default</Option>
    <Option name="VarTransform" modified="Yes">N</Option>
    <Option name="H" modified="Yes">True</Option>
    <Option name="CreateMVAPdfs" modified="No">False</Option>
    <Option name="IgnoreNegWeightsInTraining" modified="No">False</Option>
    <Option name="TrainingMethod" modified="Yes">BFGS</Option>
    <Option name="LearningRate" modified="No">2.000000e-02</Option>
    <Option name="DecayRate" modified="No">1.000000e-02</Option>
    <Option name="TestRate" modified="Yes">5</Option>
    <Option name="EpochMonitoring" modified="No">False</Option>
    <Option name="Sampling" modified="No">1.000000e+00</Option>
    <Option name="SamplingEpoch" modified="No">1.000000e+00</Option>
    <Option name="SamplingImportance" modified="No">1.000000e+00</Option>
    <Option name="SamplingTraining" modified="No">True</Option>
    <Option name="SamplingTesting" modified="No">False</Option>
    <Option name="ResetStep" modified="No">50</Option>
    <Option name="Tau" modified="No">3.000000e+00</Option>
    <Option name="BPMode" modified="No">sequential</Option>
    <Option name="BatchSize" modified="No">-1</Option>
    <Option name="ConvergenceImprove" modified="No">1.000000e-30</Option>
    <Option name="ConvergenceTests" modified="No">-1</Option>
    <Option name="UseRegulator" modified="Yes">False</Option>
    <Option name="UpdateLimit" modified="No">10000</Option>
    <Option name="CalculateErrors" modified="No">False</Option>
    <Option name="WeightRange" modified="No">1.000000e+00</Option>
  </Options>
  <Variables NVar="11">
    <Variable VarIndex="0" Expression="dR_l1l2" Label="dR_l1l2" Title="dR_l1l2" Unit="" Internal="dR_l1l2" Type="F" Min="7.06459358e-02" Max="3.29995322e+00"/>
    <Variable VarIndex="1" Expression="dR_b1b2" Label="dR_b1b2" Title="dR_b1b2" Unit="" Internal="dR_b1b2" Type="F" Min="3.78905237e-01" Max="4.99817085e+00"/>
    <Variable VarIndex="2" Expression="dR_bl" Label="dR_bl" Title="dR_bl" Unit="" Internal="dR_bl" Type="F" Min="4.00014162e-01" Max="4.99972916e+00"/>
    <Variable VarIndex="3" Expression="dR_l1l2b1b2" Label="dR_l1l2b1b2" Title="dR_l1l2b1b2" Unit="" Internal="dR_l1l2b1b2" Type="F" Min="4.42243833e-03" Max="5.99096441e+00"/>
    <Variable VarIndex="4" Expression="MINdR_bl" Label="MINdR_bl" Title="MINdR_bl" Unit="" Internal="MINdR_bl" Type="F" Min="4.00001377e-01" Max="3.19991016e+00"/>
    <Variable VarIndex="5" Expression="dphi_l1l2b1b2" Label="dphi_l1l2b1b2" Title="dphi_l1l2b1b2" Unit="" Internal="dphi_l1l2b1b2" Type="F" Min="1.76370463e-06" Max="3.14159226e+00"/>
    <Variable VarIndex="6" Expression="mass_l1l2" Label="mass_l1l2" Title="mass_l1l2" Unit="" Internal="mass_l1l2" Type="F" Min="5.00372505e+00" Max="9.99998016e+01"/>
    <Variable VarIndex="7" Expression="mass_b1b2" Label="mass_b1b2" Title="mass_b1b2" Unit="" Internal="mass_b1b2" Type="F" Min="2.20005798e+01" Max="6.99173645e+02"/>
    <Variable VarIndex="8" Expression="mass_trans" Label="mass_trans" Title="mass_trans" Unit="" Internal="mass_trans" Type="F" Min="0.00000000e+00" Max="2.49991043e+02"/>
    <Variable VarIndex="9" Expression="MT2" Label="MT2" Title="MT2" Unit="" Internal="MT2" Type="F" Min="2.23099918e+01" Max="3.99818787e+02"/>
    <Variable VarIndex="10" Expression="pt_b1b2" Label="pt_b1b2" Title="pt_b1b2" Unit="" Internal="pt_b1b2" Type="F" Min="3.20028514e-01" Max="2.99817535e+02"/>
  </Variables>
  <Spectators NSpec="0"/>
  <Classes NClass="2">
    <Class Name="Signal" Index="0"/>
    <Class Name="Background" Index="1"/>
  </Classes>
  <Transformations NTransformations="1">
    <Transform Name="Normalize">
      <Selection>
        <Input NInputs="11">
          <Input Type="Variable" Label="dR_l1l2" Expression="dR_l1l2"/>
          <Input Type="Variable" Label="dR_b1b2" Expression="dR_b1b2"/>
          <Input Type="Variable" Label="dR_bl" Expression="dR_bl"/>
          <Input Type="Variable" Label="dR_l1l2b1b2" Expression="dR_l1l2b1b2"/>
          <Input Type="Variable" Label="MINdR_bl" Expression="MINdR_bl"/>
          <Input Type="Variable" Label="dphi_l1l2b1b2" Expression="dphi_l1l2b1b2"/>
          <Input Type="Variable" Label="mass_l1l2" Expression="mass_l1l2"/>
          <Input Type="Variable" Label="mass_b1b2" Expression="mass_b1b2"/>
          <Input Type="Variable" Label="mass_trans" Expression="mass_trans"/>
          <Input Type="Variable" Label="MT2" Expression="MT2"/>
          <Input Type="Variable" Label="pt_b1b2" Expression="pt_b1b2"/>
        </Input>
        <Output NOutputs="11">
          <Output Type="Variable" Label="dR_l1l2" Expression="dR_l1l2"/>
          <Output Type="Variable" Label="dR_b1b2" Expression="dR_b1b2"/>
          <Output Type="Variable" Label="dR_bl" Expression="dR_bl"/>
          <Output Type="Variable" Label="dR_l1l2b1b2" Expression="dR_l1l2b1b2"/>
          <Output Type="Variable" Label="MINdR_bl" Expression="MINdR_bl"/>
          <Output Type="Variable" Label="dphi_l1l2b1b2" Expression="dphi_l1l2b1b2"/>
          <Output Type="Variable" Label="mass_l1l2" Expression="mass_l1l2"/>
          <Output Type="Variable" Label="mass_b1b2" Expression="mass_b1b2"/>
          <Output Type="Variable" Label="mass_trans" Expression="mass_trans"/>
          <Output Type="Variable" Label="MT2" Expression="MT2"/>
          <Output Type="Variable" Label="pt_b1b2" Expression="pt_b1b2"/>
        </Output>
      </Selection>
      <Class ClassIndex="0">
        <Ranges>
          <Range Index="0" Min="1.2425758689641953e-01" Max="3.2941615581512451e+00"/>
          <Range Index="1" Min="4.3396636843681335e-01" Max="4.7950205802917480e+00"/>
          <Range Index="2" Min="4.0166628360748291e-01" Max="4.6858606338500977e+00"/>
          <Range Index="3" Min="6.7419961094856262e-02" Max="5.5010304450988770e+00"/>
          <Range Index="4" Min="4.0074941515922546e-01" Max="2.9216916561126709e+00"/>
          <Range Index="5" Min="5.9523712843656540e-04" Max="3.1403400897979736e+00"/>
          <Range Index="6" Min="5.0251250267028809e+00" Max="9.9521842956542969e+01"/>
          <Range Index="7" Min="2.2508615493774414e+01" Max="6.2125189208984375e+02"/>
          <Range Index="8" Min="1.0090249031782150e-01" Max="2.4878497314453125e+02"/>
          <Range Index="9" Min="2.7585962295532227e+01" Max="3.9562609863281250e+02"/>
          <Range Index="10" Min="3.3105614781379700e-01" Max="2.3697354125976562e+02"/>
        </Ranges>
      </Class>
      <Class ClassIndex="1">
        <Ranges>
          <Range Index="0" Min="7.0645935833454132e-02" Max="3.2999532222747803e+00"/>
          <Range Index="1" Min="3.7890523672103882e-01" Max="4.9981708526611328e+00"/>
          <Range Index="2" Min="4.0001416206359863e-01" Max="4.9997291564941406e+00"/>
          <Range Index="3" Min="4.4224383309483528e-03" Max="5.9909644126892090e+00"/>
          <Range Index="4" Min="4.0000137686729431e-01" Max="3.1999101638793945e+00"/>
          <Range Index="5" Min="1.7637046312302118e-06" Max="3.1415922641754150e+00"/>
          <Range Index="6" Min="5.0037250518798828e+00" Max="9.9999801635742188e+01"/>
          <Range Index="7" Min="2.2000579833984375e+01" Max="6.9917364501953125e+02"/>
          <Range Index="8" Min="0.0000000000000000e+00" Max="2.4999104309082031e+02"/>
          <Range Index="9" Min="2.2309991836547852e+01" Max="3.9981878662109375e+02"/>
          <Range Index="10" Min="3.2002851366996765e-01" Max="2.9981753540039062e+02"/>
        </Ranges>
      </Class>
      <Class ClassIndex="2">
        <Ranges>
          <Range Index="0" Min="7.0645935833454132e-02" Max="3.2999532222747803e+00"/>
          <Range Index="1" Min="3.7890523672103882e-01" Max="4.9981708526611328e+00"/>
          <Range Index="2" Min="4.0001416206359863e-01" Max="4.9997291564941406e+00"/>
          <Range Index="3" Min="4.4224383309483528e-03" Max="5.9909644126892090e+00"/>
          <Range Index="4" Min="4.0000137686729431e-01" Max="3.1999101638793945e+00"/>
          <Range Index="5" Min="1.7637046312302118e-06" Max="3.1415922641754150e+00"/>
          <Range Index="6" Min="5.0037250518798828e+00" Max="9.9999801635742188e+01"/>
          <Range Index="7" Min="2.2000579833984375e+01" Max="6.9917364501953125e+02"/>
          <Range Index="8" Min="0.0000000000000000e+00" Max="2.4999104309082031e+02"/>
          <Range Index="9" Min="2.2309991836547852e+01" Max="3.9981878662109375e+02"/>
          <Range Index="10" Min="3.2002851366996765e-01" Max="2.9981753540039062e+02"/>
        </Ranges>
      </Class>
    </Transform>
  </Transformations>
  <MVAPdfs/>
  <Weights>
    <Layout NLayers="3">
      <Layer Index="0" NNeurons="12">
        <Neuron NSynapses="16">
          -1.8451844516667979e+00 1.2715895851574865e+00 2.1567083814688446e+00 6.6863617782943230e-01 -2.3752015375359110e+00 9.4600223608964189e-03 -7.7322406136013289e-01 2.4312518787412909e+00 -1.5624350753468990e+00 -8.5894834914241347e-01 -3.1651783313444399e+00 -5.1770629223998144e-01 -9.4208318908000521e-01 -1.6431207147630928e+00 -9.1067484200692639e-01 3.9026704863768141e-01 
        </Neuron>
        <Neuron NSynapses="16">
          -2.2898259472203093e+00 1.9872702952462891e+00 2.2915216488725876e+00 1.3309036402167480e+00 -8.7518194081079592e-01 -1.6624682852500077e+00 3.9515559042000303e-01 3.2679900931019001e-01 6.7116701876623797e-01 -2.1222838028223361e+00 2.9092625924428734e+00 -1.4654016742220224e+00 -3.3509528847659928e+00 -7.3078299150136594e-01 1.2800211445213145e+00 9.8715599555790501e-01 
        </Neuron>
        <Neuron NSynapses="16">
          -6.2175911055361599e-01 1.5228955162947697e-01 5.6826180265931612e+00 -1.0198953889621708e-01 -1.6681186891889761e+00 -5.9840610492320222e-02 -9.5730205530106705e-01 1.4827788346495625e+00 8.7476563179516831e-01 6.1789372402856957e-01 1.1144110406908543e+00 1.2979041806234345e-01 1.9332431466029656e+00 -1.6205006536033577e+00 1.7564202395577817e+00 5.1345256588323496e-01 
        </Neuron>
        <Neuron NSynapses="16">
          3.7235320654451215e-01 1.6377382107278713e+00 6.2941152889734742e+00 -2.0415036565826079e+00 -1.5772058432766392e+00 -7.1591172066769448e-01 -1.7867964777448451e+00 1.7232473183736413e-01 -1.0068618446250095e+00 -2.2967732200682831e+00 2.9169193152937449e+00 8.7724139543335655e-01 1.4563629699510292e+00 -6.1016779358785123e-01 -1.6953564185766518e-01 1.6102125656573258e+00 
        </Neuron>
        <Neuron NSynapses="16">
          1.9310326825028461e+00 -7.9977641319811144e-01 3.1880082749383125e+00 -1.1070481176850948e+00 1.7343161341871355e-01 -1.4278665186680589e-01 -4.7418094194596644e-01 -2.3983588794912829e+00 1.7626029250755111e+00 9.9247365087680472e-01 1.5137673202907840e+00 7.0609299294450212e-01 3.5243593695182501e-01 -1.4356943681111378e+00 1.2823338567412468e+00 2.0228936145988635e-01 
        </Neuron>
        <Neuron NSynapses="16">
          3.5315880657923193e-01 -8.3725059477862485e-01 4.9882958499424257e+00 9.9543865765769290e-01 -1.0840253297199642e+00 -1.4094214068227440e+00 1.1663438992161572e+00 -3.3091079832097564e-01 -3.8641470581474041e-01 -2.7835822976513702e+00 2.4067170122791437e-01 -4.8594692246812243e-01 3.6824647189879944e+00 -3.0173147224629302e+00 -1.2962295221521887e+00 2.5584526358170643e+00 
        </Neuron>
        <Neuron NSynapses="16">
          -6.6443019281891547e-01 -2.3403392473389379e+00 -1.0711831565230758e+00 -1.9429738677097914e+00 -1.2819007613601896e+00 -1.5032521616277124e+00 8.3045226475070133e-01 1.0455782537341278e+00 -6.7246309231859258e-01 3.5214651252853685e-01 -4.6597096743492727e-01 1.6709399320316403e+00 3.0940170689544382e+00 -4.0379850833134931e-02 -2.2414716854981456e+00 -1.3324906518872501e-01 
        </Neuron>
        <Neuron NSynapses="16">
          -1.0492886402219386e+00 1.4169686336938838e+00 4.1977411814222068e+00 -1.7069205438708801e+00 -2.8734015968147447e-01 -1.5969861982882090e+00 3.4223930066432445e-01 -1.5014715417326550e+00 -1.7081456045422114e+00 -4.1187914905054762e-01 -1.3021475815879762e+00 3.3249349711908067e+00 -1.9971639122184892e+00 -9.9635907845805705e-01 2.0024059489140220e-01 1.6732075819621600e-01 
        </Neuron>
        <Neuron NSynapses="16">
          -2.7003320640553228e+00 -7.9871445147279863e-01 -5.0906984645463493e-01 -1.9932100816371521e+00 4.6833128192111967e-01 -5.0947999677574050e+00 1.1967350841624930e-01 2.1291633641854668e+00 4.5694959743774444e+00 -2.5561923032635212e+00 7.0893192206138800e-01 2.3955383769525240e-01 3.5568710477337642e+00 2.3949250272920647e-01 6.6593127966817611e-01 -3.6909035917943356e-01 
        </Neuron>
        <Neuron NSynapses="16">
          -1.4205824061080417e+00 1.1521499577464716e+00 6.0759627476235947e+00 -3.9031163010804013e+00 -3.1093432724664738e-01 -1.0074191527447096e+00 -1.6172470725495554e+00 6.3850559462505185e-01 1.1339809295347323e+00 4.8803846905230663e-01 -3.1885821290293692e-01 4.6076539967162731e+00 2.0245339702393856e+00 1.6271153584058265e-01 1.3327460308361416e+00 -6.3605453792243327e-01 
        </Neuron>
        <Neuron NSynapses="16">
          1.5767278165936129e+00 8.2332359396039312e-01 3.8331220136394331e+00 -2.0869715276755394e+00 1.0354579251081921e+00 9.5699888837273317e-02 -8.1482459201649360e-01 -9.0659411140799478e-03 -2.5946392041756945e+00 2.6991146465582888e-01 -5.8060326522305550e-01 1.8608047776741308e+00 -2.3213172064235192e+00 6.7807825789463960e-01 1.6159212270229306e+00 -1.8822202368237866e+00 
        </Neuron>
        <Neuron NSynapses="16">
          8.8442073653441744e-01 -1.1039355901138128e+00 -7.0334052663365272e+00 -1.0006618426215624e+01 -1.1966357682929540e+00 6.7452436815835348e-01 1.8859139506070275e+00 -9.4474690362423974e-01 -3.3916118137718620e-01 -2.6085230420359560e+00 8.1209241338687649e-02 9.3033555549852043e+00 5.3836390713595357e+00 -1.1454317783788361e+00 -3.5322001444602180e-01 4.5903230921382587e-01 
        </Neuron>
      </Layer>
      <Layer Index="1" NNeurons="17">
        <Neuron NSynapses="1">
          1.4221662046362727e-03 
        </Neuron>
        <Neuron NSynapses="1">
          6.0304156185022779e-03 
        </Neuron>
        <Neuron NSynapses="1">
          -4.7364027639919346e-04 
        </Neuron>
        <Neuron NSynapses="1">
          -2.8608433182822052e-01 
        </Neuron>
        <Neuron NSynapses="1">
          -1.7936533741307102e-03 
        </Neuron>
        <Neuron NSynapses="1">
          2.7115565811126988e-04 
        </Neuron>
        <Neuron NSynapses="1">
          4.4830856512537570e-03 
        </Neuron>
        <Neuron NSynapses="1">
          -4.8148674105374532e-04 
        </Neuron>
        <Neuron NSynapses="1">
          1.6159923266640334e-03 
        </Neuron>
        <Neuron NSynapses="1">
          2.4328648719958482e-03 
        </Neuron>
        <Neuron NSynapses="1">
          -6.4555203158262505e-04 
        </Neuron>
        <Neuron NSynapses="1">
          -3.8017285678599416e-01 
        </Neuron>
        <Neuron NSynapses="1">
          -1.0340038839258493e-03 
        </Neuron>
        <Neuron NSynapses="1">
          -2.4229610466389925e-03 
        </Neuron>
        <Neuron NSynapses="1">
          5.2340163514847434e-04 
        </Neuron>
        <Neuron NSynapses="1">
          -2.6018472415564931e-03 
        </Neuron>
        <Neuron NSynapses="1">
          9.7411317339296741e-02 
        </Neuron>
      </Layer>
      <Layer Index="2" NNeurons="1">
        <Neuron NSynapses="0"/>
      </Layer>
    </Layout>
  </Weights>
</MethodSetup>
