<?xml version="1.0"?>
<MethodSetup Method="MLP::MLP">
  <GeneralInfo>
    <Info name="TMVA Release" value="4.1.2 [262402]"/>
    <Info name="ROOT Release" value="5.32/04 [335876]"/>
    <Info name="Creator" value="lpernie"/>
    <Info name="Date" value="Fri Jul  1 11:04:47 2016"/>
    <Info name="Host" value="Linux login01.brazos.tamu.edu 2.6.32-431.23.3.el6.x86_64 #1 SMP Thu Jul 31 17:20:51 UTC 2014 x86_64 x86_64 x86_64 GNU/Linux"/>
    <Info name="Dir" value="/home/lpernie/Hhh/delphes/diHiggs/MVAs"/>
    <Info name="Training events" value="222534"/>
    <Info name="TrainingTime" value="2.73644982e+03"/>
    <Info name="AnalysisType" value="Classification"/>
  </GeneralInfo>
  <Options>
    <Option name="NCycles" modified="Yes">600</Option>
    <Option name="HiddenLayers" modified="Yes">N+5</Option>
    <Option name="NeuronType" modified="Yes">tanh</Option>
    <Option name="RandomSeed" modified="No">1</Option>
    <Option name="EstimatorType" modified="No">MSE</Option>
    <Option name="NeuronInputType" modified="No">sum</Option>
    <Option name="V" modified="Yes">False</Option>
    <Option name="VerbosityLevel" modified="No">Default</Option>
    <Option name="VarTransform" modified="Yes">N</Option>
    <Option name="H" modified="Yes">True</Option>
    <Option name="CreateMVAPdfs" modified="No">False</Option>
    <Option name="IgnoreNegWeightsInTraining" modified="No">False</Option>
    <Option name="TrainingMethod" modified="No">BP</Option>
    <Option name="LearningRate" modified="No">2.000000e-02</Option>
    <Option name="DecayRate" modified="No">1.000000e-02</Option>
    <Option name="TestRate" modified="Yes">5</Option>
    <Option name="EpochMonitoring" modified="No">False</Option>
    <Option name="Sampling" modified="No">1.000000e+00</Option>
    <Option name="SamplingEpoch" modified="No">1.000000e+00</Option>
    <Option name="SamplingImportance" modified="No">1.000000e+00</Option>
    <Option name="SamplingTraining" modified="No">True</Option>
    <Option name="SamplingTesting" modified="No">False</Option>
    <Option name="ResetStep" modified="No">50</Option>
    <Option name="Tau" modified="No">3.000000e+00</Option>
    <Option name="BPMode" modified="No">sequential</Option>
    <Option name="BatchSize" modified="No">-1</Option>
    <Option name="ConvergenceImprove" modified="No">1.000000e-30</Option>
    <Option name="ConvergenceTests" modified="No">-1</Option>
    <Option name="UseRegulator" modified="Yes">False</Option>
    <Option name="UpdateLimit" modified="No">10000</Option>
    <Option name="CalculateErrors" modified="No">False</Option>
    <Option name="WeightRange" modified="No">1.000000e+00</Option>
  </Options>
  <Variables NVar="11">
    <Variable VarIndex="0" Expression="dR_l1l2" Label="dR_l1l2" Title="dR_l1l2" Unit="" Internal="dR_l1l2" Type="F" Min="7.06459358e-02" Max="3.29995322e+00"/>
    <Variable VarIndex="1" Expression="dR_b1b2" Label="dR_b1b2" Title="dR_b1b2" Unit="" Internal="dR_b1b2" Type="F" Min="3.78905237e-01" Max="4.99817085e+00"/>
    <Variable VarIndex="2" Expression="dR_bl" Label="dR_bl" Title="dR_bl" Unit="" Internal="dR_bl" Type="F" Min="4.00014162e-01" Max="4.99972916e+00"/>
    <Variable VarIndex="3" Expression="dR_l1l2b1b2" Label="dR_l1l2b1b2" Title="dR_l1l2b1b2" Unit="" Internal="dR_l1l2b1b2" Type="F" Min="4.42243833e-03" Max="5.99096441e+00"/>
    <Variable VarIndex="4" Expression="MINdR_bl" Label="MINdR_bl" Title="MINdR_bl" Unit="" Internal="MINdR_bl" Type="F" Min="4.00001377e-01" Max="3.19991016e+00"/>
    <Variable VarIndex="5" Expression="dphi_l1l2b1b2" Label="dphi_l1l2b1b2" Title="dphi_l1l2b1b2" Unit="" Internal="dphi_l1l2b1b2" Type="F" Min="1.76370463e-06" Max="3.14159226e+00"/>
    <Variable VarIndex="6" Expression="mass_l1l2" Label="mass_l1l2" Title="mass_l1l2" Unit="" Internal="mass_l1l2" Type="F" Min="5.00372505e+00" Max="9.99998016e+01"/>
    <Variable VarIndex="7" Expression="mass_b1b2" Label="mass_b1b2" Title="mass_b1b2" Unit="" Internal="mass_b1b2" Type="F" Min="2.20005798e+01" Max="6.99173645e+02"/>
    <Variable VarIndex="8" Expression="mass_trans" Label="mass_trans" Title="mass_trans" Unit="" Internal="mass_trans" Type="F" Min="0.00000000e+00" Max="2.49991043e+02"/>
    <Variable VarIndex="9" Expression="MT2" Label="MT2" Title="MT2" Unit="" Internal="MT2" Type="F" Min="2.23099918e+01" Max="3.99818787e+02"/>
    <Variable VarIndex="10" Expression="pt_b1b2" Label="pt_b1b2" Title="pt_b1b2" Unit="" Internal="pt_b1b2" Type="F" Min="3.20028514e-01" Max="2.99817535e+02"/>
  </Variables>
  <Spectators NSpec="0"/>
  <Classes NClass="2">
    <Class Name="Signal" Index="0"/>
    <Class Name="Background" Index="1"/>
  </Classes>
  <Transformations NTransformations="1">
    <Transform Name="Normalize">
      <Selection>
        <Input NInputs="11">
          <Input Type="Variable" Label="dR_l1l2" Expression="dR_l1l2"/>
          <Input Type="Variable" Label="dR_b1b2" Expression="dR_b1b2"/>
          <Input Type="Variable" Label="dR_bl" Expression="dR_bl"/>
          <Input Type="Variable" Label="dR_l1l2b1b2" Expression="dR_l1l2b1b2"/>
          <Input Type="Variable" Label="MINdR_bl" Expression="MINdR_bl"/>
          <Input Type="Variable" Label="dphi_l1l2b1b2" Expression="dphi_l1l2b1b2"/>
          <Input Type="Variable" Label="mass_l1l2" Expression="mass_l1l2"/>
          <Input Type="Variable" Label="mass_b1b2" Expression="mass_b1b2"/>
          <Input Type="Variable" Label="mass_trans" Expression="mass_trans"/>
          <Input Type="Variable" Label="MT2" Expression="MT2"/>
          <Input Type="Variable" Label="pt_b1b2" Expression="pt_b1b2"/>
        </Input>
        <Output NOutputs="11">
          <Output Type="Variable" Label="dR_l1l2" Expression="dR_l1l2"/>
          <Output Type="Variable" Label="dR_b1b2" Expression="dR_b1b2"/>
          <Output Type="Variable" Label="dR_bl" Expression="dR_bl"/>
          <Output Type="Variable" Label="dR_l1l2b1b2" Expression="dR_l1l2b1b2"/>
          <Output Type="Variable" Label="MINdR_bl" Expression="MINdR_bl"/>
          <Output Type="Variable" Label="dphi_l1l2b1b2" Expression="dphi_l1l2b1b2"/>
          <Output Type="Variable" Label="mass_l1l2" Expression="mass_l1l2"/>
          <Output Type="Variable" Label="mass_b1b2" Expression="mass_b1b2"/>
          <Output Type="Variable" Label="mass_trans" Expression="mass_trans"/>
          <Output Type="Variable" Label="MT2" Expression="MT2"/>
          <Output Type="Variable" Label="pt_b1b2" Expression="pt_b1b2"/>
        </Output>
      </Selection>
      <Class ClassIndex="0">
        <Ranges>
          <Range Index="0" Min="1.2425758689641953e-01" Max="3.2941615581512451e+00"/>
          <Range Index="1" Min="4.3396636843681335e-01" Max="4.7950205802917480e+00"/>
          <Range Index="2" Min="4.0166628360748291e-01" Max="4.6858606338500977e+00"/>
          <Range Index="3" Min="6.7419961094856262e-02" Max="5.5010304450988770e+00"/>
          <Range Index="4" Min="4.0074941515922546e-01" Max="2.9216916561126709e+00"/>
          <Range Index="5" Min="5.9523712843656540e-04" Max="3.1403400897979736e+00"/>
          <Range Index="6" Min="5.0251250267028809e+00" Max="9.9521842956542969e+01"/>
          <Range Index="7" Min="2.2508615493774414e+01" Max="6.2125189208984375e+02"/>
          <Range Index="8" Min="1.0090249031782150e-01" Max="2.4878497314453125e+02"/>
          <Range Index="9" Min="2.7585962295532227e+01" Max="3.9562609863281250e+02"/>
          <Range Index="10" Min="3.3105614781379700e-01" Max="2.3697354125976562e+02"/>
        </Ranges>
      </Class>
      <Class ClassIndex="1">
        <Ranges>
          <Range Index="0" Min="7.0645935833454132e-02" Max="3.2999532222747803e+00"/>
          <Range Index="1" Min="3.7890523672103882e-01" Max="4.9981708526611328e+00"/>
          <Range Index="2" Min="4.0001416206359863e-01" Max="4.9997291564941406e+00"/>
          <Range Index="3" Min="4.4224383309483528e-03" Max="5.9909644126892090e+00"/>
          <Range Index="4" Min="4.0000137686729431e-01" Max="3.1999101638793945e+00"/>
          <Range Index="5" Min="1.7637046312302118e-06" Max="3.1415922641754150e+00"/>
          <Range Index="6" Min="5.0037250518798828e+00" Max="9.9999801635742188e+01"/>
          <Range Index="7" Min="2.2000579833984375e+01" Max="6.9917364501953125e+02"/>
          <Range Index="8" Min="0.0000000000000000e+00" Max="2.4999104309082031e+02"/>
          <Range Index="9" Min="2.2309991836547852e+01" Max="3.9981878662109375e+02"/>
          <Range Index="10" Min="3.2002851366996765e-01" Max="2.9981753540039062e+02"/>
        </Ranges>
      </Class>
      <Class ClassIndex="2">
        <Ranges>
          <Range Index="0" Min="7.0645935833454132e-02" Max="3.2999532222747803e+00"/>
          <Range Index="1" Min="3.7890523672103882e-01" Max="4.9981708526611328e+00"/>
          <Range Index="2" Min="4.0001416206359863e-01" Max="4.9997291564941406e+00"/>
          <Range Index="3" Min="4.4224383309483528e-03" Max="5.9909644126892090e+00"/>
          <Range Index="4" Min="4.0000137686729431e-01" Max="3.1999101638793945e+00"/>
          <Range Index="5" Min="1.7637046312302118e-06" Max="3.1415922641754150e+00"/>
          <Range Index="6" Min="5.0037250518798828e+00" Max="9.9999801635742188e+01"/>
          <Range Index="7" Min="2.2000579833984375e+01" Max="6.9917364501953125e+02"/>
          <Range Index="8" Min="0.0000000000000000e+00" Max="2.4999104309082031e+02"/>
          <Range Index="9" Min="2.2309991836547852e+01" Max="3.9981878662109375e+02"/>
          <Range Index="10" Min="3.2002851366996765e-01" Max="2.9981753540039062e+02"/>
        </Ranges>
      </Class>
    </Transform>
  </Transformations>
  <MVAPdfs/>
  <Weights>
    <Layout NLayers="3">
      <Layer Index="0" NNeurons="12">
        <Neuron NSynapses="16">
          -2.5229740512782034e-01 1.7842094891490821e+00 7.3037497552144348e-01 1.3277849603094982e+00 -1.7301601150684522e+00 -6.8642226170050202e-01 -4.9606768824997655e-01 1.2884815357491977e+00 -9.4201285954169656e-01 -1.2414140930413091e+00 -1.0263654235211344e+00 -2.8827561217352976e-01 -2.5369041139464749e-01 -1.4032183191525358e-01 -3.0592566156249773e-01 7.1692707931585198e-01 
        </Neuron>
        <Neuron NSynapses="16">
          -5.5235723912870349e-01 1.2850847772266232e+00 -4.4050655183029471e-03 1.2269402854161653e+00 -1.8217048184877177e-01 -6.2299708314276936e-01 1.2398931392049377e+00 -2.8727284649568419e-01 -1.0650233715318311e+00 -1.0469306483884083e-01 1.4606297427591384e+00 -1.1608291955695835e+00 -1.4122167945442829e+00 1.5325934851423667e-01 6.9478493137805486e-01 1.7922074578061782e+00 
        </Neuron>
        <Neuron NSynapses="16">
          -5.9839080336655970e-01 -5.3804206160701951e-01 -1.9478545989632437e-01 -5.4110684550947630e-01 -9.6174282523211774e-01 1.7326616533685926e+00 -9.7958217185110319e-01 6.9988117844443976e-01 1.3850209644775890e+00 1.2557284055346898e+00 1.3179425391512585e+00 1.2902857488317368e-01 -6.4637005491354083e-01 -8.5569042862748979e-01 6.8615466218603594e-01 9.4246886025084436e-02 
        </Neuron>
        <Neuron NSynapses="16">
          8.1038658594337387e-01 7.8854770651721529e-01 7.8682459435688379e-01 1.3005956923184396e+00 -1.2256328301725914e+00 1.3160069496022728e+00 -1.5547190218705775e+00 -1.0974520281824560e+00 -9.2995139882554001e-01 -1.1876080484322580e+00 1.0986532160219078e+00 2.7730368447751086e-01 -1.6733620699812140e+00 7.9662864606649053e-01 -2.4884497856086515e-01 5.8066468969496976e-01 
        </Neuron>
        <Neuron NSynapses="16">
          1.4607687107348406e+00 -7.5673174460513692e-01 -1.0987095645528228e-01 -1.1874426720191691e+00 8.6620343733958260e-01 -4.9196922331900567e-01 -4.4239792428715208e-01 -1.7423761697948543e+00 8.3761724162256046e-01 1.0613495586276620e+00 7.8790101773664234e-01 4.3850538446513027e-01 -1.6349859717892774e+00 -1.4533226828117145e+00 6.4511552621255419e-01 6.0823961764808587e-01 
        </Neuron>
        <Neuron NSynapses="16">
          6.0055997720915621e-01 9.0266029366981484e-02 -3.4481137821913821e-01 -4.2342221532036911e-01 -1.5031526256783032e-01 -8.7478634680003298e-01 6.3873707333318519e-01 -3.6642465895969567e-01 -7.9878227746477604e-01 -1.7231105635988175e-01 -7.1140662165062596e-01 -2.1855951054904718e-01 1.0155401609913173e+00 -3.1130434658002121e-01 -2.6471887017502477e-01 4.5400727406985475e-01 
        </Neuron>
        <Neuron NSynapses="16">
          -8.5613029878584057e-01 -1.3773350028028231e+00 -9.9560261916422133e-01 2.5135831758070448e-02 -1.5130687552425752e+00 -1.0903635377605316e+00 8.3295051152872601e-01 1.3658868850911219e+00 -6.7447992258170086e-01 1.0909702133852621e+00 -3.4242043710750913e-01 1.2854470195343182e+00 2.4632246067041308e-01 4.2690239194825530e-01 -1.5175305914984976e+00 2.7919837793931029e-01 
        </Neuron>
        <Neuron NSynapses="16">
          2.0945766677159575e-01 -4.2249281582967216e-02 -1.2188232656488476e+00 1.3750796465539439e+00 4.6529069231057513e-01 -1.3514727637356361e-01 1.8970509103431514e+00 -2.0286710037924380e+00 -1.5914569959198526e+00 1.3938586305951856e-01 -5.8435259358076785e-01 3.1296528246068362e+00 8.7079045037164848e-01 -1.7751713095226043e-01 -8.1753039091859847e-01 1.0315032707059903e+00 
        </Neuron>
        <Neuron NSynapses="16">
          -1.5440775943183875e+00 1.0947322518896661e+00 3.2470312536484719e-01 -1.9396384544556879e+00 4.9737133049421284e-01 -1.1063036564672055e+00 3.6716982268890724e-01 9.4231562015297443e-01 1.5540821238946714e+00 -1.7379765118233639e+00 1.7823186455342693e-01 -3.2079892613278504e-01 9.7390556087817626e-01 -1.3632376013725625e-01 -1.6605322812967427e+00 1.4553617818008743e-01 
        </Neuron>
        <Neuron NSynapses="16">
          -1.5418802478042859e+00 1.0741942083674116e+00 1.3213182155245009e+00 -6.4558114349509710e-01 -3.3812964558066216e-01 6.3697114800882537e-01 -6.5778136122198427e-01 1.1216154259337247e-01 1.6629762384847160e+00 -6.3076145837691577e-01 -9.3218918187498445e-01 4.2490887284502241e+00 7.4501317184601312e-01 3.5738528061856306e-01 5.3503185196248670e-01 -8.0217388201573447e-01 
        </Neuron>
        <Neuron NSynapses="16">
          1.5568887095289186e+00 5.1701203550074404e-01 7.5555211321519977e-01 3.8161668783318797e-01 9.3022538935943377e-01 9.4925620227542265e-02 -4.7185377096327780e-03 5.6973966763130457e-01 -1.0675920249336597e+00 -7.5215802525558939e-01 1.3368462589139245e+00 1.5188779181566656e+00 -5.8511468401616507e-01 1.2502752386698710e+00 1.3704844952137007e+00 -1.1975956555168634e+00 
        </Neuron>
        <Neuron NSynapses="16">
          7.4627680274254238e-01 6.1236843621759363e-01 3.0734646913607455e-01 -1.4125334659457374e+00 -1.7111892943097751e+00 -2.6498351742710896e-01 3.1837180390332809e-01 -2.1833448908019096e-01 -1.8611163308685427e-01 1.0154694474814739e-01 7.6486495967814316e-01 7.9810238552429915e+00 -3.6447967831199812e-01 5.3240056799597396e-02 -2.0445682772350129e-01 -5.2099905082268383e-01 
        </Neuron>
      </Layer>
      <Layer Index="1" NNeurons="17">
        <Neuron NSynapses="1">
          2.6799597243683877e-03 
        </Neuron>
        <Neuron NSynapses="1">
          4.4524343641018840e-03 
        </Neuron>
        <Neuron NSynapses="1">
          7.1140927342928321e-03 
        </Neuron>
        <Neuron NSynapses="1">
          -5.6830255638658797e-03 
        </Neuron>
        <Neuron NSynapses="1">
          -1.5539097072006813e-03 
        </Neuron>
        <Neuron NSynapses="1">
          1.0450472810554616e-03 
        </Neuron>
        <Neuron NSynapses="1">
          2.8506992735960954e-03 
        </Neuron>
        <Neuron NSynapses="1">
          3.4666265082555336e-04 
        </Neuron>
        <Neuron NSynapses="1">
          -5.6167482227430037e-04 
        </Neuron>
        <Neuron NSynapses="1">
          9.2605610439293919e-03 
        </Neuron>
        <Neuron NSynapses="1">
          -2.7401367001958678e-04 
        </Neuron>
        <Neuron NSynapses="1">
          -2.7105110022690065e-01 
        </Neuron>
        <Neuron NSynapses="1">
          -2.0463575992988076e-04 
        </Neuron>
        <Neuron NSynapses="1">
          3.8265297945217248e-03 
        </Neuron>
        <Neuron NSynapses="1">
          -2.7587325778537035e-03 
        </Neuron>
        <Neuron NSynapses="1">
          1.0319431591310161e-03 
        </Neuron>
        <Neuron NSynapses="1">
          2.6207440632079093e-01 
        </Neuron>
      </Layer>
      <Layer Index="2" NNeurons="1">
        <Neuron NSynapses="0"/>
      </Layer>
    </Layout>
  </Weights>
</MethodSetup>
