<?xml version="1.0"?>
<MethodSetup Method="MLP::MLPBFGS">
  <GeneralInfo>
    <Info name="TMVA Release" value="4.1.2 [262402]"/>
    <Info name="ROOT Release" value="5.32/04 [335876]"/>
    <Info name="Creator" value="lpernie"/>
    <Info name="Date" value="Fri Jul  1 14:13:24 2016"/>
    <Info name="Host" value="Linux login01.brazos.tamu.edu 2.6.32-431.23.3.el6.x86_64 #1 SMP Thu Jul 31 17:20:51 UTC 2014 x86_64 x86_64 x86_64 GNU/Linux"/>
    <Info name="Dir" value="/home/lpernie/Hhh/delphes/diHiggs/MVAs"/>
    <Info name="Training events" value="225323"/>
    <Info name="TrainingTime" value="1.13390116e+04"/>
    <Info name="AnalysisType" value="Classification"/>
  </GeneralInfo>
  <Options>
    <Option name="NCycles" modified="Yes">600</Option>
    <Option name="HiddenLayers" modified="Yes">N+5</Option>
    <Option name="NeuronType" modified="Yes">tanh</Option>
    <Option name="RandomSeed" modified="No">1</Option>
    <Option name="EstimatorType" modified="No">MSE</Option>
    <Option name="NeuronInputType" modified="No">sum</Option>
    <Option name="V" modified="Yes">False</Option>
    <Option name="VerbosityLevel" modified="No">Default</Option>
    <Option name="VarTransform" modified="Yes">N</Option>
    <Option name="H" modified="Yes">True</Option>
    <Option name="CreateMVAPdfs" modified="No">False</Option>
    <Option name="IgnoreNegWeightsInTraining" modified="No">False</Option>
    <Option name="TrainingMethod" modified="Yes">BFGS</Option>
    <Option name="LearningRate" modified="No">2.000000e-02</Option>
    <Option name="DecayRate" modified="No">1.000000e-02</Option>
    <Option name="TestRate" modified="Yes">5</Option>
    <Option name="EpochMonitoring" modified="No">False</Option>
    <Option name="Sampling" modified="No">1.000000e+00</Option>
    <Option name="SamplingEpoch" modified="No">1.000000e+00</Option>
    <Option name="SamplingImportance" modified="No">1.000000e+00</Option>
    <Option name="SamplingTraining" modified="No">True</Option>
    <Option name="SamplingTesting" modified="No">False</Option>
    <Option name="ResetStep" modified="No">50</Option>
    <Option name="Tau" modified="No">3.000000e+00</Option>
    <Option name="BPMode" modified="No">sequential</Option>
    <Option name="BatchSize" modified="No">-1</Option>
    <Option name="ConvergenceImprove" modified="No">1.000000e-30</Option>
    <Option name="ConvergenceTests" modified="No">-1</Option>
    <Option name="UseRegulator" modified="Yes">False</Option>
    <Option name="UpdateLimit" modified="No">10000</Option>
    <Option name="CalculateErrors" modified="No">False</Option>
    <Option name="WeightRange" modified="No">1.000000e+00</Option>
  </Options>
  <Variables NVar="11">
    <Variable VarIndex="0" Expression="dR_l1l2" Label="dR_l1l2" Title="dR_l1l2" Unit="" Internal="dR_l1l2" Type="F" Min="7.00357035e-02" Max="3.29995322e+00"/>
    <Variable VarIndex="1" Expression="dR_b1b2" Label="dR_b1b2" Title="dR_b1b2" Unit="" Internal="dR_b1b2" Type="F" Min="3.80170584e-01" Max="4.99817085e+00"/>
    <Variable VarIndex="2" Expression="dR_bl" Label="dR_bl" Title="dR_bl" Unit="" Internal="dR_bl" Type="F" Min="4.00014162e-01" Max="4.97834826e+00"/>
    <Variable VarIndex="3" Expression="dR_l1l2b1b2" Label="dR_l1l2b1b2" Title="dR_l1l2b1b2" Unit="" Internal="dR_l1l2b1b2" Type="F" Min="4.42243833e-03" Max="5.99961948e+00"/>
    <Variable VarIndex="4" Expression="MINdR_bl" Label="MINdR_bl" Title="MINdR_bl" Unit="" Internal="MINdR_bl" Type="F" Min="4.00001377e-01" Max="3.19991016e+00"/>
    <Variable VarIndex="5" Expression="dphi_l1l2b1b2" Label="dphi_l1l2b1b2" Title="dphi_l1l2b1b2" Unit="" Internal="dphi_l1l2b1b2" Type="F" Min="1.76370463e-06" Max="3.14159226e+00"/>
    <Variable VarIndex="6" Expression="mass_l1l2" Label="mass_l1l2" Title="mass_l1l2" Unit="" Internal="mass_l1l2" Type="F" Min="5.00372505e+00" Max="9.99998016e+01"/>
    <Variable VarIndex="7" Expression="mass_b1b2" Label="mass_b1b2" Title="mass_b1b2" Unit="" Internal="mass_b1b2" Type="F" Min="2.20005798e+01" Max="6.99751221e+02"/>
    <Variable VarIndex="8" Expression="mass_trans" Label="mass_trans" Title="mass_trans" Unit="" Internal="mass_trans" Type="F" Min="0.00000000e+00" Max="2.49973557e+02"/>
    <Variable VarIndex="9" Expression="MT2" Label="MT2" Title="MT2" Unit="" Internal="MT2" Type="F" Min="2.23099918e+01" Max="3.99925476e+02"/>
    <Variable VarIndex="10" Expression="pt_b1b2" Label="pt_b1b2" Title="pt_b1b2" Unit="" Internal="pt_b1b2" Type="F" Min="1.50757179e-01" Max="2.99963409e+02"/>
  </Variables>
  <Spectators NSpec="0"/>
  <Classes NClass="2">
    <Class Name="Signal" Index="0"/>
    <Class Name="Background" Index="1"/>
  </Classes>
  <Transformations NTransformations="1">
    <Transform Name="Normalize">
      <Selection>
        <Input NInputs="11">
          <Input Type="Variable" Label="dR_l1l2" Expression="dR_l1l2"/>
          <Input Type="Variable" Label="dR_b1b2" Expression="dR_b1b2"/>
          <Input Type="Variable" Label="dR_bl" Expression="dR_bl"/>
          <Input Type="Variable" Label="dR_l1l2b1b2" Expression="dR_l1l2b1b2"/>
          <Input Type="Variable" Label="MINdR_bl" Expression="MINdR_bl"/>
          <Input Type="Variable" Label="dphi_l1l2b1b2" Expression="dphi_l1l2b1b2"/>
          <Input Type="Variable" Label="mass_l1l2" Expression="mass_l1l2"/>
          <Input Type="Variable" Label="mass_b1b2" Expression="mass_b1b2"/>
          <Input Type="Variable" Label="mass_trans" Expression="mass_trans"/>
          <Input Type="Variable" Label="MT2" Expression="MT2"/>
          <Input Type="Variable" Label="pt_b1b2" Expression="pt_b1b2"/>
        </Input>
        <Output NOutputs="11">
          <Output Type="Variable" Label="dR_l1l2" Expression="dR_l1l2"/>
          <Output Type="Variable" Label="dR_b1b2" Expression="dR_b1b2"/>
          <Output Type="Variable" Label="dR_bl" Expression="dR_bl"/>
          <Output Type="Variable" Label="dR_l1l2b1b2" Expression="dR_l1l2b1b2"/>
          <Output Type="Variable" Label="MINdR_bl" Expression="MINdR_bl"/>
          <Output Type="Variable" Label="dphi_l1l2b1b2" Expression="dphi_l1l2b1b2"/>
          <Output Type="Variable" Label="mass_l1l2" Expression="mass_l1l2"/>
          <Output Type="Variable" Label="mass_b1b2" Expression="mass_b1b2"/>
          <Output Type="Variable" Label="mass_trans" Expression="mass_trans"/>
          <Output Type="Variable" Label="MT2" Expression="MT2"/>
          <Output Type="Variable" Label="pt_b1b2" Expression="pt_b1b2"/>
        </Output>
      </Selection>
      <Class ClassIndex="0">
        <Ranges>
          <Range Index="0" Min="7.0035703480243683e-02" Max="3.2796511650085449e+00"/>
          <Range Index="1" Min="3.9005368947982788e-01" Max="4.8031272888183594e+00"/>
          <Range Index="2" Min="4.7595155239105225e-01" Max="4.5419063568115234e+00"/>
          <Range Index="3" Min="2.8873476386070251e-01" Max="5.5959701538085938e+00"/>
          <Range Index="4" Min="4.0315288305282593e-01" Max="3.1718201637268066e+00"/>
          <Range Index="5" Min="3.4424416720867157e-02" Max="3.1415464878082275e+00"/>
          <Range Index="6" Min="5.0144319534301758e+00" Max="9.8743522644042969e+01"/>
          <Range Index="7" Min="2.2248783111572266e+01" Max="6.9166241455078125e+02"/>
          <Range Index="8" Min="2.3663757368922234e-02" Max="2.4859403991699219e+02"/>
          <Range Index="9" Min="5.6690780639648438e+01" Max="3.9243582153320312e+02"/>
          <Range Index="10" Min="5.0808510780334473e+00" Max="2.9966815185546875e+02"/>
        </Ranges>
      </Class>
      <Class ClassIndex="1">
        <Ranges>
          <Range Index="0" Min="7.0645935833454132e-02" Max="3.2999532222747803e+00"/>
          <Range Index="1" Min="3.8017058372497559e-01" Max="4.9981708526611328e+00"/>
          <Range Index="2" Min="4.0001416206359863e-01" Max="4.9783482551574707e+00"/>
          <Range Index="3" Min="4.4224383309483528e-03" Max="5.9996194839477539e+00"/>
          <Range Index="4" Min="4.0000137686729431e-01" Max="3.1999101638793945e+00"/>
          <Range Index="5" Min="1.7637046312302118e-06" Max="3.1415922641754150e+00"/>
          <Range Index="6" Min="5.0037250518798828e+00" Max="9.9999801635742188e+01"/>
          <Range Index="7" Min="2.2000579833984375e+01" Max="6.9975122070312500e+02"/>
          <Range Index="8" Min="0.0000000000000000e+00" Max="2.4997355651855469e+02"/>
          <Range Index="9" Min="2.2309991836547852e+01" Max="3.9992547607421875e+02"/>
          <Range Index="10" Min="1.5075717866420746e-01" Max="2.9996340942382812e+02"/>
        </Ranges>
      </Class>
      <Class ClassIndex="2">
        <Ranges>
          <Range Index="0" Min="7.0035703480243683e-02" Max="3.2999532222747803e+00"/>
          <Range Index="1" Min="3.8017058372497559e-01" Max="4.9981708526611328e+00"/>
          <Range Index="2" Min="4.0001416206359863e-01" Max="4.9783482551574707e+00"/>
          <Range Index="3" Min="4.4224383309483528e-03" Max="5.9996194839477539e+00"/>
          <Range Index="4" Min="4.0000137686729431e-01" Max="3.1999101638793945e+00"/>
          <Range Index="5" Min="1.7637046312302118e-06" Max="3.1415922641754150e+00"/>
          <Range Index="6" Min="5.0037250518798828e+00" Max="9.9999801635742188e+01"/>
          <Range Index="7" Min="2.2000579833984375e+01" Max="6.9975122070312500e+02"/>
          <Range Index="8" Min="0.0000000000000000e+00" Max="2.4997355651855469e+02"/>
          <Range Index="9" Min="2.2309991836547852e+01" Max="3.9992547607421875e+02"/>
          <Range Index="10" Min="1.5075717866420746e-01" Max="2.9996340942382812e+02"/>
        </Ranges>
      </Class>
    </Transform>
  </Transformations>
  <MVAPdfs/>
  <Weights>
    <Layout NLayers="3">
      <Layer Index="0" NNeurons="12">
        <Neuron NSynapses="16">
          -4.9507107514441517e-01 1.2430117365240352e+00 -8.1092165827801599e-01 1.6890557960112071e+00 -9.2850206008126057e-01 -1.0714296880715297e+00 -6.3950992009538229e-02 1.9357638819807332e+00 -1.3078386668016619e+00 3.3289598898966999e-01 -1.8164464948115309e+00 -9.1382966589249315e-01 -1.7444869250604380e+00 -3.9369187204428779e-02 -4.0341375483132635e-01 1.9781788112545600e+00 
        </Neuron>
        <Neuron NSynapses="16">
          -8.0240192717235270e-01 2.7673933277606790e-02 1.0570713889387142e+00 1.3996393949293817e+00 -9.7490297052851094e-01 -9.8673725919643063e-01 -2.1267296827457818e+00 4.5835685264746917e-01 -1.5193209925563513e+00 -5.1818391498999461e-01 1.0837886970404109e+00 -1.8783847794305670e+00 -1.7177098956460366e+00 -2.9534120661654579e-02 2.0482396592257488e+00 1.0432330615405903e+00 
        </Neuron>
        <Neuron NSynapses="16">
          -1.3426504661243233e-01 1.1627961499048267e+00 -1.4219930150618335e-01 -1.6791196507117717e-01 -4.3396474922663902e-01 2.0463181820626519e+00 -6.1119878986963838e-01 9.9570963445223293e-01 9.1315123083289795e-01 1.1871719557037150e+00 1.4857073986442322e+00 -1.1660372021429010e-02 1.7201355355180781e-01 -2.3076804620329919e-01 1.3500552816387126e-01 1.0239632952828854e+00 
        </Neuron>
        <Neuron NSynapses="16">
          1.5221045813842056e+00 1.6823518083345246e+00 -5.0195205350140215e-01 1.5641763574712790e+00 -1.2563480127473217e+00 1.3977469429407823e+00 -4.2714601586885459e-01 -7.4742564393596123e-01 -1.4595442827955958e+00 -1.8156557957034369e+00 1.3742457146130356e+00 2.1886476233132857e-01 -1.0655683601465362e+00 6.8655720584531321e-01 -1.4163641975343594e-01 7.3126966119968562e-01 
        </Neuron>
        <Neuron NSynapses="16">
          2.1842919745484863e+00 -8.1151336877869817e-01 3.8228851668540431e-01 -9.7627062717535806e-01 1.5751457260822746e-01 -6.0430390744256091e-01 1.9435102216350714e-01 -1.6230967703463717e+00 5.3457273978402409e-01 1.2738887608101288e+00 1.6742324945340044e+00 -9.0125759582736731e-01 -2.4837056237892202e-01 -1.2565735414133252e+00 5.0972629562580134e-02 -7.6969662476248382e-02 
        </Neuron>
        <Neuron NSynapses="16">
          1.1586519993782669e+00 -6.9193158319003834e-01 8.0028232296608837e-01 -5.1545210026660226e-01 -9.0013514126901184e-01 -4.6679213771817406e-02 -1.0812646017199426e-02 -1.3023610925285094e+00 -1.6250749310676507e+00 -1.0052089048321293e+00 -5.2316813272672014e-01 -9.7091317639681940e-01 2.6595594877802942e+00 -1.0293419063700417e+00 5.6713915265316528e-01 5.3548782745763779e-01 
        </Neuron>
        <Neuron NSynapses="16">
          -6.4984160520161072e-01 1.2489292173683177e+00 -2.6951338546360842e-01 7.0227201549910654e-04 -1.9688557795437551e+00 -1.5819960413086176e+00 -3.8776421135323896e-01 1.6503214881788537e+00 -9.8525232503267457e-01 1.5776323920263202e+00 -1.1842886701553079e+00 -4.6755930784014732e-01 2.2857323622201711e-01 1.7037732043359580e-01 -3.1629211840366639e-01 5.0429267730723804e-01 
        </Neuron>
        <Neuron NSynapses="16">
          6.8551911507494734e-01 -1.6602653150818656e+00 -3.9225186876489326e+00 1.8796230398920459e+00 2.8299501164723323e-01 -9.2723620515035776e-01 5.8422326089501908e+00 -1.0434263705106905e+00 -1.8438623631243505e+00 3.8304109262001240e-01 -3.2911273060794050e-01 1.2169861249752356e+00 2.3750430369980113e-01 5.0936208981742274e-02 -5.9478866267947108e+00 -4.3006080897921059e-02 
        </Neuron>
        <Neuron NSynapses="16">
          -2.1616440016372329e+00 9.4641219700773771e-01 -4.5039133306703422e-01 -1.7506809861197932e+00 1.6505588286365400e+00 -1.3597283337800101e+00 2.8673804981669188e-01 8.5834440699297587e-01 1.5577096842363349e+00 -1.9963123218582628e+00 6.6483763853945254e-03 1.6483171659064426e+00 8.5457901294891569e-01 1.7382225085652778e+00 -6.3019184204823475e-01 -9.7943408641231622e-01 
        </Neuron>
        <Neuron NSynapses="16">
          -1.4103327999100335e+00 2.8046656876334470e+00 2.7256431252122737e+00 -4.0976983553319984e-01 -9.5093012572098023e-01 2.6023071276822984e-01 -4.1012610436219106e+00 4.9134750968360447e-01 1.6507991118439478e+00 -1.6952593833205691e+00 -4.9710138489719247e-01 5.2477549217179198e-01 9.5726983077669547e-01 1.0391692688345657e+00 3.7422542183103604e+00 -2.0534134430005038e+00 
        </Neuron>
        <Neuron NSynapses="16">
          1.3571376548155900e+00 1.5817466972339120e-01 1.2233338232047801e+00 6.2655919680939864e-01 1.5822214520565618e+00 -2.6143383222386268e-01 -1.5777722110709169e+00 5.7352481594100690e-01 -7.9882469092553809e-01 -1.1690040917705005e+00 1.9042056449621960e+00 1.3336027521849321e+00 -9.1965285294884591e-01 2.1970900984400705e+00 1.5676328360328795e+00 -2.0353221355617555e+00 
        </Neuron>
        <Neuron NSynapses="16">
          -5.7787532688715193e-01 -3.5905278995230896e+00 -2.4260676536304606e+00 -1.7842495560244671e+00 -2.2263435170371491e+00 1.2359729938672825e+00 4.2054822635541029e+00 -1.8813939888914462e+00 8.8590316541109243e-02 -1.2635169200939464e+00 1.7372038011185351e-02 1.8363288947409828e+00 -2.0063928166696700e-02 -2.2786929559086364e-01 -3.8929956032932340e+00 8.6932112020484187e-01 
        </Neuron>
      </Layer>
      <Layer Index="1" NNeurons="17">
        <Neuron NSynapses="1">
          1.3944424113791775e-02 
        </Neuron>
        <Neuron NSynapses="1">
          1.5451328097368958e-01 
        </Neuron>
        <Neuron NSynapses="1">
          -1.2961940402470587e-01 
        </Neuron>
        <Neuron NSynapses="1">
          -6.9576033931430118e-04 
        </Neuron>
        <Neuron NSynapses="1">
          -3.2470519789985705e-02 
        </Neuron>
        <Neuron NSynapses="1">
          -2.7297152076913686e-03 
        </Neuron>
        <Neuron NSynapses="1">
          6.2761914520635143e-01 
        </Neuron>
        <Neuron NSynapses="1">
          4.8331032753204895e-03 
        </Neuron>
        <Neuron NSynapses="1">
          2.1855676713854501e-03 
        </Neuron>
        <Neuron NSynapses="1">
          -5.8047008971611712e-03 
        </Neuron>
        <Neuron NSynapses="1">
          6.6668394976432000e-03 
        </Neuron>
        <Neuron NSynapses="1">
          9.9305462520737943e-03 
        </Neuron>
        <Neuron NSynapses="1">
          -3.7782543911941062e-03 
        </Neuron>
        <Neuron NSynapses="1">
          -2.9967369645926105e-02 
        </Neuron>
        <Neuron NSynapses="1">
          7.1650572389106881e-01 
        </Neuron>
        <Neuron NSynapses="1">
          -4.8649116952220704e-02 
        </Neuron>
        <Neuron NSynapses="1">
          1.2755877139777494e-01 
        </Neuron>
      </Layer>
      <Layer Index="2" NNeurons="1">
        <Neuron NSynapses="0"/>
      </Layer>
    </Layout>
  </Weights>
</MethodSetup>
