<?xml version="1.0"?>
<MethodSetup Method="MLP::MLP">
  <GeneralInfo>
    <Info name="TMVA Release" value="4.1.2 [262402]"/>
    <Info name="ROOT Release" value="5.32/04 [335876]"/>
    <Info name="Creator" value="lpernie"/>
    <Info name="Date" value="Fri Jul  1 11:04:23 2016"/>
    <Info name="Host" value="Linux login01.brazos.tamu.edu 2.6.32-431.23.3.el6.x86_64 #1 SMP Thu Jul 31 17:20:51 UTC 2014 x86_64 x86_64 x86_64 GNU/Linux"/>
    <Info name="Dir" value="/home/lpernie/Hhh/delphes/diHiggs/MVAs"/>
    <Info name="Training events" value="225323"/>
    <Info name="TrainingTime" value="2.75173554e+03"/>
    <Info name="AnalysisType" value="Classification"/>
  </GeneralInfo>
  <Options>
    <Option name="NCycles" modified="Yes">600</Option>
    <Option name="HiddenLayers" modified="Yes">N+5</Option>
    <Option name="NeuronType" modified="Yes">tanh</Option>
    <Option name="RandomSeed" modified="No">1</Option>
    <Option name="EstimatorType" modified="No">MSE</Option>
    <Option name="NeuronInputType" modified="No">sum</Option>
    <Option name="V" modified="Yes">False</Option>
    <Option name="VerbosityLevel" modified="No">Default</Option>
    <Option name="VarTransform" modified="Yes">N</Option>
    <Option name="H" modified="Yes">True</Option>
    <Option name="CreateMVAPdfs" modified="No">False</Option>
    <Option name="IgnoreNegWeightsInTraining" modified="No">False</Option>
    <Option name="TrainingMethod" modified="No">BP</Option>
    <Option name="LearningRate" modified="No">2.000000e-02</Option>
    <Option name="DecayRate" modified="No">1.000000e-02</Option>
    <Option name="TestRate" modified="Yes">5</Option>
    <Option name="EpochMonitoring" modified="No">False</Option>
    <Option name="Sampling" modified="No">1.000000e+00</Option>
    <Option name="SamplingEpoch" modified="No">1.000000e+00</Option>
    <Option name="SamplingImportance" modified="No">1.000000e+00</Option>
    <Option name="SamplingTraining" modified="No">True</Option>
    <Option name="SamplingTesting" modified="No">False</Option>
    <Option name="ResetStep" modified="No">50</Option>
    <Option name="Tau" modified="No">3.000000e+00</Option>
    <Option name="BPMode" modified="No">sequential</Option>
    <Option name="BatchSize" modified="No">-1</Option>
    <Option name="ConvergenceImprove" modified="No">1.000000e-30</Option>
    <Option name="ConvergenceTests" modified="No">-1</Option>
    <Option name="UseRegulator" modified="Yes">False</Option>
    <Option name="UpdateLimit" modified="No">10000</Option>
    <Option name="CalculateErrors" modified="No">False</Option>
    <Option name="WeightRange" modified="No">1.000000e+00</Option>
  </Options>
  <Variables NVar="11">
    <Variable VarIndex="0" Expression="dR_l1l2" Label="dR_l1l2" Title="dR_l1l2" Unit="" Internal="dR_l1l2" Type="F" Min="7.00357035e-02" Max="3.29995322e+00"/>
    <Variable VarIndex="1" Expression="dR_b1b2" Label="dR_b1b2" Title="dR_b1b2" Unit="" Internal="dR_b1b2" Type="F" Min="3.80170584e-01" Max="4.99817085e+00"/>
    <Variable VarIndex="2" Expression="dR_bl" Label="dR_bl" Title="dR_bl" Unit="" Internal="dR_bl" Type="F" Min="4.00014162e-01" Max="4.97834826e+00"/>
    <Variable VarIndex="3" Expression="dR_l1l2b1b2" Label="dR_l1l2b1b2" Title="dR_l1l2b1b2" Unit="" Internal="dR_l1l2b1b2" Type="F" Min="4.42243833e-03" Max="5.99961948e+00"/>
    <Variable VarIndex="4" Expression="MINdR_bl" Label="MINdR_bl" Title="MINdR_bl" Unit="" Internal="MINdR_bl" Type="F" Min="4.00001377e-01" Max="3.19991016e+00"/>
    <Variable VarIndex="5" Expression="dphi_l1l2b1b2" Label="dphi_l1l2b1b2" Title="dphi_l1l2b1b2" Unit="" Internal="dphi_l1l2b1b2" Type="F" Min="1.76370463e-06" Max="3.14159226e+00"/>
    <Variable VarIndex="6" Expression="mass_l1l2" Label="mass_l1l2" Title="mass_l1l2" Unit="" Internal="mass_l1l2" Type="F" Min="5.00372505e+00" Max="9.99998016e+01"/>
    <Variable VarIndex="7" Expression="mass_b1b2" Label="mass_b1b2" Title="mass_b1b2" Unit="" Internal="mass_b1b2" Type="F" Min="2.20005798e+01" Max="6.99751221e+02"/>
    <Variable VarIndex="8" Expression="mass_trans" Label="mass_trans" Title="mass_trans" Unit="" Internal="mass_trans" Type="F" Min="0.00000000e+00" Max="2.49973557e+02"/>
    <Variable VarIndex="9" Expression="MT2" Label="MT2" Title="MT2" Unit="" Internal="MT2" Type="F" Min="2.23099918e+01" Max="3.99925476e+02"/>
    <Variable VarIndex="10" Expression="pt_b1b2" Label="pt_b1b2" Title="pt_b1b2" Unit="" Internal="pt_b1b2" Type="F" Min="1.50757179e-01" Max="2.99963409e+02"/>
  </Variables>
  <Spectators NSpec="0"/>
  <Classes NClass="2">
    <Class Name="Signal" Index="0"/>
    <Class Name="Background" Index="1"/>
  </Classes>
  <Transformations NTransformations="1">
    <Transform Name="Normalize">
      <Selection>
        <Input NInputs="11">
          <Input Type="Variable" Label="dR_l1l2" Expression="dR_l1l2"/>
          <Input Type="Variable" Label="dR_b1b2" Expression="dR_b1b2"/>
          <Input Type="Variable" Label="dR_bl" Expression="dR_bl"/>
          <Input Type="Variable" Label="dR_l1l2b1b2" Expression="dR_l1l2b1b2"/>
          <Input Type="Variable" Label="MINdR_bl" Expression="MINdR_bl"/>
          <Input Type="Variable" Label="dphi_l1l2b1b2" Expression="dphi_l1l2b1b2"/>
          <Input Type="Variable" Label="mass_l1l2" Expression="mass_l1l2"/>
          <Input Type="Variable" Label="mass_b1b2" Expression="mass_b1b2"/>
          <Input Type="Variable" Label="mass_trans" Expression="mass_trans"/>
          <Input Type="Variable" Label="MT2" Expression="MT2"/>
          <Input Type="Variable" Label="pt_b1b2" Expression="pt_b1b2"/>
        </Input>
        <Output NOutputs="11">
          <Output Type="Variable" Label="dR_l1l2" Expression="dR_l1l2"/>
          <Output Type="Variable" Label="dR_b1b2" Expression="dR_b1b2"/>
          <Output Type="Variable" Label="dR_bl" Expression="dR_bl"/>
          <Output Type="Variable" Label="dR_l1l2b1b2" Expression="dR_l1l2b1b2"/>
          <Output Type="Variable" Label="MINdR_bl" Expression="MINdR_bl"/>
          <Output Type="Variable" Label="dphi_l1l2b1b2" Expression="dphi_l1l2b1b2"/>
          <Output Type="Variable" Label="mass_l1l2" Expression="mass_l1l2"/>
          <Output Type="Variable" Label="mass_b1b2" Expression="mass_b1b2"/>
          <Output Type="Variable" Label="mass_trans" Expression="mass_trans"/>
          <Output Type="Variable" Label="MT2" Expression="MT2"/>
          <Output Type="Variable" Label="pt_b1b2" Expression="pt_b1b2"/>
        </Output>
      </Selection>
      <Class ClassIndex="0">
        <Ranges>
          <Range Index="0" Min="7.0035703480243683e-02" Max="3.2796511650085449e+00"/>
          <Range Index="1" Min="3.9005368947982788e-01" Max="4.8031272888183594e+00"/>
          <Range Index="2" Min="4.7595155239105225e-01" Max="4.5419063568115234e+00"/>
          <Range Index="3" Min="2.8873476386070251e-01" Max="5.5959701538085938e+00"/>
          <Range Index="4" Min="4.0315288305282593e-01" Max="3.1718201637268066e+00"/>
          <Range Index="5" Min="3.4424416720867157e-02" Max="3.1415464878082275e+00"/>
          <Range Index="6" Min="5.0144319534301758e+00" Max="9.8743522644042969e+01"/>
          <Range Index="7" Min="2.2248783111572266e+01" Max="6.9166241455078125e+02"/>
          <Range Index="8" Min="2.3663757368922234e-02" Max="2.4859403991699219e+02"/>
          <Range Index="9" Min="5.6690780639648438e+01" Max="3.9243582153320312e+02"/>
          <Range Index="10" Min="5.0808510780334473e+00" Max="2.9966815185546875e+02"/>
        </Ranges>
      </Class>
      <Class ClassIndex="1">
        <Ranges>
          <Range Index="0" Min="7.0645935833454132e-02" Max="3.2999532222747803e+00"/>
          <Range Index="1" Min="3.8017058372497559e-01" Max="4.9981708526611328e+00"/>
          <Range Index="2" Min="4.0001416206359863e-01" Max="4.9783482551574707e+00"/>
          <Range Index="3" Min="4.4224383309483528e-03" Max="5.9996194839477539e+00"/>
          <Range Index="4" Min="4.0000137686729431e-01" Max="3.1999101638793945e+00"/>
          <Range Index="5" Min="1.7637046312302118e-06" Max="3.1415922641754150e+00"/>
          <Range Index="6" Min="5.0037250518798828e+00" Max="9.9999801635742188e+01"/>
          <Range Index="7" Min="2.2000579833984375e+01" Max="6.9975122070312500e+02"/>
          <Range Index="8" Min="0.0000000000000000e+00" Max="2.4997355651855469e+02"/>
          <Range Index="9" Min="2.2309991836547852e+01" Max="3.9992547607421875e+02"/>
          <Range Index="10" Min="1.5075717866420746e-01" Max="2.9996340942382812e+02"/>
        </Ranges>
      </Class>
      <Class ClassIndex="2">
        <Ranges>
          <Range Index="0" Min="7.0035703480243683e-02" Max="3.2999532222747803e+00"/>
          <Range Index="1" Min="3.8017058372497559e-01" Max="4.9981708526611328e+00"/>
          <Range Index="2" Min="4.0001416206359863e-01" Max="4.9783482551574707e+00"/>
          <Range Index="3" Min="4.4224383309483528e-03" Max="5.9996194839477539e+00"/>
          <Range Index="4" Min="4.0000137686729431e-01" Max="3.1999101638793945e+00"/>
          <Range Index="5" Min="1.7637046312302118e-06" Max="3.1415922641754150e+00"/>
          <Range Index="6" Min="5.0037250518798828e+00" Max="9.9999801635742188e+01"/>
          <Range Index="7" Min="2.2000579833984375e+01" Max="6.9975122070312500e+02"/>
          <Range Index="8" Min="0.0000000000000000e+00" Max="2.4997355651855469e+02"/>
          <Range Index="9" Min="2.2309991836547852e+01" Max="3.9992547607421875e+02"/>
          <Range Index="10" Min="1.5075717866420746e-01" Max="2.9996340942382812e+02"/>
        </Ranges>
      </Class>
    </Transform>
  </Transformations>
  <MVAPdfs/>
  <Weights>
    <Layout NLayers="3">
      <Layer Index="0" NNeurons="12">
        <Neuron NSynapses="16">
          -9.0001195076986418e-01 -4.7944437671277074e-01 -6.5742439268584230e-01 8.8623079304317520e-01 -1.2662144219684426e+00 -7.3962266191512149e-01 1.7406026442738108e-02 1.7328623910981096e+00 -6.5747768545273866e-01 -2.7310128484140167e-01 -1.0973706104438155e+00 1.8833289182164809e-01 -7.6421167318830729e-01 -2.1998743713883853e-01 -1.2857843491071028e-01 2.7830316051906535e-02 
        </Neuron>
        <Neuron NSynapses="16">
          -1.8543128645724127e+00 2.0022530392022051e+00 1.2871110894567352e+00 4.2176426978577464e-01 -2.7754755618949761e-01 -1.8428416020129840e-01 4.6153455126801307e-01 1.7357058314738256e+00 -7.7206129474008067e-01 -9.0549707715775085e-02 6.4479575344726969e-01 -7.8543781297987980e-01 -1.5284586992724170e+00 2.6974368439226459e-01 9.3811566332905516e-01 2.3841710889142096e+00 
        </Neuron>
        <Neuron NSynapses="16">
          -2.5125441212936789e-01 4.9495681330988039e-01 4.4706860899230849e-01 -6.8321245552122722e-01 -1.0540962144615658e+00 1.6456818775361428e+00 -2.6423245693624164e-01 6.3150620309702332e-01 1.4082116377266058e+00 7.1119829500043974e-01 1.7045436027808396e+00 2.9634037436755717e-01 2.2084420239493371e-01 -1.2863553356625685e+00 2.5307092959061739e-01 -4.2736848430946978e-01 
        </Neuron>
        <Neuron NSynapses="16">
          1.4409984256925303e+00 1.5676504005718599e+00 1.5104638930923215e+00 8.3615278582363894e-01 -1.2669577463120185e+00 1.4079885782215009e+00 -3.7494787199387530e-01 -1.0439900768281756e+00 -8.7019392633599135e-01 -1.4932935793426989e+00 1.9045107359995881e+00 7.9138271877780297e-01 -1.1419733768418605e+00 4.1280753733442210e-01 -3.6666971880437405e-01 1.8573089775593184e-02 
        </Neuron>
        <Neuron NSynapses="16">
          9.4048245765414729e-01 -3.5909826288940533e-01 -2.6359708144204125e-01 -1.5365751307208344e+00 8.8680122897760760e-01 1.4963971023187506e-01 -1.4095135922443858e-01 -5.7562259070444022e-01 9.6568973045234618e-01 -3.7813201173528721e-01 1.2575693956425815e+00 -1.1883396204077454e-02 -4.1969150365554285e-02 -1.3368942073722176e+00 2.5225067673789342e-01 -7.8884309352599047e-01 
        </Neuron>
        <Neuron NSynapses="16">
          2.0657576308748254e-01 -2.8837097619673102e-01 -1.7366471975669814e-01 3.1035122054347836e-01 -3.0010758656766195e-01 -1.2369398530411804e-01 -2.9805066768134886e-01 -1.8091231781619596e-01 -1.3331417088830984e+00 -1.0829630709155316e-01 -7.6539282063099379e-01 -3.1986184389144401e-01 1.5063217997221039e+00 -5.9243974399057731e-01 7.3551328905396995e-01 2.5020394263354873e-01 
        </Neuron>
        <Neuron NSynapses="16">
          -3.5806669723472950e-01 7.9354733822120105e-02 -3.3049093280322717e-01 -1.1791695653334290e-01 -1.0008743337539749e+00 -1.6283003179808706e+00 -2.3365770767862667e-01 -1.8368854867344317e-01 -4.0168135919837783e-01 1.7628408691831547e+00 -1.2128379316774972e-01 -1.9189278257213457e-01 -2.2657240999913741e-01 4.5058782920783741e-01 -7.1664093417153807e-01 9.2852363048539199e-01 
        </Neuron>
        <Neuron NSynapses="16">
          9.2816993372218903e-01 -1.8538060803688678e+00 -1.9043030483448307e+00 -3.6053238587229997e-01 4.5660283172765542e-01 1.8594105992292687e-01 4.6936363607583367e+00 -9.8129483847360277e-01 -5.7924398094741714e-01 -9.1240238165102946e-02 -1.7628219018541502e-01 1.4086081268027886e+00 8.7568491325494768e-01 -8.7696047640667374e-01 -5.6340874033749886e+00 3.6233639965809394e-01 
        </Neuron>
        <Neuron NSynapses="16">
          -9.6733786079866768e-01 -3.4022246710931164e-01 -6.1822024182834323e-01 -1.7866318452416017e+00 4.4739574121576042e-01 -4.6317045872772772e-01 5.3944551221889570e-01 8.0405953842618338e-02 9.9812916366597815e-01 -1.1347281934317983e+00 4.9960130829099109e-01 4.6403622889568014e-01 4.4046448687609041e-02 3.5865648444288363e-02 -6.5480361388333630e-01 -5.5193899065001484e-01 
        </Neuron>
        <Neuron NSynapses="16">
          -1.0908584500195024e+00 3.9161987478771487e+00 4.4651310552417858e+00 -1.4905274374631317e+00 -2.6224650461609511e-01 8.4632146081652349e-01 -3.4171924225175907e+00 -8.4675228782481737e-01 2.1415699094810430e+00 -1.2769515179654263e+00 -3.6369128419929682e-02 -3.8384552888486873e-01 1.3733451615757772e+00 -3.0010779247811720e-01 2.7598306796789016e+00 -8.0534645004858285e-01 
        </Neuron>
        <Neuron NSynapses="16">
          3.0606521143779941e-01 1.5675468286806704e+00 1.3876678634841921e+00 -4.2793627119904470e-01 1.0569382002192180e+00 2.2008908802191851e-01 -8.7333553928623653e-01 -2.7007473549783739e-01 -2.2026258899017487e-01 -1.1346025565825373e+00 1.6213828225288798e+00 1.4628623431435605e-02 1.7468767543535502e-01 2.5395358024140602e-01 1.4505101277889747e+00 -8.6856636267735110e-01 
        </Neuron>
        <Neuron NSynapses="16">
          -3.3621506021794425e+00 -9.4519939555290089e-01 -7.2820204179360981e-01 1.6180658979896618e+00 -1.7824167445119654e+00 -2.0555104659799226e+00 5.3184059487319990e+00 2.7851534723244820e+00 -1.4782277380207800e+00 1.4832475557361082e+00 -7.6852403051686591e-01 8.4717054018055737e-01 -1.1203015993479435e+00 1.3409259848030957e+00 -4.7965827675962469e+00 3.2682191258953188e+00 
        </Neuron>
      </Layer>
      <Layer Index="1" NNeurons="17">
        <Neuron NSynapses="1">
          -3.3206563423590268e-01 
        </Neuron>
        <Neuron NSynapses="1">
          -3.5715629702707974e-01 
        </Neuron>
        <Neuron NSynapses="1">
          3.5736442547825231e-01 
        </Neuron>
        <Neuron NSynapses="1">
          -9.9852527299041493e-03 
        </Neuron>
        <Neuron NSynapses="1">
          -1.3750570998784469e-03 
        </Neuron>
        <Neuron NSynapses="1">
          -5.8400425257372449e-02 
        </Neuron>
        <Neuron NSynapses="1">
          4.7495313332006944e-01 
        </Neuron>
        <Neuron NSynapses="1">
          -8.2070863655928850e-01 
        </Neuron>
        <Neuron NSynapses="1">
          1.0708584242229762e-03 
        </Neuron>
        <Neuron NSynapses="1">
          8.9394612722847600e-02 
        </Neuron>
        <Neuron NSynapses="1">
          1.9795047836785169e-02 
        </Neuron>
        <Neuron NSynapses="1">
          1.5533767081028436e-02 
        </Neuron>
        <Neuron NSynapses="1">
          -4.0077957244031369e-02 
        </Neuron>
        <Neuron NSynapses="1">
          5.0901410334590752e-03 
        </Neuron>
        <Neuron NSynapses="1">
          4.9899528994880038e-01 
        </Neuron>
        <Neuron NSynapses="1">
          3.1634798183050905e-01 
        </Neuron>
        <Neuron NSynapses="1">
          3.8626339889330494e-02 
        </Neuron>
      </Layer>
      <Layer Index="2" NNeurons="1">
        <Neuron NSynapses="0"/>
      </Layer>
    </Layout>
  </Weights>
</MethodSetup>
