<?xml version="1.0"?>
<MethodSetup Method="MLP::MLP">
  <GeneralInfo>
    <Info name="TMVA Release" value="4.1.2 [262402]"/>
    <Info name="ROOT Release" value="5.32/04 [335876]"/>
    <Info name="Creator" value="lpernie"/>
    <Info name="Date" value="Fri May 13 13:08:28 2016"/>
    <Info name="Host" value="Linux login01.brazos.tamu.edu 2.6.32-431.23.3.el6.x86_64 #1 SMP Thu Jul 31 17:20:51 UTC 2014 x86_64 x86_64 x86_64 GNU/Linux"/>
    <Info name="Dir" value="/home/lpernie/Hhh/delphes/diHiggs/MVAs"/>
    <Info name="Training events" value="18443"/>
    <Info name="TrainingTime" value="2.23575019e+02"/>
    <Info name="AnalysisType" value="Classification"/>
  </GeneralInfo>
  <Options>
    <Option name="NCycles" modified="Yes">600</Option>
    <Option name="HiddenLayers" modified="Yes">N+5</Option>
    <Option name="NeuronType" modified="Yes">tanh</Option>
    <Option name="RandomSeed" modified="No">1</Option>
    <Option name="EstimatorType" modified="No">MSE</Option>
    <Option name="NeuronInputType" modified="No">sum</Option>
    <Option name="V" modified="Yes">False</Option>
    <Option name="VerbosityLevel" modified="No">Default</Option>
    <Option name="VarTransform" modified="Yes">N</Option>
    <Option name="H" modified="Yes">True</Option>
    <Option name="CreateMVAPdfs" modified="No">False</Option>
    <Option name="IgnoreNegWeightsInTraining" modified="No">False</Option>
    <Option name="TrainingMethod" modified="No">BP</Option>
    <Option name="LearningRate" modified="No">2.000000e-02</Option>
    <Option name="DecayRate" modified="No">1.000000e-02</Option>
    <Option name="TestRate" modified="Yes">5</Option>
    <Option name="EpochMonitoring" modified="No">False</Option>
    <Option name="Sampling" modified="No">1.000000e+00</Option>
    <Option name="SamplingEpoch" modified="No">1.000000e+00</Option>
    <Option name="SamplingImportance" modified="No">1.000000e+00</Option>
    <Option name="SamplingTraining" modified="No">True</Option>
    <Option name="SamplingTesting" modified="No">False</Option>
    <Option name="ResetStep" modified="No">50</Option>
    <Option name="Tau" modified="No">3.000000e+00</Option>
    <Option name="BPMode" modified="No">sequential</Option>
    <Option name="BatchSize" modified="No">-1</Option>
    <Option name="ConvergenceImprove" modified="No">1.000000e-30</Option>
    <Option name="ConvergenceTests" modified="No">-1</Option>
    <Option name="UseRegulator" modified="Yes">False</Option>
    <Option name="UpdateLimit" modified="No">10000</Option>
    <Option name="CalculateErrors" modified="No">False</Option>
    <Option name="WeightRange" modified="No">1.000000e+00</Option>
  </Options>
  <Variables NVar="11">
    <Variable VarIndex="0" Expression="dR_l1l2" Label="dR_l1l2" Title="dR_l1l2" Unit="" Internal="dR_l1l2" Type="F" Min="7.00357035e-02" Max="3.29991746e+00"/>
    <Variable VarIndex="1" Expression="dR_b1b2" Label="dR_b1b2" Title="dR_b1b2" Unit="" Internal="dR_b1b2" Type="F" Min="3.80652487e-01" Max="4.95207596e+00"/>
    <Variable VarIndex="2" Expression="dR_bl" Label="dR_bl" Title="dR_bl" Unit="" Internal="dR_bl" Type="F" Min="4.00819451e-01" Max="4.91523266e+00"/>
    <Variable VarIndex="3" Expression="dR_l1l2b1b2" Label="dR_l1l2b1b2" Title="dR_l1l2b1b2" Unit="" Internal="dR_l1l2b1b2" Type="F" Min="1.63523909e-02" Max="5.91814280e+00"/>
    <Variable VarIndex="4" Expression="MINdR_bl" Label="MINdR_bl" Title="MINdR_bl" Unit="" Internal="MINdR_bl" Type="F" Min="4.00697887e-01" Max="3.17182016e+00"/>
    <Variable VarIndex="5" Expression="dphi_l1l2b1b2" Label="dphi_l1l2b1b2" Title="dphi_l1l2b1b2" Unit="" Internal="dphi_l1l2b1b2" Type="F" Min="3.76255048e-04" Max="3.14154649e+00"/>
    <Variable VarIndex="6" Expression="mass_l1l2" Label="mass_l1l2" Title="mass_l1l2" Unit="" Internal="mass_l1l2" Type="F" Min="5.01443195e+00" Max="9.99985352e+01"/>
    <Variable VarIndex="7" Expression="mass_b1b2" Label="mass_b1b2" Title="mass_b1b2" Unit="" Internal="mass_b1b2" Type="F" Min="2.20024567e+01" Max="6.94112366e+02"/>
    <Variable VarIndex="8" Expression="mass_trans" Label="mass_trans" Title="mass_trans" Unit="" Internal="mass_trans" Type="F" Min="1.27812997e-02" Max="2.49397186e+02"/>
    <Variable VarIndex="9" Expression="MT2" Label="MT2" Title="MT2" Unit="" Internal="MT2" Type="F" Min="2.50663490e+01" Max="3.92435822e+02"/>
    <Variable VarIndex="10" Expression="pt_b1b2" Label="pt_b1b2" Title="pt_b1b2" Unit="" Internal="pt_b1b2" Type="F" Min="6.60549879e-01" Max="2.99668152e+02"/>
  </Variables>
  <Spectators NSpec="0"/>
  <Classes NClass="2">
    <Class Name="Signal" Index="0"/>
    <Class Name="Background" Index="1"/>
  </Classes>
  <Transformations NTransformations="1">
    <Transform Name="Normalize">
      <Selection>
        <Input NInputs="11">
          <Input Type="Variable" Label="dR_l1l2" Expression="dR_l1l2"/>
          <Input Type="Variable" Label="dR_b1b2" Expression="dR_b1b2"/>
          <Input Type="Variable" Label="dR_bl" Expression="dR_bl"/>
          <Input Type="Variable" Label="dR_l1l2b1b2" Expression="dR_l1l2b1b2"/>
          <Input Type="Variable" Label="MINdR_bl" Expression="MINdR_bl"/>
          <Input Type="Variable" Label="dphi_l1l2b1b2" Expression="dphi_l1l2b1b2"/>
          <Input Type="Variable" Label="mass_l1l2" Expression="mass_l1l2"/>
          <Input Type="Variable" Label="mass_b1b2" Expression="mass_b1b2"/>
          <Input Type="Variable" Label="mass_trans" Expression="mass_trans"/>
          <Input Type="Variable" Label="MT2" Expression="MT2"/>
          <Input Type="Variable" Label="pt_b1b2" Expression="pt_b1b2"/>
        </Input>
        <Output NOutputs="11">
          <Output Type="Variable" Label="dR_l1l2" Expression="dR_l1l2"/>
          <Output Type="Variable" Label="dR_b1b2" Expression="dR_b1b2"/>
          <Output Type="Variable" Label="dR_bl" Expression="dR_bl"/>
          <Output Type="Variable" Label="dR_l1l2b1b2" Expression="dR_l1l2b1b2"/>
          <Output Type="Variable" Label="MINdR_bl" Expression="MINdR_bl"/>
          <Output Type="Variable" Label="dphi_l1l2b1b2" Expression="dphi_l1l2b1b2"/>
          <Output Type="Variable" Label="mass_l1l2" Expression="mass_l1l2"/>
          <Output Type="Variable" Label="mass_b1b2" Expression="mass_b1b2"/>
          <Output Type="Variable" Label="mass_trans" Expression="mass_trans"/>
          <Output Type="Variable" Label="MT2" Expression="MT2"/>
          <Output Type="Variable" Label="pt_b1b2" Expression="pt_b1b2"/>
        </Output>
      </Selection>
      <Class ClassIndex="0">
        <Ranges>
          <Range Index="0" Min="7.0035703480243683e-02" Max="3.2796511650085449e+00"/>
          <Range Index="1" Min="3.9005368947982788e-01" Max="4.8031272888183594e+00"/>
          <Range Index="2" Min="4.7595155239105225e-01" Max="4.5419063568115234e+00"/>
          <Range Index="3" Min="2.8873476386070251e-01" Max="5.5959701538085938e+00"/>
          <Range Index="4" Min="4.0315288305282593e-01" Max="3.1718201637268066e+00"/>
          <Range Index="5" Min="3.4424416720867157e-02" Max="3.1415464878082275e+00"/>
          <Range Index="6" Min="5.0144319534301758e+00" Max="9.8743522644042969e+01"/>
          <Range Index="7" Min="2.2248783111572266e+01" Max="6.9166241455078125e+02"/>
          <Range Index="8" Min="2.3663757368922234e-02" Max="2.4859403991699219e+02"/>
          <Range Index="9" Min="5.6690780639648438e+01" Max="3.9243582153320312e+02"/>
          <Range Index="10" Min="5.0808510780334473e+00" Max="2.9966815185546875e+02"/>
        </Ranges>
      </Class>
      <Class ClassIndex="1">
        <Ranges>
          <Range Index="0" Min="7.9624757170677185e-02" Max="3.2999174594879150e+00"/>
          <Range Index="1" Min="3.8065248727798462e-01" Max="4.9520759582519531e+00"/>
          <Range Index="2" Min="4.0081945061683655e-01" Max="4.9152326583862305e+00"/>
          <Range Index="3" Min="1.6352390870451927e-02" Max="5.9181427955627441e+00"/>
          <Range Index="4" Min="4.0069788694381714e-01" Max="3.1378283500671387e+00"/>
          <Range Index="5" Min="3.7625504774041474e-04" Max="3.1414997577667236e+00"/>
          <Range Index="6" Min="5.0169830322265625e+00" Max="9.9998535156250000e+01"/>
          <Range Index="7" Min="2.2002456665039062e+01" Max="6.9411236572265625e+02"/>
          <Range Index="8" Min="1.2781299650669098e-02" Max="2.4939718627929688e+02"/>
          <Range Index="9" Min="2.5066349029541016e+01" Max="3.9131411743164062e+02"/>
          <Range Index="10" Min="6.6054987907409668e-01" Max="2.9730456542968750e+02"/>
        </Ranges>
      </Class>
      <Class ClassIndex="2">
        <Ranges>
          <Range Index="0" Min="7.0035703480243683e-02" Max="3.2999174594879150e+00"/>
          <Range Index="1" Min="3.8065248727798462e-01" Max="4.9520759582519531e+00"/>
          <Range Index="2" Min="4.0081945061683655e-01" Max="4.9152326583862305e+00"/>
          <Range Index="3" Min="1.6352390870451927e-02" Max="5.9181427955627441e+00"/>
          <Range Index="4" Min="4.0069788694381714e-01" Max="3.1718201637268066e+00"/>
          <Range Index="5" Min="3.7625504774041474e-04" Max="3.1415464878082275e+00"/>
          <Range Index="6" Min="5.0144319534301758e+00" Max="9.9998535156250000e+01"/>
          <Range Index="7" Min="2.2002456665039062e+01" Max="6.9411236572265625e+02"/>
          <Range Index="8" Min="1.2781299650669098e-02" Max="2.4939718627929688e+02"/>
          <Range Index="9" Min="2.5066349029541016e+01" Max="3.9243582153320312e+02"/>
          <Range Index="10" Min="6.6054987907409668e-01" Max="2.9966815185546875e+02"/>
        </Ranges>
      </Class>
    </Transform>
  </Transformations>
  <MVAPdfs/>
  <Weights>
    <Layout NLayers="3">
      <Layer Index="0" NNeurons="12">
        <Neuron NSynapses="16">
          -2.1883712705202304e-01 4.2113872966877508e-01 -2.3173682995247216e-01 1.9674881208735107e+00 -8.5532354675072253e-01 -8.1630640298926804e-01 -2.9319662111509243e-01 1.3955142577870163e+00 -1.0928602949148540e+00 -9.5359396739623215e-01 -1.1444135986527348e+00 4.6037200129460037e-01 -3.9357657664632678e-01 -5.4086849610640064e-01 -6.0889936000637923e-01 1.5630359642779894e+00 
        </Neuron>
        <Neuron NSynapses="16">
          -3.8200900251370945e-01 1.5267602221826972e+00 1.0841485506616075e+00 1.1485600141921350e+00 -6.9148508980914947e-01 -3.7183537770259967e-01 5.4967934087250492e-01 -2.2276931774330516e-01 -1.0187638782056794e+00 -1.0154960768103674e-01 1.2856182520488628e+00 -1.3812279073535905e+00 -1.4802021737371573e+00 -1.3691526711413451e-01 5.0702945971246371e-01 1.3829835971334483e+00 
        </Neuron>
        <Neuron NSynapses="16">
          1.5391522887893863e-01 5.8473346131418258e-01 1.1605125530758422e+00 -1.9722709820664597e-01 -4.3853943256136507e-01 2.1495642494466130e+00 -5.7253953497749788e-01 7.0053200620628109e-01 1.1871478468014296e+00 8.6320941989589239e-01 1.7007976416291350e+00 2.1653021475587420e-01 -6.1498798872152849e-01 -1.4324030452539613e+00 3.0403770796957169e-01 4.4010510131998831e-02 
        </Neuron>
        <Neuron NSynapses="16">
          1.7094025976342457e+00 1.6696159502762493e+00 2.2060089461718690e+00 1.2304240504436985e+00 -9.2307886802394379e-01 1.8760724105651463e+00 -8.9863622935950849e-01 -1.0213364008095989e+00 -1.1719008105674062e+00 -1.7324087850074918e+00 1.4139024544588759e+00 9.2395969690495627e-01 -1.9968307057884103e+00 2.7269104439603231e-01 1.1858847326761013e+00 4.6037238645626033e-01 
        </Neuron>
        <Neuron NSynapses="16">
          1.9439938437783000e+00 -1.0359115289084773e+00 -2.0121535392266934e-01 -1.4782073607521331e+00 8.5732207727266230e-01 -6.7993036333837076e-02 8.7001941510460479e-02 -1.7037030143658063e+00 6.7623004945419030e-01 6.8642779388565145e-01 1.2392686465792873e+00 -3.5087498833460157e-01 -1.9261354581407828e+00 -1.7674375805143505e+00 1.1773490901030796e-01 1.6249755223462833e-01 
        </Neuron>
        <Neuron NSynapses="16">
          8.1630627626479157e-01 -4.6753408107288935e-01 -6.0425774328812520e-01 -5.0013530418202712e-01 1.6724100146796941e-01 -4.9743907249489250e-01 1.4124469310509422e-01 -2.1652231331295810e-01 -1.6051371830575198e+00 -1.3507075266942443e+00 -6.2591540864198958e-01 1.0653460703286664e-01 9.3502280480060407e-01 -1.0101517793605728e+00 1.2528101706710404e-01 7.2537165228450551e-01 
        </Neuron>
        <Neuron NSynapses="16">
          -5.1038292087784720e-01 -3.2825799992068333e-01 -7.8286897288006396e-01 -1.9802506286346222e-01 -1.7223490764283742e+00 -1.3785405098107462e+00 -1.7057264785406372e+00 1.9033275663015405e+00 -8.7073905143530617e-01 1.6082140476955937e+00 -5.6555467131159987e-01 7.1999134567702927e-01 -3.7448171702550664e-01 2.7131520593575847e-01 -9.2082065483718856e-01 9.5443566669068980e-01 
        </Neuron>
        <Neuron NSynapses="16">
          7.7439349191304752e-01 -1.1631154110308617e+00 -1.6464756842521926e+00 9.7800547609834632e-01 1.5930553210167286e-01 4.7574517897376406e-02 1.0450510913447928e+00 -2.1172210690259963e+00 -1.2914827351920759e+00 -1.4075004872039906e-01 -7.6368665177143330e-02 -3.7190219793359702e-01 5.3901420586832061e-01 -8.9922806673715006e-01 -4.6572373863936436e+00 1.9523372684135909e-01 
        </Neuron>
        <Neuron NSynapses="16">
          -1.2071520032913634e+00 6.1016812713458535e-01 -7.6087341681281617e-01 -1.9725153865563725e+00 5.9467621995077513e-01 -6.0677716118472147e-01 2.5661084239473048e-01 7.7840526941966315e-01 1.5430962552324674e+00 -1.4803717527282265e+00 2.8542954595630582e-01 4.7280711046885820e-01 1.8455054902007171e+00 3.2752422433952315e-02 -1.2240947908085891e+00 1.5853894340655407e-02 
        </Neuron>
        <Neuron NSynapses="16">
          -7.7808246810251191e-01 2.5923693324501293e+00 4.4828170440597939e+00 -1.1345053001743666e+00 -1.0521531980823500e+00 6.5664665633480312e-01 -2.1098715418428866e+00 3.0323219309105820e-01 1.8463736410727987e+00 -6.8662256330010840e-01 -3.9580843238607211e-01 -6.1621104603756072e-01 5.9050747286432581e-01 -1.1655339334856799e-01 4.3949838638936978e+00 -1.5429199128293720e+00 
        </Neuron>
        <Neuron NSynapses="16">
          2.0825374548762943e+00 1.1245314220455016e+00 1.4001075414787514e+00 4.0938496032120096e-02 7.5187858583433276e-01 -6.5578631485970623e-02 -5.2075505110069320e-01 4.0025190356398904e-01 -7.6610669111762708e-01 -7.6165582014499766e-01 1.8724308768425391e+00 -3.0316521690865061e-01 -3.7857174422484829e-01 6.9865481749433000e-01 1.4199555625086884e+00 -1.6924078040586090e+00 
        </Neuron>
        <Neuron NSynapses="16">
          -8.4084125875250526e-01 -5.2971143786034913e-01 9.3653742777111526e-01 -3.6030688714019643e-01 -2.2494161865979265e+00 -1.0405299231721157e+00 2.8156232758504069e+00 2.5190729935926037e-01 -5.5314408282519367e-01 1.2635626856066418e-01 -3.5138896503505224e-01 2.7422032884980401e+00 5.7179269567585644e-01 6.6938780987639024e-01 -2.7267729011935726e+00 7.9359330955792207e-01 
        </Neuron>
      </Layer>
      <Layer Index="1" NNeurons="17">
        <Neuron NSynapses="1">
          -3.1614231180225043e-02 
        </Neuron>
        <Neuron NSynapses="1">
          -2.1062937010133762e-01 
        </Neuron>
        <Neuron NSynapses="1">
          2.0556920557116493e-01 
        </Neuron>
        <Neuron NSynapses="1">
          2.1370168415965039e-02 
        </Neuron>
        <Neuron NSynapses="1">
          -8.5840571861012183e-02 
        </Neuron>
        <Neuron NSynapses="1">
          -6.7696122958579311e-02 
        </Neuron>
        <Neuron NSynapses="1">
          3.9877952531446542e-01 
        </Neuron>
        <Neuron NSynapses="1">
          -2.0180765572584844e-02 
        </Neuron>
        <Neuron NSynapses="1">
          5.7816008611951651e-03 
        </Neuron>
        <Neuron NSynapses="1">
          -7.6913659555097472e-03 
        </Neuron>
        <Neuron NSynapses="1">
          3.5569046734486277e-02 
        </Neuron>
        <Neuron NSynapses="1">
          -7.0962509075414348e-01 
        </Neuron>
        <Neuron NSynapses="1">
          3.7955120146158310e-02 
        </Neuron>
        <Neuron NSynapses="1">
          -1.1334020672549128e-02 
        </Neuron>
        <Neuron NSynapses="1">
          3.7811667604243493e-01 
        </Neuron>
        <Neuron NSynapses="1">
          -2.4642861313709595e-02 
        </Neuron>
        <Neuron NSynapses="1">
          5.7145968522729984e-01 
        </Neuron>
      </Layer>
      <Layer Index="2" NNeurons="1">
        <Neuron NSynapses="0"/>
      </Layer>
    </Layout>
  </Weights>
</MethodSetup>
