<?xml version="1.0"?>
<MethodSetup Method="MLP::MLP">
  <GeneralInfo>
    <Info name="TMVA Release" value="4.1.2 [262402]"/>
    <Info name="ROOT Release" value="5.32/04 [335876]"/>
    <Info name="Creator" value="lpernie"/>
    <Info name="Date" value="Fri Jul 15 14:12:33 2016"/>
    <Info name="Host" value="Linux login01.brazos.tamu.edu 2.6.32-431.23.3.el6.x86_64 #1 SMP Thu Jul 31 17:20:51 UTC 2014 x86_64 x86_64 x86_64 GNU/Linux"/>
    <Info name="Dir" value="/home/lpernie/Hhh/delphes/diHiggs/MVAs"/>
    <Info name="Training events" value="190595"/>
    <Info name="TrainingTime" value="2.27922597e+03"/>
    <Info name="AnalysisType" value="Classification"/>
  </GeneralInfo>
  <Options>
    <Option name="NCycles" modified="Yes">600</Option>
    <Option name="HiddenLayers" modified="Yes">N+5</Option>
    <Option name="NeuronType" modified="Yes">tanh</Option>
    <Option name="RandomSeed" modified="No">1</Option>
    <Option name="EstimatorType" modified="No">MSE</Option>
    <Option name="NeuronInputType" modified="No">sum</Option>
    <Option name="V" modified="Yes">False</Option>
    <Option name="VerbosityLevel" modified="No">Default</Option>
    <Option name="VarTransform" modified="Yes">N</Option>
    <Option name="H" modified="Yes">True</Option>
    <Option name="CreateMVAPdfs" modified="No">False</Option>
    <Option name="IgnoreNegWeightsInTraining" modified="No">False</Option>
    <Option name="TrainingMethod" modified="No">BP</Option>
    <Option name="LearningRate" modified="No">2.000000e-02</Option>
    <Option name="DecayRate" modified="No">1.000000e-02</Option>
    <Option name="TestRate" modified="Yes">5</Option>
    <Option name="EpochMonitoring" modified="No">False</Option>
    <Option name="Sampling" modified="No">1.000000e+00</Option>
    <Option name="SamplingEpoch" modified="No">1.000000e+00</Option>
    <Option name="SamplingImportance" modified="No">1.000000e+00</Option>
    <Option name="SamplingTraining" modified="No">True</Option>
    <Option name="SamplingTesting" modified="No">False</Option>
    <Option name="ResetStep" modified="No">50</Option>
    <Option name="Tau" modified="No">3.000000e+00</Option>
    <Option name="BPMode" modified="No">sequential</Option>
    <Option name="BatchSize" modified="No">-1</Option>
    <Option name="ConvergenceImprove" modified="No">1.000000e-30</Option>
    <Option name="ConvergenceTests" modified="No">-1</Option>
    <Option name="UseRegulator" modified="Yes">False</Option>
    <Option name="UpdateLimit" modified="No">10000</Option>
    <Option name="CalculateErrors" modified="No">False</Option>
    <Option name="WeightRange" modified="No">1.000000e+00</Option>
  </Options>
  <Variables NVar="11">
    <Variable VarIndex="0" Expression="dR_l1l2" Label="dR_l1l2" Title="dR_l1l2" Unit="" Internal="dR_l1l2" Type="F" Min="7.42895603e-02" Max="3.29992628e+00"/>
    <Variable VarIndex="1" Expression="dR_b1b2" Label="dR_b1b2" Title="dR_b1b2" Unit="" Internal="dR_b1b2" Type="F" Min="3.90414625e-01" Max="4.99817085e+00"/>
    <Variable VarIndex="2" Expression="dR_bl" Label="dR_bl" Title="dR_bl" Unit="" Internal="dR_bl" Type="F" Min="4.00063813e-01" Max="4.99972916e+00"/>
    <Variable VarIndex="3" Expression="dR_l1l2b1b2" Label="dR_l1l2b1b2" Title="dR_l1l2b1b2" Unit="" Internal="dR_l1l2b1b2" Type="F" Min="4.42243833e-03" Max="5.99961948e+00"/>
    <Variable VarIndex="4" Expression="MINdR_bl" Label="MINdR_bl" Title="MINdR_bl" Unit="" Internal="MINdR_bl" Type="F" Min="4.00042474e-01" Max="3.19576645e+00"/>
    <Variable VarIndex="5" Expression="dphi_l1l2b1b2" Label="dphi_l1l2b1b2" Title="dphi_l1l2b1b2" Unit="" Internal="dphi_l1l2b1b2" Type="F" Min="1.66005921e-05" Max="3.14158869e+00"/>
    <Variable VarIndex="6" Expression="mass_l1l2" Label="mass_l1l2" Title="mass_l1l2" Unit="" Internal="mass_l1l2" Type="F" Min="5.00662184e+00" Max="9.99993896e+01"/>
    <Variable VarIndex="7" Expression="mass_b1b2" Label="mass_b1b2" Title="mass_b1b2" Unit="" Internal="mass_b1b2" Type="F" Min="2.22296066e+01" Max="6.99173645e+02"/>
    <Variable VarIndex="8" Expression="mass_trans" Label="mass_trans" Title="mass_trans" Unit="" Internal="mass_trans" Type="F" Min="0.00000000e+00" Max="2.49994110e+02"/>
    <Variable VarIndex="9" Expression="MT2" Label="MT2" Title="MT2" Unit="" Internal="MT2" Type="F" Min="2.23099918e+01" Max="3.99925476e+02"/>
    <Variable VarIndex="10" Expression="pt_b1b2" Label="pt_b1b2" Title="pt_b1b2" Unit="" Internal="pt_b1b2" Type="F" Min="1.50757179e-01" Max="2.99776794e+02"/>
  </Variables>
  <Spectators NSpec="0"/>
  <Classes NClass="2">
    <Class Name="Signal" Index="0"/>
    <Class Name="Background" Index="1"/>
  </Classes>
  <Transformations NTransformations="1">
    <Transform Name="Normalize">
      <Selection>
        <Input NInputs="11">
          <Input Type="Variable" Label="dR_l1l2" Expression="dR_l1l2"/>
          <Input Type="Variable" Label="dR_b1b2" Expression="dR_b1b2"/>
          <Input Type="Variable" Label="dR_bl" Expression="dR_bl"/>
          <Input Type="Variable" Label="dR_l1l2b1b2" Expression="dR_l1l2b1b2"/>
          <Input Type="Variable" Label="MINdR_bl" Expression="MINdR_bl"/>
          <Input Type="Variable" Label="dphi_l1l2b1b2" Expression="dphi_l1l2b1b2"/>
          <Input Type="Variable" Label="mass_l1l2" Expression="mass_l1l2"/>
          <Input Type="Variable" Label="mass_b1b2" Expression="mass_b1b2"/>
          <Input Type="Variable" Label="mass_trans" Expression="mass_trans"/>
          <Input Type="Variable" Label="MT2" Expression="MT2"/>
          <Input Type="Variable" Label="pt_b1b2" Expression="pt_b1b2"/>
        </Input>
        <Output NOutputs="11">
          <Output Type="Variable" Label="dR_l1l2" Expression="dR_l1l2"/>
          <Output Type="Variable" Label="dR_b1b2" Expression="dR_b1b2"/>
          <Output Type="Variable" Label="dR_bl" Expression="dR_bl"/>
          <Output Type="Variable" Label="dR_l1l2b1b2" Expression="dR_l1l2b1b2"/>
          <Output Type="Variable" Label="MINdR_bl" Expression="MINdR_bl"/>
          <Output Type="Variable" Label="dphi_l1l2b1b2" Expression="dphi_l1l2b1b2"/>
          <Output Type="Variable" Label="mass_l1l2" Expression="mass_l1l2"/>
          <Output Type="Variable" Label="mass_b1b2" Expression="mass_b1b2"/>
          <Output Type="Variable" Label="mass_trans" Expression="mass_trans"/>
          <Output Type="Variable" Label="MT2" Expression="MT2"/>
          <Output Type="Variable" Label="pt_b1b2" Expression="pt_b1b2"/>
        </Output>
      </Selection>
      <Class ClassIndex="0">
        <Ranges>
          <Range Index="0" Min="1.4247208833694458e-01" Max="3.2978737354278564e+00"/>
          <Range Index="1" Min="5.1598697900772095e-01" Max="4.6234660148620605e+00"/>
          <Range Index="2" Min="4.0166628360748291e-01" Max="4.3144779205322266e+00"/>
          <Range Index="3" Min="6.7419961094856262e-02" Max="5.7640070915222168e+00"/>
          <Range Index="4" Min="4.0166628360748291e-01" Max="2.8524110317230225e+00"/>
          <Range Index="5" Min="5.9523712843656540e-04" Max="3.1404535770416260e+00"/>
          <Range Index="6" Min="5.0251250267028809e+00" Max="8.7218818664550781e+01"/>
          <Range Index="7" Min="2.2782060623168945e+01" Max="6.1845233154296875e+02"/>
          <Range Index="8" Min="1.0090249031782150e-01" Max="2.4878497314453125e+02"/>
          <Range Index="9" Min="2.7585962295532227e+01" Max="3.5916735839843750e+02"/>
          <Range Index="10" Min="3.3105614781379700e-01" Max="1.9035461425781250e+02"/>
        </Ranges>
      </Class>
      <Class ClassIndex="1">
        <Ranges>
          <Range Index="0" Min="7.4289560317993164e-02" Max="3.2999262809753418e+00"/>
          <Range Index="1" Min="3.9041462540626526e-01" Max="4.9981708526611328e+00"/>
          <Range Index="2" Min="4.0006381273269653e-01" Max="4.9997291564941406e+00"/>
          <Range Index="3" Min="4.4224383309483528e-03" Max="5.9996194839477539e+00"/>
          <Range Index="4" Min="4.0004247426986694e-01" Max="3.1957664489746094e+00"/>
          <Range Index="5" Min="1.6600592061877251e-05" Max="3.1415886878967285e+00"/>
          <Range Index="6" Min="5.0066218376159668e+00" Max="9.9999389648437500e+01"/>
          <Range Index="7" Min="2.2229606628417969e+01" Max="6.9917364501953125e+02"/>
          <Range Index="8" Min="0.0000000000000000e+00" Max="2.4999411010742188e+02"/>
          <Range Index="9" Min="2.2309991836547852e+01" Max="3.9992547607421875e+02"/>
          <Range Index="10" Min="1.5075717866420746e-01" Max="2.9977679443359375e+02"/>
        </Ranges>
      </Class>
      <Class ClassIndex="2">
        <Ranges>
          <Range Index="0" Min="7.4289560317993164e-02" Max="3.2999262809753418e+00"/>
          <Range Index="1" Min="3.9041462540626526e-01" Max="4.9981708526611328e+00"/>
          <Range Index="2" Min="4.0006381273269653e-01" Max="4.9997291564941406e+00"/>
          <Range Index="3" Min="4.4224383309483528e-03" Max="5.9996194839477539e+00"/>
          <Range Index="4" Min="4.0004247426986694e-01" Max="3.1957664489746094e+00"/>
          <Range Index="5" Min="1.6600592061877251e-05" Max="3.1415886878967285e+00"/>
          <Range Index="6" Min="5.0066218376159668e+00" Max="9.9999389648437500e+01"/>
          <Range Index="7" Min="2.2229606628417969e+01" Max="6.9917364501953125e+02"/>
          <Range Index="8" Min="0.0000000000000000e+00" Max="2.4999411010742188e+02"/>
          <Range Index="9" Min="2.2309991836547852e+01" Max="3.9992547607421875e+02"/>
          <Range Index="10" Min="1.5075717866420746e-01" Max="2.9977679443359375e+02"/>
        </Ranges>
      </Class>
    </Transform>
  </Transformations>
  <MVAPdfs/>
  <Weights>
    <Layout NLayers="3">
      <Layer Index="0" NNeurons="12">
        <Neuron NSynapses="16">
          -4.1861522322661754e-01 1.6858381827470803e+00 7.0385493620987605e-01 1.3803906421856122e+00 -1.6266652457161410e+00 -7.3839523611599944e-01 -5.6377132129454377e-01 1.4694002759751124e+00 -1.0017147977710568e+00 -1.3831225161775749e+00 -8.7677046017872096e-01 -3.4678346254464831e-01 -2.6564780479153499e-01 1.6950372627192522e-02 -3.3508706125508547e-01 6.8532752783888096e-01 
        </Neuron>
        <Neuron NSynapses="16">
          -6.1049466474739544e-01 1.2893652569523970e+00 1.0675785733986839e-01 1.1561229463909981e+00 -2.8436895570026599e-01 -6.0131929506076365e-01 1.0262869556378296e+00 -1.1755377343892200e-01 -1.0232332543870444e+00 -1.4029200148504553e-01 1.5768487225418641e+00 -1.0954686126007980e+00 -1.5185304230173906e+00 2.0626580043800954e-01 7.7645597656116483e-01 1.7160444388012501e+00 
        </Neuron>
        <Neuron NSynapses="16">
          -6.4154776627893118e-01 -6.1235954533717507e-01 -1.5899647235418124e-01 -3.5932657386626743e-01 -1.1923312031450934e+00 1.7317060324054787e+00 -1.1583888940744651e+00 6.9376961437786155e-01 1.4400495133983735e+00 1.2095907291002479e+00 1.2100321052748813e+00 -1.2732379198504003e-02 -4.8111431167266672e-01 -7.5368218132983378e-01 6.7309244172323834e-01 2.1938165314250201e-02 
        </Neuron>
        <Neuron NSynapses="16">
          8.0596253323433187e-01 6.3991066980690559e-01 8.3554772451900072e-01 1.3210812452227607e+00 -1.3287626618079444e+00 1.2735610733419438e+00 -1.7457759091660965e+00 -1.0659551060393950e+00 -8.5599454899142258e-01 -1.0799748843991777e+00 1.0441602953113660e+00 3.4697803790218273e-01 -1.5559399477601681e+00 8.1889019219183667e-01 -2.5083141435325490e-01 5.1911131060542903e-01 
        </Neuron>
        <Neuron NSynapses="16">
          1.3159947568591115e+00 -8.2167472204436587e-01 -1.9841757130792509e-01 -1.2842163302861243e+00 7.2718948873311451e-01 -4.9864991766806249e-01 -7.8360118634719922e-01 -1.7306673148024114e+00 8.7222511942882930e-01 1.0611072359675542e+00 6.7273519800115189e-01 4.7098898639838199e-01 -1.6473478581545480e+00 -1.5779296255670583e+00 5.8372294693485061e-01 6.0744056930644930e-01 
        </Neuron>
        <Neuron NSynapses="16">
          4.9480221171055161e-01 1.1649206061575641e-01 -3.0505331144937181e-01 -3.4940001580794311e-01 -1.1127008962179695e-01 -9.0508193717609131e-01 7.7512904098789448e-01 -6.3210448213728965e-01 -6.9029674039989708e-01 -2.3408675805847284e-01 -8.1097888559334530e-01 -2.1331557154492581e-01 9.4875243970256740e-01 -3.4822177671369592e-01 -2.7749435541888773e-01 3.9425177854517734e-01 
        </Neuron>
        <Neuron NSynapses="16">
          -9.0457355380632065e-01 -1.4241046030952276e+00 -1.1134345592248271e+00 -4.5226669966410477e-02 -1.3551626562519414e+00 -1.0854400979352310e+00 8.4584517769683942e-01 1.2452527594540814e+00 -6.2617890715916469e-01 1.1265285044595512e+00 -1.7839107359937542e-01 1.2961240921828743e+00 2.7233088670881488e-02 5.3766308309471034e-01 -1.5627293046900685e+00 3.0838355769469739e-01 
        </Neuron>
        <Neuron NSynapses="16">
          1.5418299854657613e-01 5.5724158314870924e-02 -1.2877324125885943e+00 1.3555139894859256e+00 3.8031327451123670e-01 -1.1173620415421233e-01 1.2697531010448240e+00 -1.8548816024074866e+00 -1.5533418148796616e+00 1.2262439037884158e-01 -5.3902913479673686e-01 3.1058377306348355e+00 8.1549686897144635e-01 -1.5429819653448540e-01 -7.8278753623263475e-01 9.2208306662761319e-01 
        </Neuron>
        <Neuron NSynapses="16">
          -1.6189950240717441e+00 9.4022391423676777e-01 3.9534310231007791e-01 -1.9466557290167896e+00 4.2636900586470455e-01 -1.1420034727596178e+00 1.9365685571908586e-01 1.0069520123498581e+00 1.5635177070673902e+00 -1.7207429890941179e+00 1.9281973956957907e-01 -3.2725193809088238e-01 1.1765421781411540e+00 2.7575952428693436e-02 -1.6837287693744485e+00 2.5150368845847920e-01 
        </Neuron>
        <Neuron NSynapses="16">
          -1.5300656498207961e+00 1.0438107133705909e+00 1.2491583784317011e+00 -7.1442388455820671e-01 -3.2595272772000311e-01 6.6050913059945815e-01 -1.0240989294298972e+00 9.7306142529725692e-02 1.6983886393957093e+00 -6.2674552779013493e-01 -9.8613089843963264e-01 4.0661590575319817e+00 7.2307742881758152e-01 3.5828506791195047e-01 5.4736799841104666e-01 -8.5651510100880446e-01 
        </Neuron>
        <Neuron NSynapses="16">
          1.5634985926573752e+00 6.1904966516324267e-01 6.3236541804808444e-01 4.3360518891128080e-01 9.8732902190534211e-01 1.3821407048161471e-01 -4.0666959521437052e-01 4.8243918476221287e-01 -1.0984325520533755e+00 -8.0829349238197878e-01 1.2789956875405164e+00 1.6555434415133341e+00 -5.0336386934572330e-01 1.2218564644690493e+00 1.3350133871958514e+00 -1.2619641103875097e+00 
        </Neuron>
        <Neuron NSynapses="16">
          7.9994437038185329e-01 7.1957141702757654e-01 1.2459134294012003e-01 -1.4188110227194584e+00 -1.7045318764581254e+00 -1.6884947347014032e-01 1.1671470878771211e+00 -5.7523326350944637e-01 -2.2350957883323549e-01 1.0649527422373646e-01 8.0384893029346305e-01 7.9007764884185923e+00 -4.3060302609175766e-01 1.9985787057211399e-01 -2.9008312417793214e-01 -5.6684160671778439e-01 
        </Neuron>
      </Layer>
      <Layer Index="1" NNeurons="17">
        <Neuron NSynapses="1">
          5.0256490303593210e-03 
        </Neuron>
        <Neuron NSynapses="1">
          1.1125988986277247e-02 
        </Neuron>
        <Neuron NSynapses="1">
          -3.7463022819891510e-04 
        </Neuron>
        <Neuron NSynapses="1">
          -8.2462251512564338e-03 
        </Neuron>
        <Neuron NSynapses="1">
          -7.0765517483930879e-04 
        </Neuron>
        <Neuron NSynapses="1">
          -8.1185164128565418e-04 
        </Neuron>
        <Neuron NSynapses="1">
          -6.8421000704738701e-03 
        </Neuron>
        <Neuron NSynapses="1">
          1.1120698406688007e-04 
        </Neuron>
        <Neuron NSynapses="1">
          -1.2161271936606832e-03 
        </Neuron>
        <Neuron NSynapses="1">
          1.2220151411712631e-02 
        </Neuron>
        <Neuron NSynapses="1">
          5.1724184723000316e-04 
        </Neuron>
        <Neuron NSynapses="1">
          -2.6603314953141682e-01 
        </Neuron>
        <Neuron NSynapses="1">
          7.5955420682519853e-04 
        </Neuron>
        <Neuron NSynapses="1">
          5.7230943033396188e-03 
        </Neuron>
        <Neuron NSynapses="1">
          -3.3627584584044589e-03 
        </Neuron>
        <Neuron NSynapses="1">
          -6.9456888912447620e-04 
        </Neuron>
        <Neuron NSynapses="1">
          2.5678175824685656e-01 
        </Neuron>
      </Layer>
      <Layer Index="2" NNeurons="1">
        <Neuron NSynapses="0"/>
      </Layer>
    </Layout>
  </Weights>
</MethodSetup>
