<?xml version="1.0"?>
<MethodSetup Method="MLP::MLPBFGS">
  <GeneralInfo>
    <Info name="TMVA Release" value="4.1.2 [262402]"/>
    <Info name="ROOT Release" value="5.32/04 [335876]"/>
    <Info name="Creator" value="lpernie"/>
    <Info name="Date" value="Fri May 13 11:43:46 2016"/>
    <Info name="Host" value="Linux login01.brazos.tamu.edu 2.6.32-431.23.3.el6.x86_64 #1 SMP Thu Jul 31 17:20:51 UTC 2014 x86_64 x86_64 x86_64 GNU/Linux"/>
    <Info name="Dir" value="/home/lpernie/Hhh/delphes/diHiggs/MVAs"/>
    <Info name="Training events" value="15654"/>
    <Info name="TrainingTime" value="7.68580885e+02"/>
    <Info name="AnalysisType" value="Classification"/>
  </GeneralInfo>
  <Options>
    <Option name="NCycles" modified="Yes">600</Option>
    <Option name="HiddenLayers" modified="Yes">N+5</Option>
    <Option name="NeuronType" modified="Yes">tanh</Option>
    <Option name="RandomSeed" modified="No">1</Option>
    <Option name="EstimatorType" modified="No">MSE</Option>
    <Option name="NeuronInputType" modified="No">sum</Option>
    <Option name="V" modified="Yes">False</Option>
    <Option name="VerbosityLevel" modified="No">Default</Option>
    <Option name="VarTransform" modified="Yes">N</Option>
    <Option name="H" modified="Yes">True</Option>
    <Option name="CreateMVAPdfs" modified="No">False</Option>
    <Option name="IgnoreNegWeightsInTraining" modified="No">False</Option>
    <Option name="TrainingMethod" modified="Yes">BFGS</Option>
    <Option name="LearningRate" modified="No">2.000000e-02</Option>
    <Option name="DecayRate" modified="No">1.000000e-02</Option>
    <Option name="TestRate" modified="Yes">5</Option>
    <Option name="EpochMonitoring" modified="No">False</Option>
    <Option name="Sampling" modified="No">1.000000e+00</Option>
    <Option name="SamplingEpoch" modified="No">1.000000e+00</Option>
    <Option name="SamplingImportance" modified="No">1.000000e+00</Option>
    <Option name="SamplingTraining" modified="No">True</Option>
    <Option name="SamplingTesting" modified="No">False</Option>
    <Option name="ResetStep" modified="No">50</Option>
    <Option name="Tau" modified="No">3.000000e+00</Option>
    <Option name="BPMode" modified="No">sequential</Option>
    <Option name="BatchSize" modified="No">-1</Option>
    <Option name="ConvergenceImprove" modified="No">1.000000e-30</Option>
    <Option name="ConvergenceTests" modified="No">-1</Option>
    <Option name="UseRegulator" modified="Yes">False</Option>
    <Option name="UpdateLimit" modified="No">10000</Option>
    <Option name="CalculateErrors" modified="No">False</Option>
    <Option name="WeightRange" modified="No">1.000000e+00</Option>
  </Options>
  <Variables NVar="11">
    <Variable VarIndex="0" Expression="dR_l1l2" Label="dR_l1l2" Title="dR_l1l2" Unit="" Internal="dR_l1l2" Type="F" Min="7.44008347e-02" Max="3.29884553e+00"/>
    <Variable VarIndex="1" Expression="dR_b1b2" Label="dR_b1b2" Title="dR_b1b2" Unit="" Internal="dR_b1b2" Type="F" Min="3.80652487e-01" Max="4.95207596e+00"/>
    <Variable VarIndex="2" Expression="dR_bl" Label="dR_bl" Title="dR_bl" Unit="" Internal="dR_bl" Type="F" Min="4.01666284e-01" Max="4.83203697e+00"/>
    <Variable VarIndex="3" Expression="dR_l1l2b1b2" Label="dR_l1l2b1b2" Title="dR_l1l2b1b2" Unit="" Internal="dR_l1l2b1b2" Type="F" Min="3.55969779e-02" Max="5.91814280e+00"/>
    <Variable VarIndex="4" Expression="MINdR_bl" Label="MINdR_bl" Title="MINdR_bl" Unit="" Internal="MINdR_bl" Type="F" Min="4.00697887e-01" Max="3.17235708e+00"/>
    <Variable VarIndex="5" Expression="dphi_l1l2b1b2" Label="dphi_l1l2b1b2" Title="dphi_l1l2b1b2" Unit="" Internal="dphi_l1l2b1b2" Type="F" Min="5.25824726e-04" Max="3.14149976e+00"/>
    <Variable VarIndex="6" Expression="mass_l1l2" Label="mass_l1l2" Title="mass_l1l2" Unit="" Internal="mass_l1l2" Type="F" Min="5.02512503e+00" Max="9.99966583e+01"/>
    <Variable VarIndex="7" Expression="mass_b1b2" Label="mass_b1b2" Title="mass_b1b2" Unit="" Internal="mass_b1b2" Type="F" Min="2.20024567e+01" Max="6.88641541e+02"/>
    <Variable VarIndex="8" Expression="mass_trans" Label="mass_trans" Title="mass_trans" Unit="" Internal="mass_trans" Type="F" Min="1.27812997e-02" Max="2.49781052e+02"/>
    <Variable VarIndex="9" Expression="MT2" Label="MT2" Title="MT2" Unit="" Internal="MT2" Type="F" Min="2.75859623e+01" Max="3.95626099e+02"/>
    <Variable VarIndex="10" Expression="pt_b1b2" Label="pt_b1b2" Title="pt_b1b2" Unit="" Internal="pt_b1b2" Type="F" Min="3.31056148e-01" Max="2.98342682e+02"/>
  </Variables>
  <Spectators NSpec="0"/>
  <Classes NClass="2">
    <Class Name="Signal" Index="0"/>
    <Class Name="Background" Index="1"/>
  </Classes>
  <Transformations NTransformations="1">
    <Transform Name="Normalize">
      <Selection>
        <Input NInputs="11">
          <Input Type="Variable" Label="dR_l1l2" Expression="dR_l1l2"/>
          <Input Type="Variable" Label="dR_b1b2" Expression="dR_b1b2"/>
          <Input Type="Variable" Label="dR_bl" Expression="dR_bl"/>
          <Input Type="Variable" Label="dR_l1l2b1b2" Expression="dR_l1l2b1b2"/>
          <Input Type="Variable" Label="MINdR_bl" Expression="MINdR_bl"/>
          <Input Type="Variable" Label="dphi_l1l2b1b2" Expression="dphi_l1l2b1b2"/>
          <Input Type="Variable" Label="mass_l1l2" Expression="mass_l1l2"/>
          <Input Type="Variable" Label="mass_b1b2" Expression="mass_b1b2"/>
          <Input Type="Variable" Label="mass_trans" Expression="mass_trans"/>
          <Input Type="Variable" Label="MT2" Expression="MT2"/>
          <Input Type="Variable" Label="pt_b1b2" Expression="pt_b1b2"/>
        </Input>
        <Output NOutputs="11">
          <Output Type="Variable" Label="dR_l1l2" Expression="dR_l1l2"/>
          <Output Type="Variable" Label="dR_b1b2" Expression="dR_b1b2"/>
          <Output Type="Variable" Label="dR_bl" Expression="dR_bl"/>
          <Output Type="Variable" Label="dR_l1l2b1b2" Expression="dR_l1l2b1b2"/>
          <Output Type="Variable" Label="MINdR_bl" Expression="MINdR_bl"/>
          <Output Type="Variable" Label="dphi_l1l2b1b2" Expression="dphi_l1l2b1b2"/>
          <Output Type="Variable" Label="mass_l1l2" Expression="mass_l1l2"/>
          <Output Type="Variable" Label="mass_b1b2" Expression="mass_b1b2"/>
          <Output Type="Variable" Label="mass_trans" Expression="mass_trans"/>
          <Output Type="Variable" Label="MT2" Expression="MT2"/>
          <Output Type="Variable" Label="pt_b1b2" Expression="pt_b1b2"/>
        </Output>
      </Selection>
      <Class ClassIndex="0">
        <Ranges>
          <Range Index="0" Min="1.2425758689641953e-01" Max="3.2941615581512451e+00"/>
          <Range Index="1" Min="4.3396636843681335e-01" Max="4.7950205802917480e+00"/>
          <Range Index="2" Min="4.0166628360748291e-01" Max="4.6858606338500977e+00"/>
          <Range Index="3" Min="6.7419961094856262e-02" Max="5.5010304450988770e+00"/>
          <Range Index="4" Min="4.0074941515922546e-01" Max="2.9216916561126709e+00"/>
          <Range Index="5" Min="5.9523712843656540e-04" Max="3.1403400897979736e+00"/>
          <Range Index="6" Min="5.0251250267028809e+00" Max="9.9521842956542969e+01"/>
          <Range Index="7" Min="2.2508615493774414e+01" Max="6.2125189208984375e+02"/>
          <Range Index="8" Min="1.0090249031782150e-01" Max="2.4878497314453125e+02"/>
          <Range Index="9" Min="2.7585962295532227e+01" Max="3.9562609863281250e+02"/>
          <Range Index="10" Min="3.3105614781379700e-01" Max="2.3697354125976562e+02"/>
        </Ranges>
      </Class>
      <Class ClassIndex="1">
        <Ranges>
          <Range Index="0" Min="7.4400834739208221e-02" Max="3.2988455295562744e+00"/>
          <Range Index="1" Min="3.8065248727798462e-01" Max="4.9520759582519531e+00"/>
          <Range Index="2" Min="4.0456560254096985e-01" Max="4.8320369720458984e+00"/>
          <Range Index="3" Min="3.5596977919340134e-02" Max="5.9181427955627441e+00"/>
          <Range Index="4" Min="4.0069788694381714e-01" Max="3.1723570823669434e+00"/>
          <Range Index="5" Min="5.2582472562789917e-04" Max="3.1414997577667236e+00"/>
          <Range Index="6" Min="5.0279002189636230e+00" Max="9.9996658325195312e+01"/>
          <Range Index="7" Min="2.2002456665039062e+01" Max="6.8864154052734375e+02"/>
          <Range Index="8" Min="1.2781299650669098e-02" Max="2.4978105163574219e+02"/>
          <Range Index="9" Min="3.2479320526123047e+01" Max="3.9131411743164062e+02"/>
          <Range Index="10" Min="1.3758137226104736e+00" Max="2.9834268188476562e+02"/>
        </Ranges>
      </Class>
      <Class ClassIndex="2">
        <Ranges>
          <Range Index="0" Min="7.4400834739208221e-02" Max="3.2988455295562744e+00"/>
          <Range Index="1" Min="3.8065248727798462e-01" Max="4.9520759582519531e+00"/>
          <Range Index="2" Min="4.0166628360748291e-01" Max="4.8320369720458984e+00"/>
          <Range Index="3" Min="3.5596977919340134e-02" Max="5.9181427955627441e+00"/>
          <Range Index="4" Min="4.0069788694381714e-01" Max="3.1723570823669434e+00"/>
          <Range Index="5" Min="5.2582472562789917e-04" Max="3.1414997577667236e+00"/>
          <Range Index="6" Min="5.0251250267028809e+00" Max="9.9996658325195312e+01"/>
          <Range Index="7" Min="2.2002456665039062e+01" Max="6.8864154052734375e+02"/>
          <Range Index="8" Min="1.2781299650669098e-02" Max="2.4978105163574219e+02"/>
          <Range Index="9" Min="2.7585962295532227e+01" Max="3.9562609863281250e+02"/>
          <Range Index="10" Min="3.3105614781379700e-01" Max="2.9834268188476562e+02"/>
        </Ranges>
      </Class>
    </Transform>
  </Transformations>
  <MVAPdfs/>
  <Weights>
    <Layout NLayers="3">
      <Layer Index="0" NNeurons="12">
        <Neuron NSynapses="16">
          -1.3890298864628843e+00 1.8365142216989740e+00 2.0211117219936195e-01 -4.1951598816863789e-01 -2.7434834611986769e+00 -3.4048344855294016e-01 9.8139027119349997e-01 2.7438488897763271e+00 -1.6611884908792285e+00 -5.1757992076958553e-02 -2.5827447019173233e+00 -4.6708892751179149e-01 -1.8673596022129226e+00 -4.5399577447068318e-01 -6.3577544340736081e-01 3.0875621964876729e+00 
        </Neuron>
        <Neuron NSynapses="16">
          -3.2659610201280849e+00 1.3558650964564678e+00 2.0091444023892451e+00 -1.3708948296396033e+00 -2.1038267624916851e+00 3.2699859605464376e-01 -5.2506064815407927e-01 1.2430617865291698e+00 -8.2118666850134603e-01 -1.8851751486515105e+00 2.8525209967340488e+00 -1.6135569161231760e+00 -2.5477110083325298e+00 3.2781589701327224e-01 1.0616304179068154e+00 2.3730798312831656e+00 
        </Neuron>
        <Neuron NSynapses="16">
          -6.9202071192143033e-01 -6.2719781812726083e-01 -5.5440900807963778e-01 8.6533243811267466e-02 -7.2944002169309652e-01 1.2593086030080036e-03 -9.5833069230839385e-01 6.6841985701230355e-01 1.3409798604686023e+00 4.9825481199418176e-01 1.8760993729996018e+00 3.1062975044192898e-01 1.8719104230820710e-01 -2.5537283414685095e+00 1.5560145091490560e+00 1.0897447150357467e+00 
        </Neuron>
        <Neuron NSynapses="16">
          -5.1728812930550316e-02 7.8588069476037470e-01 2.2304746862428657e+00 -6.0283922462975381e-01 -2.7300217029491565e+00 2.5739253306983245e-01 -1.9371183733783757e+00 -5.4405563234496385e-02 -1.1734920090333965e+00 -3.3817574387564804e+00 1.1761083878709622e+00 8.2571340978198315e-01 -1.7804445024833457e+00 3.2104870952129300e-02 7.0045204988125442e-01 3.4123438891837012e+00 
        </Neuron>
        <Neuron NSynapses="16">
          1.3318606074540522e+00 -1.0691895152428700e-01 -2.2367161032343645e+00 -2.8580558136528644e-01 6.4759335111847904e-01 -9.3490139729209332e-01 6.4030024195644142e-01 -8.3099399808487950e-01 8.8531410228231922e-01 1.8042910554695188e+00 1.3962443569959710e+00 4.1164981794692201e-01 -1.0363463036769704e+00 -2.0266684580527556e+00 -2.2535000956846205e+00 -1.1055569339551825e+00 
        </Neuron>
        <Neuron NSynapses="16">
          1.5905489383547300e+00 -3.5171353203023156e-02 1.1989354260926033e+00 4.3742609823610068e-01 -1.0437649930072115e+00 -1.5423031322640540e-01 2.2273383140199829e+00 -5.7384082247530599e-01 -1.2829004194683959e+00 -1.0107750287394113e+00 -7.9306500950878545e-01 -4.3559169409589626e-01 1.8207175011718564e+00 -1.7098204666349346e+00 -1.9465676174476632e+00 1.3798348738821533e+00 
        </Neuron>
        <Neuron NSynapses="16">
          7.2731072421762066e-01 -1.3077546833695810e+00 -1.6165385761826128e+00 -9.5015414704545642e-01 -3.0406728123107807e-01 -1.9713547535048954e+00 1.4601843531663796e+00 1.1045010756593783e+00 -1.6942752942300849e+00 8.9576489456695885e-01 1.4065296946440899e+00 1.7747912782717530e+00 -2.3371187832372087e-01 -9.5912972879559144e-01 -2.0853392257182439e+00 1.1904695475681332e-01 
        </Neuron>
        <Neuron NSynapses="16">
          4.7622721893074219e-02 9.0017506111745749e-01 2.6479411616466220e-01 1.4256591493183215e+00 -6.1400289793104124e-01 -7.6847026385591022e-01 1.0381000131425697e+00 -1.6714531694330703e-01 -2.4783680696977450e+00 -1.5238178463659344e+00 -3.6660825238109790e-01 5.2623435312241549e+00 2.3517407888236627e-02 -1.2720104846489436e-01 -5.6863176746960864e-01 7.3631467258920869e-01 
        </Neuron>
        <Neuron NSynapses="16">
          -2.8884756734314774e+00 5.7920400275529049e-01 5.9540511243325767e-01 -5.3773714151788390e+00 1.7422623436768958e-01 -5.2420923425572985e+00 1.3733513331505731e+00 4.4269794371224247e+00 1.1115168518417617e+00 -1.2338397380475035e+00 5.4710779668362619e-01 -1.8698967323645094e-01 1.7270881248222065e+00 5.3040947690667406e-01 -1.7714191437146185e+00 -1.6442423484709856e-01 
        </Neuron>
        <Neuron NSynapses="16">
          -6.3061212351645080e-02 1.3704723855040641e+00 1.5843690813796285e+00 -1.4597287301628830e+00 -3.8516909762389595e-01 -1.8519704910210768e+00 -1.0010310180627073e+00 7.1682156734861036e-01 1.3157406201694875e+00 -1.2641881695843409e+00 -1.2353760322659877e+00 6.9587430430251365e+00 4.4235259515231778e-01 -1.6840841355927708e-01 1.3793677359761867e+00 -2.7668738807729798e-01 
        </Neuron>
        <Neuron NSynapses="16">
          1.8540225685974430e+00 5.8247918938120591e-01 -3.7845756214252027e-02 -1.1804627259275427e-01 2.1491758894213686e+00 -5.6821898506853971e-02 -1.2600958558790656e+00 -5.1935091901724162e-01 -1.5469803879303821e+00 -1.1956320906523066e+00 -1.0354380396891205e-01 1.9305211110706031e+00 1.5253573323138259e-01 3.7602999957833499e-01 9.3007175872161452e-02 -2.7925994720419673e+00 
        </Neuron>
        <Neuron NSynapses="16">
          -1.0751763670452234e-01 -3.0553385935298709e+00 8.5620604858245453e-01 -2.9317167102763970e+00 -1.0355999002896534e+00 -3.2963261385877809e+00 3.6183375152258166e+00 -5.6471053955789619e-01 -2.0989536061232780e-01 -2.0518086157531679e+00 -3.4957292143748109e-01 1.1142497458017500e+01 8.7259922543955892e-01 -1.0682531773718085e+00 -5.0155120489360288e+00 9.4954167360212627e-01 
        </Neuron>
      </Layer>
      <Layer Index="1" NNeurons="17">
        <Neuron NSynapses="1">
          -4.1421286212054771e-02 
        </Neuron>
        <Neuron NSynapses="1">
          3.5217419827267776e-01 
        </Neuron>
        <Neuron NSynapses="1">
          -7.1776019178888928e-02 
        </Neuron>
        <Neuron NSynapses="1">
          -9.0613721946152359e-02 
        </Neuron>
        <Neuron NSynapses="1">
          -1.5945548676536864e-01 
        </Neuron>
        <Neuron NSynapses="1">
          9.3555939352696571e-02 
        </Neuron>
        <Neuron NSynapses="1">
          2.6834853372879008e-01 
        </Neuron>
        <Neuron NSynapses="1">
          -3.7775215233579559e-02 
        </Neuron>
        <Neuron NSynapses="1">
          2.2354411375361878e-02 
        </Neuron>
        <Neuron NSynapses="1">
          -6.4343119451190423e-02 
        </Neuron>
        <Neuron NSynapses="1">
          -2.5929733135044174e-02 
        </Neuron>
        <Neuron NSynapses="1">
          -3.9489172685290252e-01 
        </Neuron>
        <Neuron NSynapses="1">
          1.9620361362607128e-02 
        </Neuron>
        <Neuron NSynapses="1">
          -1.7581778796160810e-02 
        </Neuron>
        <Neuron NSynapses="1">
          5.2581810107242011e-01 
        </Neuron>
        <Neuron NSynapses="1">
          -1.3815550822883918e-01 
        </Neuron>
        <Neuron NSynapses="1">
          9.7158748271755635e-01 
        </Neuron>
      </Layer>
      <Layer Index="2" NNeurons="1">
        <Neuron NSynapses="0"/>
      </Layer>
    </Layout>
  </Weights>
</MethodSetup>
