<?xml version="1.0"?>
<MethodSetup Method="MLP::MLP">
  <GeneralInfo>
    <Info name="TMVA Release" value="4.1.2 [262402]"/>
    <Info name="ROOT Release" value="5.32/04 [335876]"/>
    <Info name="Creator" value="lpernie"/>
    <Info name="Date" value="Fri Jul 15 14:29:15 2016"/>
    <Info name="Host" value="Linux login01.brazos.tamu.edu 2.6.32-431.23.3.el6.x86_64 #1 SMP Thu Jul 31 17:20:51 UTC 2014 x86_64 x86_64 x86_64 GNU/Linux"/>
    <Info name="Dir" value="/home/lpernie/Hhh/delphes/diHiggs/MVAs"/>
    <Info name="Training events" value="192741"/>
    <Info name="TrainingTime" value="2.31673992e+03"/>
    <Info name="AnalysisType" value="Classification"/>
  </GeneralInfo>
  <Options>
    <Option name="NCycles" modified="Yes">600</Option>
    <Option name="HiddenLayers" modified="Yes">N+5</Option>
    <Option name="NeuronType" modified="Yes">tanh</Option>
    <Option name="RandomSeed" modified="No">1</Option>
    <Option name="EstimatorType" modified="No">MSE</Option>
    <Option name="NeuronInputType" modified="No">sum</Option>
    <Option name="V" modified="Yes">False</Option>
    <Option name="VerbosityLevel" modified="No">Default</Option>
    <Option name="VarTransform" modified="Yes">N</Option>
    <Option name="H" modified="Yes">True</Option>
    <Option name="CreateMVAPdfs" modified="No">False</Option>
    <Option name="IgnoreNegWeightsInTraining" modified="No">False</Option>
    <Option name="TrainingMethod" modified="No">BP</Option>
    <Option name="LearningRate" modified="No">2.000000e-02</Option>
    <Option name="DecayRate" modified="No">1.000000e-02</Option>
    <Option name="TestRate" modified="Yes">5</Option>
    <Option name="EpochMonitoring" modified="No">False</Option>
    <Option name="Sampling" modified="No">1.000000e+00</Option>
    <Option name="SamplingEpoch" modified="No">1.000000e+00</Option>
    <Option name="SamplingImportance" modified="No">1.000000e+00</Option>
    <Option name="SamplingTraining" modified="No">True</Option>
    <Option name="SamplingTesting" modified="No">False</Option>
    <Option name="ResetStep" modified="No">50</Option>
    <Option name="Tau" modified="No">3.000000e+00</Option>
    <Option name="BPMode" modified="No">sequential</Option>
    <Option name="BatchSize" modified="No">-1</Option>
    <Option name="ConvergenceImprove" modified="No">1.000000e-30</Option>
    <Option name="ConvergenceTests" modified="No">-1</Option>
    <Option name="UseRegulator" modified="Yes">False</Option>
    <Option name="UpdateLimit" modified="No">10000</Option>
    <Option name="CalculateErrors" modified="No">False</Option>
    <Option name="WeightRange" modified="No">1.000000e+00</Option>
  </Options>
  <Variables NVar="11">
    <Variable VarIndex="0" Expression="dR_l1l2" Label="dR_l1l2" Title="dR_l1l2" Unit="" Internal="dR_l1l2" Type="F" Min="7.06459358e-02" Max="3.29995322e+00"/>
    <Variable VarIndex="1" Expression="dR_b1b2" Label="dR_b1b2" Title="dR_b1b2" Unit="" Internal="dR_b1b2" Type="F" Min="3.77909929e-01" Max="4.99817085e+00"/>
    <Variable VarIndex="2" Expression="dR_bl" Label="dR_bl" Title="dR_bl" Unit="" Internal="dR_bl" Type="F" Min="4.00014162e-01" Max="4.99972916e+00"/>
    <Variable VarIndex="3" Expression="dR_l1l2b1b2" Label="dR_l1l2b1b2" Title="dR_l1l2b1b2" Unit="" Internal="dR_l1l2b1b2" Type="F" Min="4.42243833e-03" Max="5.99096441e+00"/>
    <Variable VarIndex="4" Expression="MINdR_bl" Label="MINdR_bl" Title="MINdR_bl" Unit="" Internal="MINdR_bl" Type="F" Min="4.00014162e-01" Max="3.19927812e+00"/>
    <Variable VarIndex="5" Expression="dphi_l1l2b1b2" Label="dphi_l1l2b1b2" Title="dphi_l1l2b1b2" Unit="" Internal="dphi_l1l2b1b2" Type="F" Min="1.38563655e-05" Max="3.14159226e+00"/>
    <Variable VarIndex="6" Expression="mass_l1l2" Label="mass_l1l2" Title="mass_l1l2" Unit="" Internal="mass_l1l2" Type="F" Min="5.00372505e+00" Max="9.99998016e+01"/>
    <Variable VarIndex="7" Expression="mass_b1b2" Label="mass_b1b2" Title="mass_b1b2" Unit="" Internal="mass_b1b2" Type="F" Min="2.22057133e+01" Max="6.99396729e+02"/>
    <Variable VarIndex="8" Expression="mass_trans" Label="mass_trans" Title="mass_trans" Unit="" Internal="mass_trans" Type="F" Min="0.00000000e+00" Max="2.49967041e+02"/>
    <Variable VarIndex="9" Expression="MT2" Label="MT2" Title="MT2" Unit="" Internal="MT2" Type="F" Min="2.23099918e+01" Max="3.99818787e+02"/>
    <Variable VarIndex="10" Expression="pt_b1b2" Label="pt_b1b2" Title="pt_b1b2" Unit="" Internal="pt_b1b2" Type="F" Min="1.50757179e-01" Max="2.99963409e+02"/>
  </Variables>
  <Spectators NSpec="0"/>
  <Classes NClass="2">
    <Class Name="Signal" Index="0"/>
    <Class Name="Background" Index="1"/>
  </Classes>
  <Transformations NTransformations="1">
    <Transform Name="Normalize">
      <Selection>
        <Input NInputs="11">
          <Input Type="Variable" Label="dR_l1l2" Expression="dR_l1l2"/>
          <Input Type="Variable" Label="dR_b1b2" Expression="dR_b1b2"/>
          <Input Type="Variable" Label="dR_bl" Expression="dR_bl"/>
          <Input Type="Variable" Label="dR_l1l2b1b2" Expression="dR_l1l2b1b2"/>
          <Input Type="Variable" Label="MINdR_bl" Expression="MINdR_bl"/>
          <Input Type="Variable" Label="dphi_l1l2b1b2" Expression="dphi_l1l2b1b2"/>
          <Input Type="Variable" Label="mass_l1l2" Expression="mass_l1l2"/>
          <Input Type="Variable" Label="mass_b1b2" Expression="mass_b1b2"/>
          <Input Type="Variable" Label="mass_trans" Expression="mass_trans"/>
          <Input Type="Variable" Label="MT2" Expression="MT2"/>
          <Input Type="Variable" Label="pt_b1b2" Expression="pt_b1b2"/>
        </Input>
        <Output NOutputs="11">
          <Output Type="Variable" Label="dR_l1l2" Expression="dR_l1l2"/>
          <Output Type="Variable" Label="dR_b1b2" Expression="dR_b1b2"/>
          <Output Type="Variable" Label="dR_bl" Expression="dR_bl"/>
          <Output Type="Variable" Label="dR_l1l2b1b2" Expression="dR_l1l2b1b2"/>
          <Output Type="Variable" Label="MINdR_bl" Expression="MINdR_bl"/>
          <Output Type="Variable" Label="dphi_l1l2b1b2" Expression="dphi_l1l2b1b2"/>
          <Output Type="Variable" Label="mass_l1l2" Expression="mass_l1l2"/>
          <Output Type="Variable" Label="mass_b1b2" Expression="mass_b1b2"/>
          <Output Type="Variable" Label="mass_trans" Expression="mass_trans"/>
          <Output Type="Variable" Label="MT2" Expression="MT2"/>
          <Output Type="Variable" Label="pt_b1b2" Expression="pt_b1b2"/>
        </Output>
      </Selection>
      <Class ClassIndex="0">
        <Ranges>
          <Range Index="0" Min="7.3659159243106842e-02" Max="3.2757744789123535e+00"/>
          <Range Index="1" Min="3.7790992856025696e-01" Max="4.3534011840820312e+00"/>
          <Range Index="2" Min="4.7084844112396240e-01" Max="4.8179116249084473e+00"/>
          <Range Index="3" Min="9.0839028358459473e-02" Max="5.6119232177734375e+00"/>
          <Range Index="4" Min="4.1561868786811829e-01" Max="3.1882398128509521e+00"/>
          <Range Index="5" Min="5.0385412760078907e-03" Max="3.1415781974792480e+00"/>
          <Range Index="6" Min="5.0159564018249512e+00" Max="9.7036926269531250e+01"/>
          <Range Index="7" Min="2.2693941116333008e+01" Max="6.9005133056640625e+02"/>
          <Range Index="8" Min="0.0000000000000000e+00" Max="2.4925128173828125e+02"/>
          <Range Index="9" Min="4.9734783172607422e+01" Max="3.9592901611328125e+02"/>
          <Range Index="10" Min="3.6533679962158203e+00" Max="2.9649188232421875e+02"/>
        </Ranges>
      </Class>
      <Class ClassIndex="1">
        <Ranges>
          <Range Index="0" Min="7.0645935833454132e-02" Max="3.2999532222747803e+00"/>
          <Range Index="1" Min="3.8928887248039246e-01" Max="4.9981708526611328e+00"/>
          <Range Index="2" Min="4.0001416206359863e-01" Max="4.9997291564941406e+00"/>
          <Range Index="3" Min="4.4224383309483528e-03" Max="5.9909644126892090e+00"/>
          <Range Index="4" Min="4.0001416206359863e-01" Max="3.1992781162261963e+00"/>
          <Range Index="5" Min="1.3856365512765478e-05" Max="3.1415922641754150e+00"/>
          <Range Index="6" Min="5.0037250518798828e+00" Max="9.9999801635742188e+01"/>
          <Range Index="7" Min="2.2205713272094727e+01" Max="6.9939672851562500e+02"/>
          <Range Index="8" Min="0.0000000000000000e+00" Max="2.4996704101562500e+02"/>
          <Range Index="9" Min="2.2309991836547852e+01" Max="3.9981878662109375e+02"/>
          <Range Index="10" Min="1.5075717866420746e-01" Max="2.9996340942382812e+02"/>
        </Ranges>
      </Class>
      <Class ClassIndex="2">
        <Ranges>
          <Range Index="0" Min="7.0645935833454132e-02" Max="3.2999532222747803e+00"/>
          <Range Index="1" Min="3.7790992856025696e-01" Max="4.9981708526611328e+00"/>
          <Range Index="2" Min="4.0001416206359863e-01" Max="4.9997291564941406e+00"/>
          <Range Index="3" Min="4.4224383309483528e-03" Max="5.9909644126892090e+00"/>
          <Range Index="4" Min="4.0001416206359863e-01" Max="3.1992781162261963e+00"/>
          <Range Index="5" Min="1.3856365512765478e-05" Max="3.1415922641754150e+00"/>
          <Range Index="6" Min="5.0037250518798828e+00" Max="9.9999801635742188e+01"/>
          <Range Index="7" Min="2.2205713272094727e+01" Max="6.9939672851562500e+02"/>
          <Range Index="8" Min="0.0000000000000000e+00" Max="2.4996704101562500e+02"/>
          <Range Index="9" Min="2.2309991836547852e+01" Max="3.9981878662109375e+02"/>
          <Range Index="10" Min="1.5075717866420746e-01" Max="2.9996340942382812e+02"/>
        </Ranges>
      </Class>
    </Transform>
  </Transformations>
  <MVAPdfs/>
  <Weights>
    <Layout NLayers="3">
      <Layer Index="0" NNeurons="12">
        <Neuron NSynapses="16">
          -6.0015087802043912e-02 4.4769379221087668e-01 4.5799905257933976e-01 1.3746370771243341e+00 -1.2706946911067372e+00 -7.4280895660719504e-01 3.6451225527614967e-01 7.9162170071475846e-01 -1.7638769229488241e-01 -1.1180608978523465e+00 -1.4722652435339971e+00 -6.2642589277677940e-01 -2.4351576354573376e-01 -3.1571003081242853e-02 -6.5136538553694912e-01 4.4770940035732516e-02 
        </Neuron>
        <Neuron NSynapses="16">
          -2.7082704849362367e+00 1.2932757656753011e+00 7.3708041541804811e-02 9.4160662190361311e-01 -2.8204809129400682e-01 -4.1007755998563988e-01 -1.7248192073582886e+00 -1.0372776118850409e-02 -9.2282726342645394e-01 -2.0408532497273105e-01 -1.8820212151712729e-01 -8.4979899153436012e-01 -1.3947772844622885e+00 1.0835759604491253e-01 1.5700114362500022e+00 3.4044306317419353e+00 
        </Neuron>
        <Neuron NSynapses="16">
          8.9575391307624055e-02 -3.1371560480008015e-01 -1.2481938447342576e-01 -7.3620114669913450e-01 -1.0427247291238713e+00 1.8993498489144012e+00 -7.2906220817024103e-01 7.1800049042249248e-01 1.3550614103909187e+00 8.7566961231976026e-01 9.3235326360566884e-01 -5.3719204471290394e-01 -2.3138350934490171e-01 -1.3961681290324006e+00 5.4199983666625617e-01 -9.7208225538724191e-01 
        </Neuron>
        <Neuron NSynapses="16">
          1.4058381438426255e+00 1.1280122176385390e+00 2.1831780138187507e-01 6.5865941620947710e-01 -1.2587690672832987e+00 1.3558290258716106e+00 -2.9462444995047959e-01 -1.1430502563844804e+00 -8.9657717073154841e-01 -1.4420598150301784e+00 1.7955251458585677e+00 -3.5349736884046479e-01 -1.2640369856749931e+00 4.4161493207318120e-01 2.7307249487524526e-01 -2.9491328971071851e-01 
        </Neuron>
        <Neuron NSynapses="16">
          9.5220146438593234e-01 -4.0541227227851834e-02 -6.9677727386347815e-03 -1.2247785435654648e+00 8.4832602623771136e-01 -2.4806004505270357e-01 1.0651494463069146e-01 -1.5827449250643515e+00 1.0993333495047697e+00 5.5437574752223340e-01 9.3705162375833995e-01 1.6601995984833787e-01 -6.8106273943623408e-01 -1.5156073594100481e+00 -1.0178622586243102e-01 -4.7241943157351829e-01 
        </Neuron>
        <Neuron NSynapses="16">
          -3.1556292316637929e-01 4.4706774896266704e-01 4.9698153372313802e-01 1.5962037769857587e-01 -2.6472488501984903e-01 -5.9440793280314008e-01 -2.9404464441604938e-02 1.2848448696318815e-01 -5.2159233306067065e-01 -8.9423953827078584e-01 -6.8872728504414471e-01 1.4756563056397623e-01 1.3422189203904826e+00 -1.6644063673766424e-01 1.4741037434437185e-01 5.3623050914186665e-01 
        </Neuron>
        <Neuron NSynapses="16">
          -9.2896921766820739e-01 -1.2156314097451730e+00 -1.0859618903317088e+00 -7.8576978362029773e-02 -9.6860789548074089e-01 -1.0682137136694365e+00 -3.5902570686058422e-01 7.7692710541036281e-01 -8.4519430109690763e-01 1.1010921862634127e+00 2.1804042718101080e-01 -1.6876773326090960e-01 1.8281031867583944e-01 6.3779592518983685e-01 -5.5599793350589781e-02 -2.8312277442411032e-01 
        </Neuron>
        <Neuron NSynapses="16">
          6.9224870340023092e-01 -1.7157712136266001e+00 -1.1653641436273161e+00 -2.7687511283148503e-01 5.2526549127177491e-01 5.2950283622257466e-01 4.9281710025055832e+00 -2.5680070598146560e+00 -3.5169707704781439e-01 -5.6796893237158058e-03 -3.2095999364922290e-01 3.2666629818568971e-01 9.2275030650294998e-01 -7.0229764799315664e-01 -5.9368014870912251e+00 5.2654409522200118e-01 
        </Neuron>
        <Neuron NSynapses="16">
          -5.5716331679640918e-01 7.1916882210387459e-02 -3.4817232815229177e-01 -9.4863450367662450e-01 4.4247324991099085e-01 -6.6072368666426162e-01 6.3181750090863020e-01 2.7173798043045228e-01 1.4444037364662485e+00 -9.8930845187476857e-01 3.2943591368526559e-01 -3.5725879090347623e-01 1.4033024005533568e-01 -3.2633283636054283e-01 -7.4539338730925508e-01 1.8664090759892438e-01 
        </Neuron>
        <Neuron NSynapses="16">
          -1.2012661941676548e+00 2.6410658830333178e+00 2.5113712806788091e+00 -1.9053260235078842e+00 -2.5994703314161482e-01 1.0085421263821845e+00 -4.7064420436497221e+00 -5.2289922893423124e-01 2.2387578814864146e+00 -6.2070820758729062e-01 -4.9740851409624968e-02 -1.1605180840372049e+00 1.0848402809593942e+00 -4.8642977746838567e-01 5.0427907996859602e+00 -2.4438183301506400e+00 
        </Neuron>
        <Neuron NSynapses="16">
          1.1535089871946624e+00 2.7756662564545653e+00 1.7401986306646138e+00 -4.5912133043012893e-01 1.0941226210809751e+00 6.0020454583929417e-01 -1.3671785215324939e+00 -1.6799143947500350e-01 5.2002271986437254e-01 -7.0615581329863375e-01 1.6053409259689537e+00 -2.6448052980322218e-01 -3.3480546099577346e-01 1.9870213824089397e-01 1.4709941901970907e+00 -7.6634108136359780e-01 
        </Neuron>
        <Neuron NSynapses="16">
          -3.5055920334089032e+00 -1.8975137694558732e+00 -1.7061991630336117e+00 2.1484829940869075e+00 -1.7980254939822291e+00 -1.5052636209216286e+00 3.1962866619923620e+00 1.2052851505088209e+00 -1.7538300896065842e+00 -3.4371962095170940e-02 -1.5013359055357633e+00 2.8851263680523118e+00 -7.8857479569885935e-01 1.6522413395125553e+00 -3.5378308231185627e+00 2.7975491902834775e+00 
        </Neuron>
      </Layer>
      <Layer Index="1" NNeurons="17">
        <Neuron NSynapses="1">
          -1.7997134301793677e-01 
        </Neuron>
        <Neuron NSynapses="1">
          -4.2681095341344538e-01 
        </Neuron>
        <Neuron NSynapses="1">
          5.0822879325550108e-01 
        </Neuron>
        <Neuron NSynapses="1">
          -2.9021585661013871e-01 
        </Neuron>
        <Neuron NSynapses="1">
          -5.5766068935622698e-03 
        </Neuron>
        <Neuron NSynapses="1">
          -3.1801991359789832e-02 
        </Neuron>
        <Neuron NSynapses="1">
          6.4579040654114661e-01 
        </Neuron>
        <Neuron NSynapses="1">
          -3.5455013366712605e-02 
        </Neuron>
        <Neuron NSynapses="1">
          -2.1981603303291244e-01 
        </Neuron>
        <Neuron NSynapses="1">
          2.9436494501271370e-03 
        </Neuron>
        <Neuron NSynapses="1">
          1.2544585444599926e-01 
        </Neuron>
        <Neuron NSynapses="1">
          -1.2453121427026321e+00 
        </Neuron>
        <Neuron NSynapses="1">
          -9.7687395491374181e-03 
        </Neuron>
        <Neuron NSynapses="1">
          1.0028343384702802e-01 
        </Neuron>
        <Neuron NSynapses="1">
          6.4286711688762010e-01 
        </Neuron>
        <Neuron NSynapses="1">
          2.0039771991561950e-01 
        </Neuron>
        <Neuron NSynapses="1">
          1.0268750600464356e+00 
        </Neuron>
      </Layer>
      <Layer Index="2" NNeurons="1">
        <Neuron NSynapses="0"/>
      </Layer>
    </Layout>
  </Weights>
</MethodSetup>
