<?xml version="1.0"?>
<MethodSetup Method="MLP::MLPBFGS">
  <GeneralInfo>
    <Info name="TMVA Release" value="4.1.2 [262402]"/>
    <Info name="ROOT Release" value="5.32/04 [335876]"/>
    <Info name="Creator" value="lpernie"/>
    <Info name="Date" value="Fri May 13 13:02:19 2016"/>
    <Info name="Host" value="Linux login01.brazos.tamu.edu 2.6.32-431.23.3.el6.x86_64 #1 SMP Thu Jul 31 17:20:51 UTC 2014 x86_64 x86_64 x86_64 GNU/Linux"/>
    <Info name="Dir" value="/home/lpernie/Hhh/delphes/diHiggs/MVAs"/>
    <Info name="Training events" value="17926"/>
    <Info name="TrainingTime" value="8.77355870e+02"/>
    <Info name="AnalysisType" value="Classification"/>
  </GeneralInfo>
  <Options>
    <Option name="NCycles" modified="Yes">600</Option>
    <Option name="HiddenLayers" modified="Yes">N+5</Option>
    <Option name="NeuronType" modified="Yes">tanh</Option>
    <Option name="RandomSeed" modified="No">1</Option>
    <Option name="EstimatorType" modified="No">MSE</Option>
    <Option name="NeuronInputType" modified="No">sum</Option>
    <Option name="V" modified="Yes">False</Option>
    <Option name="VerbosityLevel" modified="No">Default</Option>
    <Option name="VarTransform" modified="Yes">N</Option>
    <Option name="H" modified="Yes">True</Option>
    <Option name="CreateMVAPdfs" modified="No">False</Option>
    <Option name="IgnoreNegWeightsInTraining" modified="No">False</Option>
    <Option name="TrainingMethod" modified="Yes">BFGS</Option>
    <Option name="LearningRate" modified="No">2.000000e-02</Option>
    <Option name="DecayRate" modified="No">1.000000e-02</Option>
    <Option name="TestRate" modified="Yes">5</Option>
    <Option name="EpochMonitoring" modified="No">False</Option>
    <Option name="Sampling" modified="No">1.000000e+00</Option>
    <Option name="SamplingEpoch" modified="No">1.000000e+00</Option>
    <Option name="SamplingImportance" modified="No">1.000000e+00</Option>
    <Option name="SamplingTraining" modified="No">True</Option>
    <Option name="SamplingTesting" modified="No">False</Option>
    <Option name="ResetStep" modified="No">50</Option>
    <Option name="Tau" modified="No">3.000000e+00</Option>
    <Option name="BPMode" modified="No">sequential</Option>
    <Option name="BatchSize" modified="No">-1</Option>
    <Option name="ConvergenceImprove" modified="No">1.000000e-30</Option>
    <Option name="ConvergenceTests" modified="No">-1</Option>
    <Option name="UseRegulator" modified="Yes">False</Option>
    <Option name="UpdateLimit" modified="No">10000</Option>
    <Option name="CalculateErrors" modified="No">False</Option>
    <Option name="WeightRange" modified="No">1.000000e+00</Option>
  </Options>
  <Variables NVar="11">
    <Variable VarIndex="0" Expression="dR_l1l2" Label="dR_l1l2" Title="dR_l1l2" Unit="" Internal="dR_l1l2" Type="F" Min="7.10297823e-02" Max="3.29906011e+00"/>
    <Variable VarIndex="1" Expression="dR_b1b2" Label="dR_b1b2" Title="dR_b1b2" Unit="" Internal="dR_b1b2" Type="F" Min="3.94397765e-01" Max="4.95207596e+00"/>
    <Variable VarIndex="2" Expression="dR_bl" Label="dR_bl" Title="dR_bl" Unit="" Internal="dR_bl" Type="F" Min="4.00819451e-01" Max="4.82403278e+00"/>
    <Variable VarIndex="3" Expression="dR_l1l2b1b2" Label="dR_l1l2b1b2" Title="dR_l1l2b1b2" Unit="" Internal="dR_l1l2b1b2" Type="F" Min="2.85045840e-02" Max="5.91814280e+00"/>
    <Variable VarIndex="4" Expression="MINdR_bl" Label="MINdR_bl" Title="MINdR_bl" Unit="" Internal="MINdR_bl" Type="F" Min="4.00462151e-01" Max="3.18627644e+00"/>
    <Variable VarIndex="5" Expression="dphi_l1l2b1b2" Label="dphi_l1l2b1b2" Title="dphi_l1l2b1b2" Unit="" Internal="dphi_l1l2b1b2" Type="F" Min="5.25824726e-04" Max="3.14152813e+00"/>
    <Variable VarIndex="6" Expression="mass_l1l2" Label="mass_l1l2" Title="mass_l1l2" Unit="" Internal="mass_l1l2" Type="F" Min="5.00631237e+00" Max="9.99996490e+01"/>
    <Variable VarIndex="7" Expression="mass_b1b2" Label="mass_b1b2" Title="mass_b1b2" Unit="" Internal="mass_b1b2" Type="F" Min="2.21016560e+01" Max="6.94112366e+02"/>
    <Variable VarIndex="8" Expression="mass_trans" Label="mass_trans" Title="mass_trans" Unit="" Internal="mass_trans" Type="F" Min="1.99588146e-02" Max="2.49843353e+02"/>
    <Variable VarIndex="9" Expression="MT2" Label="MT2" Title="MT2" Unit="" Internal="MT2" Type="F" Min="3.24793205e+01" Max="3.95929016e+02"/>
    <Variable VarIndex="10" Expression="pt_b1b2" Label="pt_b1b2" Title="pt_b1b2" Unit="" Internal="pt_b1b2" Type="F" Min="9.54420507e-01" Max="2.98936981e+02"/>
  </Variables>
  <Spectators NSpec="0"/>
  <Classes NClass="2">
    <Class Name="Signal" Index="0"/>
    <Class Name="Background" Index="1"/>
  </Classes>
  <Transformations NTransformations="1">
    <Transform Name="Normalize">
      <Selection>
        <Input NInputs="11">
          <Input Type="Variable" Label="dR_l1l2" Expression="dR_l1l2"/>
          <Input Type="Variable" Label="dR_b1b2" Expression="dR_b1b2"/>
          <Input Type="Variable" Label="dR_bl" Expression="dR_bl"/>
          <Input Type="Variable" Label="dR_l1l2b1b2" Expression="dR_l1l2b1b2"/>
          <Input Type="Variable" Label="MINdR_bl" Expression="MINdR_bl"/>
          <Input Type="Variable" Label="dphi_l1l2b1b2" Expression="dphi_l1l2b1b2"/>
          <Input Type="Variable" Label="mass_l1l2" Expression="mass_l1l2"/>
          <Input Type="Variable" Label="mass_b1b2" Expression="mass_b1b2"/>
          <Input Type="Variable" Label="mass_trans" Expression="mass_trans"/>
          <Input Type="Variable" Label="MT2" Expression="MT2"/>
          <Input Type="Variable" Label="pt_b1b2" Expression="pt_b1b2"/>
        </Input>
        <Output NOutputs="11">
          <Output Type="Variable" Label="dR_l1l2" Expression="dR_l1l2"/>
          <Output Type="Variable" Label="dR_b1b2" Expression="dR_b1b2"/>
          <Output Type="Variable" Label="dR_bl" Expression="dR_bl"/>
          <Output Type="Variable" Label="dR_l1l2b1b2" Expression="dR_l1l2b1b2"/>
          <Output Type="Variable" Label="MINdR_bl" Expression="MINdR_bl"/>
          <Output Type="Variable" Label="dphi_l1l2b1b2" Expression="dphi_l1l2b1b2"/>
          <Output Type="Variable" Label="mass_l1l2" Expression="mass_l1l2"/>
          <Output Type="Variable" Label="mass_b1b2" Expression="mass_b1b2"/>
          <Output Type="Variable" Label="mass_trans" Expression="mass_trans"/>
          <Output Type="Variable" Label="MT2" Expression="MT2"/>
          <Output Type="Variable" Label="pt_b1b2" Expression="pt_b1b2"/>
        </Output>
      </Selection>
      <Class ClassIndex="0">
        <Ranges>
          <Range Index="0" Min="7.1029782295227051e-02" Max="3.2480924129486084e+00"/>
          <Range Index="1" Min="3.9439776539802551e-01" Max="4.8675541877746582e+00"/>
          <Range Index="2" Min="4.2826882004737854e-01" Max="4.5548105239868164e+00"/>
          <Range Index="3" Min="4.8230913281440735e-01" Max="5.5431914329528809e+00"/>
          <Range Index="4" Min="4.0323784947395325e-01" Max="3.1862764358520508e+00"/>
          <Range Index="5" Min="5.0385412760078907e-03" Max="3.1415281295776367e+00"/>
          <Range Index="6" Min="5.0063123703002930e+00" Max="9.2883369445800781e+01"/>
          <Range Index="7" Min="2.2549150466918945e+01" Max="6.5601672363281250e+02"/>
          <Range Index="8" Min="1.9958814606070518e-02" Max="2.4925128173828125e+02"/>
          <Range Index="9" Min="4.9734783172607422e+01" Max="3.9592901611328125e+02"/>
          <Range Index="10" Min="2.8482723236083984e+00" Max="2.9527539062500000e+02"/>
        </Ranges>
      </Class>
      <Class ClassIndex="1">
        <Ranges>
          <Range Index="0" Min="7.4400834739208221e-02" Max="3.2990601062774658e+00"/>
          <Range Index="1" Min="3.9479592442512512e-01" Max="4.9520759582519531e+00"/>
          <Range Index="2" Min="4.0081945061683655e-01" Max="4.8240327835083008e+00"/>
          <Range Index="3" Min="2.8504583984613419e-02" Max="5.9181427955627441e+00"/>
          <Range Index="4" Min="4.0046215057373047e-01" Max="3.1815350055694580e+00"/>
          <Range Index="5" Min="5.2582472562789917e-04" Max="3.1414997577667236e+00"/>
          <Range Index="6" Min="5.0279002189636230e+00" Max="9.9999649047851562e+01"/>
          <Range Index="7" Min="2.2101655960083008e+01" Max="6.9411236572265625e+02"/>
          <Range Index="8" Min="3.7136141210794449e-02" Max="2.4984335327148438e+02"/>
          <Range Index="9" Min="3.2479320526123047e+01" Max="3.9509289550781250e+02"/>
          <Range Index="10" Min="9.5442050695419312e-01" Max="2.9893698120117188e+02"/>
        </Ranges>
      </Class>
      <Class ClassIndex="2">
        <Ranges>
          <Range Index="0" Min="7.1029782295227051e-02" Max="3.2990601062774658e+00"/>
          <Range Index="1" Min="3.9439776539802551e-01" Max="4.9520759582519531e+00"/>
          <Range Index="2" Min="4.0081945061683655e-01" Max="4.8240327835083008e+00"/>
          <Range Index="3" Min="2.8504583984613419e-02" Max="5.9181427955627441e+00"/>
          <Range Index="4" Min="4.0046215057373047e-01" Max="3.1862764358520508e+00"/>
          <Range Index="5" Min="5.2582472562789917e-04" Max="3.1415281295776367e+00"/>
          <Range Index="6" Min="5.0063123703002930e+00" Max="9.9999649047851562e+01"/>
          <Range Index="7" Min="2.2101655960083008e+01" Max="6.9411236572265625e+02"/>
          <Range Index="8" Min="1.9958814606070518e-02" Max="2.4984335327148438e+02"/>
          <Range Index="9" Min="3.2479320526123047e+01" Max="3.9592901611328125e+02"/>
          <Range Index="10" Min="9.5442050695419312e-01" Max="2.9893698120117188e+02"/>
        </Ranges>
      </Class>
    </Transform>
  </Transformations>
  <MVAPdfs/>
  <Weights>
    <Layout NLayers="3">
      <Layer Index="0" NNeurons="12">
        <Neuron NSynapses="16">
          -1.2415058065139828e+00 3.3746860968095965e-01 -5.9881642795268430e-01 1.5385804401276453e+00 -3.3453991066683336e-01 -1.5402649397832084e+00 -3.0367629261876652e-02 1.4483000758533751e+00 -1.3752946433860314e+00 1.9141481389739505e+00 -7.6035063146014936e-01 7.8863954572254980e-01 -1.0883262985020443e+00 -1.2878674891050566e+00 -1.2841475406758690e-01 3.6648496036054877e-02 
        </Neuron>
        <Neuron NSynapses="16">
          -1.8377260079742452e-02 1.2860233239205703e+00 1.7908740787352073e+00 1.4679659114075114e+00 -1.5199487829954042e-01 2.3015849091610899e-01 -5.3639949668702080e-01 1.5833457761297601e-01 -1.2198453357270145e+00 5.8316181682669121e-01 1.9817582920214261e+00 -1.0701932601786830e+00 -3.3837914442681067e+00 1.2195900012459115e+00 -1.0282304886238480e+00 9.2727204770984812e+00 
        </Neuron>
        <Neuron NSynapses="16">
          -2.5682714994431449e-02 2.3704070411538111e-01 7.1114726178872656e-01 -1.7738384806783683e-01 -6.4007579619407751e-01 2.2791933635136106e+00 3.2542488801668726e-02 1.3571408948017991e-01 1.0576294727320168e+00 1.5330040690995114e-01 8.1696479284184786e-01 -2.0681433580591224e-01 6.1104192455792739e-01 -1.5916447586111864e+00 3.5258009992316119e-01 -3.2110246761686523e-01 
        </Neuron>
        <Neuron NSynapses="16">
          1.3640668343289875e+00 1.7669841873489534e+00 7.0015492935845447e-01 1.2904617569820238e+00 -3.6614946408618854e-01 1.8330408714076873e+00 -9.7918937781119753e-01 1.2827825720449997e+00 -1.3216957843651516e+00 -5.8163077854114631e-01 2.4190431501203227e+00 -6.4047108390446805e-01 7.2613521575608853e-01 -5.9770413525490129e-01 2.5358358413249000e+00 -2.3761690382416640e+00 
        </Neuron>
        <Neuron NSynapses="16">
          3.0887007539908756e-01 -4.6319805605554254e-01 3.5130441086655223e-02 -1.1059521053935377e+00 2.5294772827387757e-01 -4.9397585042093989e-01 3.6935676646017618e-01 -5.5839827770339023e-01 5.2190593645261207e-01 1.5248425187474737e+00 1.4516563131533855e-01 4.1843104315771579e-01 1.5254104269480787e-01 -1.7752474024524005e+00 9.7606170049202908e-03 4.3242719318842415e-01 
        </Neuron>
        <Neuron NSynapses="16">
          2.4154661710587286e-01 -1.0507936920864696e+00 1.4589352450456844e-01 -1.1880256294214508e+00 -4.4944376008667430e-01 -9.2054440316345312e-02 -7.4061432026132290e-01 -3.4696682954146224e-01 -1.6457998511668521e+00 -3.7459852817040682e+00 6.2477315378072240e-01 -7.9824286728980087e-01 3.4178012060296897e-03 -1.4455687464046101e+00 -8.9988536102392647e-01 1.1109812414918234e+00 
        </Neuron>
        <Neuron NSynapses="16">
          -1.0481850383419549e+00 4.3510106345324034e-01 -1.1687447800653601e+00 1.9252945825926118e-01 -2.6633965266392443e+00 -1.0121214101448672e+00 -3.3011068237297665e+00 3.0884928776219072e+00 -1.1849687598152607e+00 4.9398728386818591e-01 -2.3671050424896833e+00 -1.2264782748803189e+00 -7.6341553021881692e-01 -4.8158991709825216e-01 -5.7150636853807657e-01 -6.8351530735543309e-01 
        </Neuron>
        <Neuron NSynapses="16">
          3.3665516003845736e-01 -3.3449591163265033e+00 -5.1435995167371411e+00 1.7036093160777572e+00 -3.4311605178404930e-01 -2.0460074138220133e-01 1.8123455337176726e+00 -1.1532327653399854e+00 -1.6820516135097408e+00 -2.7163100247239873e+00 -3.4620888715109610e-01 8.1617577057600521e-01 -7.9855979102645025e-01 7.4979547974983873e-01 -1.0653531260323755e+01 2.6798622157357501e+00 
        </Neuron>
        <Neuron NSynapses="16">
          -5.5168116832792924e+00 3.4403725587133982e-01 -1.9568333717480830e+00 -1.6751839928409622e+00 2.8118472394341382e-01 -8.4219425720342511e-01 9.4028522754953470e-01 5.2465090782572477e-01 1.5353578028255335e+00 -1.1997745551741941e+00 -4.6244500457091764e-01 4.2469554037361661e+00 -1.7786543555310272e+00 -1.2215634552469232e+00 -5.9192787602586983e-01 -2.3205366617824624e-01 
        </Neuron>
        <Neuron NSynapses="16">
          7.1865650391364599e-01 2.4363069995954474e+00 8.3596354637311112e+00 -3.1575452566585427e-01 -2.4152866054782551e+00 5.7909015915534746e-02 -4.1606519542557550e+00 5.6394072491036362e-01 1.7127455184412133e+00 -1.9889718149971922e+00 -1.2334175917076069e+00 3.0714842276250587e+00 6.5981794977852246e+00 -1.8954710234559780e-01 3.1616963786023788e+00 1.4673016785738753e+00 
        </Neuron>
        <Neuron NSynapses="16">
          5.4109325488075843e-01 1.7284513329310180e+00 1.5060528985459969e+00 2.0829653992467700e-01 -5.8838361352165622e-02 -1.4721894142126151e+00 -1.1756234984105758e+00 4.0480823917653402e-01 -9.8721405270621521e-01 -4.9729399000971908e+00 3.8865738358166859e+00 -7.2271651157578953e-01 -3.7377133859399204e-02 1.5440159909227216e+00 1.8446233796808909e+00 2.7673428508344262e+00 
        </Neuron>
        <Neuron NSynapses="16">
          -5.8300604239431819e-01 -1.5824388767598818e+00 -7.2808426924945446e-01 -1.5137581043902852e+00 -2.3671165577502138e+00 8.0409652955460403e-02 3.7617192854930739e+00 -4.0617994253132537e+00 -1.7063086873213107e-01 3.0240851622959092e-01 -1.5826928137458518e+00 4.3551970863839173e+00 1.2311535593942000e+00 -1.0084622884119018e-01 -6.1779037316669241e+00 8.5427408656560697e+00 
        </Neuron>
      </Layer>
      <Layer Index="1" NNeurons="17">
        <Neuron NSynapses="1">
          7.3317736296115571e-02 
        </Neuron>
        <Neuron NSynapses="1">
          -2.3568648872240353e-01 
        </Neuron>
        <Neuron NSynapses="1">
          2.8421105684649728e-01 
        </Neuron>
        <Neuron NSynapses="1">
          -2.1921732701772570e-02 
        </Neuron>
        <Neuron NSynapses="1">
          -4.0098824746171449e-02 
        </Neuron>
        <Neuron NSynapses="1">
          1.3557329862672237e-02 
        </Neuron>
        <Neuron NSynapses="1">
          2.2731389140692912e-01 
        </Neuron>
        <Neuron NSynapses="1">
          1.1911349867388288e-01 
        </Neuron>
        <Neuron NSynapses="1">
          5.5376246512621402e-03 
        </Neuron>
        <Neuron NSynapses="1">
          -6.6066947135306392e-02 
        </Neuron>
        <Neuron NSynapses="1">
          -4.4853939868250335e-02 
        </Neuron>
        <Neuron NSynapses="1">
          5.7569907264192310e-02 
        </Neuron>
        <Neuron NSynapses="1">
          -8.1047919966127438e-02 
        </Neuron>
        <Neuron NSynapses="1">
          3.0870123920261127e-02 
        </Neuron>
        <Neuron NSynapses="1">
          2.5183937452870292e-01 
        </Neuron>
        <Neuron NSynapses="1">
          1.6524017579330613e-01 
        </Neuron>
        <Neuron NSynapses="1">
          -5.0515231419437097e-02 
        </Neuron>
      </Layer>
      <Layer Index="2" NNeurons="1">
        <Neuron NSynapses="0"/>
      </Layer>
    </Layout>
  </Weights>
</MethodSetup>
