<?xml version="1.0"?>
<MethodSetup Method="MLP::MLP">
  <GeneralInfo>
    <Info name="TMVA Release" value="4.1.2 [262402]"/>
    <Info name="ROOT Release" value="5.32/04 [335876]"/>
    <Info name="Creator" value="lpernie"/>
    <Info name="Date" value="Fri May 13 12:47:41 2016"/>
    <Info name="Host" value="Linux login01.brazos.tamu.edu 2.6.32-431.23.3.el6.x86_64 #1 SMP Thu Jul 31 17:20:51 UTC 2014 x86_64 x86_64 x86_64 GNU/Linux"/>
    <Info name="Dir" value="/home/lpernie/Hhh/delphes/diHiggs/MVAs"/>
    <Info name="Training events" value="17926"/>
    <Info name="TrainingTime" value="2.17408207e+02"/>
    <Info name="AnalysisType" value="Classification"/>
  </GeneralInfo>
  <Options>
    <Option name="NCycles" modified="Yes">600</Option>
    <Option name="HiddenLayers" modified="Yes">N+5</Option>
    <Option name="NeuronType" modified="Yes">tanh</Option>
    <Option name="RandomSeed" modified="No">1</Option>
    <Option name="EstimatorType" modified="No">MSE</Option>
    <Option name="NeuronInputType" modified="No">sum</Option>
    <Option name="V" modified="Yes">False</Option>
    <Option name="VerbosityLevel" modified="No">Default</Option>
    <Option name="VarTransform" modified="Yes">N</Option>
    <Option name="H" modified="Yes">True</Option>
    <Option name="CreateMVAPdfs" modified="No">False</Option>
    <Option name="IgnoreNegWeightsInTraining" modified="No">False</Option>
    <Option name="TrainingMethod" modified="No">BP</Option>
    <Option name="LearningRate" modified="No">2.000000e-02</Option>
    <Option name="DecayRate" modified="No">1.000000e-02</Option>
    <Option name="TestRate" modified="Yes">5</Option>
    <Option name="EpochMonitoring" modified="No">False</Option>
    <Option name="Sampling" modified="No">1.000000e+00</Option>
    <Option name="SamplingEpoch" modified="No">1.000000e+00</Option>
    <Option name="SamplingImportance" modified="No">1.000000e+00</Option>
    <Option name="SamplingTraining" modified="No">True</Option>
    <Option name="SamplingTesting" modified="No">False</Option>
    <Option name="ResetStep" modified="No">50</Option>
    <Option name="Tau" modified="No">3.000000e+00</Option>
    <Option name="BPMode" modified="No">sequential</Option>
    <Option name="BatchSize" modified="No">-1</Option>
    <Option name="ConvergenceImprove" modified="No">1.000000e-30</Option>
    <Option name="ConvergenceTests" modified="No">-1</Option>
    <Option name="UseRegulator" modified="Yes">False</Option>
    <Option name="UpdateLimit" modified="No">10000</Option>
    <Option name="CalculateErrors" modified="No">False</Option>
    <Option name="WeightRange" modified="No">1.000000e+00</Option>
  </Options>
  <Variables NVar="11">
    <Variable VarIndex="0" Expression="dR_l1l2" Label="dR_l1l2" Title="dR_l1l2" Unit="" Internal="dR_l1l2" Type="F" Min="7.10297823e-02" Max="3.29906011e+00"/>
    <Variable VarIndex="1" Expression="dR_b1b2" Label="dR_b1b2" Title="dR_b1b2" Unit="" Internal="dR_b1b2" Type="F" Min="3.94397765e-01" Max="4.95207596e+00"/>
    <Variable VarIndex="2" Expression="dR_bl" Label="dR_bl" Title="dR_bl" Unit="" Internal="dR_bl" Type="F" Min="4.00819451e-01" Max="4.82403278e+00"/>
    <Variable VarIndex="3" Expression="dR_l1l2b1b2" Label="dR_l1l2b1b2" Title="dR_l1l2b1b2" Unit="" Internal="dR_l1l2b1b2" Type="F" Min="2.85045840e-02" Max="5.91814280e+00"/>
    <Variable VarIndex="4" Expression="MINdR_bl" Label="MINdR_bl" Title="MINdR_bl" Unit="" Internal="MINdR_bl" Type="F" Min="4.00462151e-01" Max="3.18627644e+00"/>
    <Variable VarIndex="5" Expression="dphi_l1l2b1b2" Label="dphi_l1l2b1b2" Title="dphi_l1l2b1b2" Unit="" Internal="dphi_l1l2b1b2" Type="F" Min="5.25824726e-04" Max="3.14152813e+00"/>
    <Variable VarIndex="6" Expression="mass_l1l2" Label="mass_l1l2" Title="mass_l1l2" Unit="" Internal="mass_l1l2" Type="F" Min="5.00631237e+00" Max="9.99996490e+01"/>
    <Variable VarIndex="7" Expression="mass_b1b2" Label="mass_b1b2" Title="mass_b1b2" Unit="" Internal="mass_b1b2" Type="F" Min="2.21016560e+01" Max="6.94112366e+02"/>
    <Variable VarIndex="8" Expression="mass_trans" Label="mass_trans" Title="mass_trans" Unit="" Internal="mass_trans" Type="F" Min="1.99588146e-02" Max="2.49843353e+02"/>
    <Variable VarIndex="9" Expression="MT2" Label="MT2" Title="MT2" Unit="" Internal="MT2" Type="F" Min="3.24793205e+01" Max="3.95929016e+02"/>
    <Variable VarIndex="10" Expression="pt_b1b2" Label="pt_b1b2" Title="pt_b1b2" Unit="" Internal="pt_b1b2" Type="F" Min="9.54420507e-01" Max="2.98936981e+02"/>
  </Variables>
  <Spectators NSpec="0"/>
  <Classes NClass="2">
    <Class Name="Signal" Index="0"/>
    <Class Name="Background" Index="1"/>
  </Classes>
  <Transformations NTransformations="1">
    <Transform Name="Normalize">
      <Selection>
        <Input NInputs="11">
          <Input Type="Variable" Label="dR_l1l2" Expression="dR_l1l2"/>
          <Input Type="Variable" Label="dR_b1b2" Expression="dR_b1b2"/>
          <Input Type="Variable" Label="dR_bl" Expression="dR_bl"/>
          <Input Type="Variable" Label="dR_l1l2b1b2" Expression="dR_l1l2b1b2"/>
          <Input Type="Variable" Label="MINdR_bl" Expression="MINdR_bl"/>
          <Input Type="Variable" Label="dphi_l1l2b1b2" Expression="dphi_l1l2b1b2"/>
          <Input Type="Variable" Label="mass_l1l2" Expression="mass_l1l2"/>
          <Input Type="Variable" Label="mass_b1b2" Expression="mass_b1b2"/>
          <Input Type="Variable" Label="mass_trans" Expression="mass_trans"/>
          <Input Type="Variable" Label="MT2" Expression="MT2"/>
          <Input Type="Variable" Label="pt_b1b2" Expression="pt_b1b2"/>
        </Input>
        <Output NOutputs="11">
          <Output Type="Variable" Label="dR_l1l2" Expression="dR_l1l2"/>
          <Output Type="Variable" Label="dR_b1b2" Expression="dR_b1b2"/>
          <Output Type="Variable" Label="dR_bl" Expression="dR_bl"/>
          <Output Type="Variable" Label="dR_l1l2b1b2" Expression="dR_l1l2b1b2"/>
          <Output Type="Variable" Label="MINdR_bl" Expression="MINdR_bl"/>
          <Output Type="Variable" Label="dphi_l1l2b1b2" Expression="dphi_l1l2b1b2"/>
          <Output Type="Variable" Label="mass_l1l2" Expression="mass_l1l2"/>
          <Output Type="Variable" Label="mass_b1b2" Expression="mass_b1b2"/>
          <Output Type="Variable" Label="mass_trans" Expression="mass_trans"/>
          <Output Type="Variable" Label="MT2" Expression="MT2"/>
          <Output Type="Variable" Label="pt_b1b2" Expression="pt_b1b2"/>
        </Output>
      </Selection>
      <Class ClassIndex="0">
        <Ranges>
          <Range Index="0" Min="7.1029782295227051e-02" Max="3.2480924129486084e+00"/>
          <Range Index="1" Min="3.9439776539802551e-01" Max="4.8675541877746582e+00"/>
          <Range Index="2" Min="4.2826882004737854e-01" Max="4.5548105239868164e+00"/>
          <Range Index="3" Min="4.8230913281440735e-01" Max="5.5431914329528809e+00"/>
          <Range Index="4" Min="4.0323784947395325e-01" Max="3.1862764358520508e+00"/>
          <Range Index="5" Min="5.0385412760078907e-03" Max="3.1415281295776367e+00"/>
          <Range Index="6" Min="5.0063123703002930e+00" Max="9.2883369445800781e+01"/>
          <Range Index="7" Min="2.2549150466918945e+01" Max="6.5601672363281250e+02"/>
          <Range Index="8" Min="1.9958814606070518e-02" Max="2.4925128173828125e+02"/>
          <Range Index="9" Min="4.9734783172607422e+01" Max="3.9592901611328125e+02"/>
          <Range Index="10" Min="2.8482723236083984e+00" Max="2.9527539062500000e+02"/>
        </Ranges>
      </Class>
      <Class ClassIndex="1">
        <Ranges>
          <Range Index="0" Min="7.4400834739208221e-02" Max="3.2990601062774658e+00"/>
          <Range Index="1" Min="3.9479592442512512e-01" Max="4.9520759582519531e+00"/>
          <Range Index="2" Min="4.0081945061683655e-01" Max="4.8240327835083008e+00"/>
          <Range Index="3" Min="2.8504583984613419e-02" Max="5.9181427955627441e+00"/>
          <Range Index="4" Min="4.0046215057373047e-01" Max="3.1815350055694580e+00"/>
          <Range Index="5" Min="5.2582472562789917e-04" Max="3.1414997577667236e+00"/>
          <Range Index="6" Min="5.0279002189636230e+00" Max="9.9999649047851562e+01"/>
          <Range Index="7" Min="2.2101655960083008e+01" Max="6.9411236572265625e+02"/>
          <Range Index="8" Min="3.7136141210794449e-02" Max="2.4984335327148438e+02"/>
          <Range Index="9" Min="3.2479320526123047e+01" Max="3.9509289550781250e+02"/>
          <Range Index="10" Min="9.5442050695419312e-01" Max="2.9893698120117188e+02"/>
        </Ranges>
      </Class>
      <Class ClassIndex="2">
        <Ranges>
          <Range Index="0" Min="7.1029782295227051e-02" Max="3.2990601062774658e+00"/>
          <Range Index="1" Min="3.9439776539802551e-01" Max="4.9520759582519531e+00"/>
          <Range Index="2" Min="4.0081945061683655e-01" Max="4.8240327835083008e+00"/>
          <Range Index="3" Min="2.8504583984613419e-02" Max="5.9181427955627441e+00"/>
          <Range Index="4" Min="4.0046215057373047e-01" Max="3.1862764358520508e+00"/>
          <Range Index="5" Min="5.2582472562789917e-04" Max="3.1415281295776367e+00"/>
          <Range Index="6" Min="5.0063123703002930e+00" Max="9.9999649047851562e+01"/>
          <Range Index="7" Min="2.2101655960083008e+01" Max="6.9411236572265625e+02"/>
          <Range Index="8" Min="1.9958814606070518e-02" Max="2.4984335327148438e+02"/>
          <Range Index="9" Min="3.2479320526123047e+01" Max="3.9592901611328125e+02"/>
          <Range Index="10" Min="9.5442050695419312e-01" Max="2.9893698120117188e+02"/>
        </Ranges>
      </Class>
    </Transform>
  </Transformations>
  <MVAPdfs/>
  <Weights>
    <Layout NLayers="3">
      <Layer Index="0" NNeurons="12">
        <Neuron NSynapses="16">
          -2.1199409739335845e-01 9.2982974460927917e-02 -9.4032881159525794e-01 1.9488476645419590e+00 -4.4907230753967430e-02 -7.7540466908361050e-01 -1.7343199959472169e-01 1.3985890437724078e+00 -1.0743897308215038e+00 -1.1428503294425914e+00 -1.9777414773316080e+00 -7.3205566117686471e-02 -8.2246399466160280e-01 -6.4168004459936601e-01 1.5891359098544872e-01 1.2022041312023610e+00 
        </Neuron>
        <Neuron NSynapses="16">
          -2.2628384562346726e-01 1.4396299419842884e+00 4.6492350259690352e-01 1.3599491465572684e+00 -6.4320996562923183e-01 -4.8754333022422824e-01 3.5791196884038192e+00 2.2042499682918998e-01 -9.2767872556401854e-01 -1.9087430923350707e-01 8.7580837569246661e-01 -1.2767142185318747e+00 -1.6847192338772521e+00 -1.2211511003598671e-01 1.3295882230938769e-01 1.6706180812289513e+00 
        </Neuron>
        <Neuron NSynapses="16">
          7.0516208650346049e-04 3.4722293090311190e-01 4.6900705198072679e-01 -3.5946919919151044e-01 2.3918872088916954e-01 1.8165384667541764e+00 -6.1735036465294368e-01 8.1979917024322491e-01 1.2186511835931499e+00 7.6307583264203394e-01 1.3715105065627338e+00 3.7104142299551945e-01 -3.9478475918682610e-01 -1.4128620452964205e+00 3.9767036831714969e-01 2.0981144627156695e-01 
        </Neuron>
        <Neuron NSynapses="16">
          1.6280481264565687e+00 1.5499958931242523e+00 2.0197346466934629e+00 1.1149184093605882e+00 8.9072585289599854e-02 1.7303246806263033e+00 -1.3918223311872142e+00 -7.3249250692238466e-01 -1.0953299183706424e+00 -1.8169396642250315e+00 1.3081886040808866e+00 5.5141263491705594e-01 -1.3227074120295879e+00 3.2235733624261714e-01 5.2680936825660107e-01 4.1574650724262724e-01 
        </Neuron>
        <Neuron NSynapses="16">
          9.3833871955457093e-01 -4.6519140871539288e-01 4.1796356103323003e-02 -1.5691343670699891e+00 8.1330238166304203e-01 3.4881996741979748e-01 -5.1321214089320055e-02 -1.6985792736439562e+00 8.0465382534599550e-01 2.4101507715082826e-01 1.1213603932572898e+00 -5.7363207097870061e-01 -1.3394164121381464e+00 -1.5592320881190886e+00 9.9512204708357851e-02 4.3191250718806617e-01 
        </Neuron>
        <Neuron NSynapses="16">
          1.9152877450633771e-01 -5.1924785157769893e-01 -2.4070892174260430e-01 -5.6752343543553530e-01 2.4474839135615958e-01 -6.0308573776479546e-01 7.0147899537331182e-01 1.2037197406384167e-03 -1.5764878557415667e+00 -1.5199467129706128e+00 -7.8370921742681832e-01 7.8977071130113721e-02 1.5121014160544433e+00 -8.2728961733768080e-01 -6.0660235260401256e-02 6.3542052973374608e-01 
        </Neuron>
        <Neuron NSynapses="16">
          -2.0568303372442455e-02 2.9835070122290669e-01 -5.3416029682188793e-01 -7.4447497490127426e-02 -2.0687812561705186e+00 -2.0301955903925664e+00 3.5184133749148244e-01 1.4032938880366495e+00 -9.0864114907470495e-01 1.2354725906885320e+00 -7.7431083379338198e-02 -1.0266525775548695e-01 -2.3047157332310916e-01 2.7059737639226411e-01 -9.8164734971244194e-01 2.7973720365514870e-01 
        </Neuron>
        <Neuron NSynapses="16">
          1.9584191129780640e-01 -2.1026240353105434e+00 -3.4600620674555729e+00 1.1542560608492278e+00 -9.6485384267479976e-02 -5.4731053004769999e-02 1.2158975940610661e+00 -2.0131450781825260e+00 -1.2138665713128536e+00 -4.1611662338228844e-01 -5.5300945099575435e-02 3.7315417214708885e-01 8.3294850779848062e-01 -7.5353279941275420e-01 -3.3931179482063518e+00 6.6561392568869948e-01 
        </Neuron>
        <Neuron NSynapses="16">
          -2.2788337194584618e+00 8.1918860604866126e-02 -1.3597516164131436e+00 -1.7711806472758407e+00 3.2691937988975234e-01 -6.1850529757881334e-01 1.8753498856740450e-01 6.7472050662752925e-01 1.2971139121553179e+00 -1.0251156201699265e+00 3.5259606658113157e-01 3.2536440787713150e-01 8.4938193857825639e-01 1.0321803817550171e-01 -5.3731870926289860e-01 -1.6870728951589192e-01 
        </Neuron>
        <Neuron NSynapses="16">
          -1.2359985473087547e+00 2.9102249734026762e+00 5.7149438232801613e+00 -1.0047009930246480e+00 -8.7878657787856995e-01 1.2260519636208953e+00 -1.0232190421353615e+00 -7.6057441579278198e-02 1.8922169371820639e+00 -7.0873382133727036e-01 -4.8598940340699864e-01 -4.6460493801618752e-01 1.0963805991270767e+00 8.3417027646672012e-02 1.0626184472852662e+00 -1.2959464586697307e+00 
        </Neuron>
        <Neuron NSynapses="16">
          1.1111866629555363e+00 1.3702786531648883e+00 1.4444686253518859e+00 -6.0761325935010952e-03 1.0432428156060252e-02 7.2037248261934739e-01 -1.8333708821107542e-01 2.9595984447860174e-01 -7.0467705306439699e-01 -1.2880273291795832e+00 9.8806003010194232e-01 1.1429537343103302e-01 -5.2993654617170105e-01 9.1980005448184055e-01 8.8939837499282592e-01 -1.3806742156737488e+00 
        </Neuron>
        <Neuron NSynapses="16">
          -2.0966186586481954e+00 -1.0516021601160299e+00 -6.8272962460765718e-01 -2.8314480214312687e-01 -2.1510969274490415e+00 -1.0918741772943286e+00 3.3756709858997005e+00 5.4413573722379971e-01 -6.2038099536266189e-01 -7.7539677553589800e-02 -3.7901579963930332e-01 3.0000974639569429e+00 -5.6845036443710939e-01 7.8776198639235295e-01 -2.6295152618095083e+00 7.8966927124170394e-01 
        </Neuron>
      </Layer>
      <Layer Index="1" NNeurons="17">
        <Neuron NSynapses="1">
          -1.2135438018349737e-01 
        </Neuron>
        <Neuron NSynapses="1">
          -4.0357758515247655e-01 
        </Neuron>
        <Neuron NSynapses="1">
          3.5512609146451835e-01 
        </Neuron>
        <Neuron NSynapses="1">
          2.1038133163388054e-02 
        </Neuron>
        <Neuron NSynapses="1">
          -2.6972297980296372e-01 
        </Neuron>
        <Neuron NSynapses="1">
          -8.3136296177728095e-02 
        </Neuron>
        <Neuron NSynapses="1">
          3.2441425734359386e-01 
        </Neuron>
        <Neuron NSynapses="1">
          -8.5178107893728691e-02 
        </Neuron>
        <Neuron NSynapses="1">
          -6.1139384208931842e-04 
        </Neuron>
        <Neuron NSynapses="1">
          -4.6119793263542985e-02 
        </Neuron>
        <Neuron NSynapses="1">
          9.7176197086050950e-02 
        </Neuron>
        <Neuron NSynapses="1">
          -5.3633143459757493e-01 
        </Neuron>
        <Neuron NSynapses="1">
          -1.3228814683783842e-02 
        </Neuron>
        <Neuron NSynapses="1">
          3.6896326675365473e-03 
        </Neuron>
        <Neuron NSynapses="1">
          5.0790844514468214e-01 
        </Neuron>
        <Neuron NSynapses="1">
          -3.6060073285675349e-02 
        </Neuron>
        <Neuron NSynapses="1">
          4.2579355693405563e-01 
        </Neuron>
      </Layer>
      <Layer Index="2" NNeurons="1">
        <Neuron NSynapses="0"/>
      </Layer>
    </Layout>
  </Weights>
</MethodSetup>
