<?xml version="1.0"?>
<MethodSetup Method="MLP::MLP">
  <GeneralInfo>
    <Info name="TMVA Release" value="4.1.2 [262402]"/>
    <Info name="ROOT Release" value="5.32/04 [335876]"/>
    <Info name="Creator" value="lpernie"/>
    <Info name="Date" value="Fri May  6 14:11:35 2016"/>
    <Info name="Host" value="Linux login01.brazos.tamu.edu 2.6.32-431.23.3.el6.x86_64 #1 SMP Thu Jul 31 17:20:51 UTC 2014 x86_64 x86_64 x86_64 GNU/Linux"/>
    <Info name="Dir" value="/home/lpernie/Hhh/delphes/diHiggs/MVAs"/>
    <Info name="Training events" value="16801"/>
    <Info name="TrainingTime" value="2.02371080e+02"/>
    <Info name="AnalysisType" value="Classification"/>
  </GeneralInfo>
  <Options>
    <Option name="NCycles" modified="Yes">600</Option>
    <Option name="HiddenLayers" modified="Yes">N+5</Option>
    <Option name="NeuronType" modified="Yes">tanh</Option>
    <Option name="RandomSeed" modified="No">1</Option>
    <Option name="EstimatorType" modified="No">MSE</Option>
    <Option name="NeuronInputType" modified="No">sum</Option>
    <Option name="V" modified="Yes">False</Option>
    <Option name="VerbosityLevel" modified="No">Default</Option>
    <Option name="VarTransform" modified="Yes">N</Option>
    <Option name="H" modified="Yes">True</Option>
    <Option name="CreateMVAPdfs" modified="No">False</Option>
    <Option name="IgnoreNegWeightsInTraining" modified="No">False</Option>
    <Option name="TrainingMethod" modified="No">BP</Option>
    <Option name="LearningRate" modified="No">2.000000e-02</Option>
    <Option name="DecayRate" modified="No">1.000000e-02</Option>
    <Option name="TestRate" modified="Yes">5</Option>
    <Option name="EpochMonitoring" modified="No">False</Option>
    <Option name="Sampling" modified="No">1.000000e+00</Option>
    <Option name="SamplingEpoch" modified="No">1.000000e+00</Option>
    <Option name="SamplingImportance" modified="No">1.000000e+00</Option>
    <Option name="SamplingTraining" modified="No">True</Option>
    <Option name="SamplingTesting" modified="No">False</Option>
    <Option name="ResetStep" modified="No">50</Option>
    <Option name="Tau" modified="No">3.000000e+00</Option>
    <Option name="BPMode" modified="No">sequential</Option>
    <Option name="BatchSize" modified="No">-1</Option>
    <Option name="ConvergenceImprove" modified="No">1.000000e-30</Option>
    <Option name="ConvergenceTests" modified="No">-1</Option>
    <Option name="UseRegulator" modified="Yes">False</Option>
    <Option name="UpdateLimit" modified="No">10000</Option>
    <Option name="CalculateErrors" modified="No">False</Option>
    <Option name="WeightRange" modified="No">1.000000e+00</Option>
  </Options>
  <Variables NVar="11">
    <Variable VarIndex="0" Expression="dR_l1l2" Label="dR_l1l2" Title="dR_l1l2" Unit="" Internal="dR_l1l2" Type="F" Min="7.04743788e-02" Max="3.29991746e+00"/>
    <Variable VarIndex="1" Expression="dR_b1b2" Label="dR_b1b2" Title="dR_b1b2" Unit="" Internal="dR_b1b2" Type="F" Min="3.85140359e-01" Max="4.97898674e+00"/>
    <Variable VarIndex="2" Expression="dR_bl" Label="dR_bl" Title="dR_bl" Unit="" Internal="dR_bl" Type="F" Min="4.03012276e-01" Max="4.83203697e+00"/>
    <Variable VarIndex="3" Expression="dR_l1l2b1b2" Label="dR_l1l2b1b2" Title="dR_l1l2b1b2" Unit="" Internal="dR_l1l2b1b2" Type="F" Min="1.63523909e-02" Max="5.91814280e+00"/>
    <Variable VarIndex="4" Expression="MINdR_bl" Label="MINdR_bl" Title="MINdR_bl" Unit="" Internal="MINdR_bl" Type="F" Min="4.00462151e-01" Max="3.19950509e+00"/>
    <Variable VarIndex="5" Expression="dphi_l1l2b1b2" Label="dphi_l1l2b1b2" Title="dphi_l1l2b1b2" Unit="" Internal="dphi_l1l2b1b2" Type="F" Min="6.59405778e-04" Max="3.14121699e+00"/>
    <Variable VarIndex="6" Expression="mass_l1l2" Label="mass_l1l2" Title="mass_l1l2" Unit="" Internal="mass_l1l2" Type="F" Min="5.00658274e+00" Max="9.99985352e+01"/>
    <Variable VarIndex="7" Expression="mass_b1b2" Label="mass_b1b2" Title="mass_b1b2" Unit="" Internal="mass_b1b2" Type="F" Min="2.21016560e+01" Max="6.97742615e+02"/>
    <Variable VarIndex="8" Expression="mass_trans" Label="mass_trans" Title="mass_trans" Unit="" Internal="mass_trans" Type="F" Min="0.00000000e+00" Max="2.49548706e+02"/>
    <Variable VarIndex="9" Expression="MT2" Label="MT2" Title="MT2" Unit="" Internal="MT2" Type="F" Min="2.50663490e+01" Max="3.99860321e+02"/>
    <Variable VarIndex="10" Expression="pt_b1b2" Label="pt_b1b2" Title="pt_b1b2" Unit="" Internal="pt_b1b2" Type="F" Min="1.33661461e+00" Max="2.99960724e+02"/>
  </Variables>
  <Spectators NSpec="0"/>
  <Classes NClass="2">
    <Class Name="Signal" Index="0"/>
    <Class Name="Background" Index="1"/>
  </Classes>
  <Transformations NTransformations="1">
    <Transform Name="Normalize">
      <Selection>
        <Input NInputs="11">
          <Input Type="Variable" Label="dR_l1l2" Expression="dR_l1l2"/>
          <Input Type="Variable" Label="dR_b1b2" Expression="dR_b1b2"/>
          <Input Type="Variable" Label="dR_bl" Expression="dR_bl"/>
          <Input Type="Variable" Label="dR_l1l2b1b2" Expression="dR_l1l2b1b2"/>
          <Input Type="Variable" Label="MINdR_bl" Expression="MINdR_bl"/>
          <Input Type="Variable" Label="dphi_l1l2b1b2" Expression="dphi_l1l2b1b2"/>
          <Input Type="Variable" Label="mass_l1l2" Expression="mass_l1l2"/>
          <Input Type="Variable" Label="mass_b1b2" Expression="mass_b1b2"/>
          <Input Type="Variable" Label="mass_trans" Expression="mass_trans"/>
          <Input Type="Variable" Label="MT2" Expression="MT2"/>
          <Input Type="Variable" Label="pt_b1b2" Expression="pt_b1b2"/>
        </Input>
        <Output NOutputs="11">
          <Output Type="Variable" Label="dR_l1l2" Expression="dR_l1l2"/>
          <Output Type="Variable" Label="dR_b1b2" Expression="dR_b1b2"/>
          <Output Type="Variable" Label="dR_bl" Expression="dR_bl"/>
          <Output Type="Variable" Label="dR_l1l2b1b2" Expression="dR_l1l2b1b2"/>
          <Output Type="Variable" Label="MINdR_bl" Expression="MINdR_bl"/>
          <Output Type="Variable" Label="dphi_l1l2b1b2" Expression="dphi_l1l2b1b2"/>
          <Output Type="Variable" Label="mass_l1l2" Expression="mass_l1l2"/>
          <Output Type="Variable" Label="mass_b1b2" Expression="mass_b1b2"/>
          <Output Type="Variable" Label="mass_trans" Expression="mass_trans"/>
          <Output Type="Variable" Label="MT2" Expression="MT2"/>
          <Output Type="Variable" Label="pt_b1b2" Expression="pt_b1b2"/>
        </Output>
      </Selection>
      <Class ClassIndex="0">
        <Ranges>
          <Range Index="0" Min="7.0474378764629364e-02" Max="3.2882008552551270e+00"/>
          <Range Index="1" Min="3.9137476682662964e-01" Max="4.7323188781738281e+00"/>
          <Range Index="2" Min="5.6185132265090942e-01" Max="4.7632784843444824e+00"/>
          <Range Index="3" Min="3.0573642253875732e-01" Max="5.5496301651000977e+00"/>
          <Range Index="4" Min="4.0565529465675354e-01" Max="3.1995050907135010e+00"/>
          <Range Index="5" Min="3.6792077589780092e-03" Max="3.1411793231964111e+00"/>
          <Range Index="6" Min="5.0354061126708984e+00" Max="9.6211151123046875e+01"/>
          <Range Index="7" Min="2.2849296569824219e+01" Max="6.9774261474609375e+02"/>
          <Range Index="8" Min="0.0000000000000000e+00" Max="2.4954870605468750e+02"/>
          <Range Index="9" Min="6.6793525695800781e+01" Max="3.9986032104492188e+02"/>
          <Range Index="10" Min="4.1516189575195312e+00" Max="2.9996072387695312e+02"/>
        </Ranges>
      </Class>
      <Class ClassIndex="1">
        <Ranges>
          <Range Index="0" Min="7.1014471352100372e-02" Max="3.2999174594879150e+00"/>
          <Range Index="1" Min="3.8514035940170288e-01" Max="4.9789867401123047e+00"/>
          <Range Index="2" Min="4.0301227569580078e-01" Max="4.8320369720458984e+00"/>
          <Range Index="3" Min="1.6352390870451927e-02" Max="5.9181427955627441e+00"/>
          <Range Index="4" Min="4.0046215057373047e-01" Max="3.1815350055694580e+00"/>
          <Range Index="5" Min="6.5940577769652009e-04" Max="3.1412169933319092e+00"/>
          <Range Index="6" Min="5.0065827369689941e+00" Max="9.9998535156250000e+01"/>
          <Range Index="7" Min="2.2101655960083008e+01" Max="6.9411236572265625e+02"/>
          <Range Index="8" Min="1.2781299650669098e-02" Max="2.4912995910644531e+02"/>
          <Range Index="9" Min="2.5066349029541016e+01" Max="3.9509289550781250e+02"/>
          <Range Index="10" Min="1.3366146087646484e+00" Max="2.9665045166015625e+02"/>
        </Ranges>
      </Class>
      <Class ClassIndex="2">
        <Ranges>
          <Range Index="0" Min="7.0474378764629364e-02" Max="3.2999174594879150e+00"/>
          <Range Index="1" Min="3.8514035940170288e-01" Max="4.9789867401123047e+00"/>
          <Range Index="2" Min="4.0301227569580078e-01" Max="4.8320369720458984e+00"/>
          <Range Index="3" Min="1.6352390870451927e-02" Max="5.9181427955627441e+00"/>
          <Range Index="4" Min="4.0046215057373047e-01" Max="3.1995050907135010e+00"/>
          <Range Index="5" Min="6.5940577769652009e-04" Max="3.1412169933319092e+00"/>
          <Range Index="6" Min="5.0065827369689941e+00" Max="9.9998535156250000e+01"/>
          <Range Index="7" Min="2.2101655960083008e+01" Max="6.9774261474609375e+02"/>
          <Range Index="8" Min="0.0000000000000000e+00" Max="2.4954870605468750e+02"/>
          <Range Index="9" Min="2.5066349029541016e+01" Max="3.9986032104492188e+02"/>
          <Range Index="10" Min="1.3366146087646484e+00" Max="2.9996072387695312e+02"/>
        </Ranges>
      </Class>
    </Transform>
  </Transformations>
  <MVAPdfs/>
  <Weights>
    <Layout NLayers="3">
      <Layer Index="0" NNeurons="12">
        <Neuron NSynapses="16">
          -1.2469377697461838e-01 1.0168564750110345e+00 8.3730114444962500e-01 1.7344019707423570e+00 -1.1191896557087910e+00 -1.3431592465744688e+00 -2.0404519754761441e-01 1.7652397094716155e+00 -1.3246683515136262e+00 -9.8529519829082679e-01 -1.2684824527785477e+00 -9.6826417206527249e-01 -1.2575577041675523e+00 -6.1368917293142611e-01 -1.0824977114182439e+00 1.3531328723034983e+00 
        </Neuron>
        <Neuron NSynapses="16">
          -1.4988638377203614e-01 1.3187000603838996e+00 4.5948534621639642e-01 1.4658035682060269e+00 -8.5896136063769735e-01 -4.1797896177653338e-01 8.6777003773682093e-01 -2.6961071404112485e-01 -1.1179424584429609e+00 -4.0886308407666294e-01 1.1425805955396700e+00 -1.4231590405232706e+00 -1.5715187226490819e+00 9.3545558246515045e-02 5.2621411330498413e-01 1.3450624344577236e+00 
        </Neuron>
        <Neuron NSynapses="16">
          -2.1943791323600975e-01 3.3374229132095901e-01 2.1297188202603676e-01 -2.9978282462878347e-01 -7.3020823516967559e-01 2.0595871390704854e+00 -4.1262112630672149e-01 8.0967013121336207e-01 1.2540739690369502e+00 8.5553722531879450e-01 1.7901327269759524e+00 5.5443565247522908e-01 -4.7175853430860221e-01 -1.4783125748536730e+00 2.7652866414242977e-01 6.6343976123291154e-02 
        </Neuron>
        <Neuron NSynapses="16">
          1.4726992489482187e+00 1.6428773733263626e+00 1.4886253556699101e+00 1.2834684131408749e+00 -1.2057837832200218e+00 1.3666586028235532e+00 -1.7484124092618016e+00 -9.9284283917601690e-01 -1.2519777731218136e+00 -1.7408923348178369e+00 1.4954263446051952e+00 9.1387663886137760e-01 -1.6163636489693014e+00 2.1402438912038993e-01 4.2134851524526715e-03 5.0933534614489173e-01 
        </Neuron>
        <Neuron NSynapses="16">
          2.0892040701411889e+00 -6.2101660202932651e-01 1.9200671280578599e-01 -1.2171446610862102e+00 9.2498115432994532e-01 -4.6588738211517583e-01 -4.2169174793773684e-01 -1.7063360232127700e+00 6.4585596952796620e-01 9.5759886730602028e-01 1.3798627911995154e+00 1.1447166738338881e-01 -1.4694748985760651e+00 -1.8986997902928984e+00 1.3723744496529300e-02 3.4827971328253164e-03 
        </Neuron>
        <Neuron NSynapses="16">
          1.1088117080476902e+00 -3.4683253126907559e-01 4.1697629693493199e-01 -6.9245193744180056e-01 -8.8148603365044820e-02 -9.3197157558855215e-01 1.4389510076059567e-01 -5.3579852395530858e-01 -1.4994415609266440e+00 -1.4421035557799753e+00 -5.4171022602325825e-01 1.3790830373516250e-01 1.1730069304224928e+00 -1.3222430634530977e+00 2.9991107558286556e-01 1.0126196550284507e+00 
        </Neuron>
        <Neuron NSynapses="16">
          -9.0111945117464565e-01 -2.4791500525618088e-01 -1.4238970552128525e+00 -6.5536200003194919e-02 -1.9497597243735123e+00 -1.8018647669161241e+00 1.2402725225587417e+00 1.9538674746197982e+00 -1.0602364212290309e+00 1.6297143723194019e+00 -9.2006135985210458e-01 -7.5483715646232918e-01 -3.5707277392698256e-01 3.1660377421489100e-01 -6.5635232132832866e-01 7.9871982032511546e-01 
        </Neuron>
        <Neuron NSynapses="16">
          1.1066295205203771e+00 -4.6108323548109548e-01 -8.2674526014911554e-01 1.6807945956028918e+00 3.4522109085858295e-02 -1.6923485979616765e-02 1.6069306797057255e+00 -1.8931094577498200e+00 -1.4690780072945582e+00 -7.3939623266614046e-02 -2.1923218217959731e-01 1.6182159994783263e+00 1.0339098143865166e+00 -5.9628999159562712e-01 -1.2874057885916528e+00 1.7679118224690652e-02 
        </Neuron>
        <Neuron NSynapses="16">
          -1.1949279090454530e+00 4.8036319687409912e-01 3.9170831718241284e-01 -1.9658709207890204e+00 3.8931968858189514e-01 -9.0672723322270643e-01 2.2476308424880365e-01 7.5743311350115228e-01 1.6407494549051174e+00 -1.7186871270736983e+00 3.0090032488188401e-01 6.7410172126818202e-01 1.5693809678022521e+00 2.4620149216204365e-01 -1.2110953411441785e+00 -5.9923965945916639e-02 
        </Neuron>
        <Neuron NSynapses="16">
          -9.1888777784376574e-01 2.3669963558416920e+00 1.5225977282740959e+00 -6.9662458834015384e-01 -8.3310829060397118e-01 6.2115223745219250e-01 -2.0332667979947026e+00 3.8368146227179190e-01 1.7371756735239277e+00 -5.7289610700311311e-01 -3.8728572999879268e-01 5.7577060917519052e-01 1.2178378329837976e+00 1.2569980300311770e-01 4.3889455976302667e+00 -1.7082957362542637e+00 
        </Neuron>
        <Neuron NSynapses="16">
          2.0382712609112721e+00 6.4439843217074511e-01 7.2929852845041832e-01 3.3226984166510398e-01 1.0157896289604584e+00 -1.8223726183252315e-02 -6.3986930535328179e-01 6.0727218221266865e-01 -8.4188022385112804e-01 -5.7721786685905840e-01 2.0284711210374784e+00 8.6220668134657452e-01 -2.5066367877064172e-01 9.4446243350567827e-01 5.5974577514645552e-01 -1.7296370256372864e+00 
        </Neuron>
        <Neuron NSynapses="16">
          -5.1151293804289211e-01 -1.9168060835282279e+00 -2.7448877343823902e-01 -1.1639242983638785e+00 -2.1902439942126048e+00 -1.7441088462395901e-01 1.7797249796795591e+00 -5.5187879584156529e-01 -3.1690267566686781e-01 -3.4935354301281885e-01 -3.9025690300144228e-01 1.0248009095636199e+00 -4.1791823904218656e-01 3.4951315039512199e-01 -1.0742271373617582e+00 9.5187559589707049e-01 
        </Neuron>
      </Layer>
      <Layer Index="1" NNeurons="17">
        <Neuron NSynapses="1">
          1.2130504178914736e-02 
        </Neuron>
        <Neuron NSynapses="1">
          -3.4106847455948230e-01 
        </Neuron>
        <Neuron NSynapses="1">
          -8.2307850806004682e-03 
        </Neuron>
        <Neuron NSynapses="1">
          1.2959056024975409e-02 
        </Neuron>
        <Neuron NSynapses="1">
          -5.6100954668108605e-02 
        </Neuron>
        <Neuron NSynapses="1">
          1.7900682738016340e-02 
        </Neuron>
        <Neuron NSynapses="1">
          -1.3052745926828002e-01 
        </Neuron>
        <Neuron NSynapses="1">
          -1.4832436285189684e-02 
        </Neuron>
        <Neuron NSynapses="1">
          2.6224985440112358e-03 
        </Neuron>
        <Neuron NSynapses="1">
          -9.1359951831420753e-03 
        </Neuron>
        <Neuron NSynapses="1">
          -9.4363285492023719e-03 
        </Neuron>
        <Neuron NSynapses="1">
          -4.6200739721131409e-02 
        </Neuron>
        <Neuron NSynapses="1">
          1.4631734612809262e-02 
        </Neuron>
        <Neuron NSynapses="1">
          -4.7871284012990182e-06 
        </Neuron>
        <Neuron NSynapses="1">
          3.7673437628257700e-01 
        </Neuron>
        <Neuron NSynapses="1">
          -5.0902093787028382e-02 
        </Neuron>
        <Neuron NSynapses="1">
          1.6030623423341123e-01 
        </Neuron>
      </Layer>
      <Layer Index="2" NNeurons="1">
        <Neuron NSynapses="0"/>
      </Layer>
    </Layout>
  </Weights>
</MethodSetup>
