<?xml version="1.0"?>
<MethodSetup Method="MLP::MLPBFGS">
  <GeneralInfo>
    <Info name="TMVA Release" value="4.1.2 [262402]"/>
    <Info name="ROOT Release" value="5.32/04 [335876]"/>
    <Info name="Creator" value="lpernie"/>
    <Info name="Date" value="Fri May  6 14:25:28 2016"/>
    <Info name="Host" value="Linux login01.brazos.tamu.edu 2.6.32-431.23.3.el6.x86_64 #1 SMP Thu Jul 31 17:20:51 UTC 2014 x86_64 x86_64 x86_64 GNU/Linux"/>
    <Info name="Dir" value="/home/lpernie/Hhh/delphes/diHiggs/MVAs"/>
    <Info name="Training events" value="16801"/>
    <Info name="TrainingTime" value="8.32695021e+02"/>
    <Info name="AnalysisType" value="Classification"/>
  </GeneralInfo>
  <Options>
    <Option name="NCycles" modified="Yes">600</Option>
    <Option name="HiddenLayers" modified="Yes">N+5</Option>
    <Option name="NeuronType" modified="Yes">tanh</Option>
    <Option name="RandomSeed" modified="No">1</Option>
    <Option name="EstimatorType" modified="No">MSE</Option>
    <Option name="NeuronInputType" modified="No">sum</Option>
    <Option name="V" modified="Yes">False</Option>
    <Option name="VerbosityLevel" modified="No">Default</Option>
    <Option name="VarTransform" modified="Yes">N</Option>
    <Option name="H" modified="Yes">True</Option>
    <Option name="CreateMVAPdfs" modified="No">False</Option>
    <Option name="IgnoreNegWeightsInTraining" modified="No">False</Option>
    <Option name="TrainingMethod" modified="Yes">BFGS</Option>
    <Option name="LearningRate" modified="No">2.000000e-02</Option>
    <Option name="DecayRate" modified="No">1.000000e-02</Option>
    <Option name="TestRate" modified="Yes">5</Option>
    <Option name="EpochMonitoring" modified="No">False</Option>
    <Option name="Sampling" modified="No">1.000000e+00</Option>
    <Option name="SamplingEpoch" modified="No">1.000000e+00</Option>
    <Option name="SamplingImportance" modified="No">1.000000e+00</Option>
    <Option name="SamplingTraining" modified="No">True</Option>
    <Option name="SamplingTesting" modified="No">False</Option>
    <Option name="ResetStep" modified="No">50</Option>
    <Option name="Tau" modified="No">3.000000e+00</Option>
    <Option name="BPMode" modified="No">sequential</Option>
    <Option name="BatchSize" modified="No">-1</Option>
    <Option name="ConvergenceImprove" modified="No">1.000000e-30</Option>
    <Option name="ConvergenceTests" modified="No">-1</Option>
    <Option name="UseRegulator" modified="Yes">False</Option>
    <Option name="UpdateLimit" modified="No">10000</Option>
    <Option name="CalculateErrors" modified="No">False</Option>
    <Option name="WeightRange" modified="No">1.000000e+00</Option>
  </Options>
  <Variables NVar="11">
    <Variable VarIndex="0" Expression="dR_l1l2" Label="dR_l1l2" Title="dR_l1l2" Unit="" Internal="dR_l1l2" Type="F" Min="7.04743788e-02" Max="3.29991746e+00"/>
    <Variable VarIndex="1" Expression="dR_b1b2" Label="dR_b1b2" Title="dR_b1b2" Unit="" Internal="dR_b1b2" Type="F" Min="3.85140359e-01" Max="4.97898674e+00"/>
    <Variable VarIndex="2" Expression="dR_bl" Label="dR_bl" Title="dR_bl" Unit="" Internal="dR_bl" Type="F" Min="4.03012276e-01" Max="4.83203697e+00"/>
    <Variable VarIndex="3" Expression="dR_l1l2b1b2" Label="dR_l1l2b1b2" Title="dR_l1l2b1b2" Unit="" Internal="dR_l1l2b1b2" Type="F" Min="1.63523909e-02" Max="5.91814280e+00"/>
    <Variable VarIndex="4" Expression="MINdR_bl" Label="MINdR_bl" Title="MINdR_bl" Unit="" Internal="MINdR_bl" Type="F" Min="4.00462151e-01" Max="3.19950509e+00"/>
    <Variable VarIndex="5" Expression="dphi_l1l2b1b2" Label="dphi_l1l2b1b2" Title="dphi_l1l2b1b2" Unit="" Internal="dphi_l1l2b1b2" Type="F" Min="6.59405778e-04" Max="3.14121699e+00"/>
    <Variable VarIndex="6" Expression="mass_l1l2" Label="mass_l1l2" Title="mass_l1l2" Unit="" Internal="mass_l1l2" Type="F" Min="5.00658274e+00" Max="9.99985352e+01"/>
    <Variable VarIndex="7" Expression="mass_b1b2" Label="mass_b1b2" Title="mass_b1b2" Unit="" Internal="mass_b1b2" Type="F" Min="2.21016560e+01" Max="6.97742615e+02"/>
    <Variable VarIndex="8" Expression="mass_trans" Label="mass_trans" Title="mass_trans" Unit="" Internal="mass_trans" Type="F" Min="0.00000000e+00" Max="2.49548706e+02"/>
    <Variable VarIndex="9" Expression="MT2" Label="MT2" Title="MT2" Unit="" Internal="MT2" Type="F" Min="2.50663490e+01" Max="3.99860321e+02"/>
    <Variable VarIndex="10" Expression="pt_b1b2" Label="pt_b1b2" Title="pt_b1b2" Unit="" Internal="pt_b1b2" Type="F" Min="1.33661461e+00" Max="2.99960724e+02"/>
  </Variables>
  <Spectators NSpec="0"/>
  <Classes NClass="2">
    <Class Name="Signal" Index="0"/>
    <Class Name="Background" Index="1"/>
  </Classes>
  <Transformations NTransformations="1">
    <Transform Name="Normalize">
      <Selection>
        <Input NInputs="11">
          <Input Type="Variable" Label="dR_l1l2" Expression="dR_l1l2"/>
          <Input Type="Variable" Label="dR_b1b2" Expression="dR_b1b2"/>
          <Input Type="Variable" Label="dR_bl" Expression="dR_bl"/>
          <Input Type="Variable" Label="dR_l1l2b1b2" Expression="dR_l1l2b1b2"/>
          <Input Type="Variable" Label="MINdR_bl" Expression="MINdR_bl"/>
          <Input Type="Variable" Label="dphi_l1l2b1b2" Expression="dphi_l1l2b1b2"/>
          <Input Type="Variable" Label="mass_l1l2" Expression="mass_l1l2"/>
          <Input Type="Variable" Label="mass_b1b2" Expression="mass_b1b2"/>
          <Input Type="Variable" Label="mass_trans" Expression="mass_trans"/>
          <Input Type="Variable" Label="MT2" Expression="MT2"/>
          <Input Type="Variable" Label="pt_b1b2" Expression="pt_b1b2"/>
        </Input>
        <Output NOutputs="11">
          <Output Type="Variable" Label="dR_l1l2" Expression="dR_l1l2"/>
          <Output Type="Variable" Label="dR_b1b2" Expression="dR_b1b2"/>
          <Output Type="Variable" Label="dR_bl" Expression="dR_bl"/>
          <Output Type="Variable" Label="dR_l1l2b1b2" Expression="dR_l1l2b1b2"/>
          <Output Type="Variable" Label="MINdR_bl" Expression="MINdR_bl"/>
          <Output Type="Variable" Label="dphi_l1l2b1b2" Expression="dphi_l1l2b1b2"/>
          <Output Type="Variable" Label="mass_l1l2" Expression="mass_l1l2"/>
          <Output Type="Variable" Label="mass_b1b2" Expression="mass_b1b2"/>
          <Output Type="Variable" Label="mass_trans" Expression="mass_trans"/>
          <Output Type="Variable" Label="MT2" Expression="MT2"/>
          <Output Type="Variable" Label="pt_b1b2" Expression="pt_b1b2"/>
        </Output>
      </Selection>
      <Class ClassIndex="0">
        <Ranges>
          <Range Index="0" Min="7.0474378764629364e-02" Max="3.2882008552551270e+00"/>
          <Range Index="1" Min="3.9137476682662964e-01" Max="4.7323188781738281e+00"/>
          <Range Index="2" Min="5.6185132265090942e-01" Max="4.7632784843444824e+00"/>
          <Range Index="3" Min="3.0573642253875732e-01" Max="5.5496301651000977e+00"/>
          <Range Index="4" Min="4.0565529465675354e-01" Max="3.1995050907135010e+00"/>
          <Range Index="5" Min="3.6792077589780092e-03" Max="3.1411793231964111e+00"/>
          <Range Index="6" Min="5.0354061126708984e+00" Max="9.6211151123046875e+01"/>
          <Range Index="7" Min="2.2849296569824219e+01" Max="6.9774261474609375e+02"/>
          <Range Index="8" Min="0.0000000000000000e+00" Max="2.4954870605468750e+02"/>
          <Range Index="9" Min="6.6793525695800781e+01" Max="3.9986032104492188e+02"/>
          <Range Index="10" Min="4.1516189575195312e+00" Max="2.9996072387695312e+02"/>
        </Ranges>
      </Class>
      <Class ClassIndex="1">
        <Ranges>
          <Range Index="0" Min="7.1014471352100372e-02" Max="3.2999174594879150e+00"/>
          <Range Index="1" Min="3.8514035940170288e-01" Max="4.9789867401123047e+00"/>
          <Range Index="2" Min="4.0301227569580078e-01" Max="4.8320369720458984e+00"/>
          <Range Index="3" Min="1.6352390870451927e-02" Max="5.9181427955627441e+00"/>
          <Range Index="4" Min="4.0046215057373047e-01" Max="3.1815350055694580e+00"/>
          <Range Index="5" Min="6.5940577769652009e-04" Max="3.1412169933319092e+00"/>
          <Range Index="6" Min="5.0065827369689941e+00" Max="9.9998535156250000e+01"/>
          <Range Index="7" Min="2.2101655960083008e+01" Max="6.9411236572265625e+02"/>
          <Range Index="8" Min="1.2781299650669098e-02" Max="2.4912995910644531e+02"/>
          <Range Index="9" Min="2.5066349029541016e+01" Max="3.9509289550781250e+02"/>
          <Range Index="10" Min="1.3366146087646484e+00" Max="2.9665045166015625e+02"/>
        </Ranges>
      </Class>
      <Class ClassIndex="2">
        <Ranges>
          <Range Index="0" Min="7.0474378764629364e-02" Max="3.2999174594879150e+00"/>
          <Range Index="1" Min="3.8514035940170288e-01" Max="4.9789867401123047e+00"/>
          <Range Index="2" Min="4.0301227569580078e-01" Max="4.8320369720458984e+00"/>
          <Range Index="3" Min="1.6352390870451927e-02" Max="5.9181427955627441e+00"/>
          <Range Index="4" Min="4.0046215057373047e-01" Max="3.1995050907135010e+00"/>
          <Range Index="5" Min="6.5940577769652009e-04" Max="3.1412169933319092e+00"/>
          <Range Index="6" Min="5.0065827369689941e+00" Max="9.9998535156250000e+01"/>
          <Range Index="7" Min="2.2101655960083008e+01" Max="6.9774261474609375e+02"/>
          <Range Index="8" Min="0.0000000000000000e+00" Max="2.4954870605468750e+02"/>
          <Range Index="9" Min="2.5066349029541016e+01" Max="3.9986032104492188e+02"/>
          <Range Index="10" Min="1.3366146087646484e+00" Max="2.9996072387695312e+02"/>
        </Ranges>
      </Class>
    </Transform>
  </Transformations>
  <MVAPdfs/>
  <Weights>
    <Layout NLayers="3">
      <Layer Index="0" NNeurons="12">
        <Neuron NSynapses="16">
          6.0100857969416355e-01 -5.1262443434505589e-01 1.0360119231088796e+00 -9.5311841564771504e-01 -3.5559009375053647e+00 -4.2071030217936317e-01 1.1307385353748654e+00 3.1966833735869273e+00 -1.5631615977904707e+00 -1.1725437717005667e+00 -1.0451134215752078e+00 -1.0794078208093856e+00 -1.3972800371378256e+00 -2.5507991314188239e-01 -1.4661462265119398e+00 4.2225475519805418e+00 
        </Neuron>
        <Neuron NSynapses="16">
          -1.0523304757110424e-01 2.7408603830729855e-01 -4.6652128369120782e-01 1.3428293012573980e+00 -5.2592822198663969e-01 4.3305966289150938e-01 -1.6716797416874953e+00 -3.2115189369459551e-01 -6.9972924233662914e-01 -9.3070392507178357e-01 8.5474253589918325e-01 9.8988624819491866e-01 -1.8876393048161821e+00 1.4897054197095463e-01 2.5403613175810968e+00 1.3745643244876982e-01 
        </Neuron>
        <Neuron NSynapses="16">
          -9.1029917934280979e-01 4.6497089712518214e-01 1.2420968108811323e-01 2.0029802103682959e-01 -4.3714855845290912e-01 1.2890300416564409e+00 4.6556474210316368e-01 1.7319488453287961e+00 2.0526923212584891e+00 7.3149919049139889e-01 1.9486314667341433e+00 -1.6814883811329193e-01 -8.4558132851515078e-01 -1.5490954157577201e+00 8.8650292964923039e-01 1.3467703676474499e-01 
        </Neuron>
        <Neuron NSynapses="16">
          2.0465830181867193e+00 1.1755583027701995e+00 6.6271579427332999e-02 5.9302499207568227e-01 -7.2073726724570597e-01 2.1177021197803958e+00 -6.6740252846458448e-01 -2.0119930653610657e-01 -7.7389661932147491e-01 -1.6149970775546685e+00 1.7991353882509342e+00 2.1370908517053372e-01 -1.7816405683601615e+00 4.1258612459756494e-01 7.0732406976598106e-01 8.2348463228662505e-01 
        </Neuron>
        <Neuron NSynapses="16">
          1.1050228086581153e+00 -3.9947430510015614e-01 4.9636585819523521e-01 4.6501173029923393e-01 6.9221606163290472e-01 1.4726614234293836e-01 3.0539807691444243e-01 1.7703303266142893e-02 6.6797696069883605e-01 1.0645334017384760e+00 1.6530618632891823e+00 -4.7984172566184852e-01 -1.6061698542384975e+00 -1.8115520231620952e+00 -3.2160270449765127e-01 -3.1527288995317471e-01 
        </Neuron>
        <Neuron NSynapses="16">
          1.8425657067211720e-02 -3.1905098806224230e-01 6.6302925844144997e-03 -4.7035936722623006e-01 7.4816988195528578e-01 -8.8084215431952018e-01 -9.4939132395574122e-01 -6.5758719371744312e-01 -7.5214540255879136e-01 6.8220068428468131e-02 -9.9404183016984027e-01 1.0145930261027522e-01 1.0472741299215578e+00 -1.9440687551924352e+00 5.2806712031487506e-02 -4.0386858866502751e-01 
        </Neuron>
        <Neuron NSynapses="16">
          -1.2931881909065936e+00 1.0815620266169075e+00 -1.2137881912648365e+00 -8.6289106872361110e-01 -7.0513514541565159e-01 -2.7332913095200295e+00 1.3954144180179189e+00 -6.5568841759406832e-02 -7.9655853330401116e-01 1.1027231527304633e+00 -1.7501309150645625e+00 8.7937757820183715e-01 -5.6292667859251999e-01 3.7521817446335162e-02 5.5088899108050489e-02 -8.3301633871013803e-01 
        </Neuron>
        <Neuron NSynapses="16">
          -3.9734965985272913e-01 -4.2307082056094403e-01 -3.3877432543930022e+00 3.1063398073510111e+00 -3.5868730130061038e-01 1.3916403541477218e-01 6.7603665160034305e+00 -1.3454415707281087e+00 -4.1558689857007047e-01 1.4312677914725000e-01 -9.7690673762572122e-01 3.7048443006601155e+00 9.9889241575093479e-01 -1.4114797566048932e-02 -4.0707645182969436e+00 -7.0146522758508495e-02 
        </Neuron>
        <Neuron NSynapses="16">
          -2.5777498494120406e+00 -9.6467354728609206e-02 -4.1841361593886639e-01 -7.0576515513186566e-01 -6.9177524383962619e-01 -2.4396147425228729e-01 1.1497224573937264e+00 3.4225981951205270e-01 2.1429359136887349e+00 -2.3961485282849839e+00 -2.3509615077095911e+00 5.8431501571514360e-02 1.5630910205662645e+00 4.1942375573787655e-01 -2.0760830272629285e+00 3.2666776454937735e-01 
        </Neuron>
        <Neuron NSynapses="16">
          -1.9804816356595243e+00 1.9856710501230765e+00 1.2225692016065617e+00 1.2213798284675434e+00 1.4669255072433895e-01 -1.0007175421964574e+00 -5.4839368392686714e+00 5.2788485220916104e-01 1.8598274339096494e+00 -1.4182621815625420e+00 -3.0621004266619734e-01 -1.9991778730878079e-01 1.7895019706242494e+00 4.1967856971867157e-01 8.8346469228910820e+00 -1.2285581572126894e+00 
        </Neuron>
        <Neuron NSynapses="16">
          7.8249062004299463e-01 3.4991405676678811e-01 5.7002066924905215e-01 3.1756415641339917e+00 9.8063563906377785e-02 -8.1646729528677287e-01 -1.1573617149160509e+00 2.0038078589101964e+00 -6.7482693778970615e-01 -7.2028776671046429e-02 2.1084145829657990e+00 -2.7608831628811698e-01 6.8614899080617398e-01 1.2396831788422737e+00 1.7308854929729283e+00 2.1324861353052402e-01 
        </Neuron>
        <Neuron NSynapses="16">
          -7.0387381138774263e-01 -1.0824115841103035e+00 -9.6651684201497479e-01 -2.4816655264434084e+00 -4.6636047370138280e+00 1.2100518945547734e+00 5.2867718959632066e+00 -1.6340567873313545e+00 -1.9365984537414211e+00 -3.1461964523960271e+00 -1.0295803890885364e+00 2.0806682812943533e+00 5.2119458094012000e-02 -3.5853785658851478e-01 -1.5404811870305751e-01 3.3885729214300366e+00 
        </Neuron>
      </Layer>
      <Layer Index="1" NNeurons="17">
        <Neuron NSynapses="1">
          2.7908760135516481e-02 
        </Neuron>
        <Neuron NSynapses="1">
          -1.6531811382618802e-01 
        </Neuron>
        <Neuron NSynapses="1">
          -1.6923497807422100e-01 
        </Neuron>
        <Neuron NSynapses="1">
          1.3137713948899699e-01 
        </Neuron>
        <Neuron NSynapses="1">
          -2.4750515630239972e-01 
        </Neuron>
        <Neuron NSynapses="1">
          1.5482211474520982e-02 
        </Neuron>
        <Neuron NSynapses="1">
          -3.1081246605884233e-01 
        </Neuron>
        <Neuron NSynapses="1">
          1.8386573975314836e-02 
        </Neuron>
        <Neuron NSynapses="1">
          -3.3177782612740910e-02 
        </Neuron>
        <Neuron NSynapses="1">
          -4.5376890563486608e-02 
        </Neuron>
        <Neuron NSynapses="1">
          5.0596097300433913e-02 
        </Neuron>
        <Neuron NSynapses="1">
          -1.5267008124093628e-01 
        </Neuron>
        <Neuron NSynapses="1">
          1.1753049673456683e-02 
        </Neuron>
        <Neuron NSynapses="1">
          -9.0029141917381695e-03 
        </Neuron>
        <Neuron NSynapses="1">
          1.5531702913236128e-01 
        </Neuron>
        <Neuron NSynapses="1">
          -2.9747992202913714e-01 
        </Neuron>
        <Neuron NSynapses="1">
          4.9567570771971969e-01 
        </Neuron>
      </Layer>
      <Layer Index="2" NNeurons="1">
        <Neuron NSynapses="0"/>
      </Layer>
    </Layout>
  </Weights>
</MethodSetup>
