<?xml version="1.0"?>
<MethodSetup Method="MLP::MLP">
  <GeneralInfo>
    <Info name="TMVA Release" value="4.1.2 [262402]"/>
    <Info name="ROOT Release" value="5.32/04 [335876]"/>
    <Info name="Creator" value="lpernie"/>
    <Info name="Date" value="Fri Jul  1 11:03:07 2016"/>
    <Info name="Host" value="Linux login01.brazos.tamu.edu 2.6.32-431.23.3.el6.x86_64 #1 SMP Thu Jul 31 17:20:51 UTC 2014 x86_64 x86_64 x86_64 GNU/Linux"/>
    <Info name="Dir" value="/home/lpernie/Hhh/delphes/diHiggs/MVAs"/>
    <Info name="Training events" value="224320"/>
    <Info name="TrainingTime" value="2.75250011e+03"/>
    <Info name="AnalysisType" value="Classification"/>
  </GeneralInfo>
  <Options>
    <Option name="NCycles" modified="Yes">600</Option>
    <Option name="HiddenLayers" modified="Yes">N+5</Option>
    <Option name="NeuronType" modified="Yes">tanh</Option>
    <Option name="RandomSeed" modified="No">1</Option>
    <Option name="EstimatorType" modified="No">MSE</Option>
    <Option name="NeuronInputType" modified="No">sum</Option>
    <Option name="V" modified="Yes">False</Option>
    <Option name="VerbosityLevel" modified="No">Default</Option>
    <Option name="VarTransform" modified="Yes">N</Option>
    <Option name="H" modified="Yes">True</Option>
    <Option name="CreateMVAPdfs" modified="No">False</Option>
    <Option name="IgnoreNegWeightsInTraining" modified="No">False</Option>
    <Option name="TrainingMethod" modified="No">BP</Option>
    <Option name="LearningRate" modified="No">2.000000e-02</Option>
    <Option name="DecayRate" modified="No">1.000000e-02</Option>
    <Option name="TestRate" modified="Yes">5</Option>
    <Option name="EpochMonitoring" modified="No">False</Option>
    <Option name="Sampling" modified="No">1.000000e+00</Option>
    <Option name="SamplingEpoch" modified="No">1.000000e+00</Option>
    <Option name="SamplingImportance" modified="No">1.000000e+00</Option>
    <Option name="SamplingTraining" modified="No">True</Option>
    <Option name="SamplingTesting" modified="No">False</Option>
    <Option name="ResetStep" modified="No">50</Option>
    <Option name="Tau" modified="No">3.000000e+00</Option>
    <Option name="BPMode" modified="No">sequential</Option>
    <Option name="BatchSize" modified="No">-1</Option>
    <Option name="ConvergenceImprove" modified="No">1.000000e-30</Option>
    <Option name="ConvergenceTests" modified="No">-1</Option>
    <Option name="UseRegulator" modified="Yes">False</Option>
    <Option name="UpdateLimit" modified="No">10000</Option>
    <Option name="CalculateErrors" modified="No">False</Option>
    <Option name="WeightRange" modified="No">1.000000e+00</Option>
  </Options>
  <Variables NVar="11">
    <Variable VarIndex="0" Expression="dR_l1l2" Label="dR_l1l2" Title="dR_l1l2" Unit="" Internal="dR_l1l2" Type="F" Min="7.04806447e-02" Max="3.29992628e+00"/>
    <Variable VarIndex="1" Expression="dR_b1b2" Label="dR_b1b2" Title="dR_b1b2" Unit="" Internal="dR_b1b2" Type="F" Min="3.80394489e-01" Max="4.99732256e+00"/>
    <Variable VarIndex="2" Expression="dR_bl" Label="dR_bl" Title="dR_bl" Unit="" Internal="dR_bl" Type="F" Min="4.00014162e-01" Max="4.99972916e+00"/>
    <Variable VarIndex="3" Expression="dR_l1l2b1b2" Label="dR_l1l2b1b2" Title="dR_l1l2b1b2" Unit="" Internal="dR_l1l2b1b2" Type="F" Min="4.42243833e-03" Max="5.99096441e+00"/>
    <Variable VarIndex="4" Expression="MINdR_bl" Label="MINdR_bl" Title="MINdR_bl" Unit="" Internal="MINdR_bl" Type="F" Min="4.00001377e-01" Max="3.19991016e+00"/>
    <Variable VarIndex="5" Expression="dphi_l1l2b1b2" Label="dphi_l1l2b1b2" Title="dphi_l1l2b1b2" Unit="" Internal="dphi_l1l2b1b2" Type="F" Min="1.76370463e-06" Max="3.14159083e+00"/>
    <Variable VarIndex="6" Expression="mass_l1l2" Label="mass_l1l2" Title="mass_l1l2" Unit="" Internal="mass_l1l2" Type="F" Min="5.00372505e+00" Max="9.99998016e+01"/>
    <Variable VarIndex="7" Expression="mass_b1b2" Label="mass_b1b2" Title="mass_b1b2" Unit="" Internal="mass_b1b2" Type="F" Min="2.20002632e+01" Max="6.99872253e+02"/>
    <Variable VarIndex="8" Expression="mass_trans" Label="mass_trans" Title="mass_trans" Unit="" Internal="mass_trans" Type="F" Min="0.00000000e+00" Max="2.49973557e+02"/>
    <Variable VarIndex="9" Expression="MT2" Label="MT2" Title="MT2" Unit="" Internal="MT2" Type="F" Min="2.52198734e+01" Max="3.99971771e+02"/>
    <Variable VarIndex="10" Expression="pt_b1b2" Label="pt_b1b2" Title="pt_b1b2" Unit="" Internal="pt_b1b2" Type="F" Min="1.50757179e-01" Max="2.99963409e+02"/>
  </Variables>
  <Spectators NSpec="0"/>
  <Classes NClass="2">
    <Class Name="Signal" Index="0"/>
    <Class Name="Background" Index="1"/>
  </Classes>
  <Transformations NTransformations="1">
    <Transform Name="Normalize">
      <Selection>
        <Input NInputs="11">
          <Input Type="Variable" Label="dR_l1l2" Expression="dR_l1l2"/>
          <Input Type="Variable" Label="dR_b1b2" Expression="dR_b1b2"/>
          <Input Type="Variable" Label="dR_bl" Expression="dR_bl"/>
          <Input Type="Variable" Label="dR_l1l2b1b2" Expression="dR_l1l2b1b2"/>
          <Input Type="Variable" Label="MINdR_bl" Expression="MINdR_bl"/>
          <Input Type="Variable" Label="dphi_l1l2b1b2" Expression="dphi_l1l2b1b2"/>
          <Input Type="Variable" Label="mass_l1l2" Expression="mass_l1l2"/>
          <Input Type="Variable" Label="mass_b1b2" Expression="mass_b1b2"/>
          <Input Type="Variable" Label="mass_trans" Expression="mass_trans"/>
          <Input Type="Variable" Label="MT2" Expression="MT2"/>
          <Input Type="Variable" Label="pt_b1b2" Expression="pt_b1b2"/>
        </Input>
        <Output NOutputs="11">
          <Output Type="Variable" Label="dR_l1l2" Expression="dR_l1l2"/>
          <Output Type="Variable" Label="dR_b1b2" Expression="dR_b1b2"/>
          <Output Type="Variable" Label="dR_bl" Expression="dR_bl"/>
          <Output Type="Variable" Label="dR_l1l2b1b2" Expression="dR_l1l2b1b2"/>
          <Output Type="Variable" Label="MINdR_bl" Expression="MINdR_bl"/>
          <Output Type="Variable" Label="dphi_l1l2b1b2" Expression="dphi_l1l2b1b2"/>
          <Output Type="Variable" Label="mass_l1l2" Expression="mass_l1l2"/>
          <Output Type="Variable" Label="mass_b1b2" Expression="mass_b1b2"/>
          <Output Type="Variable" Label="mass_trans" Expression="mass_trans"/>
          <Output Type="Variable" Label="MT2" Expression="MT2"/>
          <Output Type="Variable" Label="pt_b1b2" Expression="pt_b1b2"/>
        </Output>
      </Selection>
      <Class ClassIndex="0">
        <Ranges>
          <Range Index="0" Min="7.0480644702911377e-02" Max="3.1969120502471924e+00"/>
          <Range Index="1" Min="3.8605082035064697e-01" Max="4.9693708419799805e+00"/>
          <Range Index="2" Min="5.0115716457366943e-01" Max="4.8582291603088379e+00"/>
          <Range Index="3" Min="7.9715269804000854e-01" Max="5.6536250114440918e+00"/>
          <Range Index="4" Min="4.3472185730934143e-01" Max="3.1958000659942627e+00"/>
          <Range Index="5" Min="3.3473242074251175e-02" Max="3.1415908336639404e+00"/>
          <Range Index="6" Min="5.0581655502319336e+00" Max="9.2976593017578125e+01"/>
          <Range Index="7" Min="2.2086919784545898e+01" Max="6.9987225341796875e+02"/>
          <Range Index="8" Min="0.0000000000000000e+00" Max="2.4867498779296875e+02"/>
          <Range Index="9" Min="4.2385044097900391e+01" Max="3.9997177124023438e+02"/>
          <Range Index="10" Min="6.0551342964172363e+00" Max="2.9994226074218750e+02"/>
        </Ranges>
      </Class>
      <Class ClassIndex="1">
        <Ranges>
          <Range Index="0" Min="7.1852713823318481e-02" Max="3.2999262809753418e+00"/>
          <Range Index="1" Min="3.8039448857307434e-01" Max="4.9973225593566895e+00"/>
          <Range Index="2" Min="4.0001416206359863e-01" Max="4.9997291564941406e+00"/>
          <Range Index="3" Min="4.4224383309483528e-03" Max="5.9909644126892090e+00"/>
          <Range Index="4" Min="4.0000137686729431e-01" Max="3.1999101638793945e+00"/>
          <Range Index="5" Min="1.7637046312302118e-06" Max="3.1415886878967285e+00"/>
          <Range Index="6" Min="5.0037250518798828e+00" Max="9.9999801635742188e+01"/>
          <Range Index="7" Min="2.2000263214111328e+01" Max="6.9975122070312500e+02"/>
          <Range Index="8" Min="0.0000000000000000e+00" Max="2.4997355651855469e+02"/>
          <Range Index="9" Min="2.5219873428344727e+01" Max="3.9992547607421875e+02"/>
          <Range Index="10" Min="1.5075717866420746e-01" Max="2.9996340942382812e+02"/>
        </Ranges>
      </Class>
      <Class ClassIndex="2">
        <Ranges>
          <Range Index="0" Min="7.0480644702911377e-02" Max="3.2999262809753418e+00"/>
          <Range Index="1" Min="3.8039448857307434e-01" Max="4.9973225593566895e+00"/>
          <Range Index="2" Min="4.0001416206359863e-01" Max="4.9997291564941406e+00"/>
          <Range Index="3" Min="4.4224383309483528e-03" Max="5.9909644126892090e+00"/>
          <Range Index="4" Min="4.0000137686729431e-01" Max="3.1999101638793945e+00"/>
          <Range Index="5" Min="1.7637046312302118e-06" Max="3.1415908336639404e+00"/>
          <Range Index="6" Min="5.0037250518798828e+00" Max="9.9999801635742188e+01"/>
          <Range Index="7" Min="2.2000263214111328e+01" Max="6.9987225341796875e+02"/>
          <Range Index="8" Min="0.0000000000000000e+00" Max="2.4997355651855469e+02"/>
          <Range Index="9" Min="2.5219873428344727e+01" Max="3.9997177124023438e+02"/>
          <Range Index="10" Min="1.5075717866420746e-01" Max="2.9996340942382812e+02"/>
        </Ranges>
      </Class>
    </Transform>
  </Transformations>
  <MVAPdfs/>
  <Weights>
    <Layout NLayers="3">
      <Layer Index="0" NNeurons="12">
        <Neuron NSynapses="16">
          -8.8701714132027520e-01 -1.1964627897003387e-01 -7.2831082633042665e-01 1.2116394246265378e+00 -1.4490075310380961e+00 -7.9561812352371808e-01 2.4017781864908501e+00 9.6686677676573596e-01 -9.1463033050286580e-01 -1.2071051180978818e+00 -1.1075342015617504e+00 -2.6457925197138132e-01 -6.7019180273857915e-01 -7.5565486166473483e-01 5.8480660582547228e-01 4.0874269771632732e-01 
        </Neuron>
        <Neuron NSynapses="16">
          -1.1734629353071140e+00 1.0375755157164912e+00 3.3617786510669107e-01 1.3255582450067023e+00 -4.5079195022323815e-01 -5.3511427743730566e-01 -4.6037124940897661e-01 -2.2275343859195512e-01 -8.2867852650656082e-01 -2.7106197152299066e-01 1.2331000539027803e+00 -9.2764987569152813e-01 -1.5072191862024524e+00 -1.1474928521234240e-01 -2.9399150987826941e-02 1.2540224618733387e+00 
        </Neuron>
        <Neuron NSynapses="16">
          -5.3468494823631885e-01 6.1046784221475137e-01 6.4910236936903887e-01 4.6807692354380967e-02 -7.9273256233708256e-01 1.5406861265815837e+00 2.9522646784870771e-01 7.3315679682099100e-01 1.2701789541979467e+00 7.1038476817789176e-01 1.6547582582754954e+00 5.2478288549513952e-01 -6.0985771982379998e-02 -1.4047994176190559e+00 5.2480563067925678e-01 -6.1595822266541567e-01 
        </Neuron>
        <Neuron NSynapses="16">
          1.1569043001035841e+00 6.9673939885442693e-01 9.3179884187000384e-01 1.6066334403721063e+00 -1.1184045198804800e+00 1.3889696768735809e+00 -2.1877709391483963e-01 -1.0032282032549973e+00 -1.0562968753309014e+00 -1.8500675385715259e+00 1.4450813657490773e+00 7.7661420601245823e-01 -1.3922714418825046e+00 3.1023065558079704e-01 -1.4775012221003313e-02 6.7632229376905398e-02 
        </Neuron>
        <Neuron NSynapses="16">
          1.2080943770526131e+00 -2.2525167412390759e-01 1.5347729108906017e-02 -8.4758456185215436e-01 1.1325321318120722e+00 8.0334890729907404e-02 -5.0626636678977222e-01 -1.7911388097585821e+00 7.0685158300398876e-01 4.7966518239273498e-01 1.1523401244220364e+00 -4.7802303781680272e-01 -1.0093818293574235e+00 -1.6214677772388697e+00 7.2287362877449646e-01 -4.2123450907380677e-01 
        </Neuron>
        <Neuron NSynapses="16">
          -1.6898754119839107e-01 -2.1045488831627926e-01 -2.6083529315817489e-01 -5.1689843940682834e-01 -2.6947867943286119e-01 -7.8033683453212122e-01 -3.3281246401193737e-01 2.0160641921354922e-01 -1.6795299975032738e+00 -1.1477017275387158e+00 -9.2679497897375052e-01 -9.0109732880233306e-01 1.4047217334574529e+00 -6.7095967549425484e-01 -4.9476207638940839e-02 9.0519660351174935e-01 
        </Neuron>
        <Neuron NSynapses="16">
          -9.5641396690521063e-01 2.1255382362162900e-01 -8.2228921771643360e-01 -2.5152388624038940e-01 -1.3556706845825726e+00 -1.6366081346491812e+00 8.2304477069695056e-02 1.0535315151942990e+00 -7.5138125415733470e-01 1.4306585702249597e+00 -5.7552693155523293e-01 -2.8878917618788769e-01 -9.7906401780905664e-02 1.3804987587774964e-01 -1.2250385542971429e+00 1.1628864919523003e-01 
        </Neuron>
        <Neuron NSynapses="16">
          6.2607183356448304e-01 -1.4202147043684143e+00 -1.5449011025994457e+00 1.9044352575852292e+00 6.2635578872501119e-01 2.4662203262161209e-01 4.0822592830460671e+00 -2.7368568175778689e+00 -7.7266580291821296e-01 -3.5385525647965377e-01 8.8816737445828603e-02 1.8299994181600929e+00 1.2808343864391980e+00 -1.0252188188470954e+00 -7.3887625980186689e-01 -1.5767520543066513e-01 
        </Neuron>
        <Neuron NSynapses="16">
          -8.3212827870114425e-01 -3.0598750984614426e-01 -9.3014532620248069e-01 -1.5949045368956531e+00 4.3211985187784879e-01 -2.2211735720320894e-01 7.6984098628505371e-01 3.8852527556139010e-01 1.5269523643693232e+00 -1.3548667471279419e+00 3.4163607520290373e-01 7.9716426766074111e-01 1.2053346608777913e+00 -1.1930326269326254e-02 -6.9036750830476823e-01 -1.7499572989991180e-01 
        </Neuron>
        <Neuron NSynapses="16">
          -4.9349758197032101e-01 2.0526681159469309e+00 3.4363608782732791e+00 -1.1894313179520707e-01 -1.6578712560509495e-01 1.1626698509030944e+00 -2.7859093383870377e+00 -4.1133718121544555e-01 2.0865819506802499e+00 -8.8363982038396904e-01 -2.9246893917341704e-01 3.6047952954719625e-01 1.3330519804545087e+00 -6.4733717539670971e-02 8.4356290262615896e-01 -1.9070117282848753e+00 
        </Neuron>
        <Neuron NSynapses="16">
          1.0277223205335198e+00 9.0745404900245419e-01 6.6874357019476038e-01 7.7923846371128203e-01 1.3236710119264992e+00 4.7024432296250551e-01 -8.0671605779971844e-01 -1.8485300470991756e-01 -3.4583239617287481e-01 -8.7923190852966360e-01 1.9449869232265926e+00 7.7586775525929330e-01 -1.8242500998242504e-02 6.5746719719228253e-01 1.5240201646021723e+00 -1.5430005610943687e+00 
        </Neuron>
        <Neuron NSynapses="16">
          -3.1151564656863955e+00 -2.1826862560141036e+00 -1.9258531752010528e+00 -1.9542489065097830e+00 -2.1161857551859597e+00 -1.8424621456091017e+00 5.6727670548194498e+00 1.2204013278677737e+00 -1.2141193513180890e+00 4.5769875964800188e-01 -1.0511990390957275e+00 7.6067109448696890e-01 -1.0550451439597737e+00 1.0717157946728837e+00 -2.7599460968151286e+00 1.8291543024600916e+00 
        </Neuron>
      </Layer>
      <Layer Index="1" NNeurons="17">
        <Neuron NSynapses="1">
          -2.9256729496038175e-01 
        </Neuron>
        <Neuron NSynapses="1">
          -2.7919261491650560e-01 
        </Neuron>
        <Neuron NSynapses="1">
          2.1550738872871456e-01 
        </Neuron>
        <Neuron NSynapses="1">
          6.7516498304949404e-04 
        </Neuron>
        <Neuron NSynapses="1">
          -2.1957014203555390e-03 
        </Neuron>
        <Neuron NSynapses="1">
          -9.6424903859398114e-02 
        </Neuron>
        <Neuron NSynapses="1">
          -4.2164373689592549e-01 
        </Neuron>
        <Neuron NSynapses="1">
          -1.7245982976622325e-02 
        </Neuron>
        <Neuron NSynapses="1">
          -1.8662584788513121e-03 
        </Neuron>
        <Neuron NSynapses="1">
          3.1425022790960614e-04 
        </Neuron>
        <Neuron NSynapses="1">
          1.0993897358973544e-02 
        </Neuron>
        <Neuron NSynapses="1">
          3.5494007602021129e-03 
        </Neuron>
        <Neuron NSynapses="1">
          -6.3891897306278002e-04 
        </Neuron>
        <Neuron NSynapses="1">
          2.8545180081873504e-03 
        </Neuron>
        <Neuron NSynapses="1">
          3.7033985534651037e-01 
        </Neuron>
        <Neuron NSynapses="1">
          4.9122835967412501e-02 
        </Neuron>
        <Neuron NSynapses="1">
          3.1548086756788074e-01 
        </Neuron>
      </Layer>
      <Layer Index="2" NNeurons="1">
        <Neuron NSynapses="0"/>
      </Layer>
    </Layout>
  </Weights>
</MethodSetup>
