<?xml version="1.0"?>
<MethodSetup Method="MLP::MLPBFGS">
  <GeneralInfo>
    <Info name="TMVA Release" value="4.1.2 [262402]"/>
    <Info name="ROOT Release" value="5.32/04 [335876]"/>
    <Info name="Creator" value="lpernie"/>
    <Info name="Date" value="Fri Jul  1 14:07:45 2016"/>
    <Info name="Host" value="Linux login01.brazos.tamu.edu 2.6.32-431.23.3.el6.x86_64 #1 SMP Thu Jul 31 17:20:51 UTC 2014 x86_64 x86_64 x86_64 GNU/Linux"/>
    <Info name="Dir" value="/home/lpernie/Hhh/delphes/diHiggs/MVAs"/>
    <Info name="Training events" value="223574"/>
    <Info name="TrainingTime" value="1.10854502e+04"/>
    <Info name="AnalysisType" value="Classification"/>
  </GeneralInfo>
  <Options>
    <Option name="NCycles" modified="Yes">600</Option>
    <Option name="HiddenLayers" modified="Yes">N+5</Option>
    <Option name="NeuronType" modified="Yes">tanh</Option>
    <Option name="RandomSeed" modified="No">1</Option>
    <Option name="EstimatorType" modified="No">MSE</Option>
    <Option name="NeuronInputType" modified="No">sum</Option>
    <Option name="V" modified="Yes">False</Option>
    <Option name="VerbosityLevel" modified="No">Default</Option>
    <Option name="VarTransform" modified="Yes">N</Option>
    <Option name="H" modified="Yes">True</Option>
    <Option name="CreateMVAPdfs" modified="No">False</Option>
    <Option name="IgnoreNegWeightsInTraining" modified="No">False</Option>
    <Option name="TrainingMethod" modified="Yes">BFGS</Option>
    <Option name="LearningRate" modified="No">2.000000e-02</Option>
    <Option name="DecayRate" modified="No">1.000000e-02</Option>
    <Option name="TestRate" modified="Yes">5</Option>
    <Option name="EpochMonitoring" modified="No">False</Option>
    <Option name="Sampling" modified="No">1.000000e+00</Option>
    <Option name="SamplingEpoch" modified="No">1.000000e+00</Option>
    <Option name="SamplingImportance" modified="No">1.000000e+00</Option>
    <Option name="SamplingTraining" modified="No">True</Option>
    <Option name="SamplingTesting" modified="No">False</Option>
    <Option name="ResetStep" modified="No">50</Option>
    <Option name="Tau" modified="No">3.000000e+00</Option>
    <Option name="BPMode" modified="No">sequential</Option>
    <Option name="BatchSize" modified="No">-1</Option>
    <Option name="ConvergenceImprove" modified="No">1.000000e-30</Option>
    <Option name="ConvergenceTests" modified="No">-1</Option>
    <Option name="UseRegulator" modified="Yes">False</Option>
    <Option name="UpdateLimit" modified="No">10000</Option>
    <Option name="CalculateErrors" modified="No">False</Option>
    <Option name="WeightRange" modified="No">1.000000e+00</Option>
  </Options>
  <Variables NVar="11">
    <Variable VarIndex="0" Expression="dR_l1l2" Label="dR_l1l2" Title="dR_l1l2" Unit="" Internal="dR_l1l2" Type="F" Min="7.18527138e-02" Max="3.29992628e+00"/>
    <Variable VarIndex="1" Expression="dR_b1b2" Label="dR_b1b2" Title="dR_b1b2" Unit="" Internal="dR_b1b2" Type="F" Min="3.73879045e-01" Max="4.99817085e+00"/>
    <Variable VarIndex="2" Expression="dR_bl" Label="dR_bl" Title="dR_bl" Unit="" Internal="dR_bl" Type="F" Min="4.00063813e-01" Max="4.99972916e+00"/>
    <Variable VarIndex="3" Expression="dR_l1l2b1b2" Label="dR_l1l2b1b2" Title="dR_l1l2b1b2" Unit="" Internal="dR_l1l2b1b2" Type="F" Min="5.75727969e-03" Max="5.99961948e+00"/>
    <Variable VarIndex="4" Expression="MINdR_bl" Label="MINdR_bl" Title="MINdR_bl" Unit="" Internal="MINdR_bl" Type="F" Min="4.00007665e-01" Max="3.19991016e+00"/>
    <Variable VarIndex="5" Expression="dphi_l1l2b1b2" Label="dphi_l1l2b1b2" Title="dphi_l1l2b1b2" Unit="" Internal="dphi_l1l2b1b2" Type="F" Min="1.76370463e-06" Max="3.14159226e+00"/>
    <Variable VarIndex="6" Expression="mass_l1l2" Label="mass_l1l2" Title="mass_l1l2" Unit="" Internal="mass_l1l2" Type="F" Min="5.00042486e+00" Max="9.99998550e+01"/>
    <Variable VarIndex="7" Expression="mass_b1b2" Label="mass_b1b2" Title="mass_b1b2" Unit="" Internal="mass_b1b2" Type="F" Min="2.20005798e+01" Max="6.99751221e+02"/>
    <Variable VarIndex="8" Expression="mass_trans" Label="mass_trans" Title="mass_trans" Unit="" Internal="mass_trans" Type="F" Min="0.00000000e+00" Max="2.49973557e+02"/>
    <Variable VarIndex="9" Expression="MT2" Label="MT2" Title="MT2" Unit="" Internal="MT2" Type="F" Min="2.45720634e+01" Max="3.99818787e+02"/>
    <Variable VarIndex="10" Expression="pt_b1b2" Label="pt_b1b2" Title="pt_b1b2" Unit="" Internal="pt_b1b2" Type="F" Min="1.50757179e-01" Max="2.99734161e+02"/>
  </Variables>
  <Spectators NSpec="0"/>
  <Classes NClass="2">
    <Class Name="Signal" Index="0"/>
    <Class Name="Background" Index="1"/>
  </Classes>
  <Transformations NTransformations="1">
    <Transform Name="Normalize">
      <Selection>
        <Input NInputs="11">
          <Input Type="Variable" Label="dR_l1l2" Expression="dR_l1l2"/>
          <Input Type="Variable" Label="dR_b1b2" Expression="dR_b1b2"/>
          <Input Type="Variable" Label="dR_bl" Expression="dR_bl"/>
          <Input Type="Variable" Label="dR_l1l2b1b2" Expression="dR_l1l2b1b2"/>
          <Input Type="Variable" Label="MINdR_bl" Expression="MINdR_bl"/>
          <Input Type="Variable" Label="dphi_l1l2b1b2" Expression="dphi_l1l2b1b2"/>
          <Input Type="Variable" Label="mass_l1l2" Expression="mass_l1l2"/>
          <Input Type="Variable" Label="mass_b1b2" Expression="mass_b1b2"/>
          <Input Type="Variable" Label="mass_trans" Expression="mass_trans"/>
          <Input Type="Variable" Label="MT2" Expression="MT2"/>
          <Input Type="Variable" Label="pt_b1b2" Expression="pt_b1b2"/>
        </Input>
        <Output NOutputs="11">
          <Output Type="Variable" Label="dR_l1l2" Expression="dR_l1l2"/>
          <Output Type="Variable" Label="dR_b1b2" Expression="dR_b1b2"/>
          <Output Type="Variable" Label="dR_bl" Expression="dR_bl"/>
          <Output Type="Variable" Label="dR_l1l2b1b2" Expression="dR_l1l2b1b2"/>
          <Output Type="Variable" Label="MINdR_bl" Expression="MINdR_bl"/>
          <Output Type="Variable" Label="dphi_l1l2b1b2" Expression="dphi_l1l2b1b2"/>
          <Output Type="Variable" Label="mass_l1l2" Expression="mass_l1l2"/>
          <Output Type="Variable" Label="mass_b1b2" Expression="mass_b1b2"/>
          <Output Type="Variable" Label="mass_trans" Expression="mass_trans"/>
          <Output Type="Variable" Label="MT2" Expression="MT2"/>
          <Output Type="Variable" Label="pt_b1b2" Expression="pt_b1b2"/>
        </Output>
      </Selection>
      <Class ClassIndex="0">
        <Ranges>
          <Range Index="0" Min="8.6649775505065918e-02" Max="3.2939980030059814e+00"/>
          <Range Index="1" Min="3.9692309498786926e-01" Max="4.6556153297424316e+00"/>
          <Range Index="2" Min="4.4004163146018982e-01" Max="4.8551154136657715e+00"/>
          <Range Index="3" Min="7.0188030600547791e-02" Max="5.7813091278076172e+00"/>
          <Range Index="4" Min="4.0093678236007690e-01" Max="3.1305119991302490e+00"/>
          <Range Index="5" Min="1.5478842891752720e-02" Max="3.1411099433898926e+00"/>
          <Range Index="6" Min="5.1114249229431152e+00" Max="9.2866714477539062e+01"/>
          <Range Index="7" Min="2.2170310974121094e+01" Max="6.9489556884765625e+02"/>
          <Range Index="8" Min="3.5027470439672470e-02" Max="2.3966381835937500e+02"/>
          <Range Index="9" Min="3.7294670104980469e+01" Max="3.8228250122070312e+02"/>
          <Range Index="10" Min="2.7992348670959473e+00" Max="2.6911056518554688e+02"/>
        </Ranges>
      </Class>
      <Class ClassIndex="1">
        <Ranges>
          <Range Index="0" Min="7.1852713823318481e-02" Max="3.2999262809753418e+00"/>
          <Range Index="1" Min="3.7387904524803162e-01" Max="4.9981708526611328e+00"/>
          <Range Index="2" Min="4.0006381273269653e-01" Max="4.9997291564941406e+00"/>
          <Range Index="3" Min="5.7572796940803528e-03" Max="5.9996194839477539e+00"/>
          <Range Index="4" Min="4.0000766515731812e-01" Max="3.1999101638793945e+00"/>
          <Range Index="5" Min="1.7637046312302118e-06" Max="3.1415922641754150e+00"/>
          <Range Index="6" Min="5.0004248619079590e+00" Max="9.9999855041503906e+01"/>
          <Range Index="7" Min="2.2000579833984375e+01" Max="6.9975122070312500e+02"/>
          <Range Index="8" Min="0.0000000000000000e+00" Max="2.4997355651855469e+02"/>
          <Range Index="9" Min="2.4572063446044922e+01" Max="3.9981878662109375e+02"/>
          <Range Index="10" Min="1.5075717866420746e-01" Max="2.9973416137695312e+02"/>
        </Ranges>
      </Class>
      <Class ClassIndex="2">
        <Ranges>
          <Range Index="0" Min="7.1852713823318481e-02" Max="3.2999262809753418e+00"/>
          <Range Index="1" Min="3.7387904524803162e-01" Max="4.9981708526611328e+00"/>
          <Range Index="2" Min="4.0006381273269653e-01" Max="4.9997291564941406e+00"/>
          <Range Index="3" Min="5.7572796940803528e-03" Max="5.9996194839477539e+00"/>
          <Range Index="4" Min="4.0000766515731812e-01" Max="3.1999101638793945e+00"/>
          <Range Index="5" Min="1.7637046312302118e-06" Max="3.1415922641754150e+00"/>
          <Range Index="6" Min="5.0004248619079590e+00" Max="9.9999855041503906e+01"/>
          <Range Index="7" Min="2.2000579833984375e+01" Max="6.9975122070312500e+02"/>
          <Range Index="8" Min="0.0000000000000000e+00" Max="2.4997355651855469e+02"/>
          <Range Index="9" Min="2.4572063446044922e+01" Max="3.9981878662109375e+02"/>
          <Range Index="10" Min="1.5075717866420746e-01" Max="2.9973416137695312e+02"/>
        </Ranges>
      </Class>
    </Transform>
  </Transformations>
  <MVAPdfs/>
  <Weights>
    <Layout NLayers="3">
      <Layer Index="0" NNeurons="12">
        <Neuron NSynapses="16">
          2.8902485706459807e-01 1.3541299352361897e+00 -3.4245890904331350e-01 1.5675781046376869e+00 -1.4697611757838047e+00 -1.5568042234219543e+00 3.2489331914963937e-01 1.5242402426948298e+00 -6.6916479806130780e-01 -1.4211482577683761e+00 -1.3157872680651570e+00 -4.6076995165667223e-01 -1.1103438144445463e+00 -1.4730247850841064e-02 2.7763149531746639e-01 1.1674543207276848e+00 
        </Neuron>
        <Neuron NSynapses="16">
          2.9416433065855372e-02 1.8070550381507049e+00 -6.1618937790002928e+00 1.4875429509783020e+00 -1.1316491466218059e-01 -2.4613555492196748e+00 6.1270330386821508e+00 6.1113654624121794e-01 -2.1768844727541152e+00 -4.5326682803945290e-01 1.2278012755324046e+00 -1.1554796697581655e+00 -5.6245948440854088e-01 4.2866609884315915e-01 -1.6036409004204968e+00 2.7865537456066387e+00 
        </Neuron>
        <Neuron NSynapses="16">
          -2.7709341073911320e-01 -9.6277823703770227e-01 2.5918745047958835e-01 -3.7455078348991960e-01 -1.4478545579860682e+00 6.8994926331585016e-01 -2.6513450283363937e-01 7.9836146666672125e-01 8.5828894835576386e-01 -6.9612076249763488e-01 5.0591378438142043e-01 4.5873666425812637e-01 -6.6239390826899169e-01 -1.5172033284289907e+00 8.9583962605699097e-01 -6.4857108258996976e-01 
        </Neuron>
        <Neuron NSynapses="16">
          1.9671134760992934e+00 8.0207802643968906e-01 1.4604401420648394e+00 1.3555858844781805e+00 -1.9912312143106645e+00 1.0488998383984776e+00 -1.4389065867144559e+00 -6.5177751345892543e-01 -8.0822272270269968e-01 -1.2686851470105609e+00 1.9667182225703117e+00 1.4851962252148116e+00 -1.0781898875505276e+00 1.6458507263313088e-01 2.0008663616810859e-01 3.0158810104245115e-01 
        </Neuron>
        <Neuron NSynapses="16">
          1.0642128423654487e+00 -1.7050040784391660e-01 1.0205298583088773e-02 -1.2400644216734138e+00 -9.8152171431552027e-02 -4.4013716853856422e-01 -1.5712314158002338e-02 -8.2423295948200404e-01 -1.2446448733195555e-01 8.3527704874449771e-01 -2.3241064010987666e-01 -7.6721429764078508e-01 -2.3605255900225934e+00 -2.1119325180694211e+00 7.9046155376728788e-01 2.3730604279086218e-01 
        </Neuron>
        <Neuron NSynapses="16">
          8.8778725817484205e-01 7.7888032656137404e-02 -8.3198208433462628e-01 -7.8836204605476967e-01 -1.0493055118510706e+00 9.0106476319729345e-01 8.7868879840402769e-01 -1.7592209793327891e+00 -1.2905302794222708e+00 3.3587786402823877e-01 1.7682697544070661e-01 -1.0251065283441640e-02 1.3886187245534833e+00 -1.8742916504128480e+00 -6.0582113605425081e-01 6.0131474816455976e-01 
        </Neuron>
        <Neuron NSynapses="16">
          -1.0351565786139290e+00 -1.5771466810820636e+00 -2.8912150436571384e-02 -5.0836484286122585e-02 -1.4271258701075631e+00 -1.2981706531906974e+00 -7.0857929551831567e-02 1.5193425569033627e+00 -9.8323219342152712e-01 2.2815652945574381e+00 -1.8254058677210983e+00 -1.7129219878168875e+00 -1.9487904407073156e+00 4.2673387961744363e-01 -1.6720551291737523e-02 3.1354784633642226e-03 
        </Neuron>
        <Neuron NSynapses="16">
          5.0499646566503201e-02 1.0044742653073169e+00 -7.5716978483337991e+00 1.8274496974294745e+00 4.7313147755806861e-01 -7.8532505682654685e-01 7.7379103565247922e+00 -7.3816639154403840e-01 -2.5438925338977181e+00 1.5795733936204046e-01 -1.0517765569109820e+00 1.1165759207447992e+00 1.0802339349752579e+00 -2.0257109725528838e-01 -3.9812853732819184e+00 1.6047913730009937e+00 
        </Neuron>
        <Neuron NSynapses="16">
          -4.0400110305225709e+00 1.7707441869920069e+00 -9.4789478067517308e-01 -1.8663105508097015e+00 1.2060496295168295e+00 -1.5647365031981193e+00 8.9885334627424096e-01 1.7819142037666602e+00 1.7996041904516120e+00 -3.7271291231142705e+00 -2.1387198774294340e+00 1.0759736505127997e+00 1.1384697499399339e+00 1.8907417306477072e-02 -2.4746984012763229e+00 -9.1582521302532927e-01 
        </Neuron>
        <Neuron NSynapses="16">
          -1.2984310742875838e+00 1.5318935118589800e+00 3.3233396375552111e+00 -5.0922291478582538e-01 -7.1463012564510220e-01 9.3209338217949034e-01 -3.3096318101007545e+00 2.9784141158840460e-01 1.6262338392850386e+00 -6.8201891055992481e-01 3.7746846223304198e-01 1.4349015387038735e+00 6.1567432174254866e-01 5.6998607932311242e-02 3.6840672536266528e-01 -1.9068931113944629e+00 
        </Neuron>
        <Neuron NSynapses="16">
          9.7983591194134956e-01 3.9070684770542008e-01 -2.1004539351523599e+00 4.3319292421363353e-01 5.2654426774703522e-01 8.9372641913273687e-01 2.0966506130841025e+00 3.6123698203885884e-01 -9.5173258074108225e-01 -1.4178633507424609e+00 1.8943112627941783e+00 1.3567055760477891e+00 -1.4447148909108869e+00 7.1946084640276742e-01 7.8626363939648503e-01 -1.0172078882653750e+00 
        </Neuron>
        <Neuron NSynapses="16">
          -1.5315274343746979e-01 -7.7685842788499604e-01 -7.2281297298385336e+00 -1.5870366122161514e+00 -1.6850539009226086e+00 5.5912201300010747e-02 7.3970418976987435e+00 -2.2961592172963941e+00 -2.9845204749088577e-01 -3.4938286777580063e-01 -7.1390306846555274e-01 1.2025959348011264e+00 -6.0012017599641221e-01 1.6599015585984755e-02 -2.1225833439998807e+00 5.0664150585971832e-02 
        </Neuron>
      </Layer>
      <Layer Index="1" NNeurons="17">
        <Neuron NSynapses="1">
          6.7671544189260328e-03 
        </Neuron>
        <Neuron NSynapses="1">
          6.7274166912400920e-03 
        </Neuron>
        <Neuron NSynapses="1">
          7.9146617856644597e-01 
        </Neuron>
        <Neuron NSynapses="1">
          -2.1495771776498889e-03 
        </Neuron>
        <Neuron NSynapses="1">
          -5.7587067555791398e-03 
        </Neuron>
        <Neuron NSynapses="1">
          -1.5072653400066595e-02 
        </Neuron>
        <Neuron NSynapses="1">
          7.9184497474304028e-01 
        </Neuron>
        <Neuron NSynapses="1">
          5.5559157642974585e-03 
        </Neuron>
        <Neuron NSynapses="1">
          6.0484888641199937e-03 
        </Neuron>
        <Neuron NSynapses="1">
          1.1666977643499186e-02 
        </Neuron>
        <Neuron NSynapses="1">
          1.0865118334106805e-02 
        </Neuron>
        <Neuron NSynapses="1">
          1.1340026013730539e-02 
        </Neuron>
        <Neuron NSynapses="1">
          7.1207719499673484e-03 
        </Neuron>
        <Neuron NSynapses="1">
          -2.2718030268079601e-03 
        </Neuron>
        <Neuron NSynapses="1">
          4.6081411059582895e-03 
        </Neuron>
        <Neuron NSynapses="1">
          -3.9971219230985414e-03 
        </Neuron>
        <Neuron NSynapses="1">
          1.4996602436517559e-02 
        </Neuron>
      </Layer>
      <Layer Index="2" NNeurons="1">
        <Neuron NSynapses="0"/>
      </Layer>
    </Layout>
  </Weights>
</MethodSetup>
