<?xml version="1.0"?>
<MethodSetup Method="MLP::MLPBFGS">
  <GeneralInfo>
    <Info name="TMVA Release" value="4.1.2 [262402]"/>
    <Info name="ROOT Release" value="5.32/04 [335876]"/>
    <Info name="Creator" value="lpernie"/>
    <Info name="Date" value="Fri May  6 13:03:40 2016"/>
    <Info name="Host" value="Linux login01.brazos.tamu.edu 2.6.32-431.23.3.el6.x86_64 #1 SMP Thu Jul 31 17:20:51 UTC 2014 x86_64 x86_64 x86_64 GNU/Linux"/>
    <Info name="Dir" value="/home/lpernie/Hhh/delphes/diHiggs/MVAs"/>
    <Info name="Training events" value="18831"/>
    <Info name="TrainingTime" value="9.26979407e+02"/>
    <Info name="AnalysisType" value="Classification"/>
  </GeneralInfo>
  <Options>
    <Option name="NCycles" modified="Yes">600</Option>
    <Option name="HiddenLayers" modified="Yes">N+5</Option>
    <Option name="NeuronType" modified="Yes">tanh</Option>
    <Option name="RandomSeed" modified="No">1</Option>
    <Option name="EstimatorType" modified="No">MSE</Option>
    <Option name="NeuronInputType" modified="No">sum</Option>
    <Option name="V" modified="Yes">False</Option>
    <Option name="VerbosityLevel" modified="No">Default</Option>
    <Option name="VarTransform" modified="Yes">N</Option>
    <Option name="H" modified="Yes">True</Option>
    <Option name="CreateMVAPdfs" modified="No">False</Option>
    <Option name="IgnoreNegWeightsInTraining" modified="No">False</Option>
    <Option name="TrainingMethod" modified="Yes">BFGS</Option>
    <Option name="LearningRate" modified="No">2.000000e-02</Option>
    <Option name="DecayRate" modified="No">1.000000e-02</Option>
    <Option name="TestRate" modified="Yes">5</Option>
    <Option name="EpochMonitoring" modified="No">False</Option>
    <Option name="Sampling" modified="No">1.000000e+00</Option>
    <Option name="SamplingEpoch" modified="No">1.000000e+00</Option>
    <Option name="SamplingImportance" modified="No">1.000000e+00</Option>
    <Option name="SamplingTraining" modified="No">True</Option>
    <Option name="SamplingTesting" modified="No">False</Option>
    <Option name="ResetStep" modified="No">50</Option>
    <Option name="Tau" modified="No">3.000000e+00</Option>
    <Option name="BPMode" modified="No">sequential</Option>
    <Option name="BatchSize" modified="No">-1</Option>
    <Option name="ConvergenceImprove" modified="No">1.000000e-30</Option>
    <Option name="ConvergenceTests" modified="No">-1</Option>
    <Option name="UseRegulator" modified="Yes">False</Option>
    <Option name="UpdateLimit" modified="No">10000</Option>
    <Option name="CalculateErrors" modified="No">False</Option>
    <Option name="WeightRange" modified="No">1.000000e+00</Option>
  </Options>
  <Variables NVar="11">
    <Variable VarIndex="0" Expression="dR_l1l2" Label="dR_l1l2" Title="dR_l1l2" Unit="" Internal="dR_l1l2" Type="F" Min="7.10144714e-02" Max="3.29991746e+00"/>
    <Variable VarIndex="1" Expression="dR_b1b2" Label="dR_b1b2" Title="dR_b1b2" Unit="" Internal="dR_b1b2" Type="F" Min="3.80652487e-01" Max="4.95207596e+00"/>
    <Variable VarIndex="2" Expression="dR_bl" Label="dR_bl" Title="dR_bl" Unit="" Internal="dR_bl" Type="F" Min="4.00819451e-01" Max="4.91523266e+00"/>
    <Variable VarIndex="3" Expression="dR_l1l2b1b2" Label="dR_l1l2b1b2" Title="dR_l1l2b1b2" Unit="" Internal="dR_l1l2b1b2" Type="F" Min="1.63523909e-02" Max="5.87874317e+00"/>
    <Variable VarIndex="4" Expression="MINdR_bl" Label="MINdR_bl" Title="MINdR_bl" Unit="" Internal="MINdR_bl" Type="F" Min="4.00819451e-01" Max="3.19498634e+00"/>
    <Variable VarIndex="5" Expression="dphi_l1l2b1b2" Label="dphi_l1l2b1b2" Title="dphi_l1l2b1b2" Unit="" Internal="dphi_l1l2b1b2" Type="F" Min="3.76255048e-04" Max="3.14151478e+00"/>
    <Variable VarIndex="6" Expression="mass_l1l2" Label="mass_l1l2" Title="mass_l1l2" Unit="" Internal="mass_l1l2" Type="F" Min="5.00658274e+00" Max="9.99996490e+01"/>
    <Variable VarIndex="7" Expression="mass_b1b2" Label="mass_b1b2" Title="mass_b1b2" Unit="" Internal="mass_b1b2" Type="F" Min="2.20024567e+01" Max="6.94112366e+02"/>
    <Variable VarIndex="8" Expression="mass_trans" Label="mass_trans" Title="mass_trans" Unit="" Internal="mass_trans" Type="F" Min="3.71361412e-02" Max="2.49781052e+02"/>
    <Variable VarIndex="9" Expression="MT2" Label="MT2" Title="MT2" Unit="" Internal="MT2" Type="F" Min="2.50663490e+01" Max="3.99101257e+02"/>
    <Variable VarIndex="10" Expression="pt_b1b2" Label="pt_b1b2" Title="pt_b1b2" Unit="" Internal="pt_b1b2" Type="F" Min="6.60549879e-01" Max="2.99790100e+02"/>
  </Variables>
  <Spectators NSpec="0"/>
  <Classes NClass="2">
    <Class Name="Signal" Index="0"/>
    <Class Name="Background" Index="1"/>
  </Classes>
  <Transformations NTransformations="1">
    <Transform Name="Normalize">
      <Selection>
        <Input NInputs="11">
          <Input Type="Variable" Label="dR_l1l2" Expression="dR_l1l2"/>
          <Input Type="Variable" Label="dR_b1b2" Expression="dR_b1b2"/>
          <Input Type="Variable" Label="dR_bl" Expression="dR_bl"/>
          <Input Type="Variable" Label="dR_l1l2b1b2" Expression="dR_l1l2b1b2"/>
          <Input Type="Variable" Label="MINdR_bl" Expression="MINdR_bl"/>
          <Input Type="Variable" Label="dphi_l1l2b1b2" Expression="dphi_l1l2b1b2"/>
          <Input Type="Variable" Label="mass_l1l2" Expression="mass_l1l2"/>
          <Input Type="Variable" Label="mass_b1b2" Expression="mass_b1b2"/>
          <Input Type="Variable" Label="mass_trans" Expression="mass_trans"/>
          <Input Type="Variable" Label="MT2" Expression="MT2"/>
          <Input Type="Variable" Label="pt_b1b2" Expression="pt_b1b2"/>
        </Input>
        <Output NOutputs="11">
          <Output Type="Variable" Label="dR_l1l2" Expression="dR_l1l2"/>
          <Output Type="Variable" Label="dR_b1b2" Expression="dR_b1b2"/>
          <Output Type="Variable" Label="dR_bl" Expression="dR_bl"/>
          <Output Type="Variable" Label="dR_l1l2b1b2" Expression="dR_l1l2b1b2"/>
          <Output Type="Variable" Label="MINdR_bl" Expression="MINdR_bl"/>
          <Output Type="Variable" Label="dphi_l1l2b1b2" Expression="dphi_l1l2b1b2"/>
          <Output Type="Variable" Label="mass_l1l2" Expression="mass_l1l2"/>
          <Output Type="Variable" Label="mass_b1b2" Expression="mass_b1b2"/>
          <Output Type="Variable" Label="mass_trans" Expression="mass_trans"/>
          <Output Type="Variable" Label="MT2" Expression="MT2"/>
          <Output Type="Variable" Label="pt_b1b2" Expression="pt_b1b2"/>
        </Output>
      </Selection>
      <Class ClassIndex="0">
        <Ranges>
          <Range Index="0" Min="7.4287042021751404e-02" Max="3.2095882892608643e+00"/>
          <Range Index="1" Min="3.9385813474655151e-01" Max="4.7400493621826172e+00"/>
          <Range Index="2" Min="4.6555522084236145e-01" Max="4.7709250450134277e+00"/>
          <Range Index="3" Min="1.1935840547084808e-01" Max="5.5450544357299805e+00"/>
          <Range Index="4" Min="4.1084319353103638e-01" Max="3.1949863433837891e+00"/>
          <Range Index="5" Min="9.4987489283084869e-03" Max="3.1415147781372070e+00"/>
          <Range Index="6" Min="5.0233612060546875e+00" Max="9.0058197021484375e+01"/>
          <Range Index="7" Min="2.2024511337280273e+01" Max="6.8313470458984375e+02"/>
          <Range Index="8" Min="4.1612651199102402e-02" Max="2.4874749755859375e+02"/>
          <Range Index="9" Min="5.1261489868164062e+01" Max="3.9910125732421875e+02"/>
          <Range Index="10" Min="1.7930262088775635e+00" Max="2.9979010009765625e+02"/>
        </Ranges>
      </Class>
      <Class ClassIndex="1">
        <Ranges>
          <Range Index="0" Min="7.1014471352100372e-02" Max="3.2999174594879150e+00"/>
          <Range Index="1" Min="3.8065248727798462e-01" Max="4.9520759582519531e+00"/>
          <Range Index="2" Min="4.0081945061683655e-01" Max="4.9152326583862305e+00"/>
          <Range Index="3" Min="1.6352390870451927e-02" Max="5.8787431716918945e+00"/>
          <Range Index="4" Min="4.0081945061683655e-01" Max="3.1723570823669434e+00"/>
          <Range Index="5" Min="3.7625504774041474e-04" Max="3.1414997577667236e+00"/>
          <Range Index="6" Min="5.0065827369689941e+00" Max="9.9999649047851562e+01"/>
          <Range Index="7" Min="2.2002456665039062e+01" Max="6.9411236572265625e+02"/>
          <Range Index="8" Min="3.7136141210794449e-02" Max="2.4978105163574219e+02"/>
          <Range Index="9" Min="2.5066349029541016e+01" Max="3.9131411743164062e+02"/>
          <Range Index="10" Min="6.6054987907409668e-01" Max="2.9893698120117188e+02"/>
        </Ranges>
      </Class>
      <Class ClassIndex="2">
        <Ranges>
          <Range Index="0" Min="7.1014471352100372e-02" Max="3.2999174594879150e+00"/>
          <Range Index="1" Min="3.8065248727798462e-01" Max="4.9520759582519531e+00"/>
          <Range Index="2" Min="4.0081945061683655e-01" Max="4.9152326583862305e+00"/>
          <Range Index="3" Min="1.6352390870451927e-02" Max="5.8787431716918945e+00"/>
          <Range Index="4" Min="4.0081945061683655e-01" Max="3.1949863433837891e+00"/>
          <Range Index="5" Min="3.7625504774041474e-04" Max="3.1415147781372070e+00"/>
          <Range Index="6" Min="5.0065827369689941e+00" Max="9.9999649047851562e+01"/>
          <Range Index="7" Min="2.2002456665039062e+01" Max="6.9411236572265625e+02"/>
          <Range Index="8" Min="3.7136141210794449e-02" Max="2.4978105163574219e+02"/>
          <Range Index="9" Min="2.5066349029541016e+01" Max="3.9910125732421875e+02"/>
          <Range Index="10" Min="6.6054987907409668e-01" Max="2.9979010009765625e+02"/>
        </Ranges>
      </Class>
    </Transform>
  </Transformations>
  <MVAPdfs/>
  <Weights>
    <Layout NLayers="3">
      <Layer Index="0" NNeurons="12">
        <Neuron NSynapses="16">
          -9.0055892313837704e-01 -5.2996776690525338e-01 -3.1299686714893077e-01 -1.0690146956434936e+00 -1.0482943651953398e-01 2.4656183640913465e+00 -5.4477200457336261e-01 1.4156873864641155e+00 1.0255202124535432e+00 -2.4566985125078142e+00 -1.0848866683313114e+00 -1.0641826185590011e+00 -2.7679511020191936e+00 4.5999352971533370e-03 -7.4777204952759446e-01 6.5169090776681893e+00 
        </Neuron>
        <Neuron NSynapses="16">
          -5.5419924889798644e-01 1.7332617783086144e+00 3.7263969161644497e-02 1.7307420192048681e+00 -1.0546674561951161e+00 -7.4073077811225407e-01 -1.0810384481996402e+00 4.9069197198009784e-01 -2.0202404453505984e+00 -1.1909833501316011e-01 -2.0789319975337624e-02 -1.1949942699443368e+00 -1.1013930250019888e+00 4.1520928550201730e-02 2.1878399046164851e+00 5.9920847439899783e-01 
        </Neuron>
        <Neuron NSynapses="16">
          -3.6029701958811411e-01 1.4378074588872203e+00 2.6168423623223142e-01 -1.1409887787458502e-01 3.4991123653771455e-01 1.0860172069895526e+00 -1.5812270545426570e+00 1.8213290300545340e-01 1.8256028492353229e+00 8.5980712261886257e-03 1.2742397340001255e+00 1.1820931174884659e+00 -2.7478893460003584e-01 -1.5211936879133749e+00 7.8075866107151426e-01 -6.7059414742408707e-01 
        </Neuron>
        <Neuron NSynapses="16">
          2.3442882082990946e+00 3.7870314529186594e-01 1.8638154256815562e+00 9.7234649832812003e-01 2.4270923801412145e-01 1.4211348211872676e+00 -3.0240210284888618e+00 -7.8859628170207385e-01 -1.4859660733036931e-01 -3.5468609543686518e+00 1.0785578835544190e+00 1.1540500191891341e+00 -1.2782599062427884e+00 3.1820243362390149e-01 5.5070659863953375e-01 6.1334338675781630e-01 
        </Neuron>
        <Neuron NSynapses="16">
          3.0971277679221004e-01 -4.4083121593117058e-01 8.5206069784623223e-02 -6.9351001440766635e-01 3.6991551996823496e-01 -5.1084606363851159e-01 1.5298975800183963e+00 -8.9600047543269101e-01 9.3540549141647125e-02 4.8449138344897263e-01 7.0020642891650575e-01 -3.6626671902278654e-02 9.2585902393676101e-01 -1.7476731983713167e+00 -6.7061252080245895e-02 -5.7733770461450018e-01 
        </Neuron>
        <Neuron NSynapses="16">
          7.9422510525412693e-01 5.8745001602144897e-01 2.3172204289208195e-01 4.8849616446212124e-01 -4.9920609671695468e-02 -9.1400195755373881e-01 1.9286111918375484e+00 -9.0097841093309694e-01 -2.2540034343516879e+00 -1.6017558236289267e-01 -3.2605140169803737e-01 -3.2210023810149041e-01 2.4967665193585448e-01 -1.8530592703235496e+00 -9.8157412723404752e-02 5.2542433771480782e-02 
        </Neuron>
        <Neuron NSynapses="16">
          -2.4440770436979316e+00 1.7743274817984511e+00 -2.1811852989429559e+00 -7.4271510755217829e-01 -2.0385463190465090e+00 -1.8308162469875606e+00 4.7262353229883092e-01 2.4278102932388830e+00 6.7002143870360464e-02 1.8834713201398678e+00 -3.4124717473810673e+00 -3.5232115647287072e+00 6.8740714553488846e-01 4.7306964082601549e-01 -1.1056196473706124e+00 -2.3371101110494061e+00 
        </Neuron>
        <Neuron NSynapses="16">
          -1.5730731375594795e+00 -4.6246260808185369e-01 -2.4832011013327437e+00 3.3354100659771699e+00 1.8862456359912938e+00 -1.8440888780148779e+00 7.8753364381650592e-01 -1.1362587264039612e+00 -3.1190182768341748e+00 5.3275596201952058e-01 -1.1533884373765366e+00 3.8292955872463391e-01 2.1340940575707723e+00 -2.9481449651961683e-01 -6.6444500353262104e+00 1.9045345515260045e-02 
        </Neuron>
        <Neuron NSynapses="16">
          -1.6343109512436251e+00 -8.3297578836605946e-01 -1.2044058062673599e+00 -7.8236534919632583e-01 7.5293437339340097e-01 -1.6118807366753360e+00 -1.0837617457092554e+00 1.8319043280148850e+00 2.5722200159226233e-01 -4.1495883437164088e-01 -8.2653431416314138e-01 -3.0779122714550862e-02 7.6273596790073461e-01 6.2126190045458907e-01 -1.8460029191901173e+00 5.3332767397938019e-01 
        </Neuron>
        <Neuron NSynapses="16">
          4.6279930332649694e-01 3.1790701718140721e+00 2.5240116897906733e+00 4.4801367402770270e-01 -4.8101286032011830e+00 5.1599292320722434e-01 -3.0746420688849954e+00 1.6879788137330873e+00 1.7177028165735801e+00 -1.2332703836618111e+00 3.5771866179775471e+00 8.8720191853352404e-01 1.4387900024438784e+00 4.5960347062275236e-01 8.3213499771049779e+00 -3.2251669765741839e+00 
        </Neuron>
        <Neuron NSynapses="16">
          7.2118560846643298e-01 6.4050890010647302e-02 1.1206357078403788e+00 1.4855518011676128e+00 -5.1449147545931539e-01 5.4888614489182996e-01 -1.9458488245736056e+00 -8.9246839130062941e-02 -1.3221770869249765e+00 -2.6120459728515639e+00 1.2198343052198237e+00 1.4893224229334318e-01 -9.4856475485850233e-01 1.1712863780520848e+00 1.3980358620840714e+00 -5.2784972666412600e-01 
        </Neuron>
        <Neuron NSynapses="16">
          -1.6346583979673841e+00 -3.4546504718716289e+00 -4.5502723011699175e-01 -2.0979270476271994e+00 -1.7003872418515162e+00 1.4042216845515665e+00 1.1927449153901284e+00 -1.1728508298972165e+00 -7.4169537596791446e-01 -2.0085796169071193e-01 3.3568193033302623e-01 1.4932684506217258e+00 5.4607951352658124e-01 -3.3619719830478345e-01 -2.6656808625258224e+00 3.1909743057874893e+00 
        </Neuron>
      </Layer>
      <Layer Index="1" NNeurons="17">
        <Neuron NSynapses="1">
          1.7812354287641169e-01 
        </Neuron>
        <Neuron NSynapses="1">
          -2.2828335347147324e-01 
        </Neuron>
        <Neuron NSynapses="1">
          -2.7268287053967055e-01 
        </Neuron>
        <Neuron NSynapses="1">
          1.0796815159549081e-01 
        </Neuron>
        <Neuron NSynapses="1">
          -9.9926150659889426e-02 
        </Neuron>
        <Neuron NSynapses="1">
          -8.2087486604374635e-02 
        </Neuron>
        <Neuron NSynapses="1">
          1.4123071112521113e-01 
        </Neuron>
        <Neuron NSynapses="1">
          -4.1641919702021767e-02 
        </Neuron>
        <Neuron NSynapses="1">
          3.6166664131780490e-02 
        </Neuron>
        <Neuron NSynapses="1">
          -3.7732233308197499e-02 
        </Neuron>
        <Neuron NSynapses="1">
          1.2916041324265226e-01 
        </Neuron>
        <Neuron NSynapses="1">
          7.1223092093984808e-02 
        </Neuron>
        <Neuron NSynapses="1">
          -8.6050744579522401e-02 
        </Neuron>
        <Neuron NSynapses="1">
          3.9135966433980901e-03 
        </Neuron>
        <Neuron NSynapses="1">
          3.1758654925184981e-01 
        </Neuron>
        <Neuron NSynapses="1">
          -1.1357726311818490e-01 
        </Neuron>
        <Neuron NSynapses="1">
          2.2128985919062244e-01 
        </Neuron>
      </Layer>
      <Layer Index="2" NNeurons="1">
        <Neuron NSynapses="0"/>
      </Layer>
    </Layout>
  </Weights>
</MethodSetup>
