<?xml version="1.0"?>
<MethodSetup Method="MLP::MLP">
  <GeneralInfo>
    <Info name="TMVA Release" value="4.1.2 [262402]"/>
    <Info name="ROOT Release" value="5.32/04 [335876]"/>
    <Info name="Creator" value="lpernie"/>
    <Info name="Date" value="Fri May  6 12:48:13 2016"/>
    <Info name="Host" value="Linux login01.brazos.tamu.edu 2.6.32-431.23.3.el6.x86_64 #1 SMP Thu Jul 31 17:20:51 UTC 2014 x86_64 x86_64 x86_64 GNU/Linux"/>
    <Info name="Dir" value="/home/lpernie/Hhh/delphes/diHiggs/MVAs"/>
    <Info name="Training events" value="18831"/>
    <Info name="TrainingTime" value="2.26259380e+02"/>
    <Info name="AnalysisType" value="Classification"/>
  </GeneralInfo>
  <Options>
    <Option name="NCycles" modified="Yes">600</Option>
    <Option name="HiddenLayers" modified="Yes">N+5</Option>
    <Option name="NeuronType" modified="Yes">tanh</Option>
    <Option name="RandomSeed" modified="No">1</Option>
    <Option name="EstimatorType" modified="No">MSE</Option>
    <Option name="NeuronInputType" modified="No">sum</Option>
    <Option name="V" modified="Yes">False</Option>
    <Option name="VerbosityLevel" modified="No">Default</Option>
    <Option name="VarTransform" modified="Yes">N</Option>
    <Option name="H" modified="Yes">True</Option>
    <Option name="CreateMVAPdfs" modified="No">False</Option>
    <Option name="IgnoreNegWeightsInTraining" modified="No">False</Option>
    <Option name="TrainingMethod" modified="No">BP</Option>
    <Option name="LearningRate" modified="No">2.000000e-02</Option>
    <Option name="DecayRate" modified="No">1.000000e-02</Option>
    <Option name="TestRate" modified="Yes">5</Option>
    <Option name="EpochMonitoring" modified="No">False</Option>
    <Option name="Sampling" modified="No">1.000000e+00</Option>
    <Option name="SamplingEpoch" modified="No">1.000000e+00</Option>
    <Option name="SamplingImportance" modified="No">1.000000e+00</Option>
    <Option name="SamplingTraining" modified="No">True</Option>
    <Option name="SamplingTesting" modified="No">False</Option>
    <Option name="ResetStep" modified="No">50</Option>
    <Option name="Tau" modified="No">3.000000e+00</Option>
    <Option name="BPMode" modified="No">sequential</Option>
    <Option name="BatchSize" modified="No">-1</Option>
    <Option name="ConvergenceImprove" modified="No">1.000000e-30</Option>
    <Option name="ConvergenceTests" modified="No">-1</Option>
    <Option name="UseRegulator" modified="Yes">False</Option>
    <Option name="UpdateLimit" modified="No">10000</Option>
    <Option name="CalculateErrors" modified="No">False</Option>
    <Option name="WeightRange" modified="No">1.000000e+00</Option>
  </Options>
  <Variables NVar="11">
    <Variable VarIndex="0" Expression="dR_l1l2" Label="dR_l1l2" Title="dR_l1l2" Unit="" Internal="dR_l1l2" Type="F" Min="7.10144714e-02" Max="3.29991746e+00"/>
    <Variable VarIndex="1" Expression="dR_b1b2" Label="dR_b1b2" Title="dR_b1b2" Unit="" Internal="dR_b1b2" Type="F" Min="3.80652487e-01" Max="4.95207596e+00"/>
    <Variable VarIndex="2" Expression="dR_bl" Label="dR_bl" Title="dR_bl" Unit="" Internal="dR_bl" Type="F" Min="4.00819451e-01" Max="4.91523266e+00"/>
    <Variable VarIndex="3" Expression="dR_l1l2b1b2" Label="dR_l1l2b1b2" Title="dR_l1l2b1b2" Unit="" Internal="dR_l1l2b1b2" Type="F" Min="1.63523909e-02" Max="5.87874317e+00"/>
    <Variable VarIndex="4" Expression="MINdR_bl" Label="MINdR_bl" Title="MINdR_bl" Unit="" Internal="MINdR_bl" Type="F" Min="4.00819451e-01" Max="3.19498634e+00"/>
    <Variable VarIndex="5" Expression="dphi_l1l2b1b2" Label="dphi_l1l2b1b2" Title="dphi_l1l2b1b2" Unit="" Internal="dphi_l1l2b1b2" Type="F" Min="3.76255048e-04" Max="3.14151478e+00"/>
    <Variable VarIndex="6" Expression="mass_l1l2" Label="mass_l1l2" Title="mass_l1l2" Unit="" Internal="mass_l1l2" Type="F" Min="5.00658274e+00" Max="9.99996490e+01"/>
    <Variable VarIndex="7" Expression="mass_b1b2" Label="mass_b1b2" Title="mass_b1b2" Unit="" Internal="mass_b1b2" Type="F" Min="2.20024567e+01" Max="6.94112366e+02"/>
    <Variable VarIndex="8" Expression="mass_trans" Label="mass_trans" Title="mass_trans" Unit="" Internal="mass_trans" Type="F" Min="3.71361412e-02" Max="2.49781052e+02"/>
    <Variable VarIndex="9" Expression="MT2" Label="MT2" Title="MT2" Unit="" Internal="MT2" Type="F" Min="2.50663490e+01" Max="3.99101257e+02"/>
    <Variable VarIndex="10" Expression="pt_b1b2" Label="pt_b1b2" Title="pt_b1b2" Unit="" Internal="pt_b1b2" Type="F" Min="6.60549879e-01" Max="2.99790100e+02"/>
  </Variables>
  <Spectators NSpec="0"/>
  <Classes NClass="2">
    <Class Name="Signal" Index="0"/>
    <Class Name="Background" Index="1"/>
  </Classes>
  <Transformations NTransformations="1">
    <Transform Name="Normalize">
      <Selection>
        <Input NInputs="11">
          <Input Type="Variable" Label="dR_l1l2" Expression="dR_l1l2"/>
          <Input Type="Variable" Label="dR_b1b2" Expression="dR_b1b2"/>
          <Input Type="Variable" Label="dR_bl" Expression="dR_bl"/>
          <Input Type="Variable" Label="dR_l1l2b1b2" Expression="dR_l1l2b1b2"/>
          <Input Type="Variable" Label="MINdR_bl" Expression="MINdR_bl"/>
          <Input Type="Variable" Label="dphi_l1l2b1b2" Expression="dphi_l1l2b1b2"/>
          <Input Type="Variable" Label="mass_l1l2" Expression="mass_l1l2"/>
          <Input Type="Variable" Label="mass_b1b2" Expression="mass_b1b2"/>
          <Input Type="Variable" Label="mass_trans" Expression="mass_trans"/>
          <Input Type="Variable" Label="MT2" Expression="MT2"/>
          <Input Type="Variable" Label="pt_b1b2" Expression="pt_b1b2"/>
        </Input>
        <Output NOutputs="11">
          <Output Type="Variable" Label="dR_l1l2" Expression="dR_l1l2"/>
          <Output Type="Variable" Label="dR_b1b2" Expression="dR_b1b2"/>
          <Output Type="Variable" Label="dR_bl" Expression="dR_bl"/>
          <Output Type="Variable" Label="dR_l1l2b1b2" Expression="dR_l1l2b1b2"/>
          <Output Type="Variable" Label="MINdR_bl" Expression="MINdR_bl"/>
          <Output Type="Variable" Label="dphi_l1l2b1b2" Expression="dphi_l1l2b1b2"/>
          <Output Type="Variable" Label="mass_l1l2" Expression="mass_l1l2"/>
          <Output Type="Variable" Label="mass_b1b2" Expression="mass_b1b2"/>
          <Output Type="Variable" Label="mass_trans" Expression="mass_trans"/>
          <Output Type="Variable" Label="MT2" Expression="MT2"/>
          <Output Type="Variable" Label="pt_b1b2" Expression="pt_b1b2"/>
        </Output>
      </Selection>
      <Class ClassIndex="0">
        <Ranges>
          <Range Index="0" Min="7.4287042021751404e-02" Max="3.2095882892608643e+00"/>
          <Range Index="1" Min="3.9385813474655151e-01" Max="4.7400493621826172e+00"/>
          <Range Index="2" Min="4.6555522084236145e-01" Max="4.7709250450134277e+00"/>
          <Range Index="3" Min="1.1935840547084808e-01" Max="5.5450544357299805e+00"/>
          <Range Index="4" Min="4.1084319353103638e-01" Max="3.1949863433837891e+00"/>
          <Range Index="5" Min="9.4987489283084869e-03" Max="3.1415147781372070e+00"/>
          <Range Index="6" Min="5.0233612060546875e+00" Max="9.0058197021484375e+01"/>
          <Range Index="7" Min="2.2024511337280273e+01" Max="6.8313470458984375e+02"/>
          <Range Index="8" Min="4.1612651199102402e-02" Max="2.4874749755859375e+02"/>
          <Range Index="9" Min="5.1261489868164062e+01" Max="3.9910125732421875e+02"/>
          <Range Index="10" Min="1.7930262088775635e+00" Max="2.9979010009765625e+02"/>
        </Ranges>
      </Class>
      <Class ClassIndex="1">
        <Ranges>
          <Range Index="0" Min="7.1014471352100372e-02" Max="3.2999174594879150e+00"/>
          <Range Index="1" Min="3.8065248727798462e-01" Max="4.9520759582519531e+00"/>
          <Range Index="2" Min="4.0081945061683655e-01" Max="4.9152326583862305e+00"/>
          <Range Index="3" Min="1.6352390870451927e-02" Max="5.8787431716918945e+00"/>
          <Range Index="4" Min="4.0081945061683655e-01" Max="3.1723570823669434e+00"/>
          <Range Index="5" Min="3.7625504774041474e-04" Max="3.1414997577667236e+00"/>
          <Range Index="6" Min="5.0065827369689941e+00" Max="9.9999649047851562e+01"/>
          <Range Index="7" Min="2.2002456665039062e+01" Max="6.9411236572265625e+02"/>
          <Range Index="8" Min="3.7136141210794449e-02" Max="2.4978105163574219e+02"/>
          <Range Index="9" Min="2.5066349029541016e+01" Max="3.9131411743164062e+02"/>
          <Range Index="10" Min="6.6054987907409668e-01" Max="2.9893698120117188e+02"/>
        </Ranges>
      </Class>
      <Class ClassIndex="2">
        <Ranges>
          <Range Index="0" Min="7.1014471352100372e-02" Max="3.2999174594879150e+00"/>
          <Range Index="1" Min="3.8065248727798462e-01" Max="4.9520759582519531e+00"/>
          <Range Index="2" Min="4.0081945061683655e-01" Max="4.9152326583862305e+00"/>
          <Range Index="3" Min="1.6352390870451927e-02" Max="5.8787431716918945e+00"/>
          <Range Index="4" Min="4.0081945061683655e-01" Max="3.1949863433837891e+00"/>
          <Range Index="5" Min="3.7625504774041474e-04" Max="3.1415147781372070e+00"/>
          <Range Index="6" Min="5.0065827369689941e+00" Max="9.9999649047851562e+01"/>
          <Range Index="7" Min="2.2002456665039062e+01" Max="6.9411236572265625e+02"/>
          <Range Index="8" Min="3.7136141210794449e-02" Max="2.4978105163574219e+02"/>
          <Range Index="9" Min="2.5066349029541016e+01" Max="3.9910125732421875e+02"/>
          <Range Index="10" Min="6.6054987907409668e-01" Max="2.9979010009765625e+02"/>
        </Ranges>
      </Class>
    </Transform>
  </Transformations>
  <MVAPdfs/>
  <Weights>
    <Layout NLayers="3">
      <Layer Index="0" NNeurons="12">
        <Neuron NSynapses="16">
          3.8166398007401660e-02 3.6842859753230989e-01 1.5578289798109612e-01 1.8274926207001605e+00 -1.3496730796426493e+00 -1.4438270851830501e+00 -1.9115316704902480e-01 1.6731710717147246e+00 -1.2796647855223884e+00 -1.3919360427788667e+00 -1.1142706755589296e+00 1.3262802167662895e+00 -8.3614888217521233e-01 -3.7406077920828223e-01 -7.1578890276795626e-01 1.4211839941511026e+00 
        </Neuron>
        <Neuron NSynapses="16">
          -1.1614333581929269e-01 5.8977080430021089e-01 -2.4260584187909298e-01 1.2663590661745210e+00 -4.2388605760921372e-01 -5.8357429230854851e-01 8.0232070832265101e-01 4.5920931429779627e-02 -1.1180140887476750e+00 -2.6962122363143054e-01 9.7118976735750517e-01 -7.3172926725136767e-01 -1.6243532596896482e+00 1.4024831498254739e-01 6.6713827037357520e-01 1.3617332435228833e+00 
        </Neuron>
        <Neuron NSynapses="16">
          -2.3291661472583403e-01 4.9354480897881736e-01 2.5842571253838442e-01 -3.6749633899637169e-01 -7.5366461122037265e-01 1.8960640195948231e+00 -4.4353784671184515e-01 6.9216809114431699e-01 1.2843348591823027e+00 7.8462858675630731e-01 1.6626801401665603e+00 1.7263257758389944e-01 -4.6654006777220441e-01 -1.4547137221369488e+00 5.9206790018395694e-01 1.4866954839488622e-01 
        </Neuron>
        <Neuron NSynapses="16">
          1.5339168516069259e+00 1.3374333217844001e+00 1.3719121126514762e+00 1.2599924880015974e+00 -1.1223590159327241e+00 1.5079066649824855e+00 -1.9856726655943329e+00 -1.1053118693256054e+00 -1.1559161314656030e+00 -1.7323172603021109e+00 1.3838604423217900e+00 7.1466074501205201e-01 -1.5917272417549235e+00 2.6228577298630185e-01 7.9523253002597494e-01 7.2744564093637742e-01 
        </Neuron>
        <Neuron NSynapses="16">
          1.9618460428864284e+00 -6.6716389547474209e-01 -1.3340998060953999e-01 -1.2459502795625310e+00 1.0751079019725203e+00 4.4928621334201994e-02 -3.4139853530731223e-01 -1.7746785828723743e+00 8.7957458716939330e-01 6.7215919650989131e-01 1.3407215702100661e+00 -3.2128957208513331e-01 -1.8456986679524949e+00 -1.9925500480674816e+00 -1.2511234153235706e-01 2.9703809502042811e-01 
        </Neuron>
        <Neuron NSynapses="16">
          1.0593483337388345e+00 -5.0115446367542604e-01 3.2126830253705618e-01 -6.4256013847117055e-01 -2.3341137503142106e-01 -5.6279802296342418e-01 9.8337832050933993e-02 -6.4721921610295485e-01 -1.3281359940936286e+00 -1.3017125367484019e+00 -8.4494915363458289e-01 -1.6916870365331979e-01 1.3725699777678315e+00 -1.0661082331944876e+00 6.3809792280315289e-02 1.1114677558771315e+00 
        </Neuron>
        <Neuron NSynapses="16">
          -6.9589544972064343e-01 1.0737800640310777e+00 -1.3347692694082687e+00 -2.1461453138588807e-01 -1.9927988733458435e+00 -2.1075309929018644e+00 1.4475912655821688e+00 2.2041127509813583e+00 -9.9872117274606320e-01 1.3166036040144760e+00 -1.2644815640733285e+00 -4.0065183028339157e-01 -1.5101372692318613e-01 4.3556398655759210e-01 -9.7363803512861402e-01 8.3634179692500166e-01 
        </Neuron>
        <Neuron NSynapses="16">
          1.1212477465122954e+00 -7.2315944772795848e-01 -9.1721627432424369e-01 1.3704859898953841e+00 2.2596893771553919e-01 -1.1109899841184334e-01 2.3470966113282938e+00 -1.6747729221310783e+00 -1.2554323071857438e+00 -9.9186035155252511e-02 -1.8113238631987361e-01 1.1402544876597722e+00 7.2312047010644920e-01 -6.9884893064627873e-01 -2.1109836964667084e+00 2.7426770304234921e-01 
        </Neuron>
        <Neuron NSynapses="16">
          -1.2777930272319886e+00 1.5607144664484157e-01 -6.6273572548922501e-03 -2.1071391022161725e+00 3.8600166814520598e-01 -8.6629580224081215e-01 6.2412946716487083e-01 7.4038690134473117e-01 1.6253712207548805e+00 -1.3600967836034250e+00 -7.1472865211854683e-02 -5.7383206484283848e-02 1.3837405414421355e+00 1.4396648320033176e-01 -1.3521505483348544e+00 -6.0891430857266511e-02 
        </Neuron>
        <Neuron NSynapses="16">
          -9.2583117016672412e-01 2.7752442072140431e+00 1.7749441007136812e+00 -8.3608353885667230e-01 -7.1120867261959453e-01 7.4856061453614375e-01 -2.3779652260786994e+00 2.8305781527587359e-01 1.8862884738302363e+00 -6.6621665268702301e-01 -5.6993138433426349e-01 -6.5805119561906289e-01 1.0123720668278258e+00 -2.2591760500295526e-02 6.4726217820063949e+00 -1.5611236195805607e+00 
        </Neuron>
        <Neuron NSynapses="16">
          1.9607984580710331e+00 6.6324508358852430e-01 4.7538116116636375e-01 3.6906766853375650e-01 6.6919164959076838e-01 2.0323381463814424e-01 -1.0139909801967482e+00 4.6139383565079395e-01 -6.7177947662386905e-01 -1.0177339540513994e+00 1.8100060282631780e+00 2.5130736075831668e-02 -5.2153380324747856e-01 8.0197622911614985e-01 7.9774811775769339e-01 -1.6249687998897411e+00 
        </Neuron>
        <Neuron NSynapses="16">
          -6.4696667822264509e-01 -1.6533950954687140e+00 -3.4881904449043100e-01 -9.6372986174217046e-01 -1.9501682718502484e+00 1.0615035472328265e-02 2.0444490657918499e+00 -4.9509353641692033e-01 -6.9680248378451204e-01 -1.4273493239411003e-01 -6.4586831925018129e-01 2.7996143774803115e+00 -8.1659184059348702e-02 6.6939446457264817e-01 -4.9868420510479228e-01 6.9949828992179619e-01 
        </Neuron>
      </Layer>
      <Layer Index="1" NNeurons="17">
        <Neuron NSynapses="1">
          -2.9966562814564930e-03 
        </Neuron>
        <Neuron NSynapses="1">
          -3.6681437475379436e-01 
        </Neuron>
        <Neuron NSynapses="1">
          -1.7454716031450565e-01 
        </Neuron>
        <Neuron NSynapses="1">
          7.7833030152083277e-03 
        </Neuron>
        <Neuron NSynapses="1">
          -5.8739946052456769e-02 
        </Neuron>
        <Neuron NSynapses="1">
          7.0130353052854630e-02 
        </Neuron>
        <Neuron NSynapses="1">
          -2.2153561756765616e-01 
        </Neuron>
        <Neuron NSynapses="1">
          -3.6340765682559891e-03 
        </Neuron>
        <Neuron NSynapses="1">
          -1.1009915656753843e-02 
        </Neuron>
        <Neuron NSynapses="1">
          -4.2719909649082344e-02 
        </Neuron>
        <Neuron NSynapses="1">
          -2.0044227897219748e-02 
        </Neuron>
        <Neuron NSynapses="1">
          -6.3027042401437972e-01 
        </Neuron>
        <Neuron NSynapses="1">
          -7.0316904863953504e-03 
        </Neuron>
        <Neuron NSynapses="1">
          1.0308098850558714e-02 
        </Neuron>
        <Neuron NSynapses="1">
          3.7363861307441210e-01 
        </Neuron>
        <Neuron NSynapses="1">
          -3.0580234265376115e-02 
        </Neuron>
        <Neuron NSynapses="1">
          7.2067885964824419e-01 
        </Neuron>
      </Layer>
      <Layer Index="2" NNeurons="1">
        <Neuron NSynapses="0"/>
      </Layer>
    </Layout>
  </Weights>
</MethodSetup>
