<?xml version="1.0"?>
<MethodSetup Method="MLP::MLP">
  <GeneralInfo>
    <Info name="TMVA Release" value="4.1.2 [262402]"/>
    <Info name="ROOT Release" value="5.32/04 [335876]"/>
    <Info name="Creator" value="lpernie"/>
    <Info name="Date" value="Fri Jul  1 11:02:02 2016"/>
    <Info name="Host" value="Linux login01.brazos.tamu.edu 2.6.32-431.23.3.el6.x86_64 #1 SMP Thu Jul 31 17:20:51 UTC 2014 x86_64 x86_64 x86_64 GNU/Linux"/>
    <Info name="Dir" value="/home/lpernie/Hhh/delphes/diHiggs/MVAs"/>
    <Info name="Training events" value="225711"/>
    <Info name="TrainingTime" value="2.73215911e+03"/>
    <Info name="AnalysisType" value="Classification"/>
  </GeneralInfo>
  <Options>
    <Option name="NCycles" modified="Yes">600</Option>
    <Option name="HiddenLayers" modified="Yes">N+5</Option>
    <Option name="NeuronType" modified="Yes">tanh</Option>
    <Option name="RandomSeed" modified="No">1</Option>
    <Option name="EstimatorType" modified="No">MSE</Option>
    <Option name="NeuronInputType" modified="No">sum</Option>
    <Option name="V" modified="Yes">False</Option>
    <Option name="VerbosityLevel" modified="No">Default</Option>
    <Option name="VarTransform" modified="Yes">N</Option>
    <Option name="H" modified="Yes">True</Option>
    <Option name="CreateMVAPdfs" modified="No">False</Option>
    <Option name="IgnoreNegWeightsInTraining" modified="No">False</Option>
    <Option name="TrainingMethod" modified="No">BP</Option>
    <Option name="LearningRate" modified="No">2.000000e-02</Option>
    <Option name="DecayRate" modified="No">1.000000e-02</Option>
    <Option name="TestRate" modified="Yes">5</Option>
    <Option name="EpochMonitoring" modified="No">False</Option>
    <Option name="Sampling" modified="No">1.000000e+00</Option>
    <Option name="SamplingEpoch" modified="No">1.000000e+00</Option>
    <Option name="SamplingImportance" modified="No">1.000000e+00</Option>
    <Option name="SamplingTraining" modified="No">True</Option>
    <Option name="SamplingTesting" modified="No">False</Option>
    <Option name="ResetStep" modified="No">50</Option>
    <Option name="Tau" modified="No">3.000000e+00</Option>
    <Option name="BPMode" modified="No">sequential</Option>
    <Option name="BatchSize" modified="No">-1</Option>
    <Option name="ConvergenceImprove" modified="No">1.000000e-30</Option>
    <Option name="ConvergenceTests" modified="No">-1</Option>
    <Option name="UseRegulator" modified="Yes">False</Option>
    <Option name="UpdateLimit" modified="No">10000</Option>
    <Option name="CalculateErrors" modified="No">False</Option>
    <Option name="WeightRange" modified="No">1.000000e+00</Option>
  </Options>
  <Variables NVar="11">
    <Variable VarIndex="0" Expression="dR_l1l2" Label="dR_l1l2" Title="dR_l1l2" Unit="" Internal="dR_l1l2" Type="F" Min="7.35708028e-02" Max="3.29992628e+00"/>
    <Variable VarIndex="1" Expression="dR_b1b2" Label="dR_b1b2" Title="dR_b1b2" Unit="" Internal="dR_b1b2" Type="F" Min="3.73879045e-01" Max="4.99732256e+00"/>
    <Variable VarIndex="2" Expression="dR_bl" Label="dR_bl" Title="dR_bl" Unit="" Internal="dR_bl" Type="F" Min="4.00014162e-01" Max="4.98875952e+00"/>
    <Variable VarIndex="3" Expression="dR_l1l2b1b2" Label="dR_l1l2b1b2" Title="dR_l1l2b1b2" Unit="" Internal="dR_l1l2b1b2" Type="F" Min="4.42243833e-03" Max="5.99961948e+00"/>
    <Variable VarIndex="4" Expression="MINdR_bl" Label="MINdR_bl" Title="MINdR_bl" Unit="" Internal="MINdR_bl" Type="F" Min="4.00001377e-01" Max="3.19927812e+00"/>
    <Variable VarIndex="5" Expression="dphi_l1l2b1b2" Label="dphi_l1l2b1b2" Title="dphi_l1l2b1b2" Unit="" Internal="dphi_l1l2b1b2" Type="F" Min="1.38563655e-05" Max="3.14159226e+00"/>
    <Variable VarIndex="6" Expression="mass_l1l2" Label="mass_l1l2" Title="mass_l1l2" Unit="" Internal="mass_l1l2" Type="F" Min="5.00662184e+00" Max="9.99998550e+01"/>
    <Variable VarIndex="7" Expression="mass_b1b2" Label="mass_b1b2" Title="mass_b1b2" Unit="" Internal="mass_b1b2" Type="F" Min="2.20005798e+01" Max="6.99751221e+02"/>
    <Variable VarIndex="8" Expression="mass_trans" Label="mass_trans" Title="mass_trans" Unit="" Internal="mass_trans" Type="F" Min="0.00000000e+00" Max="2.49994110e+02"/>
    <Variable VarIndex="9" Expression="MT2" Label="MT2" Title="MT2" Unit="" Internal="MT2" Type="F" Min="2.56242752e+01" Max="3.99925476e+02"/>
    <Variable VarIndex="10" Expression="pt_b1b2" Label="pt_b1b2" Title="pt_b1b2" Unit="" Internal="pt_b1b2" Type="F" Min="1.50757179e-01" Max="2.99963409e+02"/>
  </Variables>
  <Spectators NSpec="0"/>
  <Classes NClass="2">
    <Class Name="Signal" Index="0"/>
    <Class Name="Background" Index="1"/>
  </Classes>
  <Transformations NTransformations="1">
    <Transform Name="Normalize">
      <Selection>
        <Input NInputs="11">
          <Input Type="Variable" Label="dR_l1l2" Expression="dR_l1l2"/>
          <Input Type="Variable" Label="dR_b1b2" Expression="dR_b1b2"/>
          <Input Type="Variable" Label="dR_bl" Expression="dR_bl"/>
          <Input Type="Variable" Label="dR_l1l2b1b2" Expression="dR_l1l2b1b2"/>
          <Input Type="Variable" Label="MINdR_bl" Expression="MINdR_bl"/>
          <Input Type="Variable" Label="dphi_l1l2b1b2" Expression="dphi_l1l2b1b2"/>
          <Input Type="Variable" Label="mass_l1l2" Expression="mass_l1l2"/>
          <Input Type="Variable" Label="mass_b1b2" Expression="mass_b1b2"/>
          <Input Type="Variable" Label="mass_trans" Expression="mass_trans"/>
          <Input Type="Variable" Label="MT2" Expression="MT2"/>
          <Input Type="Variable" Label="pt_b1b2" Expression="pt_b1b2"/>
        </Input>
        <Output NOutputs="11">
          <Output Type="Variable" Label="dR_l1l2" Expression="dR_l1l2"/>
          <Output Type="Variable" Label="dR_b1b2" Expression="dR_b1b2"/>
          <Output Type="Variable" Label="dR_bl" Expression="dR_bl"/>
          <Output Type="Variable" Label="dR_l1l2b1b2" Expression="dR_l1l2b1b2"/>
          <Output Type="Variable" Label="MINdR_bl" Expression="MINdR_bl"/>
          <Output Type="Variable" Label="dphi_l1l2b1b2" Expression="dphi_l1l2b1b2"/>
          <Output Type="Variable" Label="mass_l1l2" Expression="mass_l1l2"/>
          <Output Type="Variable" Label="mass_b1b2" Expression="mass_b1b2"/>
          <Output Type="Variable" Label="mass_trans" Expression="mass_trans"/>
          <Output Type="Variable" Label="MT2" Expression="MT2"/>
          <Output Type="Variable" Label="pt_b1b2" Expression="pt_b1b2"/>
        </Output>
      </Selection>
      <Class ClassIndex="0">
        <Ranges>
          <Range Index="0" Min="7.4287042021751404e-02" Max="3.2095882892608643e+00"/>
          <Range Index="1" Min="3.9385813474655151e-01" Max="4.7400493621826172e+00"/>
          <Range Index="2" Min="4.6555522084236145e-01" Max="4.7709250450134277e+00"/>
          <Range Index="3" Min="1.1935840547084808e-01" Max="5.5450544357299805e+00"/>
          <Range Index="4" Min="4.1084319353103638e-01" Max="3.1949863433837891e+00"/>
          <Range Index="5" Min="9.4987489283084869e-03" Max="3.1415147781372070e+00"/>
          <Range Index="6" Min="5.0233612060546875e+00" Max="9.0058197021484375e+01"/>
          <Range Index="7" Min="2.2024511337280273e+01" Max="6.8313470458984375e+02"/>
          <Range Index="8" Min="4.1612651199102402e-02" Max="2.4874749755859375e+02"/>
          <Range Index="9" Min="5.1261489868164062e+01" Max="3.9910125732421875e+02"/>
          <Range Index="10" Min="1.7930262088775635e+00" Max="2.9979010009765625e+02"/>
        </Ranges>
      </Class>
      <Class ClassIndex="1">
        <Ranges>
          <Range Index="0" Min="7.3570802807807922e-02" Max="3.2999262809753418e+00"/>
          <Range Index="1" Min="3.7387904524803162e-01" Max="4.9973225593566895e+00"/>
          <Range Index="2" Min="4.0001416206359863e-01" Max="4.9887595176696777e+00"/>
          <Range Index="3" Min="4.4224383309483528e-03" Max="5.9996194839477539e+00"/>
          <Range Index="4" Min="4.0000137686729431e-01" Max="3.1992781162261963e+00"/>
          <Range Index="5" Min="1.3856365512765478e-05" Max="3.1415922641754150e+00"/>
          <Range Index="6" Min="5.0066218376159668e+00" Max="9.9999855041503906e+01"/>
          <Range Index="7" Min="2.2000579833984375e+01" Max="6.9975122070312500e+02"/>
          <Range Index="8" Min="0.0000000000000000e+00" Max="2.4999411010742188e+02"/>
          <Range Index="9" Min="2.5624275207519531e+01" Max="3.9992547607421875e+02"/>
          <Range Index="10" Min="1.5075717866420746e-01" Max="2.9996340942382812e+02"/>
        </Ranges>
      </Class>
      <Class ClassIndex="2">
        <Ranges>
          <Range Index="0" Min="7.3570802807807922e-02" Max="3.2999262809753418e+00"/>
          <Range Index="1" Min="3.7387904524803162e-01" Max="4.9973225593566895e+00"/>
          <Range Index="2" Min="4.0001416206359863e-01" Max="4.9887595176696777e+00"/>
          <Range Index="3" Min="4.4224383309483528e-03" Max="5.9996194839477539e+00"/>
          <Range Index="4" Min="4.0000137686729431e-01" Max="3.1992781162261963e+00"/>
          <Range Index="5" Min="1.3856365512765478e-05" Max="3.1415922641754150e+00"/>
          <Range Index="6" Min="5.0066218376159668e+00" Max="9.9999855041503906e+01"/>
          <Range Index="7" Min="2.2000579833984375e+01" Max="6.9975122070312500e+02"/>
          <Range Index="8" Min="0.0000000000000000e+00" Max="2.4999411010742188e+02"/>
          <Range Index="9" Min="2.5624275207519531e+01" Max="3.9992547607421875e+02"/>
          <Range Index="10" Min="1.5075717866420746e-01" Max="2.9996340942382812e+02"/>
        </Ranges>
      </Class>
    </Transform>
  </Transformations>
  <MVAPdfs/>
  <Weights>
    <Layout NLayers="3">
      <Layer Index="0" NNeurons="12">
        <Neuron NSynapses="16">
          -7.0485502384536514e-01 -3.5221185121763715e-01 -6.5815858224657686e-01 1.3235559007012028e+00 -1.3663192984759842e+00 -8.3730586015224895e-01 8.2071674180185272e-01 7.8310303830132799e-01 -2.2323675731475673e-01 -9.6833016023547458e-01 -6.8383641804903605e-01 -6.5162222906113662e-02 -4.8581352897357560e-01 -3.7160796890026526e-01 -1.0202081441392403e+00 5.7912203446789423e-01 
        </Neuron>
        <Neuron NSynapses="16">
          -2.6805803616689041e+00 5.3755885668772496e-01 1.0264524807541506e+00 1.2974933421866821e+00 -3.8703574344496100e-01 2.9401522290818516e-01 -8.5917805004405734e-01 2.1789338150723306e-01 -9.7745314409219530e-01 -2.3223334977411200e-01 8.4249548133154950e-01 -1.1718546693660004e+00 -1.3232409603662609e+00 1.8276300603700188e-01 -6.1070568206688258e-01 1.1783884280128714e+00 
        </Neuron>
        <Neuron NSynapses="16">
          -1.9840771953871575e-01 3.0766399427474489e-01 1.2804262187289188e+00 -9.3534038538907086e-02 -8.9438605991446951e-01 1.7887996449221419e+00 -1.3489777736612937e-01 6.1921675895976735e-01 1.5334837185806336e+00 8.0796312329893916e-01 1.0965826776071748e+00 6.3850995419811674e-01 -1.7135245754786649e-01 -1.2159975893890846e+00 2.5673075600681838e-01 -6.2894430637699217e-01 
        </Neuron>
        <Neuron NSynapses="16">
          1.2159979961078438e+00 4.1042720407439198e-01 1.2584830038099686e+00 1.4676807346603660e+00 -1.1901864458870721e+00 1.3924573742581197e+00 -7.7934920867676138e-01 -1.1652016486212811e+00 -8.1782328790530812e-01 -1.7220461770842797e+00 1.1225072555909239e+00 8.6525487162649617e-01 -1.3627697544490798e+00 2.9205668216557040e-01 -2.4796586178585198e-01 2.7318944164804768e-02 
        </Neuron>
        <Neuron NSynapses="16">
          7.5144160158516660e-01 1.2975805290414699e-02 -2.9760681936358502e-01 -1.0262192442272227e+00 9.8939241277584100e-01 -4.3151654562992504e-02 -2.6520086977945267e-01 -1.3996021098789460e+00 9.3851352945355793e-01 2.5189210422900049e-01 3.5994925083772479e-02 -1.7797250918453092e-02 -1.3178019772910388e+00 -1.5829486032073472e+00 4.4791917847942703e-01 -3.4325977684311332e-01 
        </Neuron>
        <Neuron NSynapses="16">
          1.0092095375965813e-02 1.5906909152955845e-01 -3.3309722135839803e-01 -4.7996718270532218e-01 -2.2100745765525687e-01 -1.8030693408256709e-01 -3.3426040181161681e-01 3.4490063607330601e-01 -1.0622450363215146e+00 -6.8879580520195161e-01 -4.0574560777411195e-01 -5.1331540966546296e-01 1.3762386082541014e+00 -5.0635419276445093e-01 5.3372979564864453e-01 9.9390484374738686e-01 
        </Neuron>
        <Neuron NSynapses="16">
          -2.6419875215896077e-01 6.3112350503142778e-01 -1.1242887267634201e+00 -1.8892949189216388e-01 -1.0843841407521799e+00 -6.7169511140116034e-01 4.2226226484388940e-01 8.4482596479828576e-01 -7.9539983700162065e-01 1.5698730529427691e+00 -1.4048631471937481e+00 -2.8018993069997689e-01 -5.1489749303256879e-02 5.4612200868320293e-01 6.5296205282752234e-02 3.9652706797934850e-01 
        </Neuron>
        <Neuron NSynapses="16">
          -4.9884400596133846e-02 -2.9089934902855066e+00 -1.6402410438411357e+00 1.7155207380095385e+00 5.2706410013704630e-01 1.4417050186791225e-01 5.9949675129152054e+00 -2.4684796492885410e+00 -4.2809832502590361e-01 -3.6466944596004697e-01 -8.7724722698846724e-01 1.8775134870697436e+00 1.0634336355197416e+00 -1.1363079450826998e+00 -1.1995082708021374e+00 -1.1826025780784223e-01 
        </Neuron>
        <Neuron NSynapses="16">
          -3.4250642273982290e-01 -2.4157504494273480e-01 -9.5832114241899358e-01 -1.7469629630868715e+00 5.4716974842866306e-01 -1.1684254514812153e+00 6.8336768326270603e-01 1.8810334194000286e-01 1.0548438921326377e+00 -1.1874350663981916e+00 2.1026179496108285e-01 7.7485116728597803e-01 8.2492083467342137e-01 -2.7228673004748575e-02 -2.6530986796544681e-01 -6.4128070906899493e-01 
        </Neuron>
        <Neuron NSynapses="16">
          1.2314291499006891e-01 2.6767970976575732e+00 2.9804072005036653e+00 -3.1873447412704153e-01 -2.2523928377649025e-01 1.4275805357221254e+00 -3.8628497708942149e+00 -4.6441982615714361e-01 2.1877993501252515e+00 -1.0490100109369289e+00 7.2523826894900867e-01 2.6240678658169131e-01 9.9573365600519403e-01 -3.5594108766844201e-01 1.3633692570559397e+00 -1.7886688268198052e+00 
        </Neuron>
        <Neuron NSynapses="16">
          6.8892776678844292e-01 8.7821926039364984e-01 1.4011914484285366e+00 6.9356435850540554e-01 1.1215956315264084e+00 4.7221293201647607e-01 -1.4320361502771062e+00 -4.3642785895965908e-01 3.9968904471780936e-01 -8.9957343755902008e-01 1.3717883825518380e+00 6.9831431869038052e-01 -3.6695931427678380e-01 2.4616365546749663e-01 8.1130773089920272e-01 -1.2835493641178564e+00 
        </Neuron>
        <Neuron NSynapses="16">
          -4.0494775033184860e+00 -3.6357519711699764e+00 -1.3530342911832849e+00 -1.6634130123258586e+00 -2.0166408378396392e+00 -1.7392744973197736e+00 5.1242665282197688e+00 2.1128202583275337e+00 -2.1028508413865148e+00 8.8125092668740368e-01 -2.0443409835309554e+00 2.7192886762613200e-01 -5.6222427541433440e-01 1.3529346768136230e+00 -4.0543827304554023e+00 1.8654871702836195e+00 
        </Neuron>
      </Layer>
      <Layer Index="1" NNeurons="17">
        <Neuron NSynapses="1">
          -6.2277236038396155e-01 
        </Neuron>
        <Neuron NSynapses="1">
          -7.1730373763142874e-01 
        </Neuron>
        <Neuron NSynapses="1">
          1.6429682370535659e-01 
        </Neuron>
        <Neuron NSynapses="1">
          -2.5916217953622402e-03 
        </Neuron>
        <Neuron NSynapses="1">
          -1.7016995248755301e-03 
        </Neuron>
        <Neuron NSynapses="1">
          -1.1845518077204535e-01 
        </Neuron>
        <Neuron NSynapses="1">
          -4.7749222743458680e-01 
        </Neuron>
        <Neuron NSynapses="1">
          -1.6197951056670218e-01 
        </Neuron>
        <Neuron NSynapses="1">
          -6.9523870104587590e-02 
        </Neuron>
        <Neuron NSynapses="1">
          7.3045903415657944e-03 
        </Neuron>
        <Neuron NSynapses="1">
          -1.4906536590557790e-01 
        </Neuron>
        <Neuron NSynapses="1">
          3.4982176146311503e-03 
        </Neuron>
        <Neuron NSynapses="1">
          -4.1555913965794636e-04 
        </Neuron>
        <Neuron NSynapses="1">
          6.8350686771794975e-04 
        </Neuron>
        <Neuron NSynapses="1">
          1.2590519636606032e+00 
        </Neuron>
        <Neuron NSynapses="1">
          1.2813362298660654e-02 
        </Neuron>
        <Neuron NSynapses="1">
          3.6651899930717002e-01 
        </Neuron>
      </Layer>
      <Layer Index="2" NNeurons="1">
        <Neuron NSynapses="0"/>
      </Layer>
    </Layout>
  </Weights>
</MethodSetup>
