<?xml version="1.0"?>
<MethodSetup Method="MLP::MLPBFGS">
  <GeneralInfo>
    <Info name="TMVA Release" value="4.1.2 [262402]"/>
    <Info name="ROOT Release" value="5.32/04 [335876]"/>
    <Info name="Creator" value="lpernie"/>
    <Info name="Date" value="Fri May  6 13:45:34 2016"/>
    <Info name="Host" value="Linux login01.brazos.tamu.edu 2.6.32-431.23.3.el6.x86_64 #1 SMP Thu Jul 31 17:20:51 UTC 2014 x86_64 x86_64 x86_64 GNU/Linux"/>
    <Info name="Dir" value="/home/lpernie/Hhh/delphes/diHiggs/MVAs"/>
    <Info name="Training events" value="18161"/>
    <Info name="TrainingTime" value="8.79396406e+02"/>
    <Info name="AnalysisType" value="Classification"/>
  </GeneralInfo>
  <Options>
    <Option name="NCycles" modified="Yes">600</Option>
    <Option name="HiddenLayers" modified="Yes">N+5</Option>
    <Option name="NeuronType" modified="Yes">tanh</Option>
    <Option name="RandomSeed" modified="No">1</Option>
    <Option name="EstimatorType" modified="No">MSE</Option>
    <Option name="NeuronInputType" modified="No">sum</Option>
    <Option name="V" modified="Yes">False</Option>
    <Option name="VerbosityLevel" modified="No">Default</Option>
    <Option name="VarTransform" modified="Yes">N</Option>
    <Option name="H" modified="Yes">True</Option>
    <Option name="CreateMVAPdfs" modified="No">False</Option>
    <Option name="IgnoreNegWeightsInTraining" modified="No">False</Option>
    <Option name="TrainingMethod" modified="Yes">BFGS</Option>
    <Option name="LearningRate" modified="No">2.000000e-02</Option>
    <Option name="DecayRate" modified="No">1.000000e-02</Option>
    <Option name="TestRate" modified="Yes">5</Option>
    <Option name="EpochMonitoring" modified="No">False</Option>
    <Option name="Sampling" modified="No">1.000000e+00</Option>
    <Option name="SamplingEpoch" modified="No">1.000000e+00</Option>
    <Option name="SamplingImportance" modified="No">1.000000e+00</Option>
    <Option name="SamplingTraining" modified="No">True</Option>
    <Option name="SamplingTesting" modified="No">False</Option>
    <Option name="ResetStep" modified="No">50</Option>
    <Option name="Tau" modified="No">3.000000e+00</Option>
    <Option name="BPMode" modified="No">sequential</Option>
    <Option name="BatchSize" modified="No">-1</Option>
    <Option name="ConvergenceImprove" modified="No">1.000000e-30</Option>
    <Option name="ConvergenceTests" modified="No">-1</Option>
    <Option name="UseRegulator" modified="Yes">False</Option>
    <Option name="UpdateLimit" modified="No">10000</Option>
    <Option name="CalculateErrors" modified="No">False</Option>
    <Option name="WeightRange" modified="No">1.000000e+00</Option>
  </Options>
  <Variables NVar="11">
    <Variable VarIndex="0" Expression="dR_l1l2" Label="dR_l1l2" Title="dR_l1l2" Unit="" Internal="dR_l1l2" Type="F" Min="7.04614148e-02" Max="3.29991746e+00"/>
    <Variable VarIndex="1" Expression="dR_b1b2" Label="dR_b1b2" Title="dR_b1b2" Unit="" Internal="dR_b1b2" Type="F" Min="3.76956880e-01" Max="4.99822092e+00"/>
    <Variable VarIndex="2" Expression="dR_bl" Label="dR_bl" Title="dR_bl" Unit="" Internal="dR_bl" Type="F" Min="4.01567370e-01" Max="4.98002052e+00"/>
    <Variable VarIndex="3" Expression="dR_l1l2b1b2" Label="dR_l1l2b1b2" Title="dR_l1l2b1b2" Unit="" Internal="dR_l1l2b1b2" Type="F" Min="2.85045840e-02" Max="5.98995972e+00"/>
    <Variable VarIndex="4" Expression="MINdR_bl" Label="MINdR_bl" Title="MINdR_bl" Unit="" Internal="MINdR_bl" Type="F" Min="4.00611997e-01" Max="3.19981217e+00"/>
    <Variable VarIndex="5" Expression="dphi_l1l2b1b2" Label="dphi_l1l2b1b2" Title="dphi_l1l2b1b2" Unit="" Internal="dphi_l1l2b1b2" Type="F" Min="5.25824726e-04" Max="3.14152741e+00"/>
    <Variable VarIndex="6" Expression="mass_l1l2" Label="mass_l1l2" Title="mass_l1l2" Unit="" Internal="mass_l1l2" Type="F" Min="5.06687784e+00" Max="9.99996490e+01"/>
    <Variable VarIndex="7" Expression="mass_b1b2" Label="mass_b1b2" Title="mass_b1b2" Unit="" Internal="mass_b1b2" Type="F" Min="2.20024567e+01" Max="6.95843140e+02"/>
    <Variable VarIndex="8" Expression="mass_trans" Label="mass_trans" Title="mass_trans" Unit="" Internal="mass_trans" Type="F" Min="0.00000000e+00" Max="2.49843353e+02"/>
    <Variable VarIndex="9" Expression="MT2" Label="MT2" Title="MT2" Unit="" Internal="MT2" Type="F" Min="2.50663490e+01" Max="3.99945435e+02"/>
    <Variable VarIndex="10" Expression="pt_b1b2" Label="pt_b1b2" Title="pt_b1b2" Unit="" Internal="pt_b1b2" Type="F" Min="1.33661461e+00" Max="2.99987793e+02"/>
  </Variables>
  <Spectators NSpec="0"/>
  <Classes NClass="2">
    <Class Name="Signal" Index="0"/>
    <Class Name="Background" Index="1"/>
  </Classes>
  <Transformations NTransformations="1">
    <Transform Name="Normalize">
      <Selection>
        <Input NInputs="11">
          <Input Type="Variable" Label="dR_l1l2" Expression="dR_l1l2"/>
          <Input Type="Variable" Label="dR_b1b2" Expression="dR_b1b2"/>
          <Input Type="Variable" Label="dR_bl" Expression="dR_bl"/>
          <Input Type="Variable" Label="dR_l1l2b1b2" Expression="dR_l1l2b1b2"/>
          <Input Type="Variable" Label="MINdR_bl" Expression="MINdR_bl"/>
          <Input Type="Variable" Label="dphi_l1l2b1b2" Expression="dphi_l1l2b1b2"/>
          <Input Type="Variable" Label="mass_l1l2" Expression="mass_l1l2"/>
          <Input Type="Variable" Label="mass_b1b2" Expression="mass_b1b2"/>
          <Input Type="Variable" Label="mass_trans" Expression="mass_trans"/>
          <Input Type="Variable" Label="MT2" Expression="MT2"/>
          <Input Type="Variable" Label="pt_b1b2" Expression="pt_b1b2"/>
        </Input>
        <Output NOutputs="11">
          <Output Type="Variable" Label="dR_l1l2" Expression="dR_l1l2"/>
          <Output Type="Variable" Label="dR_b1b2" Expression="dR_b1b2"/>
          <Output Type="Variable" Label="dR_bl" Expression="dR_bl"/>
          <Output Type="Variable" Label="dR_l1l2b1b2" Expression="dR_l1l2b1b2"/>
          <Output Type="Variable" Label="MINdR_bl" Expression="MINdR_bl"/>
          <Output Type="Variable" Label="dphi_l1l2b1b2" Expression="dphi_l1l2b1b2"/>
          <Output Type="Variable" Label="mass_l1l2" Expression="mass_l1l2"/>
          <Output Type="Variable" Label="mass_b1b2" Expression="mass_b1b2"/>
          <Output Type="Variable" Label="mass_trans" Expression="mass_trans"/>
          <Output Type="Variable" Label="MT2" Expression="MT2"/>
          <Output Type="Variable" Label="pt_b1b2" Expression="pt_b1b2"/>
        </Output>
      </Selection>
      <Class ClassIndex="0">
        <Ranges>
          <Range Index="0" Min="7.0461414754390717e-02" Max="3.1871154308319092e+00"/>
          <Range Index="1" Min="3.7695688009262085e-01" Max="4.9982209205627441e+00"/>
          <Range Index="2" Min="5.3106850385665894e-01" Max="4.9800205230712891e+00"/>
          <Range Index="3" Min="8.5649704933166504e-01" Max="5.9899597167968750e+00"/>
          <Range Index="4" Min="4.0061199665069580e-01" Max="3.1998121738433838e+00"/>
          <Range Index="5" Min="3.5262817982584238e-03" Max="3.1415274143218994e+00"/>
          <Range Index="6" Min="5.0832605361938477e+00" Max="9.4873603820800781e+01"/>
          <Range Index="7" Min="2.2205059051513672e+01" Max="6.9584313964843750e+02"/>
          <Range Index="8" Min="0.0000000000000000e+00" Max="2.4880146789550781e+02"/>
          <Range Index="9" Min="4.4817237854003906e+01" Max="3.9994543457031250e+02"/>
          <Range Index="10" Min="3.6232767105102539e+00" Max="2.9998779296875000e+02"/>
        </Ranges>
      </Class>
      <Class ClassIndex="1">
        <Ranges>
          <Range Index="0" Min="7.1014471352100372e-02" Max="3.2999174594879150e+00"/>
          <Range Index="1" Min="3.8065248727798462e-01" Max="4.9789867401123047e+00"/>
          <Range Index="2" Min="4.0156736969947815e-01" Max="4.9152326583862305e+00"/>
          <Range Index="3" Min="2.8504583984613419e-02" Max="5.8363409042358398e+00"/>
          <Range Index="4" Min="4.0100964903831482e-01" Max="3.1815350055694580e+00"/>
          <Range Index="5" Min="5.2582472562789917e-04" Max="3.1413893699645996e+00"/>
          <Range Index="6" Min="5.0668778419494629e+00" Max="9.9999649047851562e+01"/>
          <Range Index="7" Min="2.2002456665039062e+01" Max="6.7926019287109375e+02"/>
          <Range Index="8" Min="3.3470250666141510e-02" Max="2.4984335327148438e+02"/>
          <Range Index="9" Min="2.5066349029541016e+01" Max="3.8854220581054688e+02"/>
          <Range Index="10" Min="1.3366146087646484e+00" Max="2.9834268188476562e+02"/>
        </Ranges>
      </Class>
      <Class ClassIndex="2">
        <Ranges>
          <Range Index="0" Min="7.0461414754390717e-02" Max="3.2999174594879150e+00"/>
          <Range Index="1" Min="3.7695688009262085e-01" Max="4.9982209205627441e+00"/>
          <Range Index="2" Min="4.0156736969947815e-01" Max="4.9800205230712891e+00"/>
          <Range Index="3" Min="2.8504583984613419e-02" Max="5.9899597167968750e+00"/>
          <Range Index="4" Min="4.0061199665069580e-01" Max="3.1998121738433838e+00"/>
          <Range Index="5" Min="5.2582472562789917e-04" Max="3.1415274143218994e+00"/>
          <Range Index="6" Min="5.0668778419494629e+00" Max="9.9999649047851562e+01"/>
          <Range Index="7" Min="2.2002456665039062e+01" Max="6.9584313964843750e+02"/>
          <Range Index="8" Min="0.0000000000000000e+00" Max="2.4984335327148438e+02"/>
          <Range Index="9" Min="2.5066349029541016e+01" Max="3.9994543457031250e+02"/>
          <Range Index="10" Min="1.3366146087646484e+00" Max="2.9998779296875000e+02"/>
        </Ranges>
      </Class>
    </Transform>
  </Transformations>
  <MVAPdfs/>
  <Weights>
    <Layout NLayers="3">
      <Layer Index="0" NNeurons="12">
        <Neuron NSynapses="16">
          -7.7899221479945258e-01 -3.9358493347420814e-01 7.7589861669830473e-01 -1.6746321308689658e+00 -3.5673184134657996e+00 -9.0435796863283380e-01 7.0124687377031958e-01 1.2561609810316081e+00 -1.3834151791868055e+00 5.2076061730385710e-02 -2.5245421115192029e-01 -1.0669308031305569e+00 -1.2393663966748556e+00 5.7257191397868494e-02 -1.3424006720545949e+00 4.2592474835884788e+00 
        </Neuron>
        <Neuron NSynapses="16">
          -5.7892624294556372e-01 5.6362792275162799e-01 -5.4118815907356753e-02 1.0783487818884809e+00 -8.6571479514284000e-01 -8.3251535538598131e-01 -8.7505445374495228e-01 -1.3401927765227031e-01 -1.1832251951658774e+00 -1.2476023329115327e+00 1.8592901204543626e+00 -5.8669206690407560e-01 -1.5284145340340567e+00 2.3687565853897901e-02 1.7909018638333787e+00 8.3759000629031144e-01 
        </Neuron>
        <Neuron NSynapses="16">
          -4.5652251371607105e-01 4.0975317724245386e-01 3.4319193655690650e-01 -9.9002404782666997e-01 5.5724401631926414e-02 2.0892355808743330e+00 -4.7060005236295954e-01 1.1146107435163144e+00 1.1247531665026855e+00 2.3591062170502222e-01 1.6207099242326766e+00 -5.8714578305722598e-01 -4.9730297688998792e-01 -1.4178802882503418e+00 6.8992105331147591e-01 7.1270271269400229e-03 
        </Neuron>
        <Neuron NSynapses="16">
          1.4080707087929201e+00 3.3410895837514265e-01 2.1812144770355797e+00 3.8869700687275494e-01 -6.0541207314354706e-01 1.3950294574832172e+00 -7.3011665939599701e-01 -9.0947059770404581e-01 -1.3431214109574092e+00 -2.8313094347594752e+00 2.0201257962531267e+00 1.6711116598259487e-01 -1.8459492392603976e+00 2.0234880266404995e-01 9.4956702335282483e-01 6.2302147172736866e-01 
        </Neuron>
        <Neuron NSynapses="16">
          1.4414499098572522e+00 -3.4993093628014138e-01 2.8810932343161388e-01 -4.0744562142544488e-02 5.7716580213600543e-01 -7.2754446577544540e-01 -4.5297858145696723e-01 -1.0835439783773573e+00 6.8588341402975694e-01 9.5561112047182140e-01 7.2512534314674748e-01 -1.5827694939971443e-01 -2.7273201229261201e+00 -1.7918994888648780e+00 -6.7486568528959623e-01 -2.5752436752038504e-01 
        </Neuron>
        <Neuron NSynapses="16">
          3.3221894202141972e-01 -6.8105183557340965e-02 4.9684987790954099e-01 -4.3895304145953934e-01 2.1927923389491932e-01 1.2962167655432877e-01 2.0095952750200610e-01 -1.2278737608835448e+00 -1.6411718381888105e+00 -2.2277790404344047e+00 -1.2094946114587184e+00 1.3556284434079243e-02 9.8462277329154313e-01 -1.7001045162449253e+00 7.4456905949219720e-01 -2.3570093244160897e-01 
        </Neuron>
        <Neuron NSynapses="16">
          -2.0995262337043590e+00 7.9306397270009266e-01 -1.4401593978162375e+00 -1.3449607455818622e+00 2.2291683040337265e-01 -1.6326814068501700e+00 1.4094621769648725e+00 1.7053168699016792e+00 -1.3878468818635217e+00 8.0665750115433832e-01 1.0968366196281607e+00 3.0582768907991720e-01 -1.9692379269567206e-01 2.4296184809431257e-01 -7.5873177658921664e-01 -9.2912018342166480e-01 
        </Neuron>
        <Neuron NSynapses="16">
          9.4173057951846240e-01 -9.7239106847468681e-01 -1.3136888609002122e+00 3.1043727895702089e+00 9.2667588580800736e-02 -9.4944211553437619e-01 6.0119574567152831e+00 -1.1188838783026416e+00 -1.5796859934600009e+00 -4.9833960153917126e-02 -6.5967911518172018e-01 2.2360999800263719e+00 7.4263091462762565e-01 -4.6073152382138505e-01 -4.8131621416304489e+00 -3.6883896157884505e-01 
        </Neuron>
        <Neuron NSynapses="16">
          -3.4062516196028123e+00 -4.4278817529402568e-02 -5.7684348738695057e-01 -1.9016350438081155e+00 -4.1886541190835003e-01 -9.9207944981811724e-01 1.0168019874780143e+00 8.7482706449357428e-01 1.6485394211265449e+00 -6.2379440821732346e-01 -3.7311466833272744e-02 1.1365087144595450e-01 1.4653735646097410e+00 4.4348537618559258e-01 -1.7896182935773521e+00 3.0128512665557688e-01 
        </Neuron>
        <Neuron NSynapses="16">
          4.6653616205174657e-02 2.7141373086863272e+00 3.2399844258181734e+00 1.2178656697467802e+00 5.8901384117274816e-02 3.6356435854979641e-01 -3.1500150651752472e+00 1.3675566117858022e+00 1.7403525507858613e+00 -1.4240472101726289e+00 5.5931350026196236e-01 -1.2781774020274270e+00 1.7275320927901026e+00 3.1530027907848507e-01 1.0585568825168732e+01 -1.0192003763872373e+00 
        </Neuron>
        <Neuron NSynapses="16">
          3.4914649327196212e-01 1.2001487152109167e-01 1.1581885062968220e+00 1.2941273230695789e+00 -1.7578263360210894e-01 -2.4552711980886635e-01 -1.5692772682691061e+00 1.1278633417388610e+00 -8.3781517976625486e-01 -3.9406699147665181e-01 1.3781460558050533e+00 -5.1901459992255639e-01 5.5823743170786688e-01 9.8208229868353003e-01 5.9123596029887748e-01 5.0558563910564258e-01 
        </Neuron>
        <Neuron NSynapses="16">
          -9.6057666006805620e-01 -1.2687787562868267e+00 1.5871521901122140e-01 -3.0223633495177209e+00 -3.5637188477171327e+00 1.2888631444678904e+00 4.4069035604271640e+00 -1.6398014535088199e+00 1.4715490363434156e-01 2.2201849319237646e-02 1.5205171788952399e+00 1.5619263624157627e+00 8.9476146110902510e-01 -6.0779916331029060e-01 -1.9922835289245138e+00 3.3814472831296061e+00 
        </Neuron>
      </Layer>
      <Layer Index="1" NNeurons="17">
        <Neuron NSynapses="1">
          5.5739236642672114e-02 
        </Neuron>
        <Neuron NSynapses="1">
          -2.6510073163476705e-01 
        </Neuron>
        <Neuron NSynapses="1">
          -8.0951363122965220e-02 
        </Neuron>
        <Neuron NSynapses="1">
          1.6389954303692891e-01 
        </Neuron>
        <Neuron NSynapses="1">
          -4.7845079359548898e-01 
        </Neuron>
        <Neuron NSynapses="1">
          -1.7915410532599964e-02 
        </Neuron>
        <Neuron NSynapses="1">
          -2.7086556016180541e-01 
        </Neuron>
        <Neuron NSynapses="1">
          -2.6365276233910842e-02 
        </Neuron>
        <Neuron NSynapses="1">
          4.7757856935605088e-03 
        </Neuron>
        <Neuron NSynapses="1">
          -2.1911027477416415e-02 
        </Neuron>
        <Neuron NSynapses="1">
          4.2280596859677298e-02 
        </Neuron>
        <Neuron NSynapses="1">
          -1.2978392607092348e-01 
        </Neuron>
        <Neuron NSynapses="1">
          3.3845645297665906e-02 
        </Neuron>
        <Neuron NSynapses="1">
          1.0823453648710034e-02 
        </Neuron>
        <Neuron NSynapses="1">
          2.4295911282662780e-01 
        </Neuron>
        <Neuron NSynapses="1">
          -5.0641056260661654e-01 
        </Neuron>
        <Neuron NSynapses="1">
          5.3330253703578401e-01 
        </Neuron>
      </Layer>
      <Layer Index="2" NNeurons="1">
        <Neuron NSynapses="0"/>
      </Layer>
    </Layout>
  </Weights>
</MethodSetup>
