<?xml version="1.0"?>
<MethodSetup Method="MLP::MLP">
  <GeneralInfo>
    <Info name="TMVA Release" value="4.1.2 [262402]"/>
    <Info name="ROOT Release" value="5.32/04 [335876]"/>
    <Info name="Creator" value="lpernie"/>
    <Info name="Date" value="Fri May  6 13:30:55 2016"/>
    <Info name="Host" value="Linux login01.brazos.tamu.edu 2.6.32-431.23.3.el6.x86_64 #1 SMP Thu Jul 31 17:20:51 UTC 2014 x86_64 x86_64 x86_64 GNU/Linux"/>
    <Info name="Dir" value="/home/lpernie/Hhh/delphes/diHiggs/MVAs"/>
    <Info name="Training events" value="18161"/>
    <Info name="TrainingTime" value="2.16393528e+02"/>
    <Info name="AnalysisType" value="Classification"/>
  </GeneralInfo>
  <Options>
    <Option name="NCycles" modified="Yes">600</Option>
    <Option name="HiddenLayers" modified="Yes">N+5</Option>
    <Option name="NeuronType" modified="Yes">tanh</Option>
    <Option name="RandomSeed" modified="No">1</Option>
    <Option name="EstimatorType" modified="No">MSE</Option>
    <Option name="NeuronInputType" modified="No">sum</Option>
    <Option name="V" modified="Yes">False</Option>
    <Option name="VerbosityLevel" modified="No">Default</Option>
    <Option name="VarTransform" modified="Yes">N</Option>
    <Option name="H" modified="Yes">True</Option>
    <Option name="CreateMVAPdfs" modified="No">False</Option>
    <Option name="IgnoreNegWeightsInTraining" modified="No">False</Option>
    <Option name="TrainingMethod" modified="No">BP</Option>
    <Option name="LearningRate" modified="No">2.000000e-02</Option>
    <Option name="DecayRate" modified="No">1.000000e-02</Option>
    <Option name="TestRate" modified="Yes">5</Option>
    <Option name="EpochMonitoring" modified="No">False</Option>
    <Option name="Sampling" modified="No">1.000000e+00</Option>
    <Option name="SamplingEpoch" modified="No">1.000000e+00</Option>
    <Option name="SamplingImportance" modified="No">1.000000e+00</Option>
    <Option name="SamplingTraining" modified="No">True</Option>
    <Option name="SamplingTesting" modified="No">False</Option>
    <Option name="ResetStep" modified="No">50</Option>
    <Option name="Tau" modified="No">3.000000e+00</Option>
    <Option name="BPMode" modified="No">sequential</Option>
    <Option name="BatchSize" modified="No">-1</Option>
    <Option name="ConvergenceImprove" modified="No">1.000000e-30</Option>
    <Option name="ConvergenceTests" modified="No">-1</Option>
    <Option name="UseRegulator" modified="Yes">False</Option>
    <Option name="UpdateLimit" modified="No">10000</Option>
    <Option name="CalculateErrors" modified="No">False</Option>
    <Option name="WeightRange" modified="No">1.000000e+00</Option>
  </Options>
  <Variables NVar="11">
    <Variable VarIndex="0" Expression="dR_l1l2" Label="dR_l1l2" Title="dR_l1l2" Unit="" Internal="dR_l1l2" Type="F" Min="7.04614148e-02" Max="3.29991746e+00"/>
    <Variable VarIndex="1" Expression="dR_b1b2" Label="dR_b1b2" Title="dR_b1b2" Unit="" Internal="dR_b1b2" Type="F" Min="3.76956880e-01" Max="4.99822092e+00"/>
    <Variable VarIndex="2" Expression="dR_bl" Label="dR_bl" Title="dR_bl" Unit="" Internal="dR_bl" Type="F" Min="4.01567370e-01" Max="4.98002052e+00"/>
    <Variable VarIndex="3" Expression="dR_l1l2b1b2" Label="dR_l1l2b1b2" Title="dR_l1l2b1b2" Unit="" Internal="dR_l1l2b1b2" Type="F" Min="2.85045840e-02" Max="5.98995972e+00"/>
    <Variable VarIndex="4" Expression="MINdR_bl" Label="MINdR_bl" Title="MINdR_bl" Unit="" Internal="MINdR_bl" Type="F" Min="4.00611997e-01" Max="3.19981217e+00"/>
    <Variable VarIndex="5" Expression="dphi_l1l2b1b2" Label="dphi_l1l2b1b2" Title="dphi_l1l2b1b2" Unit="" Internal="dphi_l1l2b1b2" Type="F" Min="5.25824726e-04" Max="3.14152741e+00"/>
    <Variable VarIndex="6" Expression="mass_l1l2" Label="mass_l1l2" Title="mass_l1l2" Unit="" Internal="mass_l1l2" Type="F" Min="5.06687784e+00" Max="9.99996490e+01"/>
    <Variable VarIndex="7" Expression="mass_b1b2" Label="mass_b1b2" Title="mass_b1b2" Unit="" Internal="mass_b1b2" Type="F" Min="2.20024567e+01" Max="6.95843140e+02"/>
    <Variable VarIndex="8" Expression="mass_trans" Label="mass_trans" Title="mass_trans" Unit="" Internal="mass_trans" Type="F" Min="0.00000000e+00" Max="2.49843353e+02"/>
    <Variable VarIndex="9" Expression="MT2" Label="MT2" Title="MT2" Unit="" Internal="MT2" Type="F" Min="2.50663490e+01" Max="3.99945435e+02"/>
    <Variable VarIndex="10" Expression="pt_b1b2" Label="pt_b1b2" Title="pt_b1b2" Unit="" Internal="pt_b1b2" Type="F" Min="1.33661461e+00" Max="2.99987793e+02"/>
  </Variables>
  <Spectators NSpec="0"/>
  <Classes NClass="2">
    <Class Name="Signal" Index="0"/>
    <Class Name="Background" Index="1"/>
  </Classes>
  <Transformations NTransformations="1">
    <Transform Name="Normalize">
      <Selection>
        <Input NInputs="11">
          <Input Type="Variable" Label="dR_l1l2" Expression="dR_l1l2"/>
          <Input Type="Variable" Label="dR_b1b2" Expression="dR_b1b2"/>
          <Input Type="Variable" Label="dR_bl" Expression="dR_bl"/>
          <Input Type="Variable" Label="dR_l1l2b1b2" Expression="dR_l1l2b1b2"/>
          <Input Type="Variable" Label="MINdR_bl" Expression="MINdR_bl"/>
          <Input Type="Variable" Label="dphi_l1l2b1b2" Expression="dphi_l1l2b1b2"/>
          <Input Type="Variable" Label="mass_l1l2" Expression="mass_l1l2"/>
          <Input Type="Variable" Label="mass_b1b2" Expression="mass_b1b2"/>
          <Input Type="Variable" Label="mass_trans" Expression="mass_trans"/>
          <Input Type="Variable" Label="MT2" Expression="MT2"/>
          <Input Type="Variable" Label="pt_b1b2" Expression="pt_b1b2"/>
        </Input>
        <Output NOutputs="11">
          <Output Type="Variable" Label="dR_l1l2" Expression="dR_l1l2"/>
          <Output Type="Variable" Label="dR_b1b2" Expression="dR_b1b2"/>
          <Output Type="Variable" Label="dR_bl" Expression="dR_bl"/>
          <Output Type="Variable" Label="dR_l1l2b1b2" Expression="dR_l1l2b1b2"/>
          <Output Type="Variable" Label="MINdR_bl" Expression="MINdR_bl"/>
          <Output Type="Variable" Label="dphi_l1l2b1b2" Expression="dphi_l1l2b1b2"/>
          <Output Type="Variable" Label="mass_l1l2" Expression="mass_l1l2"/>
          <Output Type="Variable" Label="mass_b1b2" Expression="mass_b1b2"/>
          <Output Type="Variable" Label="mass_trans" Expression="mass_trans"/>
          <Output Type="Variable" Label="MT2" Expression="MT2"/>
          <Output Type="Variable" Label="pt_b1b2" Expression="pt_b1b2"/>
        </Output>
      </Selection>
      <Class ClassIndex="0">
        <Ranges>
          <Range Index="0" Min="7.0461414754390717e-02" Max="3.1871154308319092e+00"/>
          <Range Index="1" Min="3.7695688009262085e-01" Max="4.9982209205627441e+00"/>
          <Range Index="2" Min="5.3106850385665894e-01" Max="4.9800205230712891e+00"/>
          <Range Index="3" Min="8.5649704933166504e-01" Max="5.9899597167968750e+00"/>
          <Range Index="4" Min="4.0061199665069580e-01" Max="3.1998121738433838e+00"/>
          <Range Index="5" Min="3.5262817982584238e-03" Max="3.1415274143218994e+00"/>
          <Range Index="6" Min="5.0832605361938477e+00" Max="9.4873603820800781e+01"/>
          <Range Index="7" Min="2.2205059051513672e+01" Max="6.9584313964843750e+02"/>
          <Range Index="8" Min="0.0000000000000000e+00" Max="2.4880146789550781e+02"/>
          <Range Index="9" Min="4.4817237854003906e+01" Max="3.9994543457031250e+02"/>
          <Range Index="10" Min="3.6232767105102539e+00" Max="2.9998779296875000e+02"/>
        </Ranges>
      </Class>
      <Class ClassIndex="1">
        <Ranges>
          <Range Index="0" Min="7.1014471352100372e-02" Max="3.2999174594879150e+00"/>
          <Range Index="1" Min="3.8065248727798462e-01" Max="4.9789867401123047e+00"/>
          <Range Index="2" Min="4.0156736969947815e-01" Max="4.9152326583862305e+00"/>
          <Range Index="3" Min="2.8504583984613419e-02" Max="5.8363409042358398e+00"/>
          <Range Index="4" Min="4.0100964903831482e-01" Max="3.1815350055694580e+00"/>
          <Range Index="5" Min="5.2582472562789917e-04" Max="3.1413893699645996e+00"/>
          <Range Index="6" Min="5.0668778419494629e+00" Max="9.9999649047851562e+01"/>
          <Range Index="7" Min="2.2002456665039062e+01" Max="6.7926019287109375e+02"/>
          <Range Index="8" Min="3.3470250666141510e-02" Max="2.4984335327148438e+02"/>
          <Range Index="9" Min="2.5066349029541016e+01" Max="3.8854220581054688e+02"/>
          <Range Index="10" Min="1.3366146087646484e+00" Max="2.9834268188476562e+02"/>
        </Ranges>
      </Class>
      <Class ClassIndex="2">
        <Ranges>
          <Range Index="0" Min="7.0461414754390717e-02" Max="3.2999174594879150e+00"/>
          <Range Index="1" Min="3.7695688009262085e-01" Max="4.9982209205627441e+00"/>
          <Range Index="2" Min="4.0156736969947815e-01" Max="4.9800205230712891e+00"/>
          <Range Index="3" Min="2.8504583984613419e-02" Max="5.9899597167968750e+00"/>
          <Range Index="4" Min="4.0061199665069580e-01" Max="3.1998121738433838e+00"/>
          <Range Index="5" Min="5.2582472562789917e-04" Max="3.1415274143218994e+00"/>
          <Range Index="6" Min="5.0668778419494629e+00" Max="9.9999649047851562e+01"/>
          <Range Index="7" Min="2.2002456665039062e+01" Max="6.9584313964843750e+02"/>
          <Range Index="8" Min="0.0000000000000000e+00" Max="2.4984335327148438e+02"/>
          <Range Index="9" Min="2.5066349029541016e+01" Max="3.9994543457031250e+02"/>
          <Range Index="10" Min="1.3366146087646484e+00" Max="2.9998779296875000e+02"/>
        </Ranges>
      </Class>
    </Transform>
  </Transformations>
  <MVAPdfs/>
  <Weights>
    <Layout NLayers="3">
      <Layer Index="0" NNeurons="12">
        <Neuron NSynapses="16">
          -4.7465459693657724e-01 1.0232803733430469e+00 -5.0743253613303042e-02 1.7130451972637717e+00 -1.1736610097095377e+00 -1.3911625015118576e+00 1.4104673310824237e-01 1.7865301712483959e+00 -1.3063240991326646e+00 -1.5368138394601676e+00 -1.1302627193801316e+00 1.2739444991709197e+00 -1.2406511046897388e+00 -3.5425158562165848e-01 -7.1640388360624863e-01 1.5062705994291099e+00 
        </Neuron>
        <Neuron NSynapses="16">
          -5.6842798036730091e-01 1.2687116309993398e+00 -4.0493246059321475e-01 1.3495028767632309e+00 -4.5785163686974256e-01 -5.5120488751820029e-01 8.4630469306115697e-01 -1.3280939385662618e-01 -1.1152699624023021e+00 -1.5484005970117237e-01 1.0228990591163172e+00 -8.1859041658397391e-01 -1.7287246662677525e+00 3.3141231069274510e-02 7.4546501621050565e-01 1.3279396707021485e+00 
        </Neuron>
        <Neuron NSynapses="16">
          -2.9317097672013104e-01 -4.4519451433454212e-02 2.4110659335882653e-01 -3.2626441011754842e-01 -7.2012104512111363e-01 2.0525420944631767e+00 -4.5836114060386079e-01 8.6380275844308529e-01 1.2214800783493145e+00 3.9163971092467265e-01 1.8208704588391034e+00 5.9443107691766506e-01 -4.1689494526579696e-01 -1.5702543571053584e+00 3.2814249839405379e-01 5.2263284103164706e-02 
        </Neuron>
        <Neuron NSynapses="16">
          1.4024676227532282e+00 1.4570480972384816e+00 1.6925519384614167e+00 1.3378172154877426e+00 -1.2074739973078183e+00 1.4969440489690962e+00 -1.7104891576231627e+00 -1.0756839022067686e+00 -1.2487368959307124e+00 -1.8888549518500770e+00 1.4745152356967817e+00 6.7824289923114345e-01 -1.4181323584960637e+00 2.9630993226066921e-01 7.1626598270511466e-01 5.0077482962585951e-01 
        </Neuron>
        <Neuron NSynapses="16">
          2.2031723765744644e+00 -3.6176424932855783e-01 1.4274830987262788e-01 -1.0819780489475626e+00 1.0600473180682519e+00 -3.5934270094314708e-01 -2.6988813640539083e-01 -1.7265676584599765e+00 6.9582879738232195e-01 1.4182387006093686e-01 1.3361705152642194e+00 -1.3572179741547552e-01 -1.3352682253820596e+00 -1.9671984740829920e+00 -1.8895256094602331e-01 -3.9056269476418888e-02 
        </Neuron>
        <Neuron NSynapses="16">
          8.3154001470442163e-01 1.6980253585215416e-01 1.2240704762950813e-01 -7.8380572992407682e-01 -2.2841853979530294e-01 -6.3391932418434915e-01 3.6658554502493895e-01 -8.4766526798187558e-01 -1.4893815742550960e+00 -1.2163031911695370e+00 -7.3725436611334416e-01 -2.0233298182362169e-01 1.4974065987893255e+00 -1.2411347707679654e+00 3.8175217751474144e-01 8.7800593466277399e-01 
        </Neuron>
        <Neuron NSynapses="16">
          -1.5259012369246778e+00 -2.8354074608846935e-01 -9.8057884964380271e-01 -1.0059616174616490e-01 -1.8356300031039916e+00 -1.9732203231874621e+00 1.2913683282561732e+00 1.9123541363061225e+00 -1.1086088884507515e+00 1.2787895316188207e+00 -9.3767142822082805e-01 4.4834161325546948e-02 -3.0055060293841285e-01 5.6124086066624002e-01 -6.8816687623141326e-01 8.1965983702177625e-01 
        </Neuron>
        <Neuron NSynapses="16">
          5.6475802881979542e-01 -1.4880096573400020e-01 -1.1998458448481519e+00 1.7124128482584227e+00 2.9563045455190573e-01 -1.3289852110290473e-01 2.1630592654539669e+00 -1.6320497546363761e+00 -1.4488486010663237e+00 -3.5111291323266580e-01 -3.3219076399256364e-01 -2.1417476960081011e-01 9.1850939803890042e-01 -7.5171540216954225e-01 -2.3957030704472149e+00 -4.5212342018825388e-02 
        </Neuron>
        <Neuron NSynapses="16">
          -1.2035165410208748e+00 7.3726711641353371e-01 -1.9668369887418247e-01 -1.8764876467863900e+00 4.4207667657038563e-01 -8.4992627570533852e-01 4.9679894544187997e-01 8.0953663505410955e-01 1.7032103414100948e+00 -1.5064533376885871e+00 -1.1233671517738371e-01 5.1765148617084943e-02 1.3790830909892344e+00 1.6552294489562411e-01 -1.0359338375227762e+00 -1.6009307613924498e-01 
        </Neuron>
        <Neuron NSynapses="16">
          -1.1723778834057441e+00 2.5989995534795560e+00 2.2053914762789537e+00 -5.6784650750202037e-01 -7.9692794900093877e-01 5.4309416763437357e-01 -2.3441526194468074e+00 3.8660777358090559e-01 1.7269628666695525e+00 -5.3396966845424010e-01 -4.4233828837955896e-01 -7.5028063505858822e-01 1.3611773238073264e+00 5.3944585088624951e-02 5.6201600353444308e+00 -1.7633557794552148e+00 
        </Neuron>
        <Neuron NSynapses="16">
          1.6542585432255448e+00 7.6687230728554601e-01 7.5359457196667490e-01 5.6595089919445762e-01 8.2646377188059106e-01 -2.4849971843767846e-02 -7.6429886347292364e-01 7.8615789084585397e-01 -8.0582615690766723e-01 -1.0467204372949814e+00 2.0144948483378755e+00 -2.3960844668401970e-01 -2.8874902168474109e-01 7.9739491117283490e-01 4.9127222259007480e-01 -1.7942676561562290e+00 
        </Neuron>
        <Neuron NSynapses="16">
          -2.5464759983959839e-01 -5.5788652334871280e-01 -5.3988122845917275e-01 -1.5367400502721822e+00 -2.1020783262708149e+00 -2.1974908374016732e-02 1.9027628307133504e+00 -8.3188927828815751e-01 -3.2883048649964014e-01 6.6472535826502133e-01 -4.8475530805370048e-01 2.5633186786758140e+00 -5.8921790627624948e-01 4.8798276210983221e-01 -1.1240309113125249e+00 7.5145993188951488e-01 
        </Neuron>
      </Layer>
      <Layer Index="1" NNeurons="17">
        <Neuron NSynapses="1">
          3.8866065984089905e-02 
        </Neuron>
        <Neuron NSynapses="1">
          -1.8648594789105738e-01 
        </Neuron>
        <Neuron NSynapses="1">
          -3.2329578732294811e-01 
        </Neuron>
        <Neuron NSynapses="1">
          1.2887901670630572e-02 
        </Neuron>
        <Neuron NSynapses="1">
          -9.1496694358985692e-02 
        </Neuron>
        <Neuron NSynapses="1">
          2.6872603065329983e-02 
        </Neuron>
        <Neuron NSynapses="1">
          -3.3523825583419553e-01 
        </Neuron>
        <Neuron NSynapses="1">
          2.2118339172625011e-03 
        </Neuron>
        <Neuron NSynapses="1">
          4.4007860937703728e-03 
        </Neuron>
        <Neuron NSynapses="1">
          -1.0821974205056371e-01 
        </Neuron>
        <Neuron NSynapses="1">
          -1.6159454328384459e-02 
        </Neuron>
        <Neuron NSynapses="1">
          -9.0075549935885402e-01 
        </Neuron>
        <Neuron NSynapses="1">
          -3.2399970874928629e-03 
        </Neuron>
        <Neuron NSynapses="1">
          1.5280377236291550e-03 
        </Neuron>
        <Neuron NSynapses="1">
          4.1772003420912873e-01 
        </Neuron>
        <Neuron NSynapses="1">
          -4.7841581137506736e-02 
        </Neuron>
        <Neuron NSynapses="1">
          1.2596088173114031e+00 
        </Neuron>
      </Layer>
      <Layer Index="2" NNeurons="1">
        <Neuron NSynapses="0"/>
      </Layer>
    </Layout>
  </Weights>
</MethodSetup>
