<?xml version="1.0"?>
<MethodSetup Method="MLP::MLPBFGS">
  <GeneralInfo>
    <Info name="TMVA Release" value="4.1.2 [262402]"/>
    <Info name="ROOT Release" value="5.32/04 [335876]"/>
    <Info name="Creator" value="lpernie"/>
    <Info name="Date" value="Fri May 13 12:21:50 2016"/>
    <Info name="Host" value="Linux login01.brazos.tamu.edu 2.6.32-431.23.3.el6.x86_64 #1 SMP Thu Jul 31 17:20:51 UTC 2014 x86_64 x86_64 x86_64 GNU/Linux"/>
    <Info name="Dir" value="/home/lpernie/Hhh/delphes/diHiggs/MVAs"/>
    <Info name="Training events" value="16694"/>
    <Info name="TrainingTime" value="8.10419078e+02"/>
    <Info name="AnalysisType" value="Classification"/>
  </GeneralInfo>
  <Options>
    <Option name="NCycles" modified="Yes">600</Option>
    <Option name="HiddenLayers" modified="Yes">N+5</Option>
    <Option name="NeuronType" modified="Yes">tanh</Option>
    <Option name="RandomSeed" modified="No">1</Option>
    <Option name="EstimatorType" modified="No">MSE</Option>
    <Option name="NeuronInputType" modified="No">sum</Option>
    <Option name="V" modified="Yes">False</Option>
    <Option name="VerbosityLevel" modified="No">Default</Option>
    <Option name="VarTransform" modified="Yes">N</Option>
    <Option name="H" modified="Yes">True</Option>
    <Option name="CreateMVAPdfs" modified="No">False</Option>
    <Option name="IgnoreNegWeightsInTraining" modified="No">False</Option>
    <Option name="TrainingMethod" modified="Yes">BFGS</Option>
    <Option name="LearningRate" modified="No">2.000000e-02</Option>
    <Option name="DecayRate" modified="No">1.000000e-02</Option>
    <Option name="TestRate" modified="Yes">5</Option>
    <Option name="EpochMonitoring" modified="No">False</Option>
    <Option name="Sampling" modified="No">1.000000e+00</Option>
    <Option name="SamplingEpoch" modified="No">1.000000e+00</Option>
    <Option name="SamplingImportance" modified="No">1.000000e+00</Option>
    <Option name="SamplingTraining" modified="No">True</Option>
    <Option name="SamplingTesting" modified="No">False</Option>
    <Option name="ResetStep" modified="No">50</Option>
    <Option name="Tau" modified="No">3.000000e+00</Option>
    <Option name="BPMode" modified="No">sequential</Option>
    <Option name="BatchSize" modified="No">-1</Option>
    <Option name="ConvergenceImprove" modified="No">1.000000e-30</Option>
    <Option name="ConvergenceTests" modified="No">-1</Option>
    <Option name="UseRegulator" modified="Yes">False</Option>
    <Option name="UpdateLimit" modified="No">10000</Option>
    <Option name="CalculateErrors" modified="No">False</Option>
    <Option name="WeightRange" modified="No">1.000000e+00</Option>
  </Options>
  <Variables NVar="11">
    <Variable VarIndex="0" Expression="dR_l1l2" Label="dR_l1l2" Title="dR_l1l2" Unit="" Internal="dR_l1l2" Type="F" Min="8.29277635e-02" Max="3.29991746e+00"/>
    <Variable VarIndex="1" Expression="dR_b1b2" Label="dR_b1b2" Title="dR_b1b2" Unit="" Internal="dR_b1b2" Type="F" Min="3.83386046e-01" Max="4.89946365e+00"/>
    <Variable VarIndex="2" Expression="dR_bl" Label="dR_bl" Title="dR_bl" Unit="" Internal="dR_bl" Type="F" Min="4.00819451e-01" Max="4.91523266e+00"/>
    <Variable VarIndex="3" Expression="dR_l1l2b1b2" Label="dR_l1l2b1b2" Title="dR_l1l2b1b2" Unit="" Internal="dR_l1l2b1b2" Type="F" Min="1.63523909e-02" Max="5.83634090e+00"/>
    <Variable VarIndex="4" Expression="MINdR_bl" Label="MINdR_bl" Title="MINdR_bl" Unit="" Internal="MINdR_bl" Type="F" Min="4.00819451e-01" Max="3.18153501e+00"/>
    <Variable VarIndex="5" Expression="dphi_l1l2b1b2" Label="dphi_l1l2b1b2" Title="dphi_l1l2b1b2" Unit="" Internal="dphi_l1l2b1b2" Type="F" Min="6.59405778e-04" Max="3.14149976e+00"/>
    <Variable VarIndex="6" Expression="mass_l1l2" Label="mass_l1l2" Title="mass_l1l2" Unit="" Internal="mass_l1l2" Type="F" Min="5.01698303e+00" Max="9.99996490e+01"/>
    <Variable VarIndex="7" Expression="mass_b1b2" Label="mass_b1b2" Title="mass_b1b2" Unit="" Internal="mass_b1b2" Type="F" Min="2.20024567e+01" Max="6.94895569e+02"/>
    <Variable VarIndex="8" Expression="mass_trans" Label="mass_trans" Title="mass_trans" Unit="" Internal="mass_trans" Type="F" Min="3.50274704e-02" Max="2.49843353e+02"/>
    <Variable VarIndex="9" Expression="MT2" Label="MT2" Title="MT2" Unit="" Internal="MT2" Type="F" Min="2.50663490e+01" Max="3.91314117e+02"/>
    <Variable VarIndex="10" Expression="pt_b1b2" Label="pt_b1b2" Title="pt_b1b2" Unit="" Internal="pt_b1b2" Type="F" Min="9.54420507e-01" Max="2.98936981e+02"/>
  </Variables>
  <Spectators NSpec="0"/>
  <Classes NClass="2">
    <Class Name="Signal" Index="0"/>
    <Class Name="Background" Index="1"/>
  </Classes>
  <Transformations NTransformations="1">
    <Transform Name="Normalize">
      <Selection>
        <Input NInputs="11">
          <Input Type="Variable" Label="dR_l1l2" Expression="dR_l1l2"/>
          <Input Type="Variable" Label="dR_b1b2" Expression="dR_b1b2"/>
          <Input Type="Variable" Label="dR_bl" Expression="dR_bl"/>
          <Input Type="Variable" Label="dR_l1l2b1b2" Expression="dR_l1l2b1b2"/>
          <Input Type="Variable" Label="MINdR_bl" Expression="MINdR_bl"/>
          <Input Type="Variable" Label="dphi_l1l2b1b2" Expression="dphi_l1l2b1b2"/>
          <Input Type="Variable" Label="mass_l1l2" Expression="mass_l1l2"/>
          <Input Type="Variable" Label="mass_b1b2" Expression="mass_b1b2"/>
          <Input Type="Variable" Label="mass_trans" Expression="mass_trans"/>
          <Input Type="Variable" Label="MT2" Expression="MT2"/>
          <Input Type="Variable" Label="pt_b1b2" Expression="pt_b1b2"/>
        </Input>
        <Output NOutputs="11">
          <Output Type="Variable" Label="dR_l1l2" Expression="dR_l1l2"/>
          <Output Type="Variable" Label="dR_b1b2" Expression="dR_b1b2"/>
          <Output Type="Variable" Label="dR_bl" Expression="dR_bl"/>
          <Output Type="Variable" Label="dR_l1l2b1b2" Expression="dR_l1l2b1b2"/>
          <Output Type="Variable" Label="MINdR_bl" Expression="MINdR_bl"/>
          <Output Type="Variable" Label="dphi_l1l2b1b2" Expression="dphi_l1l2b1b2"/>
          <Output Type="Variable" Label="mass_l1l2" Expression="mass_l1l2"/>
          <Output Type="Variable" Label="mass_b1b2" Expression="mass_b1b2"/>
          <Output Type="Variable" Label="mass_trans" Expression="mass_trans"/>
          <Output Type="Variable" Label="MT2" Expression="MT2"/>
          <Output Type="Variable" Label="pt_b1b2" Expression="pt_b1b2"/>
        </Output>
      </Selection>
      <Class ClassIndex="0">
        <Ranges>
          <Range Index="0" Min="8.6649775505065918e-02" Max="3.2939980030059814e+00"/>
          <Range Index="1" Min="3.9692309498786926e-01" Max="4.6556153297424316e+00"/>
          <Range Index="2" Min="4.4004163146018982e-01" Max="4.8551154136657715e+00"/>
          <Range Index="3" Min="7.0188030600547791e-02" Max="5.7813091278076172e+00"/>
          <Range Index="4" Min="4.0093678236007690e-01" Max="3.1305119991302490e+00"/>
          <Range Index="5" Min="1.5478842891752720e-02" Max="3.1411099433898926e+00"/>
          <Range Index="6" Min="5.1114249229431152e+00" Max="9.2866714477539062e+01"/>
          <Range Index="7" Min="2.2170310974121094e+01" Max="6.9489556884765625e+02"/>
          <Range Index="8" Min="3.5027470439672470e-02" Max="2.3966381835937500e+02"/>
          <Range Index="9" Min="3.7294670104980469e+01" Max="3.8228250122070312e+02"/>
          <Range Index="10" Min="2.7992348670959473e+00" Max="2.6911056518554688e+02"/>
        </Ranges>
      </Class>
      <Class ClassIndex="1">
        <Ranges>
          <Range Index="0" Min="8.2927763462066650e-02" Max="3.2999174594879150e+00"/>
          <Range Index="1" Min="3.8338604569435120e-01" Max="4.8994636535644531e+00"/>
          <Range Index="2" Min="4.0081945061683655e-01" Max="4.9152326583862305e+00"/>
          <Range Index="3" Min="1.6352390870451927e-02" Max="5.8363409042358398e+00"/>
          <Range Index="4" Min="4.0081945061683655e-01" Max="3.1815350055694580e+00"/>
          <Range Index="5" Min="6.5940577769652009e-04" Max="3.1414997577667236e+00"/>
          <Range Index="6" Min="5.0169830322265625e+00" Max="9.9999649047851562e+01"/>
          <Range Index="7" Min="2.2002456665039062e+01" Max="6.7656732177734375e+02"/>
          <Range Index="8" Min="3.7136141210794449e-02" Max="2.4984335327148438e+02"/>
          <Range Index="9" Min="2.5066349029541016e+01" Max="3.9131411743164062e+02"/>
          <Range Index="10" Min="9.5442050695419312e-01" Max="2.9893698120117188e+02"/>
        </Ranges>
      </Class>
      <Class ClassIndex="2">
        <Ranges>
          <Range Index="0" Min="8.2927763462066650e-02" Max="3.2999174594879150e+00"/>
          <Range Index="1" Min="3.8338604569435120e-01" Max="4.8994636535644531e+00"/>
          <Range Index="2" Min="4.0081945061683655e-01" Max="4.9152326583862305e+00"/>
          <Range Index="3" Min="1.6352390870451927e-02" Max="5.8363409042358398e+00"/>
          <Range Index="4" Min="4.0081945061683655e-01" Max="3.1815350055694580e+00"/>
          <Range Index="5" Min="6.5940577769652009e-04" Max="3.1414997577667236e+00"/>
          <Range Index="6" Min="5.0169830322265625e+00" Max="9.9999649047851562e+01"/>
          <Range Index="7" Min="2.2002456665039062e+01" Max="6.9489556884765625e+02"/>
          <Range Index="8" Min="3.5027470439672470e-02" Max="2.4984335327148438e+02"/>
          <Range Index="9" Min="2.5066349029541016e+01" Max="3.9131411743164062e+02"/>
          <Range Index="10" Min="9.5442050695419312e-01" Max="2.9893698120117188e+02"/>
        </Ranges>
      </Class>
    </Transform>
  </Transformations>
  <MVAPdfs/>
  <Weights>
    <Layout NLayers="3">
      <Layer Index="0" NNeurons="12">
        <Neuron NSynapses="16">
          1.1097462824783766e-01 -3.3597983376159477e+00 -9.0514278278838733e-02 4.4813143643458819e-01 -1.6318920539148711e+00 2.7982216697856127e-01 -1.6286183883695193e-01 2.6320486044746576e+00 -1.1959612029628315e+00 -2.0832427286859088e+00 -2.8354804651214711e+00 -1.0935703674982702e-01 -1.5219463180009654e+00 -4.2365050930184867e-01 5.5266463142226963e-01 5.9503864069122968e-02 
        </Neuron>
        <Neuron NSynapses="16">
          -5.5357825887639316e-02 -2.6599632420085171e+00 -1.4089937994975916e+00 5.0931017651194677e-01 -1.1442812781499463e+00 -3.1879430891022520e+00 1.3876554959428838e-01 1.1570427555132716e+00 -1.7407752747067442e+00 -5.2303766722946532e-01 -6.1814725542287230e-01 1.7861563044599102e+00 -1.9793022268061742e+00 2.2144005889814966e-01 1.5716635011415312e+00 2.2678656451247439e+00 
        </Neuron>
        <Neuron NSynapses="16">
          -1.7703557500993156e-01 -3.5013406789281659e-01 2.7378344775747127e-01 8.7769703892980200e-01 8.0943755944364260e-01 -6.3248812816999900e-02 -1.2150976731933727e+00 3.8186337605110710e-01 -1.5824143357766979e-01 -1.2206924725156167e+00 4.3634050167532651e-01 8.1027655306566471e-01 -7.7726924118536422e-01 -9.1389557164151647e-01 8.6414171405142248e-01 -3.2533795841826407e-01 
        </Neuron>
        <Neuron NSynapses="16">
          2.3740995841838797e+00 1.0422641145023763e+00 9.9242836147762736e-01 1.3946498864167221e+00 -2.0172012287448791e+00 6.1779835979163800e-01 -1.2301989510696423e+00 -9.0611967025749651e-01 3.7389546845631394e-01 -1.5979637300281189e+00 3.2556560753682779e+00 1.3997394508626995e+00 -4.3338832387374115e-01 -1.5688008257384270e-01 -1.4419145767547321e+00 -4.6106880439587355e-01 
        </Neuron>
        <Neuron NSynapses="16">
          2.5946531676297363e-01 8.8808854767980538e-01 -4.1105946655803690e-03 1.7555072293129694e+00 2.4900026491178751e+00 -6.6378264418853050e-01 3.8750999845392964e-01 1.1442515574840706e+00 -8.3264374486855053e-01 -1.1303659476052597e+00 1.1038424664998356e+00 -5.1630814921582591e-01 -7.4817995100233559e-01 -1.8283874141576417e+00 1.0847149671653369e+00 -5.1152421206260096e-02 
        </Neuron>
        <Neuron NSynapses="16">
          4.3919602885437592e-01 2.8122474976569176e+00 -2.7040615023521375e-01 -1.4898433442926677e+00 -8.8839631231239324e-01 1.3728265443931960e+00 6.5406814748606845e-01 -3.9066257901009198e+00 -2.1605350589879599e-01 -4.5879386835052294e-01 -9.3387814592134666e-01 -2.6329293822574589e+00 2.7824199752250038e+00 -1.8153791933670373e+00 6.8076781385819618e-01 7.0066737714844485e-01 
        </Neuron>
        <Neuron NSynapses="16">
          -2.3986674758679789e+00 -6.1205854408236726e-01 -9.5782532927409891e-01 5.9362031445295060e-01 -2.5980620989579597e+00 -2.6840040600697050e+00 1.6217489918279993e+00 6.0898503291644412e-01 -2.0942551380362775e+00 5.8731462271356198e+00 -1.7488548104416299e+00 1.5405305036530117e+00 -4.3071072026106139e+00 -1.6076585350632044e+00 -3.7855292557027664e+00 -5.3696231990097354e-01 
        </Neuron>
        <Neuron NSynapses="16">
          -1.1639724471173769e+00 1.9626734057721156e+00 -1.5391573863572939e+01 -1.6747568775268005e+00 4.0446805980396572e-02 -2.7602796539910335e+00 -3.3289970017017828e-01 -1.2680870361414076e-01 -3.8295887966415814e+00 8.3652538590869496e-01 5.4401395638811051e-04 -2.7680097492409956e+00 2.5022683400689663e+00 -4.1617797954534386e-01 -4.2120019018005186e+00 1.4605520755411820e+01 
        </Neuron>
        <Neuron NSynapses="16">
          -5.5836786855016713e+00 -3.4285082766069974e-01 -1.2537516866872467e+00 -5.9073377114474903e+00 1.8263789107222028e-01 -9.8303265825304742e-01 -1.6265621947879239e-01 7.6415488302780421e-01 2.5520574032419878e+00 -2.5989444658339993e+00 1.5537542821045622e-01 7.7638131985071535e-01 -1.4151657745167721e+00 -1.0415736649054808e-01 -3.8817242367845468e+00 6.6983930373299583e-01 
        </Neuron>
        <Neuron NSynapses="16">
          -2.3983593365162492e-01 2.4345023802845920e+00 3.9268318995288309e+00 1.5670430959869224e+00 -3.6049529458848522e+00 1.4463955497575163e+00 -5.6419968863718295e-01 -6.3927467774320845e-01 3.7919926857761171e-01 4.3404523460752506e-02 -5.7138412244252390e-01 3.7920675106699391e+00 -9.7234217118391841e-01 7.5367357048296210e-02 3.1382546693549958e+00 -4.2762701087013237e+00 
        </Neuron>
        <Neuron NSynapses="16">
          1.1575708032182017e+00 -1.8343668009539897e+00 1.1251813692123720e+00 1.5900807583825940e+00 -4.1105159151942849e-01 -2.7856518398876373e-01 -1.4118782800194647e+00 4.2021964617489266e-01 -8.2972826552003970e-02 -2.2337860729310490e+00 6.2380000385745071e-01 4.4934131903378773e+00 -1.0438254533998397e+00 6.3497153393811379e-01 1.0786822284767064e+00 1.9948161603775633e-02 
        </Neuron>
        <Neuron NSynapses="16">
          -9.9502605885696493e-01 -5.3179727018020255e+00 -9.6298779666843171e+00 -2.5962551255994950e+00 -3.6825061009870730e+00 -1.6789881081288478e+00 2.8742629377690641e+00 -1.2346141926419669e+00 -1.7115372047272188e+00 2.0797096684418759e+00 -1.7797648207844237e+00 5.7330154762809773e+00 -1.3325475358636290e+00 -6.4011319842930259e-01 -2.6237700069896239e+00 1.0645534795222849e+01 
        </Neuron>
      </Layer>
      <Layer Index="1" NNeurons="17">
        <Neuron NSynapses="1">
          5.9449367564222200e-02 
        </Neuron>
        <Neuron NSynapses="1">
          1.8066808840190049e-01 
        </Neuron>
        <Neuron NSynapses="1">
          3.1572345433389121e-01 
        </Neuron>
        <Neuron NSynapses="1">
          -7.1052105317078090e-02 
        </Neuron>
        <Neuron NSynapses="1">
          -8.7649435267165607e-02 
        </Neuron>
        <Neuron NSynapses="1">
          -5.9884993089041168e-02 
        </Neuron>
        <Neuron NSynapses="1">
          3.7755702355557524e-01 
        </Neuron>
        <Neuron NSynapses="1">
          3.4275231226409325e-02 
        </Neuron>
        <Neuron NSynapses="1">
          3.8123649857694689e-02 
        </Neuron>
        <Neuron NSynapses="1">
          1.2279772943475729e-01 
        </Neuron>
        <Neuron NSynapses="1">
          1.1835829734445580e-01 
        </Neuron>
        <Neuron NSynapses="1">
          1.2196742790954389e-01 
        </Neuron>
        <Neuron NSynapses="1">
          6.5720198106779038e-02 
        </Neuron>
        <Neuron NSynapses="1">
          -3.4397082962520698e-02 
        </Neuron>
        <Neuron NSynapses="1">
          8.9336329811612825e-02 
        </Neuron>
        <Neuron NSynapses="1">
          2.8905003411440883e-01 
        </Neuron>
        <Neuron NSynapses="1">
          -2.7627717891568815e-01 
        </Neuron>
      </Layer>
      <Layer Index="2" NNeurons="1">
        <Neuron NSynapses="0"/>
      </Layer>
    </Layout>
  </Weights>
</MethodSetup>
