<?xml version="1.0"?>
<MethodSetup Method="MLP::MLP">
  <GeneralInfo>
    <Info name="TMVA Release" value="4.1.2 [262402]"/>
    <Info name="ROOT Release" value="5.32/04 [335876]"/>
    <Info name="Creator" value="lpernie"/>
    <Info name="Date" value="Fri Jul 15 14:30:51 2016"/>
    <Info name="Host" value="Linux login01.brazos.tamu.edu 2.6.32-431.23.3.el6.x86_64 #1 SMP Thu Jul 31 17:20:51 UTC 2014 x86_64 x86_64 x86_64 GNU/Linux"/>
    <Info name="Dir" value="/home/lpernie/Hhh/delphes/diHiggs/MVAs"/>
    <Info name="Training events" value="193475"/>
    <Info name="TrainingTime" value="2.47782079e+03"/>
    <Info name="AnalysisType" value="Classification"/>
  </GeneralInfo>
  <Options>
    <Option name="NCycles" modified="Yes">600</Option>
    <Option name="HiddenLayers" modified="Yes">N+5</Option>
    <Option name="NeuronType" modified="Yes">tanh</Option>
    <Option name="RandomSeed" modified="No">1</Option>
    <Option name="EstimatorType" modified="No">MSE</Option>
    <Option name="NeuronInputType" modified="No">sum</Option>
    <Option name="V" modified="Yes">False</Option>
    <Option name="VerbosityLevel" modified="No">Default</Option>
    <Option name="VarTransform" modified="Yes">N</Option>
    <Option name="H" modified="Yes">True</Option>
    <Option name="CreateMVAPdfs" modified="No">False</Option>
    <Option name="IgnoreNegWeightsInTraining" modified="No">False</Option>
    <Option name="TrainingMethod" modified="No">BP</Option>
    <Option name="LearningRate" modified="No">2.000000e-02</Option>
    <Option name="DecayRate" modified="No">1.000000e-02</Option>
    <Option name="TestRate" modified="Yes">5</Option>
    <Option name="EpochMonitoring" modified="No">False</Option>
    <Option name="Sampling" modified="No">1.000000e+00</Option>
    <Option name="SamplingEpoch" modified="No">1.000000e+00</Option>
    <Option name="SamplingImportance" modified="No">1.000000e+00</Option>
    <Option name="SamplingTraining" modified="No">True</Option>
    <Option name="SamplingTesting" modified="No">False</Option>
    <Option name="ResetStep" modified="No">50</Option>
    <Option name="Tau" modified="No">3.000000e+00</Option>
    <Option name="BPMode" modified="No">sequential</Option>
    <Option name="BatchSize" modified="No">-1</Option>
    <Option name="ConvergenceImprove" modified="No">1.000000e-30</Option>
    <Option name="ConvergenceTests" modified="No">-1</Option>
    <Option name="UseRegulator" modified="Yes">False</Option>
    <Option name="UpdateLimit" modified="No">10000</Option>
    <Option name="CalculateErrors" modified="No">False</Option>
    <Option name="WeightRange" modified="No">1.000000e+00</Option>
  </Options>
  <Variables NVar="11">
    <Variable VarIndex="0" Expression="dR_l1l2" Label="dR_l1l2" Title="dR_l1l2" Unit="" Internal="dR_l1l2" Type="F" Min="7.06459358e-02" Max="3.29995322e+00"/>
    <Variable VarIndex="1" Expression="dR_b1b2" Label="dR_b1b2" Title="dR_b1b2" Unit="" Internal="dR_b1b2" Type="F" Min="3.93670201e-01" Max="4.99817085e+00"/>
    <Variable VarIndex="2" Expression="dR_bl" Label="dR_bl" Title="dR_bl" Unit="" Internal="dR_bl" Type="F" Min="4.00014162e-01" Max="4.99432611e+00"/>
    <Variable VarIndex="3" Expression="dR_l1l2b1b2" Label="dR_l1l2b1b2" Title="dR_l1l2b1b2" Unit="" Internal="dR_l1l2b1b2" Type="F" Min="4.42243833e-03" Max="5.99961948e+00"/>
    <Variable VarIndex="4" Expression="MINdR_bl" Label="MINdR_bl" Title="MINdR_bl" Unit="" Internal="MINdR_bl" Type="F" Min="4.00001377e-01" Max="3.19953227e+00"/>
    <Variable VarIndex="5" Expression="dphi_l1l2b1b2" Label="dphi_l1l2b1b2" Title="dphi_l1l2b1b2" Unit="" Internal="dphi_l1l2b1b2" Type="F" Min="1.38563655e-05" Max="3.14159226e+00"/>
    <Variable VarIndex="6" Expression="mass_l1l2" Label="mass_l1l2" Title="mass_l1l2" Unit="" Internal="mass_l1l2" Type="F" Min="5.00372505e+00" Max="9.99998550e+01"/>
    <Variable VarIndex="7" Expression="mass_b1b2" Label="mass_b1b2" Title="mass_b1b2" Unit="" Internal="mass_b1b2" Type="F" Min="2.21850624e+01" Max="6.99396729e+02"/>
    <Variable VarIndex="8" Expression="mass_trans" Label="mass_trans" Title="mass_trans" Unit="" Internal="mass_trans" Type="F" Min="0.00000000e+00" Max="2.49991043e+02"/>
    <Variable VarIndex="9" Expression="MT2" Label="MT2" Title="MT2" Unit="" Internal="MT2" Type="F" Min="2.45720634e+01" Max="3.99709625e+02"/>
    <Variable VarIndex="10" Expression="pt_b1b2" Label="pt_b1b2" Title="pt_b1b2" Unit="" Internal="pt_b1b2" Type="F" Min="1.50757179e-01" Max="2.99807526e+02"/>
  </Variables>
  <Spectators NSpec="0"/>
  <Classes NClass="2">
    <Class Name="Signal" Index="0"/>
    <Class Name="Background" Index="1"/>
  </Classes>
  <Transformations NTransformations="1">
    <Transform Name="Normalize">
      <Selection>
        <Input NInputs="11">
          <Input Type="Variable" Label="dR_l1l2" Expression="dR_l1l2"/>
          <Input Type="Variable" Label="dR_b1b2" Expression="dR_b1b2"/>
          <Input Type="Variable" Label="dR_bl" Expression="dR_bl"/>
          <Input Type="Variable" Label="dR_l1l2b1b2" Expression="dR_l1l2b1b2"/>
          <Input Type="Variable" Label="MINdR_bl" Expression="MINdR_bl"/>
          <Input Type="Variable" Label="dphi_l1l2b1b2" Expression="dphi_l1l2b1b2"/>
          <Input Type="Variable" Label="mass_l1l2" Expression="mass_l1l2"/>
          <Input Type="Variable" Label="mass_b1b2" Expression="mass_b1b2"/>
          <Input Type="Variable" Label="mass_trans" Expression="mass_trans"/>
          <Input Type="Variable" Label="MT2" Expression="MT2"/>
          <Input Type="Variable" Label="pt_b1b2" Expression="pt_b1b2"/>
        </Input>
        <Output NOutputs="11">
          <Output Type="Variable" Label="dR_l1l2" Expression="dR_l1l2"/>
          <Output Type="Variable" Label="dR_b1b2" Expression="dR_b1b2"/>
          <Output Type="Variable" Label="dR_bl" Expression="dR_bl"/>
          <Output Type="Variable" Label="dR_l1l2b1b2" Expression="dR_l1l2b1b2"/>
          <Output Type="Variable" Label="MINdR_bl" Expression="MINdR_bl"/>
          <Output Type="Variable" Label="dphi_l1l2b1b2" Expression="dphi_l1l2b1b2"/>
          <Output Type="Variable" Label="mass_l1l2" Expression="mass_l1l2"/>
          <Output Type="Variable" Label="mass_b1b2" Expression="mass_b1b2"/>
          <Output Type="Variable" Label="mass_trans" Expression="mass_trans"/>
          <Output Type="Variable" Label="MT2" Expression="MT2"/>
          <Output Type="Variable" Label="pt_b1b2" Expression="pt_b1b2"/>
        </Output>
      </Selection>
      <Class ClassIndex="0">
        <Ranges>
          <Range Index="0" Min="7.1270547807216644e-02" Max="3.2565932273864746e+00"/>
          <Range Index="1" Min="3.9367020130157471e-01" Max="4.7529578208923340e+00"/>
          <Range Index="2" Min="4.9563515186309814e-01" Max="4.8948740959167480e+00"/>
          <Range Index="3" Min="3.8052138686180115e-01" Max="5.9452390670776367e+00"/>
          <Range Index="4" Min="4.3146580457687378e-01" Max="3.1995322704315186e+00"/>
          <Range Index="5" Min="1.4147053472697735e-02" Max="3.1415786743164062e+00"/>
          <Range Index="6" Min="5.0523128509521484e+00" Max="8.9917480468750000e+01"/>
          <Range Index="7" Min="2.2185062408447266e+01" Max="6.6763055419921875e+02"/>
          <Range Index="8" Min="9.1652378439903259e-02" Max="2.4972308349609375e+02"/>
          <Range Index="9" Min="5.8014526367187500e+01" Max="3.8255496215820312e+02"/>
          <Range Index="10" Min="4.6247940063476562e+00" Max="2.9968579101562500e+02"/>
        </Ranges>
      </Class>
      <Class ClassIndex="1">
        <Ranges>
          <Range Index="0" Min="7.0645935833454132e-02" Max="3.2999532222747803e+00"/>
          <Range Index="1" Min="3.9876490831375122e-01" Max="4.9981708526611328e+00"/>
          <Range Index="2" Min="4.0001416206359863e-01" Max="4.9943261146545410e+00"/>
          <Range Index="3" Min="4.4224383309483528e-03" Max="5.9996194839477539e+00"/>
          <Range Index="4" Min="4.0000137686729431e-01" Max="3.1992781162261963e+00"/>
          <Range Index="5" Min="1.3856365512765478e-05" Max="3.1415922641754150e+00"/>
          <Range Index="6" Min="5.0037250518798828e+00" Max="9.9999855041503906e+01"/>
          <Range Index="7" Min="2.2205713272094727e+01" Max="6.9939672851562500e+02"/>
          <Range Index="8" Min="0.0000000000000000e+00" Max="2.4999104309082031e+02"/>
          <Range Index="9" Min="2.4572063446044922e+01" Max="3.9970962524414062e+02"/>
          <Range Index="10" Min="1.5075717866420746e-01" Max="2.9980752563476562e+02"/>
        </Ranges>
      </Class>
      <Class ClassIndex="2">
        <Ranges>
          <Range Index="0" Min="7.0645935833454132e-02" Max="3.2999532222747803e+00"/>
          <Range Index="1" Min="3.9367020130157471e-01" Max="4.9981708526611328e+00"/>
          <Range Index="2" Min="4.0001416206359863e-01" Max="4.9943261146545410e+00"/>
          <Range Index="3" Min="4.4224383309483528e-03" Max="5.9996194839477539e+00"/>
          <Range Index="4" Min="4.0000137686729431e-01" Max="3.1995322704315186e+00"/>
          <Range Index="5" Min="1.3856365512765478e-05" Max="3.1415922641754150e+00"/>
          <Range Index="6" Min="5.0037250518798828e+00" Max="9.9999855041503906e+01"/>
          <Range Index="7" Min="2.2185062408447266e+01" Max="6.9939672851562500e+02"/>
          <Range Index="8" Min="0.0000000000000000e+00" Max="2.4999104309082031e+02"/>
          <Range Index="9" Min="2.4572063446044922e+01" Max="3.9970962524414062e+02"/>
          <Range Index="10" Min="1.5075717866420746e-01" Max="2.9980752563476562e+02"/>
        </Ranges>
      </Class>
    </Transform>
  </Transformations>
  <MVAPdfs/>
  <Weights>
    <Layout NLayers="3">
      <Layer Index="0" NNeurons="12">
        <Neuron NSynapses="16">
          -3.8248507594407077e-01 -1.3263249458365348e-01 -4.7475251810698815e-01 1.3396654209775036e+00 -1.4384616433082995e+00 -7.5612834908971471e-01 3.7850281360290561e-01 9.2436019903959743e-01 -4.0312188230334395e-01 -1.0950261710798119e+00 -2.0070438925029941e+00 1.2060068569051148e-01 -4.8127469191788347e-01 1.9530576251931794e-01 -5.7632063537655465e-01 3.7878987833609884e-01 
        </Neuron>
        <Neuron NSynapses="16">
          -2.4409809537124865e+00 1.6127532469821266e+00 7.1618698960815097e-01 1.3079013122034877e+00 -4.6448187586791556e-01 -8.6514994742466866e-01 -8.7698964002215807e-01 -7.9841652972470922e-02 -1.0576392668137458e+00 5.0487192071555290e-03 1.4551564515395959e-01 -6.6967919474337045e-01 -1.8613922972283057e+00 6.3062391853604780e-02 -5.5486492203445159e-01 1.3356356942969276e+00 
        </Neuron>
        <Neuron NSynapses="16">
          -2.7486624962399359e-01 8.0895701853695690e-01 8.6055413546313830e-01 -4.0971026670528393e-01 -6.8483732993149826e-01 1.0231299495513269e+00 -8.2815495446145110e-02 6.6545766342110568e-01 1.4216901977256677e+00 6.2374323924421482e-01 1.3611820938194710e+00 6.9779633231331895e-01 1.2573188106512352e-02 -1.5354425043443467e+00 3.4012656257466606e-01 -6.6903043523611150e-01 
        </Neuron>
        <Neuron NSynapses="16">
          1.2829051186024258e+00 7.9620264756033210e-01 8.9099278472929211e-01 1.2573804844246577e+00 -1.0791271930044306e+00 1.2603425424934749e+00 7.0223405543805606e-01 -1.1844646083944677e+00 -8.8354826768490025e-01 -1.7640848819981587e+00 1.6074279581737718e+00 7.3613827539927323e-01 -1.1588425585535163e+00 5.0608524905853480e-01 -2.6886781750835176e-01 -4.8796718296339435e-02 
        </Neuron>
        <Neuron NSynapses="16">
          1.2494524771507252e+00 -8.5318345189438358e-02 -1.1198296549813494e-01 -1.4757462977340812e+00 1.1345013456456825e+00 2.9277796306381398e-01 -1.5854538295589618e-01 -1.7574364303632504e+00 1.0017630200921561e+00 1.6623284584143277e-01 1.3275181511078042e+00 -1.7525275639406193e-01 -4.6513163926512929e-01 -1.4114219520993421e+00 1.1088470839910507e+00 -6.4906106626615367e-01 
        </Neuron>
        <Neuron NSynapses="16">
          -5.6904978052422961e-01 -3.2669850520208021e-01 -4.3419977018017741e-01 -2.4539201438911870e-01 -1.9611958506898325e-01 -5.1179678063969725e-01 -9.4467219615277831e-01 -3.8760285289972385e-02 -1.1603986280902423e+00 -1.0240140939256361e+00 -7.8865076811968682e-01 -3.5077837772026638e-01 1.4114715666802029e+00 -1.0790749329690394e-01 -5.7852305967961226e-01 6.8443084775529950e-01 
        </Neuron>
        <Neuron NSynapses="16">
          -3.1752162883090546e-01 3.2892491608743074e-01 -5.9510880874712557e-01 -1.5873686723280524e-02 -8.5677562441790822e-01 -1.9271437027056244e+00 8.3653252730768202e-01 9.2312772155619316e-01 -6.8096821960218923e-01 1.4264595526538297e+00 2.6794151970047153e-01 -1.2020219651363823e-01 -2.6046974546006330e-01 7.0049500528390596e-01 -4.1761399327328103e-01 1.6762443737531602e-01 
        </Neuron>
        <Neuron NSynapses="16">
          2.7508639643049448e-01 -2.9007033813514695e+00 -4.5545182329617475e+00 1.0805884790002087e+00 6.8199310864781670e-01 -2.0974512902450224e-01 5.5657341563962062e+00 -2.5109196387357802e+00 -6.5664988964089777e-01 -3.5638733486541874e-01 3.1268490317028175e-01 1.5339953160116773e+00 9.7372106589418195e-01 -8.8754318977821667e-01 -2.9882774610327978e-01 7.6163606151835414e-02 
        </Neuron>
        <Neuron NSynapses="16">
          -3.6421503491053614e-01 -2.3905223768022288e-01 -9.1605271829657975e-01 -2.0602160541414851e+00 4.3081346129755799e-01 1.5851151765911113e-02 4.0606431712160168e-01 4.2653401331544266e-01 1.4402489730184915e+00 -9.9315847343179497e-01 3.0728896410909745e-01 6.0074912912001177e-01 5.9535122528022977e-01 1.8147508959667424e-01 -3.5217486719627805e-01 -2.7860234889496877e-01 
        </Neuron>
        <Neuron NSynapses="16">
          -5.1715981921171839e-01 3.0630102979072427e+00 5.4439023251131964e+00 -9.1363333991989137e-01 1.5046410868341004e-01 1.0943349712140800e+00 -2.7303148329102078e+00 -4.8443412426245741e-01 2.0972060816063882e+00 -9.9275266222899039e-01 -1.7732222210869269e-02 -2.6265330926440296e-02 1.2617760067215595e+00 4.7088959012784745e-02 1.3354375412209833e+00 -1.7252717849695163e+00 
        </Neuron>
        <Neuron NSynapses="16">
          1.0504816583039944e+00 1.3283883493479092e+00 1.2464989808090186e+00 6.1705147512116990e-02 1.4815152893095354e+00 8.8911653469208596e-01 -1.5154946281982264e+00 -1.4081892492591114e-01 2.3576388391657094e-01 -1.1078062366368040e+00 1.3953144531923274e+00 5.1007803452993983e-01 -1.2140139335579681e-01 1.3490746382375973e-01 1.1352837844573433e+00 -1.5176936181023766e+00 
        </Neuron>
        <Neuron NSynapses="16">
          -3.3460162489633611e+00 -2.3708284646523050e+00 -2.7766157619053065e+00 -3.9912858607294521e-01 -2.0960377417054388e+00 -2.4406913761398830e+00 5.2826661017018628e+00 9.0259278192671066e-01 -1.5896266911302106e+00 6.7008390447400668e-01 -1.3996539899598335e+00 1.2471310828211084e+00 -1.0059031778819929e+00 1.7757178897093240e+00 -3.0111805629666111e+00 1.8752024457851437e+00 
        </Neuron>
      </Layer>
      <Layer Index="1" NNeurons="17">
        <Neuron NSynapses="1">
          -4.3200963935129683e-01 
        </Neuron>
        <Neuron NSynapses="1">
          -4.3808408182389436e-01 
        </Neuron>
        <Neuron NSynapses="1">
          3.1618720181941368e-01 
        </Neuron>
        <Neuron NSynapses="1">
          -1.7819508340931724e-04 
        </Neuron>
        <Neuron NSynapses="1">
          1.1105371254895293e-02 
        </Neuron>
        <Neuron NSynapses="1">
          -1.6919073317363856e-01 
        </Neuron>
        <Neuron NSynapses="1">
          -4.2645340116383812e-01 
        </Neuron>
        <Neuron NSynapses="1">
          -6.3107909177599541e-03 
        </Neuron>
        <Neuron NSynapses="1">
          -2.8002594612617584e-02 
        </Neuron>
        <Neuron NSynapses="1">
          -7.7867792599379086e-03 
        </Neuron>
        <Neuron NSynapses="1">
          1.3321064450194978e-01 
        </Neuron>
        <Neuron NSynapses="1">
          8.5868897179050760e-03 
        </Neuron>
        <Neuron NSynapses="1">
          -1.5862459699851290e-02 
        </Neuron>
        <Neuron NSynapses="1">
          8.9978543001202074e-02 
        </Neuron>
        <Neuron NSynapses="1">
          6.3345726247946399e-01 
        </Neuron>
        <Neuron NSynapses="1">
          1.1663516130574658e-01 
        </Neuron>
        <Neuron NSynapses="1">
          2.5203725013674122e-01 
        </Neuron>
      </Layer>
      <Layer Index="2" NNeurons="1">
        <Neuron NSynapses="0"/>
      </Layer>
    </Layout>
  </Weights>
</MethodSetup>
