<?xml version="1.0"?>
<MethodSetup Method="MLP::MLP">
  <GeneralInfo>
    <Info name="TMVA Release" value="4.1.2 [262402]"/>
    <Info name="ROOT Release" value="5.32/04 [335876]"/>
    <Info name="Creator" value="lpernie"/>
    <Info name="Date" value="Fri May 13 14:55:22 2016"/>
    <Info name="Host" value="Linux login01.brazos.tamu.edu 2.6.32-431.23.3.el6.x86_64 #1 SMP Thu Jul 31 17:20:51 UTC 2014 x86_64 x86_64 x86_64 GNU/Linux"/>
    <Info name="Dir" value="/home/lpernie/Hhh/delphes/diHiggs/MVAs"/>
    <Info name="Training events" value="17440"/>
    <Info name="TrainingTime" value="2.07380681e+02"/>
    <Info name="AnalysisType" value="Classification"/>
  </GeneralInfo>
  <Options>
    <Option name="NCycles" modified="Yes">600</Option>
    <Option name="HiddenLayers" modified="Yes">N+5</Option>
    <Option name="NeuronType" modified="Yes">tanh</Option>
    <Option name="RandomSeed" modified="No">1</Option>
    <Option name="EstimatorType" modified="No">MSE</Option>
    <Option name="NeuronInputType" modified="No">sum</Option>
    <Option name="V" modified="Yes">False</Option>
    <Option name="VerbosityLevel" modified="No">Default</Option>
    <Option name="VarTransform" modified="Yes">N</Option>
    <Option name="H" modified="Yes">True</Option>
    <Option name="CreateMVAPdfs" modified="No">False</Option>
    <Option name="IgnoreNegWeightsInTraining" modified="No">False</Option>
    <Option name="TrainingMethod" modified="No">BP</Option>
    <Option name="LearningRate" modified="No">2.000000e-02</Option>
    <Option name="DecayRate" modified="No">1.000000e-02</Option>
    <Option name="TestRate" modified="Yes">5</Option>
    <Option name="EpochMonitoring" modified="No">False</Option>
    <Option name="Sampling" modified="No">1.000000e+00</Option>
    <Option name="SamplingEpoch" modified="No">1.000000e+00</Option>
    <Option name="SamplingImportance" modified="No">1.000000e+00</Option>
    <Option name="SamplingTraining" modified="No">True</Option>
    <Option name="SamplingTesting" modified="No">False</Option>
    <Option name="ResetStep" modified="No">50</Option>
    <Option name="Tau" modified="No">3.000000e+00</Option>
    <Option name="BPMode" modified="No">sequential</Option>
    <Option name="BatchSize" modified="No">-1</Option>
    <Option name="ConvergenceImprove" modified="No">1.000000e-30</Option>
    <Option name="ConvergenceTests" modified="No">-1</Option>
    <Option name="UseRegulator" modified="Yes">False</Option>
    <Option name="UpdateLimit" modified="No">10000</Option>
    <Option name="CalculateErrors" modified="No">False</Option>
    <Option name="WeightRange" modified="No">1.000000e+00</Option>
  </Options>
  <Variables NVar="11">
    <Variable VarIndex="0" Expression="dR_l1l2" Label="dR_l1l2" Title="dR_l1l2" Unit="" Internal="dR_l1l2" Type="F" Min="7.04806447e-02" Max="3.29943013e+00"/>
    <Variable VarIndex="1" Expression="dR_b1b2" Label="dR_b1b2" Title="dR_b1b2" Unit="" Internal="dR_b1b2" Type="F" Min="3.80652487e-01" Max="4.96937084e+00"/>
    <Variable VarIndex="2" Expression="dR_bl" Label="dR_bl" Title="dR_bl" Unit="" Internal="dR_bl" Type="F" Min="4.00819451e-01" Max="4.85822916e+00"/>
    <Variable VarIndex="3" Expression="dR_l1l2b1b2" Label="dR_l1l2b1b2" Title="dR_l1l2b1b2" Unit="" Internal="dR_l1l2b1b2" Type="F" Min="3.99613082e-02" Max="5.81896591e+00"/>
    <Variable VarIndex="4" Expression="MINdR_bl" Label="MINdR_bl" Title="MINdR_bl" Unit="" Internal="MINdR_bl" Type="F" Min="4.00462151e-01" Max="3.19580007e+00"/>
    <Variable VarIndex="5" Expression="dphi_l1l2b1b2" Label="dphi_l1l2b1b2" Title="dphi_l1l2b1b2" Unit="" Internal="dphi_l1l2b1b2" Type="F" Min="3.76255048e-04" Max="3.14159083e+00"/>
    <Variable VarIndex="6" Expression="mass_l1l2" Label="mass_l1l2" Title="mass_l1l2" Unit="" Internal="mass_l1l2" Type="F" Min="5.02790022e+00" Max="9.99996490e+01"/>
    <Variable VarIndex="7" Expression="mass_b1b2" Label="mass_b1b2" Title="mass_b1b2" Unit="" Internal="mass_b1b2" Type="F" Min="2.20869198e+01" Max="6.99872253e+02"/>
    <Variable VarIndex="8" Expression="mass_trans" Label="mass_trans" Title="mass_trans" Unit="" Internal="mass_trans" Type="F" Min="0.00000000e+00" Max="2.49843353e+02"/>
    <Variable VarIndex="9" Expression="MT2" Label="MT2" Title="MT2" Unit="" Internal="MT2" Type="F" Min="2.50663490e+01" Max="3.99971771e+02"/>
    <Variable VarIndex="10" Expression="pt_b1b2" Label="pt_b1b2" Title="pt_b1b2" Unit="" Internal="pt_b1b2" Type="F" Min="9.54420507e-01" Max="2.99942261e+02"/>
  </Variables>
  <Spectators NSpec="0"/>
  <Classes NClass="2">
    <Class Name="Signal" Index="0"/>
    <Class Name="Background" Index="1"/>
  </Classes>
  <Transformations NTransformations="1">
    <Transform Name="Normalize">
      <Selection>
        <Input NInputs="11">
          <Input Type="Variable" Label="dR_l1l2" Expression="dR_l1l2"/>
          <Input Type="Variable" Label="dR_b1b2" Expression="dR_b1b2"/>
          <Input Type="Variable" Label="dR_bl" Expression="dR_bl"/>
          <Input Type="Variable" Label="dR_l1l2b1b2" Expression="dR_l1l2b1b2"/>
          <Input Type="Variable" Label="MINdR_bl" Expression="MINdR_bl"/>
          <Input Type="Variable" Label="dphi_l1l2b1b2" Expression="dphi_l1l2b1b2"/>
          <Input Type="Variable" Label="mass_l1l2" Expression="mass_l1l2"/>
          <Input Type="Variable" Label="mass_b1b2" Expression="mass_b1b2"/>
          <Input Type="Variable" Label="mass_trans" Expression="mass_trans"/>
          <Input Type="Variable" Label="MT2" Expression="MT2"/>
          <Input Type="Variable" Label="pt_b1b2" Expression="pt_b1b2"/>
        </Input>
        <Output NOutputs="11">
          <Output Type="Variable" Label="dR_l1l2" Expression="dR_l1l2"/>
          <Output Type="Variable" Label="dR_b1b2" Expression="dR_b1b2"/>
          <Output Type="Variable" Label="dR_bl" Expression="dR_bl"/>
          <Output Type="Variable" Label="dR_l1l2b1b2" Expression="dR_l1l2b1b2"/>
          <Output Type="Variable" Label="MINdR_bl" Expression="MINdR_bl"/>
          <Output Type="Variable" Label="dphi_l1l2b1b2" Expression="dphi_l1l2b1b2"/>
          <Output Type="Variable" Label="mass_l1l2" Expression="mass_l1l2"/>
          <Output Type="Variable" Label="mass_b1b2" Expression="mass_b1b2"/>
          <Output Type="Variable" Label="mass_trans" Expression="mass_trans"/>
          <Output Type="Variable" Label="MT2" Expression="MT2"/>
          <Output Type="Variable" Label="pt_b1b2" Expression="pt_b1b2"/>
        </Output>
      </Selection>
      <Class ClassIndex="0">
        <Ranges>
          <Range Index="0" Min="7.0480644702911377e-02" Max="3.1969120502471924e+00"/>
          <Range Index="1" Min="3.8605082035064697e-01" Max="4.9693708419799805e+00"/>
          <Range Index="2" Min="5.0115716457366943e-01" Max="4.8582291603088379e+00"/>
          <Range Index="3" Min="7.9715269804000854e-01" Max="5.6536250114440918e+00"/>
          <Range Index="4" Min="4.3472185730934143e-01" Max="3.1958000659942627e+00"/>
          <Range Index="5" Min="3.3473242074251175e-02" Max="3.1415908336639404e+00"/>
          <Range Index="6" Min="5.0581655502319336e+00" Max="9.2976593017578125e+01"/>
          <Range Index="7" Min="2.2086919784545898e+01" Max="6.9987225341796875e+02"/>
          <Range Index="8" Min="0.0000000000000000e+00" Max="2.4867498779296875e+02"/>
          <Range Index="9" Min="4.2385044097900391e+01" Max="3.9997177124023438e+02"/>
          <Range Index="10" Min="6.0551342964172363e+00" Max="2.9994226074218750e+02"/>
        </Ranges>
      </Class>
      <Class ClassIndex="1">
        <Ranges>
          <Range Index="0" Min="7.1014471352100372e-02" Max="3.2994301319122314e+00"/>
          <Range Index="1" Min="3.8065248727798462e-01" Max="4.9422097206115723e+00"/>
          <Range Index="2" Min="4.0081945061683655e-01" Max="4.8140463829040527e+00"/>
          <Range Index="3" Min="3.9961308240890503e-02" Max="5.8189659118652344e+00"/>
          <Range Index="4" Min="4.0046215057373047e-01" Max="3.1130023002624512e+00"/>
          <Range Index="5" Min="3.7625504774041474e-04" Max="3.1414997577667236e+00"/>
          <Range Index="6" Min="5.0279002189636230e+00" Max="9.9999649047851562e+01"/>
          <Range Index="7" Min="2.2184673309326172e+01" Max="6.9411236572265625e+02"/>
          <Range Index="8" Min="1.2781299650669098e-02" Max="2.4984335327148438e+02"/>
          <Range Index="9" Min="2.5066349029541016e+01" Max="3.9509289550781250e+02"/>
          <Range Index="10" Min="9.5442050695419312e-01" Max="2.9893698120117188e+02"/>
        </Ranges>
      </Class>
      <Class ClassIndex="2">
        <Ranges>
          <Range Index="0" Min="7.0480644702911377e-02" Max="3.2994301319122314e+00"/>
          <Range Index="1" Min="3.8065248727798462e-01" Max="4.9693708419799805e+00"/>
          <Range Index="2" Min="4.0081945061683655e-01" Max="4.8582291603088379e+00"/>
          <Range Index="3" Min="3.9961308240890503e-02" Max="5.8189659118652344e+00"/>
          <Range Index="4" Min="4.0046215057373047e-01" Max="3.1958000659942627e+00"/>
          <Range Index="5" Min="3.7625504774041474e-04" Max="3.1415908336639404e+00"/>
          <Range Index="6" Min="5.0279002189636230e+00" Max="9.9999649047851562e+01"/>
          <Range Index="7" Min="2.2086919784545898e+01" Max="6.9987225341796875e+02"/>
          <Range Index="8" Min="0.0000000000000000e+00" Max="2.4984335327148438e+02"/>
          <Range Index="9" Min="2.5066349029541016e+01" Max="3.9997177124023438e+02"/>
          <Range Index="10" Min="9.5442050695419312e-01" Max="2.9994226074218750e+02"/>
        </Ranges>
      </Class>
    </Transform>
  </Transformations>
  <MVAPdfs/>
  <Weights>
    <Layout NLayers="3">
      <Layer Index="0" NNeurons="12">
        <Neuron NSynapses="16">
          -5.1990055267483126e-01 1.5684434552303006e+00 1.2012017841339885e-01 1.7682228206571093e+00 -1.1698610439336981e+00 -1.4730650414249036e+00 5.8433087289977835e-02 1.8310344772237646e+00 -1.4436211012333480e+00 -1.6787703533796796e+00 -1.2747064031017066e+00 5.8214206999023932e-01 -1.0286681439450291e+00 -5.6776661299771902e-01 -9.2000288860042767e-01 1.1673581454028010e+00 
        </Neuron>
        <Neuron NSynapses="16">
          -2.7891728079517164e-01 1.0968275066723709e+00 1.2705634119280057e-02 1.3760090430575240e+00 -5.0878497865870465e-01 -6.6793586423475104e-01 1.1435235937314230e+00 -1.2636617851054477e-01 -1.0774016229011167e+00 -9.1329037609396702e-02 1.2793295877141631e+00 -8.5415366814244520e-01 -1.6558250721161814e+00 1.6526685497132473e-01 7.9202134720774553e-01 1.7923831251078646e+00 
        </Neuron>
        <Neuron NSynapses="16">
          -2.2551032095046225e-01 -6.6294669325212767e-04 6.8904288073154255e-02 -3.5317440848594117e-01 -7.0278094285700898e-01 1.9593395119169768e+00 -5.7401143067077276e-01 8.7110426255459072e-01 1.1971295751111928e+00 6.9709657606471376e-01 1.7072770728264666e+00 7.0502113101757513e-01 -4.8056703333417616e-01 -1.5543819185247947e+00 4.7871458038723308e-02 5.0759070412210783e-02 
        </Neuron>
        <Neuron NSynapses="16">
          1.4410638556166275e+00 1.2886698704554300e+00 1.3662332759333529e+00 1.3464813124092729e+00 -1.1584861231090509e+00 1.3612563934147177e+00 -1.7431558319022333e+00 -1.0030951109763762e+00 -1.2286537566830937e+00 -1.7124888747472364e+00 1.3876286636247310e+00 5.0672956384109202e-01 -1.5745379839380214e+00 2.7583509945693646e-01 -2.1697197776939620e-01 6.1564697222185605e-01 
        </Neuron>
        <Neuron NSynapses="16">
          2.1003042232746796e+00 -3.7866559086172763e-01 2.1716018176199003e-01 -1.1508487507447311e+00 1.2439298635446476e+00 -4.2584887546316175e-01 -6.9730565533651645e-01 -1.6468047685166201e+00 6.7499651748636424e-01 4.1875864764614967e-01 1.4507314415295454e+00 -4.2623865855450332e-01 -1.6984052033767192e+00 -1.9081946656119024e+00 -1.1582140230128414e-02 8.2594740357043880e-02 
        </Neuron>
        <Neuron NSynapses="16">
          1.2516217923265729e+00 4.5161352924811313e-02 5.2587197992571177e-01 -7.2326871670270021e-01 -9.1378805140909264e-02 -6.6670725634122863e-01 2.5033282274960200e-01 -9.4337797875058282e-01 -1.4946764342352858e+00 -1.0164743247829138e+00 -7.0961510886955159e-01 6.6778682753123611e-02 1.3856639749505117e+00 -1.4876442779872283e+00 4.2371512018034063e-01 1.1315260833583904e+00 
        </Neuron>
        <Neuron NSynapses="16">
          -1.1959659910806868e+00 -1.5567369378776738e-01 -1.0989783920198348e+00 6.6359791555224881e-02 -2.0188731894275791e+00 -2.0498459797514661e+00 1.4332968284394436e+00 1.8369440010581310e+00 -1.1535530928538360e+00 1.4538898378589393e+00 -6.6775719228684105e-01 1.6836445145654502e-01 -1.4850737997401200e-01 2.1333112019484149e-01 -7.2691298739003352e-01 7.6476172627396422e-01 
        </Neuron>
        <Neuron NSynapses="16">
          6.7917848865067021e-01 -2.0972703614483237e-01 -1.1105495481919441e+00 1.6174530343333335e+00 2.8559122970916662e-01 -1.5513565602451068e-01 1.3452927227423970e+00 -1.6352233453289629e+00 -1.4155864420322055e+00 -2.6443677763761120e-01 -1.0654391766167069e-01 9.7546584619462029e-01 8.7507956978155843e-01 -3.3679919413145232e-01 -2.3234597501377059e+00 4.4241112302448882e-01 
        </Neuron>
        <Neuron NSynapses="16">
          -1.3855026744694459e+00 7.1934197390533106e-01 -2.2153008294827758e-01 -1.9569594622705695e+00 3.0552887003025342e-01 -9.1254604805434136e-01 6.5163600238789421e-01 8.2610538037604508e-01 1.6924680224543454e+00 -1.4785461965986106e+00 2.6626413902426960e-01 4.0585580705028718e-01 1.4514038472742938e+00 2.8521795022083124e-01 -1.2184948830029978e+00 -8.1173153817107505e-02 
        </Neuron>
        <Neuron NSynapses="16">
          -1.2309576271538853e+00 2.4609741407837289e+00 1.7166389508799540e+00 -5.8788540876754591e-01 -7.8684114857916609e-01 4.4202929966989768e-01 -2.0751624215859645e+00 4.5924688236799754e-01 1.7898343771624017e+00 -6.4014127033181778e-01 -4.0854830010608689e-01 -6.7617996510671008e-01 1.2110754237998782e+00 2.9463676381856074e-01 5.4266967661010845e+00 -1.4946269598975417e+00 
        </Neuron>
        <Neuron NSynapses="16">
          1.6173554847986005e+00 1.0812872975604770e+00 8.2297372671214575e-01 4.6489282144929905e-01 9.9064549546423020e-01 -8.6132959581922311e-02 -1.2142801542704387e+00 8.3490861318199083e-01 -8.1661667182074937e-01 -1.1578647653448055e+00 1.9395223394453500e+00 1.2854800334459113e-01 -4.2176488217083324e-01 1.1336277400015309e+00 1.8409824502891006e-01 -1.7449453328334930e+00 
        </Neuron>
        <Neuron NSynapses="16">
          -1.3263811827899979e-01 -8.9155922566928769e-01 -4.3133738899321167e-01 -1.4499279775956169e+00 -2.0336894830709671e+00 -1.1101947754453484e-01 2.0737952252812675e+00 -9.7475415438866897e-01 -3.3532966401360587e-01 3.8845159632012194e-01 -3.2399310457480096e-01 3.1148185973187466e+00 -3.8719599678502808e-01 3.1155908552215977e-02 -1.6359595499288746e+00 5.8052402031786665e-01 
        </Neuron>
      </Layer>
      <Layer Index="1" NNeurons="17">
        <Neuron NSynapses="1">
          3.2008745606236316e-02 
        </Neuron>
        <Neuron NSynapses="1">
          -1.5664385513031409e-01 
        </Neuron>
        <Neuron NSynapses="1">
          -1.2212533827354613e-01 
        </Neuron>
        <Neuron NSynapses="1">
          1.0234709295825246e-02 
        </Neuron>
        <Neuron NSynapses="1">
          -6.6672066358471727e-02 
        </Neuron>
        <Neuron NSynapses="1">
          2.6274942097554689e-02 
        </Neuron>
        <Neuron NSynapses="1">
          -1.7367208589061642e-01 
        </Neuron>
        <Neuron NSynapses="1">
          4.3480904315212126e-03 
        </Neuron>
        <Neuron NSynapses="1">
          -4.5920549301206263e-03 
        </Neuron>
        <Neuron NSynapses="1">
          -6.8251902884952614e-02 
        </Neuron>
        <Neuron NSynapses="1">
          1.4625453971512631e-02 
        </Neuron>
        <Neuron NSynapses="1">
          -8.5325299019061551e-01 
        </Neuron>
        <Neuron NSynapses="1">
          7.2347300808834492e-03 
        </Neuron>
        <Neuron NSynapses="1">
          -1.8646859574070697e-03 
        </Neuron>
        <Neuron NSynapses="1">
          3.9813864842200719e-01 
        </Neuron>
        <Neuron NSynapses="1">
          -1.6985575032826151e-02 
        </Neuron>
        <Neuron NSynapses="1">
          1.2250588340555100e+00 
        </Neuron>
      </Layer>
      <Layer Index="2" NNeurons="1">
        <Neuron NSynapses="0"/>
      </Layer>
    </Layout>
  </Weights>
</MethodSetup>
