<?xml version="1.0"?>
<MethodSetup Method="MLP::MLP">
  <GeneralInfo>
    <Info name="TMVA Release" value="4.1.2 [262402]"/>
    <Info name="ROOT Release" value="5.32/04 [335876]"/>
    <Info name="Creator" value="lpernie"/>
    <Info name="Date" value="Fri Jul 15 14:32:57 2016"/>
    <Info name="Host" value="Linux login01.brazos.tamu.edu 2.6.32-431.23.3.el6.x86_64 #1 SMP Thu Jul 31 17:20:51 UTC 2014 x86_64 x86_64 x86_64 GNU/Linux"/>
    <Info name="Dir" value="/home/lpernie/Hhh/delphes/diHiggs/MVAs"/>
    <Info name="Training events" value="192991"/>
    <Info name="TrainingTime" value="2.35435013e+03"/>
    <Info name="AnalysisType" value="Classification"/>
  </GeneralInfo>
  <Options>
    <Option name="NCycles" modified="Yes">600</Option>
    <Option name="HiddenLayers" modified="Yes">N+5</Option>
    <Option name="NeuronType" modified="Yes">tanh</Option>
    <Option name="RandomSeed" modified="No">1</Option>
    <Option name="EstimatorType" modified="No">MSE</Option>
    <Option name="NeuronInputType" modified="No">sum</Option>
    <Option name="V" modified="Yes">False</Option>
    <Option name="VerbosityLevel" modified="No">Default</Option>
    <Option name="VarTransform" modified="Yes">N</Option>
    <Option name="H" modified="Yes">True</Option>
    <Option name="CreateMVAPdfs" modified="No">False</Option>
    <Option name="IgnoreNegWeightsInTraining" modified="No">False</Option>
    <Option name="TrainingMethod" modified="No">BP</Option>
    <Option name="LearningRate" modified="No">2.000000e-02</Option>
    <Option name="DecayRate" modified="No">1.000000e-02</Option>
    <Option name="TestRate" modified="Yes">5</Option>
    <Option name="EpochMonitoring" modified="No">False</Option>
    <Option name="Sampling" modified="No">1.000000e+00</Option>
    <Option name="SamplingEpoch" modified="No">1.000000e+00</Option>
    <Option name="SamplingImportance" modified="No">1.000000e+00</Option>
    <Option name="SamplingTraining" modified="No">True</Option>
    <Option name="SamplingTesting" modified="No">False</Option>
    <Option name="ResetStep" modified="No">50</Option>
    <Option name="Tau" modified="No">3.000000e+00</Option>
    <Option name="BPMode" modified="No">sequential</Option>
    <Option name="BatchSize" modified="No">-1</Option>
    <Option name="ConvergenceImprove" modified="No">1.000000e-30</Option>
    <Option name="ConvergenceTests" modified="No">-1</Option>
    <Option name="UseRegulator" modified="Yes">False</Option>
    <Option name="UpdateLimit" modified="No">10000</Option>
    <Option name="CalculateErrors" modified="No">False</Option>
    <Option name="WeightRange" modified="No">1.000000e+00</Option>
  </Options>
  <Variables NVar="11">
    <Variable VarIndex="0" Expression="dR_l1l2" Label="dR_l1l2" Title="dR_l1l2" Unit="" Internal="dR_l1l2" Type="F" Min="7.04614148e-02" Max="3.29995322e+00"/>
    <Variable VarIndex="1" Expression="dR_b1b2" Label="dR_b1b2" Title="dR_b1b2" Unit="" Internal="dR_b1b2" Type="F" Min="3.83513451e-01" Max="4.99822092e+00"/>
    <Variable VarIndex="2" Expression="dR_bl" Label="dR_bl" Title="dR_bl" Unit="" Internal="dR_bl" Type="F" Min="4.00089145e-01" Max="4.99972916e+00"/>
    <Variable VarIndex="3" Expression="dR_l1l2b1b2" Label="dR_l1l2b1b2" Title="dR_l1l2b1b2" Unit="" Internal="dR_l1l2b1b2" Type="F" Min="5.75727969e-03" Max="5.97906685e+00"/>
    <Variable VarIndex="4" Expression="MINdR_bl" Label="MINdR_bl" Title="MINdR_bl" Unit="" Internal="MINdR_bl" Type="F" Min="4.00032073e-01" Max="3.19927812e+00"/>
    <Variable VarIndex="5" Expression="dphi_l1l2b1b2" Label="dphi_l1l2b1b2" Title="dphi_l1l2b1b2" Unit="" Internal="dphi_l1l2b1b2" Type="F" Min="1.38563655e-05" Max="3.14159226e+00"/>
    <Variable VarIndex="6" Expression="mass_l1l2" Label="mass_l1l2" Title="mass_l1l2" Unit="" Internal="mass_l1l2" Type="F" Min="5.00042486e+00" Max="9.99998016e+01"/>
    <Variable VarIndex="7" Expression="mass_b1b2" Label="mass_b1b2" Title="mass_b1b2" Unit="" Internal="mass_b1b2" Type="F" Min="2.22296066e+01" Max="6.99396729e+02"/>
    <Variable VarIndex="8" Expression="mass_trans" Label="mass_trans" Title="mass_trans" Unit="" Internal="mass_trans" Type="F" Min="0.00000000e+00" Max="2.49994110e+02"/>
    <Variable VarIndex="9" Expression="MT2" Label="MT2" Title="MT2" Unit="" Internal="MT2" Type="F" Min="2.46344547e+01" Max="3.99925476e+02"/>
    <Variable VarIndex="10" Expression="pt_b1b2" Label="pt_b1b2" Title="pt_b1b2" Unit="" Internal="pt_b1b2" Type="F" Min="3.20028514e-01" Max="2.99997986e+02"/>
  </Variables>
  <Spectators NSpec="0"/>
  <Classes NClass="2">
    <Class Name="Signal" Index="0"/>
    <Class Name="Background" Index="1"/>
  </Classes>
  <Transformations NTransformations="1">
    <Transform Name="Normalize">
      <Selection>
        <Input NInputs="11">
          <Input Type="Variable" Label="dR_l1l2" Expression="dR_l1l2"/>
          <Input Type="Variable" Label="dR_b1b2" Expression="dR_b1b2"/>
          <Input Type="Variable" Label="dR_bl" Expression="dR_bl"/>
          <Input Type="Variable" Label="dR_l1l2b1b2" Expression="dR_l1l2b1b2"/>
          <Input Type="Variable" Label="MINdR_bl" Expression="MINdR_bl"/>
          <Input Type="Variable" Label="dphi_l1l2b1b2" Expression="dphi_l1l2b1b2"/>
          <Input Type="Variable" Label="mass_l1l2" Expression="mass_l1l2"/>
          <Input Type="Variable" Label="mass_b1b2" Expression="mass_b1b2"/>
          <Input Type="Variable" Label="mass_trans" Expression="mass_trans"/>
          <Input Type="Variable" Label="MT2" Expression="MT2"/>
          <Input Type="Variable" Label="pt_b1b2" Expression="pt_b1b2"/>
        </Input>
        <Output NOutputs="11">
          <Output Type="Variable" Label="dR_l1l2" Expression="dR_l1l2"/>
          <Output Type="Variable" Label="dR_b1b2" Expression="dR_b1b2"/>
          <Output Type="Variable" Label="dR_bl" Expression="dR_bl"/>
          <Output Type="Variable" Label="dR_l1l2b1b2" Expression="dR_l1l2b1b2"/>
          <Output Type="Variable" Label="MINdR_bl" Expression="MINdR_bl"/>
          <Output Type="Variable" Label="dphi_l1l2b1b2" Expression="dphi_l1l2b1b2"/>
          <Output Type="Variable" Label="mass_l1l2" Expression="mass_l1l2"/>
          <Output Type="Variable" Label="mass_b1b2" Expression="mass_b1b2"/>
          <Output Type="Variable" Label="mass_trans" Expression="mass_trans"/>
          <Output Type="Variable" Label="MT2" Expression="MT2"/>
          <Output Type="Variable" Label="pt_b1b2" Expression="pt_b1b2"/>
        </Output>
      </Selection>
      <Class ClassIndex="0">
        <Ranges>
          <Range Index="0" Min="7.0461414754390717e-02" Max="3.1857662200927734e+00"/>
          <Range Index="1" Min="4.0235424041748047e-01" Max="4.9982209205627441e+00"/>
          <Range Index="2" Min="5.3106850385665894e-01" Max="4.9800205230712891e+00"/>
          <Range Index="3" Min="4.9147355556488037e-01" Max="5.7028565406799316e+00"/>
          <Range Index="4" Min="4.3092846870422363e-01" Max="3.1981458663940430e+00"/>
          <Range Index="5" Min="3.6859174724668264e-04" Max="3.1415438652038574e+00"/>
          <Range Index="6" Min="5.0723271369934082e+00" Max="9.4809623718261719e+01"/>
          <Range Index="7" Min="2.4737522125244141e+01" Max="6.9584313964843750e+02"/>
          <Range Index="8" Min="0.0000000000000000e+00" Max="2.4921984863281250e+02"/>
          <Range Index="9" Min="6.4981513977050781e+01" Max="3.9774002075195312e+02"/>
          <Range Index="10" Min="3.6232767105102539e+00" Max="2.9999798583984375e+02"/>
        </Ranges>
      </Class>
      <Class ClassIndex="1">
        <Ranges>
          <Range Index="0" Min="7.0645935833454132e-02" Max="3.2999532222747803e+00"/>
          <Range Index="1" Min="3.8351345062255859e-01" Max="4.9981708526611328e+00"/>
          <Range Index="2" Min="4.0008914470672607e-01" Max="4.9997291564941406e+00"/>
          <Range Index="3" Min="5.7572796940803528e-03" Max="5.9790668487548828e+00"/>
          <Range Index="4" Min="4.0003207325935364e-01" Max="3.1992781162261963e+00"/>
          <Range Index="5" Min="1.3856365512765478e-05" Max="3.1415922641754150e+00"/>
          <Range Index="6" Min="5.0004248619079590e+00" Max="9.9999801635742188e+01"/>
          <Range Index="7" Min="2.2229606628417969e+01" Max="6.9939672851562500e+02"/>
          <Range Index="8" Min="0.0000000000000000e+00" Max="2.4999411010742188e+02"/>
          <Range Index="9" Min="2.4634454727172852e+01" Max="3.9992547607421875e+02"/>
          <Range Index="10" Min="3.2002851366996765e-01" Max="2.9974560546875000e+02"/>
        </Ranges>
      </Class>
      <Class ClassIndex="2">
        <Ranges>
          <Range Index="0" Min="7.0461414754390717e-02" Max="3.2999532222747803e+00"/>
          <Range Index="1" Min="3.8351345062255859e-01" Max="4.9982209205627441e+00"/>
          <Range Index="2" Min="4.0008914470672607e-01" Max="4.9997291564941406e+00"/>
          <Range Index="3" Min="5.7572796940803528e-03" Max="5.9790668487548828e+00"/>
          <Range Index="4" Min="4.0003207325935364e-01" Max="3.1992781162261963e+00"/>
          <Range Index="5" Min="1.3856365512765478e-05" Max="3.1415922641754150e+00"/>
          <Range Index="6" Min="5.0004248619079590e+00" Max="9.9999801635742188e+01"/>
          <Range Index="7" Min="2.2229606628417969e+01" Max="6.9939672851562500e+02"/>
          <Range Index="8" Min="0.0000000000000000e+00" Max="2.4999411010742188e+02"/>
          <Range Index="9" Min="2.4634454727172852e+01" Max="3.9992547607421875e+02"/>
          <Range Index="10" Min="3.2002851366996765e-01" Max="2.9999798583984375e+02"/>
        </Ranges>
      </Class>
    </Transform>
  </Transformations>
  <MVAPdfs/>
  <Weights>
    <Layout NLayers="3">
      <Layer Index="0" NNeurons="12">
        <Neuron NSynapses="16">
          -3.9750834459113255e-01 -1.5140150246264369e-01 -4.5190993758020342e-01 9.8971275095764710e-01 -1.4822762745644784e+00 -7.0146049992641646e-01 1.0641227168424832e+00 1.0763718787946441e+00 -7.0827234880239565e-01 -1.2768704165698923e+00 -1.0293159922724073e+00 -2.7409627129552588e-01 -5.8714446772476558e-01 -5.4300284136486998e-01 -9.0754727132802318e-02 4.4945553557435836e-01 
        </Neuron>
        <Neuron NSynapses="16">
          -5.6199648443381311e-01 1.3287771518139089e+00 6.6378508814453963e-01 1.3922334925627697e+00 -4.0642542111033325e-01 -8.5963047424496064e-01 -2.6665432122494725e-01 -1.4159043911015601e-02 -8.2085466343072055e-01 -2.9688476194279534e-01 1.0589746447462185e+00 -9.6131003225117018e-01 -1.5163173588092522e+00 1.6629613842468388e-01 2.4819707265530552e-01 1.1729182830229883e+00 
        </Neuron>
        <Neuron NSynapses="16">
          -3.4756872251936610e-01 5.1921915878001645e-01 6.2327504726829597e-01 2.8175812394233823e-01 -8.8208490566637876e-01 1.5433854234450797e+00 -2.6324095947949794e-01 7.8165436113562337e-01 1.4178243875669549e+00 8.4346955367673104e-01 1.7105002629877613e+00 5.6344392182507119e-01 1.4694158639746263e-01 -1.3483709646117774e+00 -1.0844592515190711e-01 -7.2295791032867418e-01 
        </Neuron>
        <Neuron NSynapses="16">
          1.2411003699236063e+00 8.0777091736647277e-01 8.8305142979261231e-01 1.7894397439416485e+00 -1.1822507986981599e+00 1.2576838719065717e+00 -5.5369000276482350e-01 -1.0600453543911628e+00 -8.9624638372395660e-01 -1.7579060892729150e+00 1.5384935469093155e+00 7.9845968202093132e-01 -1.1261777141218337e+00 3.7566410050276877e-01 -3.5192228060665287e-01 -8.0215144088838994e-03 
        </Neuron>
        <Neuron NSynapses="16">
          1.7872627736431959e+00 -1.5128092461094117e-01 -1.2875513592812912e-01 -7.1178267413263918e-01 1.0844628718141507e+00 2.8788749594964186e-01 -2.8605461740642429e-01 -1.7022572854398319e+00 9.4317337500917864e-01 6.4172831119398499e-01 1.1038547077086178e+00 -8.1460757341143362e-03 -6.3442928191039760e-01 -1.7097473027123511e+00 1.0252523602481858e+00 -4.2098601253330203e-01 
        </Neuron>
        <Neuron NSynapses="16">
          -4.7984479113854711e-01 -1.7030835318195583e-01 -4.1516919622613191e-01 -3.6596604159887058e-01 -3.0744773531553926e-01 -7.3183061924444048e-01 -2.0247874963676862e-01 2.6427167818428149e-01 -1.5828091342083517e+00 -1.1817832763267839e+00 -7.4966792476987809e-01 -6.2595473287596459e-01 1.0887286885838869e+00 -4.1113509564028089e-01 -1.2128212709510415e-01 8.5376761657566569e-01 
        </Neuron>
        <Neuron NSynapses="16">
          -8.9790296094646005e-01 -8.3334667879389774e-03 -8.8782670926322316e-01 -1.4520197078337127e-01 -1.2672152800862688e+00 -1.5636986949130924e+00 5.7287964999098484e-01 9.0708765893309251e-01 -6.1334004218858973e-01 1.2792097677411169e+00 -3.7499235314880586e-01 -3.7452458640099845e-01 -1.3822922890657549e-01 3.0844429362431253e-01 -7.1369361659341102e-01 1.6571926189720196e-01 
        </Neuron>
        <Neuron NSynapses="16">
          1.1585523997661318e+00 -1.2418406152981258e+00 -2.1682792737933938e+00 1.9614667917268387e+00 5.1907209510886543e-01 2.2318954308962713e-01 4.9222530186494806e+00 -2.6145929792620581e+00 -4.2345057152033333e-01 -2.6985288768350540e-01 -4.1650632325925335e-02 2.0524018319126105e+00 1.6748519984722039e+00 -1.0714335965182571e+00 5.3236450325429430e-01 -1.9650716643672858e-01 
        </Neuron>
        <Neuron NSynapses="16">
          -5.9187717113291627e-01 -2.3987933542047893e-01 -9.3853482065740168e-01 -1.3285647696030294e+00 6.1772042939511773e-01 -6.4920545663145326e-02 4.7543475148179870e-01 1.6152045177150762e-01 1.2669225453472801e+00 -1.3632737806824275e+00 2.8470411872699397e-01 1.0427307399436239e+00 1.0561539792124930e+00 -5.6199026682990198e-03 -4.3971429270143192e-01 -2.4439455285033418e-01 
        </Neuron>
        <Neuron NSynapses="16">
          -1.0398029457465106e+00 1.9635784320285183e+00 3.4985709728133512e+00 1.5976704382845913e-01 -1.0710813676408777e-01 5.1117411158283066e-01 -3.3217386838744845e+00 -5.3663974146328619e-01 2.2181336832426366e+00 -7.9619312642414486e-01 -3.7003310004446360e-01 5.5068183447490016e-01 1.4408793515562086e+00 -3.3347339841593088e-01 1.5785543817993115e+00 -2.0875649588134793e+00 
        </Neuron>
        <Neuron NSynapses="16">
          1.2602341692889707e+00 8.7909870146730262e-01 8.7518814754103058e-01 7.9640904805171020e-01 1.2420589043020811e+00 4.6779958264436211e-01 -1.2206153339312660e+00 -6.9847265330766073e-02 -1.0633833624278355e-01 -8.2680027262541445e-01 2.0903671735492959e+00 8.9323791494316052e-01 1.4897266462398831e-01 3.5879124729731027e-01 1.1975487283656052e+00 -1.4163657395857761e+00 
        </Neuron>
        <Neuron NSynapses="16">
          -2.0248362026523279e+00 -2.0239435761574245e+00 -1.8437173082593503e+00 -2.1119698509330509e+00 -2.0819931171930373e+00 -1.9018757402368389e+00 5.3235949411533969e+00 1.3946357403599816e+00 -1.8027550715039238e+00 2.7583278863972033e-01 -9.0078383727000844e-01 2.8785046274866100e-01 -1.8943062010332044e+00 1.4119334022827761e+00 -2.5177212046211030e+00 1.8514582540518623e+00 
        </Neuron>
      </Layer>
      <Layer Index="1" NNeurons="17">
        <Neuron NSynapses="1">
          -1.2169274049640376e-01 
        </Neuron>
        <Neuron NSynapses="1">
          -4.3356447734593589e-01 
        </Neuron>
        <Neuron NSynapses="1">
          2.2990957171425971e-01 
        </Neuron>
        <Neuron NSynapses="1">
          1.4247785678519061e-02 
        </Neuron>
        <Neuron NSynapses="1">
          -5.0768542415725801e-03 
        </Neuron>
        <Neuron NSynapses="1">
          -1.1561889225846259e-01 
        </Neuron>
        <Neuron NSynapses="1">
          -4.1123809978967135e-01 
        </Neuron>
        <Neuron NSynapses="1">
          -3.5568800044577249e-02 
        </Neuron>
        <Neuron NSynapses="1">
          1.2537653396263997e-02 
        </Neuron>
        <Neuron NSynapses="1">
          -1.0057751553599920e-03 
        </Neuron>
        <Neuron NSynapses="1">
          5.3896014568300725e-02 
        </Neuron>
        <Neuron NSynapses="1">
          -1.4728482182631527e-02 
        </Neuron>
        <Neuron NSynapses="1">
          4.0212871266129248e-02 
        </Neuron>
        <Neuron NSynapses="1">
          2.4694151036219445e-02 
        </Neuron>
        <Neuron NSynapses="1">
          4.2747479264882582e-01 
        </Neuron>
        <Neuron NSynapses="1">
          1.1077097915976655e-01 
        </Neuron>
        <Neuron NSynapses="1">
          4.0170441730267248e-01 
        </Neuron>
      </Layer>
      <Layer Index="2" NNeurons="1">
        <Neuron NSynapses="0"/>
      </Layer>
    </Layout>
  </Weights>
</MethodSetup>
