<?xml version="1.0"?>
<MethodSetup Method="MLP::MLPBFGS">
  <GeneralInfo>
    <Info name="TMVA Release" value="4.1.2 [262402]"/>
    <Info name="ROOT Release" value="5.32/04 [335876]"/>
    <Info name="Creator" value="lpernie"/>
    <Info name="Date" value="Fri Jul  1 14:08:15 2016"/>
    <Info name="Host" value="Linux login01.brazos.tamu.edu 2.6.32-431.23.3.el6.x86_64 #1 SMP Thu Jul 31 17:20:51 UTC 2014 x86_64 x86_64 x86_64 GNU/Linux"/>
    <Info name="Dir" value="/home/lpernie/Hhh/delphes/diHiggs/MVAs"/>
    <Info name="Training events" value="223405"/>
    <Info name="TrainingTime" value="1.11235819e+04"/>
    <Info name="AnalysisType" value="Classification"/>
  </GeneralInfo>
  <Options>
    <Option name="NCycles" modified="Yes">600</Option>
    <Option name="HiddenLayers" modified="Yes">N+5</Option>
    <Option name="NeuronType" modified="Yes">tanh</Option>
    <Option name="RandomSeed" modified="No">1</Option>
    <Option name="EstimatorType" modified="No">MSE</Option>
    <Option name="NeuronInputType" modified="No">sum</Option>
    <Option name="V" modified="Yes">False</Option>
    <Option name="VerbosityLevel" modified="No">Default</Option>
    <Option name="VarTransform" modified="Yes">N</Option>
    <Option name="H" modified="Yes">True</Option>
    <Option name="CreateMVAPdfs" modified="No">False</Option>
    <Option name="IgnoreNegWeightsInTraining" modified="No">False</Option>
    <Option name="TrainingMethod" modified="Yes">BFGS</Option>
    <Option name="LearningRate" modified="No">2.000000e-02</Option>
    <Option name="DecayRate" modified="No">1.000000e-02</Option>
    <Option name="TestRate" modified="Yes">5</Option>
    <Option name="EpochMonitoring" modified="No">False</Option>
    <Option name="Sampling" modified="No">1.000000e+00</Option>
    <Option name="SamplingEpoch" modified="No">1.000000e+00</Option>
    <Option name="SamplingImportance" modified="No">1.000000e+00</Option>
    <Option name="SamplingTraining" modified="No">True</Option>
    <Option name="SamplingTesting" modified="No">False</Option>
    <Option name="ResetStep" modified="No">50</Option>
    <Option name="Tau" modified="No">3.000000e+00</Option>
    <Option name="BPMode" modified="No">sequential</Option>
    <Option name="BatchSize" modified="No">-1</Option>
    <Option name="ConvergenceImprove" modified="No">1.000000e-30</Option>
    <Option name="ConvergenceTests" modified="No">-1</Option>
    <Option name="UseRegulator" modified="Yes">False</Option>
    <Option name="UpdateLimit" modified="No">10000</Option>
    <Option name="CalculateErrors" modified="No">False</Option>
    <Option name="WeightRange" modified="No">1.000000e+00</Option>
  </Options>
  <Variables NVar="11">
    <Variable VarIndex="0" Expression="dR_l1l2" Label="dR_l1l2" Title="dR_l1l2" Unit="" Internal="dR_l1l2" Type="F" Min="7.06459358e-02" Max="3.29995322e+00"/>
    <Variable VarIndex="1" Expression="dR_b1b2" Label="dR_b1b2" Title="dR_b1b2" Unit="" Internal="dR_b1b2" Type="F" Min="3.73879045e-01" Max="4.99817085e+00"/>
    <Variable VarIndex="2" Expression="dR_bl" Label="dR_bl" Title="dR_bl" Unit="" Internal="dR_bl" Type="F" Min="4.00014162e-01" Max="4.99432611e+00"/>
    <Variable VarIndex="3" Expression="dR_l1l2b1b2" Label="dR_l1l2b1b2" Title="dR_l1l2b1b2" Unit="" Internal="dR_l1l2b1b2" Type="F" Min="4.42243833e-03" Max="5.99096441e+00"/>
    <Variable VarIndex="4" Expression="MINdR_bl" Label="MINdR_bl" Title="MINdR_bl" Unit="" Internal="MINdR_bl" Type="F" Min="4.00014162e-01" Max="3.19991016e+00"/>
    <Variable VarIndex="5" Expression="dphi_l1l2b1b2" Label="dphi_l1l2b1b2" Title="dphi_l1l2b1b2" Unit="" Internal="dphi_l1l2b1b2" Type="F" Min="1.38563655e-05" Max="3.14159226e+00"/>
    <Variable VarIndex="6" Expression="mass_l1l2" Label="mass_l1l2" Title="mass_l1l2" Unit="" Internal="mass_l1l2" Type="F" Min="5.00751638e+00" Max="9.99998550e+01"/>
    <Variable VarIndex="7" Expression="mass_b1b2" Label="mass_b1b2" Title="mass_b1b2" Unit="" Internal="mass_b1b2" Type="F" Min="2.20002632e+01" Max="6.99173645e+02"/>
    <Variable VarIndex="8" Expression="mass_trans" Label="mass_trans" Title="mass_trans" Unit="" Internal="mass_trans" Type="F" Min="0.00000000e+00" Max="2.49967041e+02"/>
    <Variable VarIndex="9" Expression="MT2" Label="MT2" Title="MT2" Unit="" Internal="MT2" Type="F" Min="2.46344547e+01" Max="3.99349731e+02"/>
    <Variable VarIndex="10" Expression="pt_b1b2" Label="pt_b1b2" Title="pt_b1b2" Unit="" Internal="pt_b1b2" Type="F" Min="1.50757179e-01" Max="2.99963409e+02"/>
  </Variables>
  <Spectators NSpec="0"/>
  <Classes NClass="2">
    <Class Name="Signal" Index="0"/>
    <Class Name="Background" Index="1"/>
  </Classes>
  <Transformations NTransformations="1">
    <Transform Name="Normalize">
      <Selection>
        <Input NInputs="11">
          <Input Type="Variable" Label="dR_l1l2" Expression="dR_l1l2"/>
          <Input Type="Variable" Label="dR_b1b2" Expression="dR_b1b2"/>
          <Input Type="Variable" Label="dR_bl" Expression="dR_bl"/>
          <Input Type="Variable" Label="dR_l1l2b1b2" Expression="dR_l1l2b1b2"/>
          <Input Type="Variable" Label="MINdR_bl" Expression="MINdR_bl"/>
          <Input Type="Variable" Label="dphi_l1l2b1b2" Expression="dphi_l1l2b1b2"/>
          <Input Type="Variable" Label="mass_l1l2" Expression="mass_l1l2"/>
          <Input Type="Variable" Label="mass_b1b2" Expression="mass_b1b2"/>
          <Input Type="Variable" Label="mass_trans" Expression="mass_trans"/>
          <Input Type="Variable" Label="MT2" Expression="MT2"/>
          <Input Type="Variable" Label="pt_b1b2" Expression="pt_b1b2"/>
        </Input>
        <Output NOutputs="11">
          <Output Type="Variable" Label="dR_l1l2" Expression="dR_l1l2"/>
          <Output Type="Variable" Label="dR_b1b2" Expression="dR_b1b2"/>
          <Output Type="Variable" Label="dR_bl" Expression="dR_bl"/>
          <Output Type="Variable" Label="dR_l1l2b1b2" Expression="dR_l1l2b1b2"/>
          <Output Type="Variable" Label="MINdR_bl" Expression="MINdR_bl"/>
          <Output Type="Variable" Label="dphi_l1l2b1b2" Expression="dphi_l1l2b1b2"/>
          <Output Type="Variable" Label="mass_l1l2" Expression="mass_l1l2"/>
          <Output Type="Variable" Label="mass_b1b2" Expression="mass_b1b2"/>
          <Output Type="Variable" Label="mass_trans" Expression="mass_trans"/>
          <Output Type="Variable" Label="MT2" Expression="MT2"/>
          <Output Type="Variable" Label="pt_b1b2" Expression="pt_b1b2"/>
        </Output>
      </Selection>
      <Class ClassIndex="0">
        <Ranges>
          <Range Index="0" Min="8.8339641690254211e-02" Max="3.2744896411895752e+00"/>
          <Range Index="1" Min="3.8474029302597046e-01" Max="4.9785656929016113e+00"/>
          <Range Index="2" Min="4.2588865756988525e-01" Max="4.5863165855407715e+00"/>
          <Range Index="3" Min="2.0580179989337921e-01" Max="5.6461782455444336e+00"/>
          <Range Index="4" Min="4.0562251210212708e-01" Max="3.1851036548614502e+00"/>
          <Range Index="5" Min="9.8062213510274887e-03" Max="3.1410224437713623e+00"/>
          <Range Index="6" Min="5.1002573966979980e+00" Max="8.7980239868164062e+01"/>
          <Range Index="7" Min="2.2188550949096680e+01" Max="6.2711621093750000e+02"/>
          <Range Index="8" Min="1.0285738855600357e-01" Max="2.4899935913085938e+02"/>
          <Range Index="9" Min="4.9399078369140625e+01" Max="3.9259194946289062e+02"/>
          <Range Index="10" Min="2.3259863853454590e+00" Max="2.7849746704101562e+02"/>
        </Ranges>
      </Class>
      <Class ClassIndex="1">
        <Ranges>
          <Range Index="0" Min="7.0645935833454132e-02" Max="3.2999532222747803e+00"/>
          <Range Index="1" Min="3.7387904524803162e-01" Max="4.9981708526611328e+00"/>
          <Range Index="2" Min="4.0001416206359863e-01" Max="4.9943261146545410e+00"/>
          <Range Index="3" Min="4.4224383309483528e-03" Max="5.9909644126892090e+00"/>
          <Range Index="4" Min="4.0001416206359863e-01" Max="3.1999101638793945e+00"/>
          <Range Index="5" Min="1.3856365512765478e-05" Max="3.1415922641754150e+00"/>
          <Range Index="6" Min="5.0075163841247559e+00" Max="9.9999855041503906e+01"/>
          <Range Index="7" Min="2.2000263214111328e+01" Max="6.9917364501953125e+02"/>
          <Range Index="8" Min="0.0000000000000000e+00" Max="2.4996704101562500e+02"/>
          <Range Index="9" Min="2.4634454727172852e+01" Max="3.9934973144531250e+02"/>
          <Range Index="10" Min="1.5075717866420746e-01" Max="2.9996340942382812e+02"/>
        </Ranges>
      </Class>
      <Class ClassIndex="2">
        <Ranges>
          <Range Index="0" Min="7.0645935833454132e-02" Max="3.2999532222747803e+00"/>
          <Range Index="1" Min="3.7387904524803162e-01" Max="4.9981708526611328e+00"/>
          <Range Index="2" Min="4.0001416206359863e-01" Max="4.9943261146545410e+00"/>
          <Range Index="3" Min="4.4224383309483528e-03" Max="5.9909644126892090e+00"/>
          <Range Index="4" Min="4.0001416206359863e-01" Max="3.1999101638793945e+00"/>
          <Range Index="5" Min="1.3856365512765478e-05" Max="3.1415922641754150e+00"/>
          <Range Index="6" Min="5.0075163841247559e+00" Max="9.9999855041503906e+01"/>
          <Range Index="7" Min="2.2000263214111328e+01" Max="6.9917364501953125e+02"/>
          <Range Index="8" Min="0.0000000000000000e+00" Max="2.4996704101562500e+02"/>
          <Range Index="9" Min="2.4634454727172852e+01" Max="3.9934973144531250e+02"/>
          <Range Index="10" Min="1.5075717866420746e-01" Max="2.9996340942382812e+02"/>
        </Ranges>
      </Class>
    </Transform>
  </Transformations>
  <MVAPdfs/>
  <Weights>
    <Layout NLayers="3">
      <Layer Index="0" NNeurons="12">
        <Neuron NSynapses="16">
          5.4698031987468576e-01 1.7637507078095740e+00 -1.3081542793339151e-01 1.6395357840700084e+00 -2.1379145624481728e+00 -1.6109838543819439e+00 1.1912915801764055e-01 9.0945855186621616e-01 -5.2861289366965847e-01 -4.4893678185430752e-01 -1.8596152930045371e+00 -5.1419413787208623e-01 -1.2288414660041205e+00 -2.8334260903160108e-01 5.3352283550082924e-01 3.5970437356147955e-01 
        </Neuron>
        <Neuron NSynapses="16">
          1.0447339983913551e-01 1.8297137216372334e+00 -6.5380103888393970e+00 1.2598512039870529e+00 -6.4479192741633684e-01 -1.6610378987394165e+00 6.5106447705454693e+00 -2.6630142715740635e-01 -1.3980207743358262e+00 -7.9859545283108024e-01 1.5112289532981995e+00 -1.2718412769712437e+00 -1.1857620600549612e+00 3.2390293796396835e-01 -7.9161566970270303e-01 2.4451341695547528e+00 
        </Neuron>
        <Neuron NSynapses="16">
          -3.1307427767452839e-01 -6.3804004896989441e-01 5.0905318102210051e-01 -2.4591575593044787e-01 -1.6587323117403536e+00 1.6771449783209411e+00 -5.1048686179502045e-01 9.5833965986937975e-01 1.3185612663358148e+00 4.5972636815094103e-01 1.2495777280176976e+00 5.8765833790607280e-01 -5.9391307152223416e-01 -1.4935659635675473e+00 5.4164848295470880e-01 -7.0697373616616654e-01 
        </Neuron>
        <Neuron NSynapses="16">
          2.0311312169143276e+00 9.2587501520129745e-01 1.6451931521349157e+00 1.3886379373320870e+00 -1.6197800629487873e+00 1.2026834981213645e+00 -1.6413426950926859e+00 -5.4193082122315717e-01 -5.1293966867094121e-01 -6.1928088504810630e-01 2.0118288693594510e+00 4.3631388220423351e-01 -4.9295128125193755e-01 1.2353269140920274e-01 1.0222145033565948e+00 1.0230294377824909e+00 
        </Neuron>
        <Neuron NSynapses="16">
          4.2444270026140352e-01 -3.1357459472065469e-01 5.2227754914550291e-02 -9.6710654130296370e-01 3.3803300245264073e-01 2.6615104028574473e-02 -5.0050785611123562e-02 -8.5135986910269756e-01 -4.4775274163396867e-01 1.0705714239284592e+00 1.0500868566742294e+00 -2.0763610260042573e-01 -1.8324699872331891e+00 -1.9542414953108798e+00 9.5332572956665890e-02 -6.5300419844503549e-02 
        </Neuron>
        <Neuron NSynapses="16">
          3.9470626867990932e-01 -2.9120921331574307e-01 -1.0002001555836109e+00 -5.8147918882373328e-01 -4.9221262462390697e-01 4.7229767409157958e-01 1.0127223718612841e+00 -1.4164214439238505e+00 -7.6059984254008595e-01 1.0133498880468832e-01 -4.5844092646236428e-01 -2.6484076444700438e-01 1.5651649969467984e+00 -1.8407586832379872e+00 4.5044311934432291e-01 9.9047334577369239e-01 
        </Neuron>
        <Neuron NSynapses="16">
          -4.2715114750868832e-01 -1.4999313529898524e+00 1.1430772116425250e-01 1.2447429530621067e-01 -1.7926994235944773e+00 -1.4563570096907290e+00 -1.4781832666331010e-01 1.4351649325053242e+00 -7.4040456345039307e-01 3.1749605768125244e+00 -1.6842056415045819e+00 -2.4410011053566830e-01 -2.4218444525452303e+00 3.0912106760415242e-01 -2.3718230052841887e+00 4.1974951100890601e-01 
        </Neuron>
        <Neuron NSynapses="16">
          5.6251485344497953e-01 9.7799155714075425e-01 -6.9582172079331013e+00 1.7982795678959183e+00 -8.7442912388528780e-03 -1.2853244463567768e+00 7.0108771065642062e+00 -9.2172098793715451e-01 -2.0906589082622027e+00 -3.6610226134795693e-01 -1.1963736607504893e-01 1.7121694912238246e+00 1.2420026105384998e+00 -1.8835250917521523e-01 -2.6558138558432218e+00 7.5982338091284551e-01 
        </Neuron>
        <Neuron NSynapses="16">
          -3.9800150455789192e+00 1.3441377553016340e+00 -6.8769839615817396e-01 -2.1190648383797064e+00 4.4630705862131836e-01 -1.5527239809014808e+00 6.6669141790068587e-01 2.2169137283881359e+00 2.4688018812957808e+00 -3.9251773670793586e+00 1.6735810647117791e-01 1.5517462052335877e+00 1.0952141311940622e+00 2.1868967199495234e-01 -1.5507762982944839e+00 -1.2196064366910799e+00 
        </Neuron>
        <Neuron NSynapses="16">
          -1.2264296203999927e+00 1.3976969201917422e+00 3.0399127358544478e+00 -3.3111963237147685e-01 -4.2125570412694402e-01 4.6188286873931145e-01 -3.0376707506309653e+00 8.2766015718094232e-01 1.8952871045133801e+00 -6.8250780833515912e-01 -3.0511531776343342e-01 4.2015184057724447e-01 1.3017202044647649e+00 2.5796063860242197e-01 1.0761016646665562e+00 -1.6852219146738798e+00 
        </Neuron>
        <Neuron NSynapses="16">
          1.2127482007419388e+00 3.6933641093587422e-01 -2.4130117114455159e+00 8.7867590288566255e-01 1.0195436053545726e+00 2.6201351486862656e-01 2.3936199861012524e+00 1.1083416133635207e+00 -1.3251452673887072e+00 -1.2583004019377380e+00 1.2564890786982352e+00 1.0571091587101182e+00 -5.9261461314187525e-01 1.0976344948985048e+00 1.3361688931167792e+00 -1.6819970056879252e+00 
        </Neuron>
        <Neuron NSynapses="16">
          6.8513506478301500e-01 -6.1018082483450020e-01 -6.6271145104678491e+00 -1.7208359636702242e+00 -1.0391944193219804e+00 -1.4911779265896838e-01 6.6707537339076142e+00 -2.3282503072113307e+00 -1.2931696158992223e-01 5.5498786055047911e-01 -8.3062923214249373e-01 1.6346405984618309e+00 -1.2321800730299575e+00 -1.7479141509614313e-01 -1.8924813814463635e+00 7.9476396295378615e-01 
        </Neuron>
      </Layer>
      <Layer Index="1" NNeurons="17">
        <Neuron NSynapses="1">
          9.2988256863309592e-03 
        </Neuron>
        <Neuron NSynapses="1">
          5.4474327993495738e-03 
        </Neuron>
        <Neuron NSynapses="1">
          1.8527870950087952e+00 
        </Neuron>
        <Neuron NSynapses="1">
          -1.2487431338717412e-03 
        </Neuron>
        <Neuron NSynapses="1">
          2.3521745050764831e-03 
        </Neuron>
        <Neuron NSynapses="1">
          -7.4076283453600109e-03 
        </Neuron>
        <Neuron NSynapses="1">
          1.8541523153474930e+00 
        </Neuron>
        <Neuron NSynapses="1">
          9.8354433367726524e-03 
        </Neuron>
        <Neuron NSynapses="1">
          9.4795379785653361e-03 
        </Neuron>
        <Neuron NSynapses="1">
          1.0944668051871867e-02 
        </Neuron>
        <Neuron NSynapses="1">
          6.6237001508857455e-03 
        </Neuron>
        <Neuron NSynapses="1">
          1.2440028391708998e-03 
        </Neuron>
        <Neuron NSynapses="1">
          8.1923682061861083e-03 
        </Neuron>
        <Neuron NSynapses="1">
          -1.1335452244500524e-03 
        </Neuron>
        <Neuron NSynapses="1">
          9.7387514723499199e-03 
        </Neuron>
        <Neuron NSynapses="1">
          5.8723718841501597e-03 
        </Neuron>
        <Neuron NSynapses="1">
          1.8172147144118488e-02 
        </Neuron>
      </Layer>
      <Layer Index="2" NNeurons="1">
        <Neuron NSynapses="0"/>
      </Layer>
    </Layout>
  </Weights>
</MethodSetup>
