<?xml version="1.0"?>
<MethodSetup Method="MLP::MLP">
  <GeneralInfo>
    <Info name="TMVA Release" value="4.1.2 [262402]"/>
    <Info name="ROOT Release" value="5.32/04 [335876]"/>
    <Info name="Creator" value="lpernie"/>
    <Info name="Date" value="Tue Nov 10 20:17:39 2015"/>
    <Info name="Host" value="Linux login01.brazos.tamu.edu 2.6.32-431.23.3.el6.x86_64 #1 SMP Thu Jul 31 17:20:51 UTC 2014 x86_64 x86_64 x86_64 GNU/Linux"/>
    <Info name="Dir" value="/home/lpernie/Hhh/delphes/diHiggs/MVAs"/>
    <Info name="Training events" value="44428"/>
    <Info name="TrainingTime" value="2.95837326e+02"/>
    <Info name="AnalysisType" value="Classification"/>
  </GeneralInfo>
  <Options>
    <Option name="NCycles" modified="Yes">600</Option>
    <Option name="HiddenLayers" modified="Yes">N+5</Option>
    <Option name="NeuronType" modified="Yes">tanh</Option>
    <Option name="RandomSeed" modified="No">1</Option>
    <Option name="EstimatorType" modified="No">MSE</Option>
    <Option name="NeuronInputType" modified="No">sum</Option>
    <Option name="V" modified="Yes">False</Option>
    <Option name="VerbosityLevel" modified="No">Default</Option>
    <Option name="VarTransform" modified="Yes">N</Option>
    <Option name="H" modified="Yes">True</Option>
    <Option name="CreateMVAPdfs" modified="No">False</Option>
    <Option name="IgnoreNegWeightsInTraining" modified="No">False</Option>
    <Option name="TrainingMethod" modified="No">BP</Option>
    <Option name="LearningRate" modified="No">2.000000e-02</Option>
    <Option name="DecayRate" modified="No">1.000000e-02</Option>
    <Option name="TestRate" modified="Yes">5</Option>
    <Option name="EpochMonitoring" modified="No">False</Option>
    <Option name="Sampling" modified="No">1.000000e+00</Option>
    <Option name="SamplingEpoch" modified="No">1.000000e+00</Option>
    <Option name="SamplingImportance" modified="No">1.000000e+00</Option>
    <Option name="SamplingTraining" modified="No">True</Option>
    <Option name="SamplingTesting" modified="No">False</Option>
    <Option name="ResetStep" modified="No">50</Option>
    <Option name="Tau" modified="No">3.000000e+00</Option>
    <Option name="BPMode" modified="No">sequential</Option>
    <Option name="BatchSize" modified="No">-1</Option>
    <Option name="ConvergenceImprove" modified="No">1.000000e-30</Option>
    <Option name="ConvergenceTests" modified="No">-1</Option>
    <Option name="UseRegulator" modified="Yes">False</Option>
    <Option name="UpdateLimit" modified="No">10000</Option>
    <Option name="CalculateErrors" modified="No">False</Option>
    <Option name="WeightRange" modified="No">1.000000e+00</Option>
  </Options>
  <Variables NVar="5">
    <Variable VarIndex="0" Expression="dR_l1l2" Label="dR_l1l2" Title="dR_l1l2" Unit="" Internal="dR_l1l2" Type="F" Min="3.00001949e-01" Max="2.49997854e+00"/>
    <Variable VarIndex="1" Expression="dR_b1b2" Label="dR_b1b2" Title="dR_b1b2" Unit="" Internal="dR_b1b2" Type="F" Min="1.00007761e+00" Max="4.82675076e+00"/>
    <Variable VarIndex="2" Expression="dR_bl" Label="dR_bl" Title="dR_bl" Unit="" Internal="dR_bl" Type="F" Min="1.00007093e+00" Max="5.39849567e+00"/>
    <Variable VarIndex="3" Expression="mass_l1l2" Label="mass_l1l2" Title="mass_l1l2" Unit="" Internal="mass_l1l2" Type="F" Min="3.45509362e+00" Max="8.99999390e+01"/>
    <Variable VarIndex="4" Expression="mass_b1b2" Label="mass_b1b2" Title="mass_b1b2" Unit="" Internal="mass_b1b2" Type="F" Min="5.00345001e+01" Max="2.99948944e+02"/>
  </Variables>
  <Spectators NSpec="0"/>
  <Classes NClass="2">
    <Class Name="Signal" Index="0"/>
    <Class Name="Background" Index="1"/>
  </Classes>
  <Transformations NTransformations="1">
    <Transform Name="Normalize">
      <Selection>
        <Input NInputs="5">
          <Input Type="Variable" Label="dR_l1l2" Expression="dR_l1l2"/>
          <Input Type="Variable" Label="dR_b1b2" Expression="dR_b1b2"/>
          <Input Type="Variable" Label="dR_bl" Expression="dR_bl"/>
          <Input Type="Variable" Label="mass_l1l2" Expression="mass_l1l2"/>
          <Input Type="Variable" Label="mass_b1b2" Expression="mass_b1b2"/>
        </Input>
        <Output NOutputs="5">
          <Output Type="Variable" Label="dR_l1l2" Expression="dR_l1l2"/>
          <Output Type="Variable" Label="dR_b1b2" Expression="dR_b1b2"/>
          <Output Type="Variable" Label="dR_bl" Expression="dR_bl"/>
          <Output Type="Variable" Label="mass_l1l2" Expression="mass_l1l2"/>
          <Output Type="Variable" Label="mass_b1b2" Expression="mass_b1b2"/>
        </Output>
      </Selection>
      <Class ClassIndex="0">
        <Ranges>
          <Range Index="0" Min="3.0072775483131409e-01" Max="2.4949483871459961e+00"/>
          <Range Index="1" Min="1.0007278919219971e+00" Max="3.6749927997589111e+00"/>
          <Range Index="2" Min="1.0002186298370361e+00" Max="4.3104233741760254e+00"/>
          <Range Index="3" Min="6.6044411659240723e+00" Max="8.2677246093750000e+01"/>
          <Range Index="4" Min="5.1627258300781250e+01" Max="2.8673693847656250e+02"/>
        </Ranges>
      </Class>
      <Class ClassIndex="1">
        <Ranges>
          <Range Index="0" Min="3.0000194907188416e-01" Max="2.4999785423278809e+00"/>
          <Range Index="1" Min="1.0000776052474976e+00" Max="4.8267507553100586e+00"/>
          <Range Index="2" Min="1.0000709295272827e+00" Max="5.3984956741333008e+00"/>
          <Range Index="3" Min="3.4550936222076416e+00" Max="8.9999938964843750e+01"/>
          <Range Index="4" Min="5.0034500122070312e+01" Max="2.9994894409179688e+02"/>
        </Ranges>
      </Class>
      <Class ClassIndex="2">
        <Ranges>
          <Range Index="0" Min="3.0000194907188416e-01" Max="2.4999785423278809e+00"/>
          <Range Index="1" Min="1.0000776052474976e+00" Max="4.8267507553100586e+00"/>
          <Range Index="2" Min="1.0000709295272827e+00" Max="5.3984956741333008e+00"/>
          <Range Index="3" Min="3.4550936222076416e+00" Max="8.9999938964843750e+01"/>
          <Range Index="4" Min="5.0034500122070312e+01" Max="2.9994894409179688e+02"/>
        </Ranges>
      </Class>
    </Transform>
  </Transformations>
  <MVAPdfs/>
  <Weights>
    <Layout NLayers="3">
      <Layer Index="0" NNeurons="6">
        <Neuron NSynapses="10">
          -9.4768437988915044e-02 1.2524536777589126e+00 3.5396130000990594e-01 3.4092657670288629e-02 -1.1766379416316162e+00 -4.4940415859451582e-01 -5.8371253368790454e-02 8.2937475375150205e-01 5.8693980837736126e-01 -1.0932888607622951e-01 
        </Neuron>
        <Neuron NSynapses="10">
          -4.7058852760310693e-01 -2.3791773543260904e-02 -1.2944314396580783e+00 9.6101392785949502e-01 -5.7291513780750947e-01 -8.8184689834281516e-02 -7.3769655398433787e-01 5.6713002968904458e-01 1.3823596171558574e+00 1.3054204936478184e+00 
        </Neuron>
        <Neuron NSynapses="10">
          2.4231118626232523e-01 -3.2835544834411751e-01 -8.2179346436686479e-02 -2.2374856802476806e-01 7.7373449909353276e-01 -2.8544947601932918e-01 8.5771366289743700e-01 -1.8461726840120878e+00 -1.3009843197283186e+00 -4.1967639059460826e-01 
        </Neuron>
        <Neuron NSynapses="10">
          3.3716990972876576e-01 1.0312451509133420e+00 -4.2570306800847685e-01 -2.1417311238508321e-01 1.2059673279211676e+00 -1.7587092982270308e-01 -6.5193356906493327e-01 9.7671845203047913e-01 -1.2007663841909237e+00 4.9418486390044747e-01 
        </Neuron>
        <Neuron NSynapses="10">
          1.6192000115184464e+00 8.9180434474080184e-01 1.0295093725814135e+00 5.0132221814600069e+00 -1.6401936175352574e+00 -1.0206858849888740e+00 4.4436807692034380e-01 -8.3225143256090306e-01 1.1470989354639469e+00 4.0768543570696050e+00 
        </Neuron>
        <Neuron NSynapses="10">
          8.2631767057212413e-01 1.1833978298265713e+00 -2.1640437759152101e-01 2.9484080401920911e+00 -1.4568744214048701e+00 -1.3680496304438681e+00 -2.7076323669554797e-01 7.4968890897471874e-01 1.7076214750772338e+00 2.1543239140067869e+00 
        </Neuron>
      </Layer>
      <Layer Index="1" NNeurons="11">
        <Neuron NSynapses="1">
          -8.7025320783271340e-02 
        </Neuron>
        <Neuron NSynapses="1">
          -8.0994941755422031e-02 
        </Neuron>
        <Neuron NSynapses="1">
          1.7153760402991474e-02 
        </Neuron>
        <Neuron NSynapses="1">
          4.1054192476547752e-01 
        </Neuron>
        <Neuron NSynapses="1">
          2.4497999771482118e-01 
        </Neuron>
        <Neuron NSynapses="1">
          -3.7421297897010797e-01 
        </Neuron>
        <Neuron NSynapses="1">
          3.9600876458132386e-02 
        </Neuron>
        <Neuron NSynapses="1">
          4.3719584430516663e-02 
        </Neuron>
        <Neuron NSynapses="1">
          2.3200243832646794e-01 
        </Neuron>
        <Neuron NSynapses="1">
          -4.4696569335796316e-01 
        </Neuron>
        <Neuron NSynapses="1">
          -1.7134757687951396e-01 
        </Neuron>
      </Layer>
      <Layer Index="2" NNeurons="1">
        <Neuron NSynapses="0"/>
      </Layer>
    </Layout>
  </Weights>
</MethodSetup>
