<?xml version="1.0"?>
<MethodSetup Method="MLP::MLP">
  <GeneralInfo>
    <Info name="TMVA Release" value="4.1.2 [262402]"/>
    <Info name="ROOT Release" value="5.32/04 [335876]"/>
    <Info name="Creator" value="lpernie"/>
    <Info name="Date" value="Fri Jul 15 14:32:21 2016"/>
    <Info name="Host" value="Linux login01.brazos.tamu.edu 2.6.32-431.23.3.el6.x86_64 #1 SMP Thu Jul 31 17:20:51 UTC 2014 x86_64 x86_64 x86_64 GNU/Linux"/>
    <Info name="Dir" value="/home/lpernie/Hhh/delphes/diHiggs/MVAs"/>
    <Info name="Training events" value="192264"/>
    <Info name="TrainingTime" value="2.32585536e+03"/>
    <Info name="AnalysisType" value="Classification"/>
  </GeneralInfo>
  <Options>
    <Option name="NCycles" modified="Yes">600</Option>
    <Option name="HiddenLayers" modified="Yes">N+5</Option>
    <Option name="NeuronType" modified="Yes">tanh</Option>
    <Option name="RandomSeed" modified="No">1</Option>
    <Option name="EstimatorType" modified="No">MSE</Option>
    <Option name="NeuronInputType" modified="No">sum</Option>
    <Option name="V" modified="Yes">False</Option>
    <Option name="VerbosityLevel" modified="No">Default</Option>
    <Option name="VarTransform" modified="Yes">N</Option>
    <Option name="H" modified="Yes">True</Option>
    <Option name="CreateMVAPdfs" modified="No">False</Option>
    <Option name="IgnoreNegWeightsInTraining" modified="No">False</Option>
    <Option name="TrainingMethod" modified="No">BP</Option>
    <Option name="LearningRate" modified="No">2.000000e-02</Option>
    <Option name="DecayRate" modified="No">1.000000e-02</Option>
    <Option name="TestRate" modified="Yes">5</Option>
    <Option name="EpochMonitoring" modified="No">False</Option>
    <Option name="Sampling" modified="No">1.000000e+00</Option>
    <Option name="SamplingEpoch" modified="No">1.000000e+00</Option>
    <Option name="SamplingImportance" modified="No">1.000000e+00</Option>
    <Option name="SamplingTraining" modified="No">True</Option>
    <Option name="SamplingTesting" modified="No">False</Option>
    <Option name="ResetStep" modified="No">50</Option>
    <Option name="Tau" modified="No">3.000000e+00</Option>
    <Option name="BPMode" modified="No">sequential</Option>
    <Option name="BatchSize" modified="No">-1</Option>
    <Option name="ConvergenceImprove" modified="No">1.000000e-30</Option>
    <Option name="ConvergenceTests" modified="No">-1</Option>
    <Option name="UseRegulator" modified="Yes">False</Option>
    <Option name="UpdateLimit" modified="No">10000</Option>
    <Option name="CalculateErrors" modified="No">False</Option>
    <Option name="WeightRange" modified="No">1.000000e+00</Option>
  </Options>
  <Variables NVar="11">
    <Variable VarIndex="0" Expression="dR_l1l2" Label="dR_l1l2" Title="dR_l1l2" Unit="" Internal="dR_l1l2" Type="F" Min="7.04806447e-02" Max="3.29987288e+00"/>
    <Variable VarIndex="1" Expression="dR_b1b2" Label="dR_b1b2" Title="dR_b1b2" Unit="" Internal="dR_b1b2" Type="F" Min="3.83513451e-01" Max="4.99538565e+00"/>
    <Variable VarIndex="2" Expression="dR_bl" Label="dR_bl" Title="dR_bl" Unit="" Internal="dR_bl" Type="F" Min="4.00014162e-01" Max="4.98474646e+00"/>
    <Variable VarIndex="3" Expression="dR_l1l2b1b2" Label="dR_l1l2b1b2" Title="dR_l1l2b1b2" Unit="" Internal="dR_l1l2b1b2" Type="F" Min="5.75727969e-03" Max="5.99961948e+00"/>
    <Variable VarIndex="4" Expression="MINdR_bl" Label="MINdR_bl" Title="MINdR_bl" Unit="" Internal="MINdR_bl" Type="F" Min="4.00001377e-01" Max="3.19977164e+00"/>
    <Variable VarIndex="5" Expression="dphi_l1l2b1b2" Label="dphi_l1l2b1b2" Title="dphi_l1l2b1b2" Unit="" Internal="dphi_l1l2b1b2" Type="F" Min="1.97242207e-05" Max="3.14158869e+00"/>
    <Variable VarIndex="6" Expression="mass_l1l2" Label="mass_l1l2" Title="mass_l1l2" Unit="" Internal="mass_l1l2" Type="F" Min="5.00372505e+00" Max="9.99994965e+01"/>
    <Variable VarIndex="7" Expression="mass_b1b2" Label="mass_b1b2" Title="mass_b1b2" Unit="" Internal="mass_b1b2" Type="F" Min="2.22296066e+01" Max="6.99396729e+02"/>
    <Variable VarIndex="8" Expression="mass_trans" Label="mass_trans" Title="mass_trans" Unit="" Internal="mass_trans" Type="F" Min="0.00000000e+00" Max="2.49991043e+02"/>
    <Variable VarIndex="9" Expression="MT2" Label="MT2" Title="MT2" Unit="" Internal="MT2" Type="F" Min="2.45720634e+01" Max="3.99818787e+02"/>
    <Variable VarIndex="10" Expression="pt_b1b2" Label="pt_b1b2" Title="pt_b1b2" Unit="" Internal="pt_b1b2" Type="F" Min="3.26862246e-01" Max="2.99945465e+02"/>
  </Variables>
  <Spectators NSpec="0"/>
  <Classes NClass="2">
    <Class Name="Signal" Index="0"/>
    <Class Name="Background" Index="1"/>
  </Classes>
  <Transformations NTransformations="1">
    <Transform Name="Normalize">
      <Selection>
        <Input NInputs="11">
          <Input Type="Variable" Label="dR_l1l2" Expression="dR_l1l2"/>
          <Input Type="Variable" Label="dR_b1b2" Expression="dR_b1b2"/>
          <Input Type="Variable" Label="dR_bl" Expression="dR_bl"/>
          <Input Type="Variable" Label="dR_l1l2b1b2" Expression="dR_l1l2b1b2"/>
          <Input Type="Variable" Label="MINdR_bl" Expression="MINdR_bl"/>
          <Input Type="Variable" Label="dphi_l1l2b1b2" Expression="dphi_l1l2b1b2"/>
          <Input Type="Variable" Label="mass_l1l2" Expression="mass_l1l2"/>
          <Input Type="Variable" Label="mass_b1b2" Expression="mass_b1b2"/>
          <Input Type="Variable" Label="mass_trans" Expression="mass_trans"/>
          <Input Type="Variable" Label="MT2" Expression="MT2"/>
          <Input Type="Variable" Label="pt_b1b2" Expression="pt_b1b2"/>
        </Input>
        <Output NOutputs="11">
          <Output Type="Variable" Label="dR_l1l2" Expression="dR_l1l2"/>
          <Output Type="Variable" Label="dR_b1b2" Expression="dR_b1b2"/>
          <Output Type="Variable" Label="dR_bl" Expression="dR_bl"/>
          <Output Type="Variable" Label="dR_l1l2b1b2" Expression="dR_l1l2b1b2"/>
          <Output Type="Variable" Label="MINdR_bl" Expression="MINdR_bl"/>
          <Output Type="Variable" Label="dphi_l1l2b1b2" Expression="dphi_l1l2b1b2"/>
          <Output Type="Variable" Label="mass_l1l2" Expression="mass_l1l2"/>
          <Output Type="Variable" Label="mass_b1b2" Expression="mass_b1b2"/>
          <Output Type="Variable" Label="mass_trans" Expression="mass_trans"/>
          <Output Type="Variable" Label="MT2" Expression="MT2"/>
          <Output Type="Variable" Label="pt_b1b2" Expression="pt_b1b2"/>
        </Output>
      </Selection>
      <Class ClassIndex="0">
        <Ranges>
          <Range Index="0" Min="7.0480644702911377e-02" Max="3.1723213195800781e+00"/>
          <Range Index="1" Min="4.0469455718994141e-01" Max="4.9693708419799805e+00"/>
          <Range Index="2" Min="4.1849428415298462e-01" Max="4.8081569671630859e+00"/>
          <Range Index="3" Min="2.9841479659080505e-01" Max="5.8733496665954590e+00"/>
          <Range Index="4" Min="4.1849428415298462e-01" Max="3.1997716426849365e+00"/>
          <Range Index="5" Min="1.2875048443675041e-02" Max="3.1414291858673096e+00"/>
          <Range Index="6" Min="5.0330572128295898e+00" Max="9.2976593017578125e+01"/>
          <Range Index="7" Min="2.2550497055053711e+01" Max="6.9558648681640625e+02"/>
          <Range Index="8" Min="0.0000000000000000e+00" Max="2.4900408935546875e+02"/>
          <Range Index="9" Min="4.2385044097900391e+01" Max="3.9809634399414062e+02"/>
          <Range Index="10" Min="3.8488311767578125e+00" Max="2.9994546508789062e+02"/>
        </Ranges>
      </Class>
      <Class ClassIndex="1">
        <Ranges>
          <Range Index="0" Min="7.0645935833454132e-02" Max="3.2998728752136230e+00"/>
          <Range Index="1" Min="3.8351345062255859e-01" Max="4.9953856468200684e+00"/>
          <Range Index="2" Min="4.0001416206359863e-01" Max="4.9847464561462402e+00"/>
          <Range Index="3" Min="5.7572796940803528e-03" Max="5.9996194839477539e+00"/>
          <Range Index="4" Min="4.0000137686729431e-01" Max="3.1989252567291260e+00"/>
          <Range Index="5" Min="1.9724220692296512e-05" Max="3.1415886878967285e+00"/>
          <Range Index="6" Min="5.0037250518798828e+00" Max="9.9999496459960938e+01"/>
          <Range Index="7" Min="2.2229606628417969e+01" Max="6.9939672851562500e+02"/>
          <Range Index="8" Min="0.0000000000000000e+00" Max="2.4999104309082031e+02"/>
          <Range Index="9" Min="2.4572063446044922e+01" Max="3.9981878662109375e+02"/>
          <Range Index="10" Min="3.2686224579811096e-01" Max="2.9981753540039062e+02"/>
        </Ranges>
      </Class>
      <Class ClassIndex="2">
        <Ranges>
          <Range Index="0" Min="7.0480644702911377e-02" Max="3.2998728752136230e+00"/>
          <Range Index="1" Min="3.8351345062255859e-01" Max="4.9953856468200684e+00"/>
          <Range Index="2" Min="4.0001416206359863e-01" Max="4.9847464561462402e+00"/>
          <Range Index="3" Min="5.7572796940803528e-03" Max="5.9996194839477539e+00"/>
          <Range Index="4" Min="4.0000137686729431e-01" Max="3.1997716426849365e+00"/>
          <Range Index="5" Min="1.9724220692296512e-05" Max="3.1415886878967285e+00"/>
          <Range Index="6" Min="5.0037250518798828e+00" Max="9.9999496459960938e+01"/>
          <Range Index="7" Min="2.2229606628417969e+01" Max="6.9939672851562500e+02"/>
          <Range Index="8" Min="0.0000000000000000e+00" Max="2.4999104309082031e+02"/>
          <Range Index="9" Min="2.4572063446044922e+01" Max="3.9981878662109375e+02"/>
          <Range Index="10" Min="3.2686224579811096e-01" Max="2.9994546508789062e+02"/>
        </Ranges>
      </Class>
    </Transform>
  </Transformations>
  <MVAPdfs/>
  <Weights>
    <Layout NLayers="3">
      <Layer Index="0" NNeurons="12">
        <Neuron NSynapses="16">
          -6.7062780129668709e-01 8.2484809217405905e-02 -4.4871898445319741e-01 1.1043824299440597e+00 -1.7176454186159238e+00 -1.1196181149149378e+00 8.4815830148881344e-01 1.2280184958580957e+00 -7.7506657913761001e-01 -1.2258550826672092e+00 -9.8812445305187091e-01 -1.3128246585622597e-01 -8.0890471502734185e-01 -6.6598974076771600e-01 1.7338903253721347e-01 5.3527932122924271e-01 
        </Neuron>
        <Neuron NSynapses="16">
          -8.4454381168177584e-01 9.5772792370001802e-01 7.1566414499829234e-01 1.3298473958288082e+00 -3.8751009780220758e-01 -5.2931310791998754e-01 -9.5101059248467623e-02 -1.1773026242786473e-01 -1.0404032520278628e+00 -2.4251418918398826e-01 1.5464789783279358e+00 -9.9408291317022801e-01 -1.3516017712255211e+00 3.4737856432050028e-03 5.8663688293596150e-01 1.3457900594289403e+00 
        </Neuron>
        <Neuron NSynapses="16">
          -3.9776858122096931e-01 4.6482758680707925e-01 4.9327450196660283e-01 2.2157919096728446e-01 -9.6839928543854914e-01 1.7453178137064764e+00 4.3252646356024188e-01 7.4210763706453731e-01 1.4088036566967286e+00 9.0596088260566177e-01 1.6091849391376438e+00 7.2658083690012465e-01 1.8775778439560881e-01 -1.4512137121064994e+00 3.4214986684932774e-01 -4.3836472646471236e-01 
        </Neuron>
        <Neuron NSynapses="16">
          1.4895079422390984e+00 9.6034017965134266e-01 7.7408842010280021e-01 1.6959781751770462e+00 -1.3280779434123786e+00 1.2466611561029766e+00 -8.7264423258389945e-01 -1.0116962370294880e+00 -8.9366321889156530e-01 -1.7358858412265934e+00 1.4247344852458013e+00 8.4769182790916020e-01 -1.0583804461735093e+00 3.1239918428165470e-01 -3.4118614638693090e-01 1.7651030321244532e-01 
        </Neuron>
        <Neuron NSynapses="16">
          1.2330722482228116e+00 -5.3709639815193833e-01 -1.2077253205841804e-01 -7.7426835110692449e-01 9.9702263566398086e-01 -7.5519735258241738e-01 -4.3335316546952030e-01 -1.8881581735001676e+00 9.4686777621315543e-01 8.1186091871768329e-01 1.0587428694176018e+00 8.1237371071168865e-02 -3.7057574238636604e-01 -1.6296122843428269e+00 7.9260645940011321e-01 -1.3979762223929804e-01 
        </Neuron>
        <Neuron NSynapses="16">
          -5.2792969450043203e-01 -8.3668207337041903e-02 -2.4590462317354841e-01 -5.1054625824687483e-01 -5.0091012964809167e-01 -7.9970270761796003e-01 -1.8394734616919817e-01 2.2327896298942707e-01 -1.3928350330464216e+00 -1.3017911885645645e+00 -1.0958536927342777e+00 -5.0239343114668078e-01 1.1814017476412815e+00 -6.2582722527827450e-01 -6.3357722573472808e-01 1.0776512657873343e+00 
        </Neuron>
        <Neuron NSynapses="16">
          -1.2928239487707673e+00 2.1578750380302745e-02 -7.5026926250346326e-01 -2.6636942744657055e-01 -1.3372265714089093e+00 -1.4676355438689266e+00 7.0368573638594667e-01 9.6902564650174561e-01 -8.5889507858187020e-01 1.2770221363639009e+00 -5.4182837845347442e-01 -5.2053425584214863e-01 -1.0581120860532400e-01 1.7461582240752577e-01 -1.2326889851725435e+00 2.1454770367664006e-01 
        </Neuron>
        <Neuron NSynapses="16">
          1.1574728038415607e+00 -9.5455841320483548e-01 -1.7753898746254766e+00 1.9756570321240654e+00 5.6139710760335526e-01 -4.9734095749335777e-01 4.9547689020184666e+00 -2.5677983669355298e+00 -6.1738825091060423e-01 -1.1211372621674429e-01 2.4662977662034155e-01 2.1287221324224288e+00 1.8305624189647463e+00 -1.0561775073597828e+00 -1.2892970277264337e-01 -1.7853331248863813e-01 
        </Neuron>
        <Neuron NSynapses="16">
          -5.8237763888010463e-01 -3.2170646758510682e-02 -8.0213924698532302e-01 -1.3341674831229620e+00 6.1357557781839023e-01 -1.4231152195937111e+00 7.1074557988003062e-01 3.1223934787780683e-01 1.5054302060034128e+00 -1.4800829644699294e+00 4.1598648318123771e-01 1.0806121305427219e+00 1.1127466063459155e+00 -1.2470728652783335e-01 -7.9710041993981118e-01 -1.9018947591787386e-01 
        </Neuron>
        <Neuron NSynapses="16">
          -6.4471866844213555e-01 2.3402450163229318e+00 3.7090296575445043e+00 8.3945715319507216e-02 -3.1429733394607515e-02 3.2251051931413754e-01 -3.3845888707297873e+00 -4.9743042207021110e-01 2.1988178036997410e+00 -7.1330593320627822e-01 -1.7985675628971987e-01 5.0353791668192416e-01 1.5948784854259275e+00 -2.1028654628241869e-01 7.6579969966292993e-01 -1.7859145988376468e+00 
        </Neuron>
        <Neuron NSynapses="16">
          8.9906070098146329e-01 5.9098307758172008e-01 5.5832429739217482e-01 9.2035771116091025e-01 1.2672879933692560e+00 -4.1280479390568697e-01 -1.2386658583149923e+00 -2.6800130451186777e-01 3.3425866592730065e-02 -6.8278108482001176e-01 1.8723630852465574e+00 8.9618179509212681e-01 1.9181906243865068e-01 5.9657373903152400e-01 1.9138785076810003e+00 -1.6172942096704306e+00 
        </Neuron>
        <Neuron NSynapses="16">
          -1.9944297070838068e+00 -1.9680378354348900e+00 -1.5506961590588417e+00 -2.1851685564905496e+00 -1.8720310771923345e+00 4.9894245158574185e-01 5.5292104677614953e+00 1.3319334162108660e+00 -1.4787924949057296e+00 -3.3559132059486456e-02 -1.0021494682835661e+00 2.0189033259817768e-01 -2.1241606799411938e+00 1.1065049208691340e+00 -2.1686613283815372e+00 1.6348415342518903e+00 
        </Neuron>
      </Layer>
      <Layer Index="1" NNeurons="17">
        <Neuron NSynapses="1">
          -1.4914425696738073e-01 
        </Neuron>
        <Neuron NSynapses="1">
          -2.6196271173979058e-01 
        </Neuron>
        <Neuron NSynapses="1">
          1.6189892997743366e-01 
        </Neuron>
        <Neuron NSynapses="1">
          1.3466909248861604e-02 
        </Neuron>
        <Neuron NSynapses="1">
          3.6810357530265739e-03 
        </Neuron>
        <Neuron NSynapses="1">
          -5.3070690816450826e-04 
        </Neuron>
        <Neuron NSynapses="1">
          -4.0189729629828136e-01 
        </Neuron>
        <Neuron NSynapses="1">
          -4.0496089701005038e-02 
        </Neuron>
        <Neuron NSynapses="1">
          -1.1403660363655015e-02 
        </Neuron>
        <Neuron NSynapses="1">
          5.8536794385702594e-05 
        </Neuron>
        <Neuron NSynapses="1">
          -1.4139293220655609e-02 
        </Neuron>
        <Neuron NSynapses="1">
          -1.3487739576611747e-02 
        </Neuron>
        <Neuron NSynapses="1">
          7.0118816969537465e-02 
        </Neuron>
        <Neuron NSynapses="1">
          2.3827558642823270e-03 
        </Neuron>
        <Neuron NSynapses="1">
          1.2852459370481642e-01 
        </Neuron>
        <Neuron NSynapses="1">
          2.6277786950223918e-02 
        </Neuron>
        <Neuron NSynapses="1">
          3.4167161832993165e-01 
        </Neuron>
      </Layer>
      <Layer Index="2" NNeurons="1">
        <Neuron NSynapses="0"/>
      </Layer>
    </Layout>
  </Weights>
</MethodSetup>
