<?xml version="1.0"?>
<MethodSetup Method="MLP::MLPBFGS">
  <GeneralInfo>
    <Info name="TMVA Release" value="4.1.2 [262402]"/>
    <Info name="ROOT Release" value="5.32/04 [335876]"/>
    <Info name="Creator" value="lpernie"/>
    <Info name="Date" value="Fri Jul  1 14:05:45 2016"/>
    <Info name="Host" value="Linux login01.brazos.tamu.edu 2.6.32-431.23.3.el6.x86_64 #1 SMP Thu Jul 31 17:20:51 UTC 2014 x86_64 x86_64 x86_64 GNU/Linux"/>
    <Info name="Dir" value="/home/lpernie/Hhh/delphes/diHiggs/MVAs"/>
    <Info name="Training events" value="225574"/>
    <Info name="TrainingTime" value="1.10554999e+04"/>
    <Info name="AnalysisType" value="Classification"/>
  </GeneralInfo>
  <Options>
    <Option name="NCycles" modified="Yes">600</Option>
    <Option name="HiddenLayers" modified="Yes">N+5</Option>
    <Option name="NeuronType" modified="Yes">tanh</Option>
    <Option name="RandomSeed" modified="No">1</Option>
    <Option name="EstimatorType" modified="No">MSE</Option>
    <Option name="NeuronInputType" modified="No">sum</Option>
    <Option name="V" modified="Yes">False</Option>
    <Option name="VerbosityLevel" modified="No">Default</Option>
    <Option name="VarTransform" modified="Yes">N</Option>
    <Option name="H" modified="Yes">True</Option>
    <Option name="CreateMVAPdfs" modified="No">False</Option>
    <Option name="IgnoreNegWeightsInTraining" modified="No">False</Option>
    <Option name="TrainingMethod" modified="Yes">BFGS</Option>
    <Option name="LearningRate" modified="No">2.000000e-02</Option>
    <Option name="DecayRate" modified="No">1.000000e-02</Option>
    <Option name="TestRate" modified="Yes">5</Option>
    <Option name="EpochMonitoring" modified="No">False</Option>
    <Option name="Sampling" modified="No">1.000000e+00</Option>
    <Option name="SamplingEpoch" modified="No">1.000000e+00</Option>
    <Option name="SamplingImportance" modified="No">1.000000e+00</Option>
    <Option name="SamplingTraining" modified="No">True</Option>
    <Option name="SamplingTesting" modified="No">False</Option>
    <Option name="ResetStep" modified="No">50</Option>
    <Option name="Tau" modified="No">3.000000e+00</Option>
    <Option name="BPMode" modified="No">sequential</Option>
    <Option name="BatchSize" modified="No">-1</Option>
    <Option name="ConvergenceImprove" modified="No">1.000000e-30</Option>
    <Option name="ConvergenceTests" modified="No">-1</Option>
    <Option name="UseRegulator" modified="Yes">False</Option>
    <Option name="UpdateLimit" modified="No">10000</Option>
    <Option name="CalculateErrors" modified="No">False</Option>
    <Option name="WeightRange" modified="No">1.000000e+00</Option>
  </Options>
  <Variables NVar="11">
    <Variable VarIndex="0" Expression="dR_l1l2" Label="dR_l1l2" Title="dR_l1l2" Unit="" Internal="dR_l1l2" Type="F" Min="7.08018541e-02" Max="3.29979062e+00"/>
    <Variable VarIndex="1" Expression="dR_b1b2" Label="dR_b1b2" Title="dR_b1b2" Unit="" Internal="dR_b1b2" Type="F" Min="3.78905237e-01" Max="4.99817085e+00"/>
    <Variable VarIndex="2" Expression="dR_bl" Label="dR_bl" Title="dR_bl" Unit="" Internal="dR_bl" Type="F" Min="4.00063813e-01" Max="4.98875952e+00"/>
    <Variable VarIndex="3" Expression="dR_l1l2b1b2" Label="dR_l1l2b1b2" Title="dR_l1l2b1b2" Unit="" Internal="dR_l1l2b1b2" Type="F" Min="5.75727969e-03" Max="5.99096441e+00"/>
    <Variable VarIndex="4" Expression="MINdR_bl" Label="MINdR_bl" Title="MINdR_bl" Unit="" Internal="MINdR_bl" Type="F" Min="4.00032073e-01" Max="3.19953227e+00"/>
    <Variable VarIndex="5" Expression="dphi_l1l2b1b2" Label="dphi_l1l2b1b2" Title="dphi_l1l2b1b2" Unit="" Internal="dphi_l1l2b1b2" Type="F" Min="1.38563655e-05" Max="3.14157867e+00"/>
    <Variable VarIndex="6" Expression="mass_l1l2" Label="mass_l1l2" Title="mass_l1l2" Unit="" Internal="mass_l1l2" Type="F" Min="5.00042486e+00" Max="9.99996948e+01"/>
    <Variable VarIndex="7" Expression="mass_b1b2" Label="mass_b1b2" Title="mass_b1b2" Unit="" Internal="mass_b1b2" Type="F" Min="2.20005798e+01" Max="6.99155945e+02"/>
    <Variable VarIndex="8" Expression="mass_trans" Label="mass_trans" Title="mass_trans" Unit="" Internal="mass_trans" Type="F" Min="0.00000000e+00" Max="2.49966309e+02"/>
    <Variable VarIndex="9" Expression="MT2" Label="MT2" Title="MT2" Unit="" Internal="MT2" Type="F" Min="2.46344547e+01" Max="3.99925476e+02"/>
    <Variable VarIndex="10" Expression="pt_b1b2" Label="pt_b1b2" Title="pt_b1b2" Unit="" Internal="pt_b1b2" Type="F" Min="3.07294339e-01" Max="2.99745605e+02"/>
  </Variables>
  <Spectators NSpec="0"/>
  <Classes NClass="2">
    <Class Name="Signal" Index="0"/>
    <Class Name="Background" Index="1"/>
  </Classes>
  <Transformations NTransformations="1">
    <Transform Name="Normalize">
      <Selection>
        <Input NInputs="11">
          <Input Type="Variable" Label="dR_l1l2" Expression="dR_l1l2"/>
          <Input Type="Variable" Label="dR_b1b2" Expression="dR_b1b2"/>
          <Input Type="Variable" Label="dR_bl" Expression="dR_bl"/>
          <Input Type="Variable" Label="dR_l1l2b1b2" Expression="dR_l1l2b1b2"/>
          <Input Type="Variable" Label="MINdR_bl" Expression="MINdR_bl"/>
          <Input Type="Variable" Label="dphi_l1l2b1b2" Expression="dphi_l1l2b1b2"/>
          <Input Type="Variable" Label="mass_l1l2" Expression="mass_l1l2"/>
          <Input Type="Variable" Label="mass_b1b2" Expression="mass_b1b2"/>
          <Input Type="Variable" Label="mass_trans" Expression="mass_trans"/>
          <Input Type="Variable" Label="MT2" Expression="MT2"/>
          <Input Type="Variable" Label="pt_b1b2" Expression="pt_b1b2"/>
        </Input>
        <Output NOutputs="11">
          <Output Type="Variable" Label="dR_l1l2" Expression="dR_l1l2"/>
          <Output Type="Variable" Label="dR_b1b2" Expression="dR_b1b2"/>
          <Output Type="Variable" Label="dR_bl" Expression="dR_bl"/>
          <Output Type="Variable" Label="dR_l1l2b1b2" Expression="dR_l1l2b1b2"/>
          <Output Type="Variable" Label="MINdR_bl" Expression="MINdR_bl"/>
          <Output Type="Variable" Label="dphi_l1l2b1b2" Expression="dphi_l1l2b1b2"/>
          <Output Type="Variable" Label="mass_l1l2" Expression="mass_l1l2"/>
          <Output Type="Variable" Label="mass_b1b2" Expression="mass_b1b2"/>
          <Output Type="Variable" Label="mass_trans" Expression="mass_trans"/>
          <Output Type="Variable" Label="MT2" Expression="MT2"/>
          <Output Type="Variable" Label="pt_b1b2" Expression="pt_b1b2"/>
        </Output>
      </Selection>
      <Class ClassIndex="0">
        <Ranges>
          <Range Index="0" Min="7.0801854133605957e-02" Max="3.2829017639160156e+00"/>
          <Range Index="1" Min="3.8661599159240723e-01" Max="4.7334032058715820e+00"/>
          <Range Index="2" Min="5.3402531147003174e-01" Max="4.7360100746154785e+00"/>
          <Range Index="3" Min="5.2458488941192627e-01" Max="5.8478937149047852e+00"/>
          <Range Index="4" Min="4.1051760315895081e-01" Max="3.1995322704315186e+00"/>
          <Range Index="5" Min="1.4147053472697735e-02" Max="3.1415786743164062e+00"/>
          <Range Index="6" Min="5.0312147140502930e+00" Max="9.8580055236816406e+01"/>
          <Range Index="7" Min="2.2098487854003906e+01" Max="6.9679376220703125e+02"/>
          <Range Index="8" Min="7.6198749244213104e-02" Max="2.4972308349609375e+02"/>
          <Range Index="9" Min="4.3672996520996094e+01" Max="3.9758816528320312e+02"/>
          <Range Index="10" Min="3.5826597213745117e+00" Max="2.9968579101562500e+02"/>
        </Ranges>
      </Class>
      <Class ClassIndex="1">
        <Ranges>
          <Range Index="0" Min="7.4289560317993164e-02" Max="3.2997906208038330e+00"/>
          <Range Index="1" Min="3.7890523672103882e-01" Max="4.9981708526611328e+00"/>
          <Range Index="2" Min="4.0006381273269653e-01" Max="4.9887595176696777e+00"/>
          <Range Index="3" Min="5.7572796940803528e-03" Max="5.9909644126892090e+00"/>
          <Range Index="4" Min="4.0003207325935364e-01" Max="3.1992781162261963e+00"/>
          <Range Index="5" Min="1.3856365512765478e-05" Max="3.1415572166442871e+00"/>
          <Range Index="6" Min="5.0004248619079590e+00" Max="9.9999694824218750e+01"/>
          <Range Index="7" Min="2.2000579833984375e+01" Max="6.9915594482421875e+02"/>
          <Range Index="8" Min="0.0000000000000000e+00" Max="2.4996630859375000e+02"/>
          <Range Index="9" Min="2.4634454727172852e+01" Max="3.9992547607421875e+02"/>
          <Range Index="10" Min="3.0729433894157410e-01" Max="2.9974560546875000e+02"/>
        </Ranges>
      </Class>
      <Class ClassIndex="2">
        <Ranges>
          <Range Index="0" Min="7.0801854133605957e-02" Max="3.2997906208038330e+00"/>
          <Range Index="1" Min="3.7890523672103882e-01" Max="4.9981708526611328e+00"/>
          <Range Index="2" Min="4.0006381273269653e-01" Max="4.9887595176696777e+00"/>
          <Range Index="3" Min="5.7572796940803528e-03" Max="5.9909644126892090e+00"/>
          <Range Index="4" Min="4.0003207325935364e-01" Max="3.1995322704315186e+00"/>
          <Range Index="5" Min="1.3856365512765478e-05" Max="3.1415786743164062e+00"/>
          <Range Index="6" Min="5.0004248619079590e+00" Max="9.9999694824218750e+01"/>
          <Range Index="7" Min="2.2000579833984375e+01" Max="6.9915594482421875e+02"/>
          <Range Index="8" Min="0.0000000000000000e+00" Max="2.4996630859375000e+02"/>
          <Range Index="9" Min="2.4634454727172852e+01" Max="3.9992547607421875e+02"/>
          <Range Index="10" Min="3.0729433894157410e-01" Max="2.9974560546875000e+02"/>
        </Ranges>
      </Class>
    </Transform>
  </Transformations>
  <MVAPdfs/>
  <Weights>
    <Layout NLayers="3">
      <Layer Index="0" NNeurons="12">
        <Neuron NSynapses="16">
          -1.2032773016482481e-01 -2.0643060233899022e-01 5.6233320632445716e-01 1.6722939520804971e+00 -1.5534687988585592e+00 -1.3466536272009426e+00 5.2911844750854686e-01 1.7904271307481694e+00 -1.4302637768934623e+00 -9.9986625510610838e-01 -1.5487220785006062e+00 -8.1612725366014005e-01 -1.4979271956855926e+00 -2.8054319923776855e-01 -1.4775341233035688e+00 8.7106174912158763e-01 
        </Neuron>
        <Neuron NSynapses="16">
          -3.3230733623774344e-01 1.3186269764804002e+00 -6.2461719601697052e-01 1.3980467892096846e+00 -4.2805452695306212e-01 -6.3238233320577208e-01 -1.6135968757640886e+00 1.3994721761602512e-02 -1.2718617920239539e+00 -3.8479478769205144e-01 1.3233148535163255e+00 -1.4547549724351683e+00 -1.8245088027157781e+00 2.2532744677957919e-01 1.5595176514453128e+00 1.6381562893572599e+00 
        </Neuron>
        <Neuron NSynapses="16">
          -9.5709071246557947e-02 4.5114654895172762e-01 -2.4762822897256281e-01 -3.4716159021693094e-01 -1.3470138527639028e+00 2.0684320809375931e+00 -6.5752002481871874e-01 8.7296229903437872e-01 1.0907486899007601e+00 8.5256245232657102e-01 1.7532950821275046e+00 6.7244713412979362e-01 2.7231163751993398e-01 -1.4960566890377420e+00 -4.1748675432441867e-01 -1.1248003028107575e-01 
        </Neuron>
        <Neuron NSynapses="16">
          1.5034870050290730e+00 1.2126583026443494e+00 1.1973403688119690e+00 1.3531353252176754e+00 -1.4478160462752898e+00 1.3818630584524727e+00 -8.3759385121716046e-01 -9.3105402656683178e-01 -1.3653167119584022e+00 -1.7509681178948135e+00 1.4221391053522399e+00 7.6174626166705750e-01 -9.8906303224323977e-01 2.0054082525759642e-01 -1.5395053977667534e+00 5.2284307255910734e-01 
        </Neuron>
        <Neuron NSynapses="16">
          1.9823523510242813e+00 -5.4695204730930180e-01 -1.1382819548753637e-01 -1.1735733286522176e+00 7.6831930484180144e-01 -7.7199382296165586e-01 2.3867363863725644e-01 -1.4742721582446170e+00 6.8855564397918156e-01 1.1312030698252973e+00 1.4498730878214121e+00 -1.5955715196723411e-01 -6.3443803548130007e-01 -1.8688770130725187e+00 7.9341842855540606e-02 1.8111436986689342e-01 
        </Neuron>
        <Neuron NSynapses="16">
          1.7683699009658671e+00 -3.1741061430975354e-01 9.0889820965264534e-01 -8.1753227515769711e-01 -6.0725696076720992e-01 -1.6930301123115138e-01 1.8487723803311137e-02 -1.2339394757366884e+00 -1.5326038611484074e+00 -1.4911044235807900e+00 -5.3198845350489010e-01 -2.5919346953810013e-01 2.2643041950897951e+00 -1.7945182403413420e+00 2.0724170107764364e+00 1.2925418147474759e+00 
        </Neuron>
        <Neuron NSynapses="16">
          -7.9966803661413022e-01 6.9920533399316886e-01 -1.3921109263775888e+00 3.2156961647567817e-02 -1.9192324128958114e+00 -1.6321936171190621e+00 8.1660794224387290e-01 1.6085253538305513e+00 -1.2871399719682053e+00 1.5293114926807814e+00 -8.0453236403830919e-01 -1.0871001697416249e+00 -9.8804703464517640e-02 4.0356388094857060e-01 -3.9261025823827866e-01 4.3955932593584041e-01 
        </Neuron>
        <Neuron NSynapses="16">
          3.5972649569092779e-01 -2.3998444082154644e+00 -1.1198358119167533e+00 1.8039921722423737e+00 5.1589744613102817e-01 -7.8743913575866664e-01 4.7466623932014080e+00 -1.0644475768334771e+00 -1.6535591928009268e+00 2.6827055482898865e-01 -8.0096725284007159e-02 1.3582068994951637e+00 1.0798404574166491e+00 -1.9141184103915621e-01 -6.0073411811932660e+00 1.6841466527818555e-01 
        </Neuron>
        <Neuron NSynapses="16">
          -1.6787631710927082e+00 -1.6600868901035601e-01 -2.8440875930093545e-01 -1.8396304900238754e+00 6.5940976679316843e-01 -1.2368702554423694e+00 1.1664237794247567e+00 1.0161241709090760e+00 1.7018229173662440e+00 -1.4898063122550975e+00 5.8472751815319080e-01 1.3629663139484609e+00 1.2364079503100922e+00 4.5427828012291838e-01 -6.6312532767912191e-01 -1.5442693098541024e-01 
        </Neuron>
        <Neuron NSynapses="16">
          -1.4809146963737745e+00 3.7121520484849251e+00 1.4072472958281246e+00 -4.5302077928936330e-01 -9.2627396647032900e-01 1.9047864274867377e-01 -7.1176531485824786e+00 6.5680753468910658e-01 1.6731536544699923e+00 -1.2247744991355376e+00 -4.5439250789611768e-01 4.1688151488010616e-01 1.1225391155036271e+00 3.7040047583500418e-01 3.7667978781219120e+00 -1.6808434358376876e+00 
        </Neuron>
        <Neuron NSynapses="16">
          1.4616669632429939e+00 1.2201677415521777e+00 1.6243611939228175e+00 5.6661691112391055e-01 7.8094347859305091e-01 -5.5932356095127711e-01 -1.4447251998513724e+00 1.1698702718717104e+00 -8.0813538430088494e-01 -1.0820993453520209e+00 1.8046680143142488e+00 9.7646838327104224e-01 -4.5509739518091491e-01 1.2377295455857455e+00 1.4761469927934143e+00 -2.0149995769405331e+00 
        </Neuron>
        <Neuron NSynapses="16">
          4.5693757194859108e-01 -2.2035275802310008e+00 -3.1609662178892350e-01 -1.6595871230804142e+00 -1.9044898205546186e+00 9.8307527428772290e-01 2.3663184672601254e+00 -1.8080510219592587e+00 -1.4986764257851745e-01 -5.3984612665247234e-01 -3.5624538946723089e-01 1.5960089663948980e+00 -8.2829715814524885e-01 -1.9372852668942608e-01 -6.5421234997381426e+00 1.0935647348730171e+00 
        </Neuron>
      </Layer>
      <Layer Index="1" NNeurons="17">
        <Neuron NSynapses="1">
          4.6954913322921656e-03 
        </Neuron>
        <Neuron NSynapses="1">
          -2.8717556967983582e-01 
        </Neuron>
        <Neuron NSynapses="1">
          -9.9071477650220854e-03 
        </Neuron>
        <Neuron NSynapses="1">
          1.2783925007657181e-05 
        </Neuron>
        <Neuron NSynapses="1">
          -9.2839825693695078e-03 
        </Neuron>
        <Neuron NSynapses="1">
          1.8125582735101422e-03 
        </Neuron>
        <Neuron NSynapses="1">
          -2.1109733735575942e-01 
        </Neuron>
        <Neuron NSynapses="1">
          1.3320368755524699e-03 
        </Neuron>
        <Neuron NSynapses="1">
          -7.0054736763024519e-04 
        </Neuron>
        <Neuron NSynapses="1">
          -3.4735370070857687e-03 
        </Neuron>
        <Neuron NSynapses="1">
          -8.8725528645819483e-03 
        </Neuron>
        <Neuron NSynapses="1">
          1.1100650446844365e-02 
        </Neuron>
        <Neuron NSynapses="1">
          -9.6215040100559590e-03 
        </Neuron>
        <Neuron NSynapses="1">
          1.3104252118900674e-03 
        </Neuron>
        <Neuron NSynapses="1">
          3.4796365166350463e-01 
        </Neuron>
        <Neuron NSynapses="1">
          -1.9899332869104938e-03 
        </Neuron>
        <Neuron NSynapses="1">
          2.5426427782591454e-01 
        </Neuron>
      </Layer>
      <Layer Index="2" NNeurons="1">
        <Neuron NSynapses="0"/>
      </Layer>
    </Layout>
  </Weights>
</MethodSetup>
